~o
<STREAMINFO> 1 39
<VECSIZE> 39<NULLD><MFCC_D_A_0><DIAGC>
~h "B"
<BEGINHMM>
<NUMSTATES> 5
<STATE> 2
<MEAN> 39
 -1.414523e+01 3.968862e+00 2.506257e+00 3.713673e+00 5.243433e+00 4.035867e+00 6.422554e+00 4.165315e+00 7.555839e+00 4.444510e+00 7.855858e+00 5.228497e+00 5.435778e+01 -3.729164e-02 -6.965696e-02 -6.671869e-02 -5.229057e-02 -8.817333e-02 -4.762753e-02 -3.114839e-02 -3.737812e-02 -6.839949e-02 -7.389977e-02 -6.103591e-02 -1.649225e-03 -9.233041e-03 -1.166190e-02 -2.129188e-02 -2.706831e-02 -1.543683e-02 -3.269764e-02 -2.934848e-02 6.271731e-03 6.372306e-04 -2.194685e-02 8.913035e-03 -1.146861e-02 -4.530871e-02 -1.458331e-03
<VARIANCE> 39
 1.860125e+00 3.011649e+00 3.242556e+00 5.141501e+00 3.975328e+00 4.211066e+00 6.069612e+00 6.245309e+00 1.086986e+01 8.367642e+00 1.096326e+01 7.845178e+00 6.052197e-01 3.662878e-02 9.589286e-02 2.727111e-01 3.176866e-01 2.827629e-01 5.074018e-01 5.758033e-01 6.152382e-01 1.009561e+00 8.593027e-01 1.205879e+00 5.642889e-01 1.713174e-02 7.048824e-03 2.228043e-02 6.137401e-02 5.483956e-02 5.628907e-02 1.186318e-01 1.298761e-01 1.312046e-01 2.129502e-01 1.887294e-01 3.003323e-01 1.227623e-01 3.898256e-03
<GCONST> 3.986296e+01
<STATE> 3
<MEAN> 39
 -1.537547e+01 9.816021e-01 -1.625106e+00 -4.023082e-01 2.665094e+00 1.823765e+00 3.634166e+00 -6.607751e-01 2.747899e+00 1.135870e+00 5.881268e+00 2.932691e+00 5.406324e+01 -1.368182e-02 -2.112049e-02 -4.968349e-02 -4.912514e-02 -4.830124e-02 1.649052e-02 5.327230e-04 5.111535e-02 5.310703e-02 8.983710e-02 -2.925148e-03 -3.480357e-02 -1.639349e-03 2.082956e-03 2.207948e-02 3.414712e-02 3.672788e-02 4.378266e-02 2.689976e-02 2.756530e-02 5.579569e-02 3.955567e-02 4.434355e-03 -4.787091e-05 1.184200e-03 9.308453e-06
<VARIANCE> 39
 1.198148e+00 2.509086e+00 6.337399e+00 4.779408e+00 7.097447e+00 9.072255e+00 7.361248e+00 1.048770e+01 1.158324e+01 8.165983e+00 9.950038e+00 9.359395e+00 6.052197e-01 9.777208e-02 2.395880e-01 4.987680e-01 6.199907e-01 6.465920e-01 7.272078e-01 9.174094e-01 1.349021e+00 1.432097e+00 9.366526e-01 1.226252e+00 1.042718e+00 4.224595e-02 1.922195e-02 5.313005e-02 1.097893e-01 1.409516e-01 1.357153e-01 1.413590e-01 1.907476e-01 2.873608e-01 3.032909e-01 1.941531e-01 2.722527e-01 2.381713e-01 8.140965e-03
<GCONST> 5.689610e+01
<STATE> 4
<MEAN> 39
 -1.682759e+01 1.003880e+00 1.784639e-01 1.797418e+00 3.502221e+00 2.071810e+00 4.627489e+00 2.039722e+00 4.900680e+00 1.844078e+00 4.877819e+00 1.510107e+00 5.328006e+01 -1.665927e-03 -4.914049e-03 -1.321284e-03 -8.587291e-04 -5.515246e-04 -1.272610e-02 -9.895568e-03 -3.051115e-04 -8.671498e-03 -4.264996e-03 -8.614285e-03 -1.629568e-02 -1.531092e-03 1.891057e-03 -3.043596e-03 -6.873876e-03 -7.324180e-03 -1.405641e-03 1.577027e-03 -5.549307e-03 -1.219333e-02 -6.495972e-03 -7.239769e-03 -4.808676e-03 -1.666799e-03 1.640431e-03
<VARIANCE> 39
 6.152612e-01 1.359301e+00 2.365117e+00 3.675830e+00 4.870896e+00 6.237123e+00 6.826632e+00 7.784578e+00 9.533023e+00 9.578392e+00 9.258586e+00 7.707640e+00 6.052197e-01 6.178517e-02 1.410805e-01 2.782838e-01 4.367951e-01 5.935852e-01 7.307666e-01 7.602417e-01 8.866041e-01 1.098622e+00 1.175681e+00 1.104781e+00 8.563927e-01 2.136966e-02 1.227716e-02 2.742416e-02 5.638341e-02 8.844493e-02 1.250623e-01 1.533607e-01 1.612088e-01 1.842799e-01 2.268157e-01 2.484833e-01 2.389488e-01 1.815201e-01 4.924335e-03
<GCONST> 4.550780e+01
<TRANSP> 5
 0.000000e+00 1.000000e+00 0.000000e+00 0.000000e+00 0.000000e+00
 0.000000e+00 9.105506e-01 8.944939e-02 0.000000e+00 0.000000e+00
 0.000000e+00 0.000000e+00 9.286712e-01 7.132870e-02 0.000000e+00
 0.000000e+00 0.000000e+00 0.000000e+00 9.878149e-01 1.218511e-02
 0.000000e+00 0.000000e+00 0.000000e+00 0.000000e+00 0.000000e+00
<ENDHMM>
~h "p"
<BEGINHMM>
<NUMSTATES> 5
<STATE> 2
<MEAN> 39
 -1.647434e+01 1.221619e+00 -7.990068e-01 6.472335e-01 2.756091e+00 1.011474e+00 3.872903e+00 1.990848e+00 4.385162e+00 1.614276e+00 5.115486e+00 1.810764e+00 5.342588e+01 -8.376083e-02 -2.401155e-02 -2.058224e-01 -4.416890e-01 -4.162647e-01 -9.288585e-02 -2.776668e-01 -7.355367e-02 -3.065543e-01 -6.112086e-01 -3.512416e-01 -9.151109e-02 -4.016699e-02 5.017383e-01 -3.361422e-02 -2.925799e-01 -1.940121e-01 1.894943e-01 1.816980e-01 -7.470678e-01 -8.372368e-01 -3.562938e-01 -4.300990e-01 -4.174567e-01 -1.120097e-01 7.865272e-01
<VARIANCE> 39
 1.010111e+00 1.992218e+00 4.262024e+00 6.446802e+00 7.965261e+00 8.792422e+00 1.167118e+01 9.013779e+00 1.588620e+01 9.680844e+00 1.018326e+01 1.391786e+01 6.052197e-01 9.717848e-02 3.432228e-01 4.593169e-01 4.373433e-01 4.618254e-01 6.742658e-01 1.325389e+00 7.139334e-01 1.288491e+00 1.126952e+00 9.139618e-01 1.300145e+00 2.926222e-02 7.191098e-02 5.082851e-02 1.871826e-01 1.819631e-01 2.275524e-01 2.690729e-01 3.504598e-01 1.833603e-01 3.312756e-01 2.095549e-01 2.484565e-01 3.816405e-01 2.400414e-01
<GCONST> 6.388901e+01
<STATE> 3
<MEAN> 39
 -1.608863e+01 1.301508e+00 -8.521378e-01 -2.979942e-01 1.783736e+00 4.930529e-01 3.421207e+00 9.952938e-01 3.481931e+00 -5.965910e-02 2.853769e+00 -1.909700e-02 5.371112e+01 2.067856e+00 -1.669103e-01 -1.251875e+00 -8.474837e-01 8.950433e-01 5.774170e-01 -3.389258e+00 -3.286328e+00 -1.210798e+00 -1.475477e+00 -1.010036e+00 3.097701e-01 3.578514e+00 1.818133e-01 -3.071955e-01 3.581557e-01 4.677124e-01 2.454863e-01 -1.307734e-01 -5.817383e-01 -2.460665e-01 -6.861188e-03 -3.955140e-01 2.623549e-02 3.414953e-01 1.355268e+00
<VARIANCE> 39
 1.247477e+00 1.111510e+00 2.607552e+00 5.261748e+00 5.960761e+00 6.469326e+00 5.742462e+00 8.651834e+00 8.780343e+00 6.979648e+00 6.659529e+00 4.160768e+00 6.052197e-01 2.953294e-01 2.841930e-01 1.181131e+00 1.344746e+00 1.067921e+00 1.664410e+00 2.263088e+00 9.472768e-01 1.665460e+00 1.429998e+00 1.320894e+00 1.866610e+00 2.402134e+00 1.444813e-01 6.513467e-02 2.630177e-01 1.696919e-01 1.584113e-01 1.973341e-01 3.948084e-01 4.513940e-01 2.579663e-01 1.912199e-01 2.799863e-01 1.958160e-01 7.739293e-02
<GCONST> 6.964806e+01
<STATE> 4
<MEAN> 39
 -1.070071e+01 4.329700e-01 3.189960e+00 1.715255e+00 3.073899e+00 -1.323823e-01 -5.421336e+00 -5.799118e+00 5.335172e-01 -5.531506e+00 1.811926e+00 1.070419e+00 7.071819e+01 9.218923e-01 7.842104e-01 2.868942e+00 9.072289e-01 -1.198664e+00 -8.924994e-01 4.224733e-01 -5.359724e-01 3.508294e-01 -1.424374e-01 -1.385348e-01 -1.128013e+00 2.277539e+00 8.322392e-02 3.941680e-01 2.614745e-01 -1.174611e-01 -4.500507e-01 -1.735058e-01 6.160496e-01 -1.455418e-01 3.412843e-01 5.163450e-01 -8.769903e-02 -4.364442e-01 -6.493886e-01
<VARIANCE> 39
 1.581276e+01 1.668216e+01 6.897131e+01 2.168350e+01 1.907803e+01 1.911295e+01 3.310142e+01 3.764439e+01 1.598382e+01 1.218976e+01 1.211506e+01 2.523466e+01 1.137974e+01 2.416348e+00 3.466428e+00 3.237660e+00 1.757992e+00 2.083214e+00 1.773256e+00 6.234050e+00 5.806026e+00 1.618904e+00 2.928971e+00 1.621671e+00 2.578656e+00 4.153835e+00 5.337763e-01 4.911974e-01 1.550972e+00 5.394654e-01 3.399802e-01 4.056904e-01 1.457043e+00 1.758734e+00 2.653760e-01 3.473467e-01 4.476485e-01 3.371829e-01 4.075267e-01
<GCONST> 1.164576e+02
<TRANSP> 5
 0.000000e+00 1.000000e+00 0.000000e+00 0.000000e+00 0.000000e+00
 0.000000e+00 5.176865e-01 4.823135e-01 0.000000e+00 0.000000e+00
 0.000000e+00 0.000000e+00 5.131347e-01 4.868653e-01 0.000000e+00
 0.000000e+00 0.000000e+00 0.000000e+00 8.184849e-01 1.815151e-01
 0.000000e+00 0.000000e+00 0.000000e+00 0.000000e+00 0.000000e+00
<ENDHMM>
~h "aa"
<BEGINHMM>
<NUMSTATES> 5
<STATE> 2
<MEAN> 39
 -2.166035e+00 1.103735e+01 2.011472e+00 -3.625265e+00 1.260080e+00 7.116168e+00 6.849689e+00 8.714539e-01 6.220412e-01 -7.813199e+00 -1.084554e+00 -3.638671e-01 6.127689e+01 -7.577790e-01 -2.450625e-01 -2.712776e-01 6.766964e-01 4.577928e-01 -2.921643e-01 8.470305e-01 7.694713e-01 3.703498e-02 9.304246e-01 7.414202e-02 -5.944409e-01 -6.186317e-01 1.366395e-02 -1.747484e-01 -1.851698e-01 -3.308006e-01 -2.276900e-01 -1.788743e-02 -7.672240e-02 -1.482709e-02 1.727045e-01 1.248549e-02 1.027519e-01 1.279373e-01 5.804035e-02
<VARIANCE> 39
 4.386670e+00 1.243363e+00 4.399529e+00 1.165365e+01 7.580186e+00 4.523954e+00 7.851287e+00 8.564666e+00 6.414835e+00 8.857708e+00 7.456184e+00 9.542095e+00 2.232958e+00 2.088816e-01 3.496212e-01 2.489428e-01 5.571892e-01 6.634775e-01 4.184898e-01 4.662543e-01 8.291629e-01 9.543494e-01 7.951614e-01 8.122481e-01 6.237620e-01 4.089447e-02 1.514108e-02 3.453068e-02 6.679611e-02 9.053838e-02 8.450733e-02 9.060771e-02 1.789481e-01 2.241553e-01 1.416196e-01 1.601765e-01 1.661139e-01 1.192814e-01 7.461740e-03
<GCONST> 4.982735e+01
<STATE> 3
<MEAN> 39
 -6.404897e+00 8.295818e+00 -4.482257e-01 -4.022640e+00 -5.018572e-01 2.595659e+00 6.396616e+00 8.494651e-01 1.176403e-01 -5.149972e+00 -1.159272e+00 -2.762914e+00 5.843726e+01 -7.956508e-01 -5.217752e-01 -1.683981e-01 1.768488e-02 -2.090923e-01 -6.097779e-01 -4.294786e-01 -3.264913e-01 -1.702430e-01 1.058087e-01 -1.520901e-01 -4.003932e-01 -4.404203e-01 -4.105782e-03 -1.277868e-05 6.177187e-02 2.523712e-02 -2.439835e-02 1.864727e-02 -6.950310e-02 -2.799471e-02 6.331792e-03 -5.637775e-02 -1.738856e-02 3.814752e-02 1.532354e-02
<VARIANCE> 39
 5.449888e+00 4.079770e+00 4.083733e+00 6.512671e+00 1.000414e+01 9.878895e+00 1.367028e+01 1.446485e+01 1.263453e+01 8.015844e+00 8.704726e+00 7.708102e+00 1.634128e+00 8.899927e-02 4.146368e-01 4.783576e-01 4.229268e-01 7.813578e-01 5.931432e-01 8.664412e-01 1.343118e+00 1.423927e+00 1.167310e+00 1.194018e+00 7.876889e-01 3.323822e-02 1.576206e-02 6.668469e-02 7.766529e-02 8.369739e-02 1.506504e-01 1.229397e-01 2.169718e-01 3.177452e-01 2.951201e-01 3.019162e-01 2.842845e-01 1.426976e-01 5.329032e-03
<GCONST> 5.936840e+01
<STATE> 4
<MEAN> 39
 -1.232624e+01 4.616458e+00 2.535129e-01 -1.175484e+00 -5.873051e-02 -4.184803e-01 3.246602e+00 1.240226e-01 1.783119e+00 -1.875098e+00 1.030842e+00 -1.478728e+00 5.544517e+01 -3.370870e-01 -2.645173e-01 4.887715e-02 2.879907e-01 1.831140e-01 -4.951467e-02 -1.148909e-01 -3.881317e-02 1.265141e-01 2.276375e-01 2.235952e-01 1.856102e-01 -1.685338e-01 3.606883e-02 2.522091e-02 -3.717589e-03 -2.330309e-03 3.404376e-02 2.609215e-02 -1.898785e-02 -5.390225e-02 -5.950199e-02 -5.957989e-02 -2.069744e-02 -4.753486e-03 1.881480e-02
<VARIANCE> 39
 2.869863e+00 2.458549e+00 2.567437e+00 4.827623e+00 6.573527e+00 8.319874e+00 8.025103e+00 8.207010e+00 8.449748e+00 1.083595e+01 1.140211e+01 9.662732e+00 7.325669e-01 9.651212e-02 1.771723e-01 2.875892e-01 3.746585e-01 5.723477e-01 6.238453e-01 6.730887e-01 9.480796e-01 1.069331e+00 1.037723e+00 1.090225e+00 8.380097e-01 2.780138e-02 1.160872e-02 2.387595e-02 5.412401e-02 8.378493e-02 1.309046e-01 1.127453e-01 1.163528e-01 1.861422e-01 2.179237e-01 2.262034e-01 2.262088e-01 1.648923e-01 4.725462e-03
<GCONST> 4.861213e+01
<TRANSP> 5
 0.000000e+00 1.000000e+00 0.000000e+00 0.000000e+00 0.000000e+00
 0.000000e+00 7.813191e-01 2.186809e-01 0.000000e+00 0.000000e+00
 0.000000e+00 0.000000e+00 8.535240e-01 1.464761e-01 0.000000e+00
 0.000000e+00 0.000000e+00 0.000000e+00 9.012299e-01 9.877011e-02
 0.000000e+00 0.000000e+00 0.000000e+00 0.000000e+00 0.000000e+00
<ENDHMM>
~h "c0"
<BEGINHMM>
<NUMSTATES> 5
<STATE> 2
<MEAN> 39
 -1.184155e+01 4.791081e+00 1.944175e+00 1.877993e+00 3.364649e+00 2.407587e+00 3.272627e+00 -7.585049e-03 3.007325e+00 7.747158e-02 3.839845e+00 1.095907e+00 5.586724e+01 -3.439602e-01 -3.671632e-01 -4.547158e-01 -1.714448e-01 -8.841492e-03 -4.880019e-02 3.891034e-01 3.678451e-01 2.660621e-01 5.041040e-01 9.785895e-02 -2.704484e-02 -2.196427e-01 9.668490e-02 -3.723891e-01 -7.048404e-02 -6.970323e-01 -3.211184e-01 -1.053513e-01 -4.885311e-01 -3.871350e-01 -2.945316e-01 -2.347105e-01 -5.443286e-02 -1.196507e-01 4.293328e-01
<VARIANCE> 39
 3.065636e+01 1.817829e+01 8.557961e+00 6.442191e+00 6.822709e+00 5.688528e+00 1.160538e+01 1.811418e+01 1.347147e+01 1.186082e+01 9.039128e+00 1.157695e+01 8.640564e+00 2.345889e-01 2.863730e-01 4.960926e-01 5.645560e-01 8.616960e-01 7.826460e-01 9.919527e-01 9.296199e-01 1.080321e+00 1.060832e+00 1.183254e+00 9.598471e-01 9.956767e-02 4.814149e-02 1.651268e-01 1.252028e-01 3.448561e-01 1.689162e-01 1.530594e-01 2.895338e-01 3.160467e-01 2.773579e-01 3.074737e-01 2.365989e-01 1.994335e-01 1.935162e-01
<GCONST> 7.522475e+01
<STATE> 3
<MEAN> 39
 -1.361894e+01 3.214117e+00 8.959916e-01 1.181925e+00 3.381027e+00 2.360967e+00 4.015074e+00 4.848747e-01 3.777205e+00 3.421577e-01 3.680876e+00 1.331161e+00 5.505965e+01 1.286854e-01 -1.554669e+00 -3.206561e-01 -2.504193e+00 -9.251689e-01 -1.283261e-01 -1.184510e+00 -7.340179e-01 -5.341145e-01 -3.732204e-02 -1.198452e-02 -3.350450e-01 1.522249e+00 -1.824772e-01 -3.391743e-01 1.717868e-01 -9.323137e-01 -4.564509e-01 -1.532522e-01 -7.490860e-01 -4.799209e-01 -3.858359e-01 -2.021423e-01 1.648246e-02 -2.329324e-01 8.462589e-01
<VARIANCE> 39
 2.287147e+01 1.467778e+01 5.721304e+00 5.457294e+00 6.858201e+00 7.112073e+00 1.207879e+01 1.877733e+01 1.435218e+01 9.536995e+00 1.021310e+01 9.864482e+00 6.092659e+00 7.526836e-01 1.424189e+00 1.388527e+00 4.636743e+00 1.521962e+00 1.437203e+00 2.078116e+00 2.943641e+00 1.872302e+00 2.196280e+00 1.575470e+00 1.440472e+00 3.155344e+00 1.018681e-01 1.544555e-01 1.132360e-01 5.766739e-01 2.508810e-01 1.981104e-01 2.143007e-01 3.650582e-01 2.619431e-01 3.370506e-01 3.835349e-01 2.284184e-01 4.067969e-01
<GCONST> 9.130082e+01
<STATE> 4
<MEAN> 39
 -7.381208e+00 1.996031e-01 -6.022450e-01 -1.322052e+01 -4.704438e+00 4.203860e+00 2.814142e+00 -5.003307e+00 2.089337e+00 6.782991e-01 7.486439e-01 3.148134e-01 6.891335e+01 1.111110e+00 -9.136585e-02 -9.328020e-02 -8.872954e-01 -1.018504e+00 -2.362283e-01 2.493480e-03 -1.660408e-02 -5.629622e-01 -6.568794e-01 -3.705844e-01 -2.831668e-01 1.124238e+00 -9.516218e-02 1.664105e-01 1.326147e-01 4.494036e-01 2.021334e-01 -1.168056e-01 -1.053540e-01 1.229410e-01 2.455541e-02 -1.957322e-01 9.486041e-02 8.239039e-02 -2.481723e-01
<VARIANCE> 39
 1.180332e+02 2.902985e+01 1.931625e+01 6.852370e+01 5.130331e+01 2.056726e+01 5.866232e+01 3.657412e+01 1.334798e+01 2.742413e+01 3.531553e+01 2.153687e+01 5.836245e+01 7.945745e+00 2.300043e+00 1.756573e+00 7.763076e+00 4.037646e+00 2.874677e+00 7.171689e+00 3.601136e+00 1.811001e+00 3.377611e+00 3.934284e+00 1.865427e+00 4.993466e+00 1.424333e+00 2.831827e-01 3.316481e-01 1.005289e+00 9.081709e-01 5.238618e-01 1.043170e+00 6.042406e-01 3.818629e-01 5.804920e-01 8.781179e-01 3.802981e-01 3.876441e-01
<GCONST> 1.281127e+02
<TRANSP> 5
 0.000000e+00 1.000000e+00 0.000000e+00 0.000000e+00 0.000000e+00
 0.000000e+00 1.102815e-01 8.897185e-01 0.000000e+00 0.000000e+00
 0.000000e+00 0.000000e+00 3.310346e-01 6.689654e-01 0.000000e+00
 0.000000e+00 0.000000e+00 0.000000e+00 6.668842e-01 3.331158e-01
 0.000000e+00 0.000000e+00 0.000000e+00 0.000000e+00 0.000000e+00
<ENDHMM>
~h "ee"
<BEGINHMM>
<NUMSTATES> 5
<STATE> 2
<MEAN> 39
 3.313624e+00 3.302681e+00 8.706122e-01 -1.412679e+01 -9.486511e+00 1.038066e+01 -6.466533e-01 -1.507773e+01 4.048435e+00 -4.500947e+00 4.126633e+00 9.153174e+00 7.083907e+01 -2.195715e-01 6.508479e-01 3.318492e-01 4.217146e-01 3.428675e-01 7.081789e-01 5.529140e-01 9.440482e-01 5.215248e-01 -1.346637e-01 -6.537421e-01 3.316961e-04 -1.018525e+00 -6.122101e-01 4.761005e-01 3.937021e-01 8.002412e-01 9.116127e-01 -7.476640e-01 -3.239868e-01 3.565081e-01 -3.246678e-01 -2.197366e-02 -2.100167e-01 -5.097994e-01 -3.412188e-01
<VARIANCE> 39
 6.234005e+00 1.464405e+01 9.564983e+00 3.723084e+01 2.504514e+01 3.268071e+01 8.897266e+00 4.201172e+01 1.232815e+01 1.245581e+01 1.006179e+01 1.669829e+01 1.607110e+01 5.152621e-01 1.133769e+00 8.155254e-01 2.588855e+00 2.676262e+00 2.272800e+00 7.577252e-01 1.449540e+00 2.026709e+00 8.722273e-01 7.523953e-01 1.131665e+00 3.679926e-01 2.473234e-01 1.477143e-01 1.418184e-01 2.911833e-01 3.028250e-01 3.834010e-01 1.475226e-01 2.180420e-01 5.208061e-01 3.446748e-01 3.655544e-01 2.654359e-01 4.363494e-02
<GCONST> 8.988222e+01
<STATE> 3
<MEAN> 39
 4.947922e-01 8.751690e+00 3.612145e+00 -5.772982e+00 -2.837321e+00 5.813556e+00 -9.045722e-01 -8.325356e+00 1.863734e+00 -6.533594e+00 2.272711e+00 6.744550e+00 6.503416e+01 -1.007353e+00 1.442440e+00 1.256269e+00 3.106207e+00 2.289928e+00 -2.213966e+00 -7.096567e-01 1.628830e+00 -1.398468e+00 -7.421632e-01 1.852552e-01 -1.628508e+00 -1.501546e+00 -2.081586e-02 -2.469924e-01 1.084287e-03 -4.022372e-02 -7.106857e-02 -2.393220e-02 -9.250948e-02 -2.129376e-01 1.845841e-02 8.368060e-02 1.432877e-01 -1.819773e-01 1.652254e-01
<VARIANCE> 39
 7.896212e+00 7.734007e+00 5.591680e+00 3.289833e+01 1.894430e+01 3.884675e+01 1.644284e+01 2.436611e+01 1.042229e+01 7.862225e+00 1.008349e+01 2.032275e+01 9.357161e+00 1.592317e-01 6.347131e-01 6.579248e-01 2.336269e+00 1.402882e+00 1.699629e+00 9.600382e-01 1.312557e+00 1.245453e+00 1.044537e+00 7.090174e-01 2.157060e+00 2.296056e-01 3.056378e-02 1.003667e-01 1.268481e-01 4.163122e-01 3.094159e-01 4.322931e-01 2.163182e-01 2.350796e-01 3.188400e-01 1.750677e-01 1.753037e-01 2.332100e-01 3.315149e-02
<GCONST> 8.080967e+01
<STATE> 4
<MEAN> 39
 -1.730398e+00 1.095506e+01 5.806401e+00 3.757715e-01 2.074865e+00 2.682734e+00 -2.391273e+00 -6.867296e+00 -7.675093e-01 -6.117435e+00 3.645598e+00 3.130350e+00 6.205250e+01 -7.157269e-01 8.813913e-02 -3.670613e-02 8.477692e-01 6.882072e-01 -3.187226e-01 2.877738e-01 4.248340e-01 -1.230548e-01 6.894249e-01 1.040624e-01 -5.007620e-01 -7.122259e-01 7.098924e-03 -2.353636e-01 -2.323592e-01 -3.585173e-01 -2.999280e-01 2.055824e-01 1.827784e-01 -8.367038e-02 2.062740e-01 1.968359e-01 -2.268010e-02 1.953021e-01 9.679226e-02
<VARIANCE> 39
 5.307059e+00 3.571472e+00 4.680772e+00 8.420778e+00 7.237511e+00 1.214967e+01 1.301708e+01 1.491118e+01 9.430891e+00 9.686415e+00 1.004306e+01 1.406007e+01 4.264718e+00 1.521393e-01 3.216428e-01 5.943093e-01 9.391508e-01 1.039050e+00 9.528606e-01 9.431214e-01 7.627239e-01 1.005219e+00 1.000165e+00 7.936584e-01 1.155460e+00 6.119791e-02 2.368104e-02 5.851657e-02 8.971597e-02 1.888943e-01 1.497526e-01 2.640028e-01 1.720171e-01 2.098304e-01 2.075267e-01 1.999866e-01 1.395756e-01 2.155406e-01 1.760730e-02
<GCONST> 6.420238e+01
<TRANSP> 5
 0.000000e+00 1.000000e+00 0.000000e+00 0.000000e+00 0.000000e+00
 0.000000e+00 6.869422e-01 3.130578e-01 0.000000e+00 0.000000e+00
 0.000000e+00 0.000000e+00 5.104635e-01 4.895366e-01 0.000000e+00
 0.000000e+00 0.000000e+00 0.000000e+00 7.822230e-01 2.177770e-01
 0.000000e+00 0.000000e+00 0.000000e+00 0.000000e+00 0.000000e+00
<ENDHMM>
~h "hh"
<BEGINHMM>
<NUMSTATES> 5
<STATE> 2
<MEAN> 39
 1.527226e+00 1.508829e+00 4.191490e+00 -2.804966e+00 -3.248166e+00 5.923567e+00 -5.900928e+00 -9.472596e+00 6.946962e+00 -5.285258e+00 -3.745016e+00 9.443310e-01 7.347687e+01 1.407761e-01 -1.324964e-01 -3.118518e-01 2.936430e-01 -2.175691e-01 -4.982009e-01 -3.496786e-01 2.350052e-01 1.275136e+00 3.190943e-02 -5.308463e-01 1.860382e-01 -8.132621e-02 -9.153283e-02 4.394566e-02 2.299753e-02 4.966734e-02 8.566166e-02 -4.419618e-02 -7.392104e-02 8.809592e-03 7.985085e-02 -8.734123e-02 7.737452e-02 6.810962e-02 -3.592124e-02
<VARIANCE> 39
 5.700305e+00 1.023387e+01 8.240394e+00 2.420137e+01 3.457356e+01 1.783957e+01 2.176032e+01 4.992829e+01 1.521472e+02 2.670759e+01 2.128653e+01 1.583476e+01 7.135351e+00 7.950597e-01 9.524159e-01 5.655924e-01 1.745389e+00 3.467932e+00 1.279678e+00 1.479101e+00 4.767043e+00 5.077528e+00 2.973864e+00 1.616742e+00 9.228771e-01 5.580697e-01 1.536698e-01 2.393396e-01 1.297770e-01 3.214288e-01 5.806749e-01 1.938934e-01 3.204672e-01 9.454188e-01 6.946636e-01 4.780782e-01 3.333578e-01 2.167168e-01 9.552042e-02
<GCONST> 1.002968e+02
<STATE> 3
<MEAN> 39
 2.208441e+00 4.016570e+00 2.483316e+00 9.137387e-01 -5.417457e+00 -2.939047e+00 -9.105912e+00 -5.851123e+00 1.525471e+01 -1.175611e+01 -5.699293e+00 5.943462e+00 7.057426e+01 -1.844983e-01 1.347489e+00 3.272431e-01 3.004522e-01 1.419157e+00 -3.646198e-01 3.732059e-01 7.708904e-01 -1.743439e+00 -3.800913e-02 1.093120e+00 3.636301e-01 -1.425832e+00 -4.366370e-02 3.909798e-02 4.558897e-02 4.855513e-02 1.600643e-01 1.813318e-02 4.677532e-02 1.288374e-01 -1.631003e-01 3.924044e-01 4.549460e-02 -3.211022e-01 -8.385102e-02
<VARIANCE> 39
 1.203795e+00 1.198075e+01 4.286729e+00 4.032938e+00 2.049378e+01 1.128737e+01 7.468189e+00 1.593528e+01 2.699097e+01 8.261041e+00 1.411111e+01 1.130225e+01 1.055041e+01 1.490009e-01 6.637679e-01 2.840424e-01 6.259893e-01 1.389707e+00 4.509892e-01 8.350457e-01 1.021710e+00 1.844395e+00 1.880611e+00 1.045427e+00 1.628271e+00 2.020859e-01 4.266807e-02 2.178207e-01 6.938287e-02 1.150584e-01 3.431346e-01 9.012301e-02 1.608214e-01 1.888216e-01 4.354506e-01 2.261526e-01 3.090852e-01 1.851504e-01 8.251918e-02
<GCONST> 7.161131e+01
<STATE> 4
<MEAN> 39
 -1.322123e+00 8.870743e+00 4.737528e+00 4.682871e+00 1.340495e+00 -7.211063e+00 -8.071387e+00 -1.470309e+00 7.035400e+00 -6.545904e+00 -2.620809e+00 2.051342e+00 6.254367e+01 -6.439335e-01 1.985407e-01 7.795865e-02 1.098326e-01 1.777501e-01 -5.458589e-02 3.876729e-01 4.642059e-02 -8.670137e-01 6.516102e-01 2.125892e-01 -4.623329e-01 -6.811931e-01 -4.752212e-02 -1.034121e-01 -9.688994e-02 -1.417081e-01 -1.278028e-01 9.814148e-02 2.470508e-02 -1.274431e-01 7.917030e-02 -6.115256e-02 -4.433466e-02 2.950276e-02 6.531604e-02
<VARIANCE> 39
 8.664505e+00 2.872272e+00 5.412286e+00 6.049283e+00 7.395174e+00 8.917899e+00 1.164728e+01 7.669065e+00 1.322755e+01 1.965517e+01 1.021988e+01 1.292497e+01 5.882102e+00 6.837668e-02 3.640308e-01 5.786306e-01 7.298179e-01 7.037376e-01 8.825580e-01 9.817207e-01 9.225557e-01 1.755310e+00 1.783702e+00 1.365103e+00 1.118306e+00 8.587424e-02 1.640121e-02 3.043725e-02 8.306252e-02 1.150695e-01 1.186168e-01 1.640473e-01 1.845714e-01 1.601419e-01 3.958888e-01 3.594605e-01 3.011235e-01 2.485200e-01 8.399454e-03
<GCONST> 6.422067e+01
<TRANSP> 5
 0.000000e+00 1.000000e+00 0.000000e+00 0.000000e+00 0.000000e+00
 0.000000e+00 9.446797e-01 5.532030e-02 0.000000e+00 0.000000e+00
 0.000000e+00 0.000000e+00 8.395578e-01 1.604422e-01 0.000000e+00
 0.000000e+00 0.000000e+00 0.000000e+00 8.413798e-01 1.586202e-01
 0.000000e+00 0.000000e+00 0.000000e+00 0.000000e+00 0.000000e+00
<ENDHMM>
~h "ii"
<BEGINHMM>
<NUMSTATES> 5
<STATE> 2
<MEAN> 39
 -7.114610e+00 5.205458e+00 1.024058e+01 2.087828e+00 -3.709006e+00 -3.608580e+00 -6.850517e-01 -1.137980e+01 4.179396e+00 -1.227228e+00 -7.598476e-01 -5.925051e+00 7.029135e+01 4.542749e-01 -8.685384e-03 2.371779e-01 -1.905664e-01 -6.599218e-01 -5.868619e-01 1.032869e-01 -1.928175e+00 5.740548e-01 4.559079e-01 -9.643440e-01 -6.008708e-01 3.346468e-01 -3.466004e-01 -3.379745e-01 -2.293596e-01 8.726053e-02 4.489204e-01 1.588604e-01 7.346936e-02 5.535952e-01 -9.089985e-02 -2.107375e-01 7.820590e-02 4.766895e-01 -1.446166e-01
<VARIANCE> 39
 1.593424e+01 4.018117e+00 3.467214e+01 6.197714e+00 1.504226e+01 7.519673e+00 5.644464e+00 4.077755e+01 1.130571e+01 5.012484e+00 9.579738e+00 2.186791e+01 7.107611e+01 6.208720e-01 4.569806e-01 4.827960e-01 4.449940e-01 7.994235e-01 6.263379e-01 8.662360e-01 2.210207e+00 1.327196e+00 7.621363e-01 1.087511e+00 9.544978e-01 2.566390e-01 9.430736e-02 1.859735e-01 2.166886e-01 8.492646e-02 9.412543e-02 1.666156e-01 1.457036e-01 3.086901e-01 2.186148e-01 1.397968e-01 1.480540e-01 1.236894e-01 2.309475e-02
<GCONST> 7.431656e+01
<STATE> 3
<MEAN> 39
 -5.914601e+00 4.719554e+00 1.161290e+01 1.687643e+00 -3.738019e+00 -5.302539e+00 8.539810e-02 -1.399512e+01 5.695388e+00 -1.552041e+00 -3.220873e+00 -5.798138e+00 7.184776e+01 -4.933614e-03 -5.395252e-02 -1.503637e-01 -2.061464e-01 5.669462e-01 -4.666320e-01 -3.708787e-01 5.548553e-01 1.083808e-01 -4.104647e-01 -2.835568e-01 5.588900e-01 6.832302e-02 -8.663063e-02 1.239375e-01 -1.558481e-01 1.116382e-02 3.572031e-01 4.923140e-02 -3.424746e-01 4.493073e-01 6.410223e-02 -2.074200e-01 8.592816e-02 1.229895e-01 6.028678e-03
<VARIANCE> 39
 1.585371e+01 4.533361e+00 3.377404e+01 4.884397e+00 1.723462e+01 1.117752e+01 4.854064e+00 4.211396e+01 1.467112e+01 5.551373e+00 1.182740e+01 1.501715e+01 6.030444e+01 1.659054e-01 2.550854e-01 4.176421e-01 3.310759e-01 5.228424e-01 7.200502e-01 1.243474e+00 1.010358e+00 6.596014e-01 1.022368e+00 6.390725e-01 5.669000e-01 1.192590e-01 3.684658e-02 5.756152e-02 1.217011e-01 5.998135e-02 9.305437e-02 1.321983e-01 2.454037e-01 1.941003e-01 1.864643e-01 1.434372e-01 9.586949e-02 1.103205e-01 2.027051e-02
<GCONST> 6.530512e+01
<STATE> 4
<MEAN> 39
 -8.098701e+00 4.518461e+00 7.399799e+00 1.518509e+00 6.626784e-01 -5.919406e+00 -1.709394e+00 -7.480262e+00 4.898897e+00 -4.188669e+00 -3.294021e+00 -1.785969e+00 6.873663e+01 -5.429104e-01 6.134542e-01 -8.150703e-01 -2.158333e-01 1.944382e+00 1.284305e-01 -1.624401e+00 1.300808e+00 4.330151e-01 -7.302221e-01 -1.426129e-01 3.100897e-01 -2.078631e-02 -2.817945e-01 3.072523e-01 -1.355064e-01 -2.581376e-01 3.607089e-01 5.489261e-01 -7.690907e-02 1.482294e-02 -3.776103e-04 3.377178e-01 3.207906e-01 -4.717607e-01 -1.170155e-01
<VARIANCE> 39
 2.883168e+01 6.045655e+00 3.121537e+01 4.340400e+00 1.304802e+01 3.173495e+01 2.629078e+01 3.896094e+01 1.671365e+01 1.126946e+01 2.212230e+01 7.496277e+00 1.137727e+02 2.672566e-01 6.069143e-01 1.289604e+00 4.836947e-01 1.622320e+00 1.109137e+00 3.652645e+00 1.178126e+00 8.749461e-01 1.236973e+00 6.877139e-01 9.851678e-01 1.517036e-01 1.041776e-01 1.191973e-01 1.631705e-01 1.201430e-01 1.882648e-01 2.599279e-01 2.840436e-01 2.707532e-01 2.692237e-01 2.703060e-01 2.264965e-01 1.849937e-01 3.679744e-02
<GCONST> 8.434980e+01
<TRANSP> 5
 0.000000e+00 1.000000e+00 0.000000e+00 0.000000e+00 0.000000e+00
 0.000000e+00 5.561463e-01 4.438536e-01 0.000000e+00 0.000000e+00
 0.000000e+00 0.000000e+00 6.660064e-01 3.339936e-01 0.000000e+00
 0.000000e+00 0.000000e+00 0.000000e+00 3.141341e-01 6.858659e-01
 0.000000e+00 0.000000e+00 0.000000e+00 0.000000e+00 0.000000e+00
<ENDHMM>
~h "ng"
<BEGINHMM>
<NUMSTATES> 5
<STATE> 2
<MEAN> 39
 -6.963470e+00 8.002754e+00 9.045513e+00 5.716130e+00 3.025195e+00 4.210822e-01 -1.774378e+00 -3.032242e+00 3.296789e+00 -5.419891e+00 -2.879297e+00 -1.169416e+00 5.971865e+01 -8.698672e-01 -9.994686e-02 -6.887923e-01 2.403874e-01 4.791782e-01 -7.556779e-02 5.705269e-01 5.090190e-01 -5.954407e-01 1.448530e-01 2.617406e-01 -3.031838e-01 -8.889794e-01 2.564419e-02 -1.768898e-01 -1.731181e-01 -3.220745e-01 -3.083401e-01 -1.511162e-01 -1.253139e-01 -1.558432e-01 4.552402e-02 6.514744e-02 -2.828686e-02 2.259794e-02 1.124044e-01
<VARIANCE> 39
 9.418474e+00 7.176915e+00 2.343922e+01 7.146889e+00 8.946477e+00 1.622859e+01 3.006450e+01 1.557265e+01 9.989934e+00 1.057928e+01 1.305692e+01 1.308532e+01 8.278296e+00 2.138460e-01 6.035933e-01 4.742757e-01 7.778429e-01 1.303361e+00 1.027810e+00 1.263792e+00 1.583762e+00 1.087882e+00 9.339738e-01 8.719752e-01 7.792547e-01 2.193596e-01 2.074105e-02 5.885292e-02 8.573174e-02 1.054513e-01 1.645261e-01 1.745056e-01 1.619319e-01 2.012570e-01 2.020642e-01 1.983101e-01 1.907206e-01 2.170787e-01 1.310292e-02
<GCONST> 7.098280e+01
<STATE> 3
<MEAN> 39
 -9.592058e+00 7.104332e+00 5.069043e+00 3.822181e+00 1.651645e+00 -3.794613e+00 -4.144467e+00 -5.470786e+00 -1.286780e+00 -6.681669e+00 -3.828547e+00 -3.854982e+00 5.706287e+01 -5.376143e-01 -3.092748e-01 -4.315289e-01 -2.264747e-01 -7.740852e-02 -1.390867e-02 9.083305e-02 -3.164885e-01 -4.819401e-01 1.330006e-02 1.692334e-01 -7.400708e-02 -3.816756e-01 2.738748e-02 -5.356108e-03 4.513829e-02 3.290184e-02 5.530810e-02 1.238815e-01 8.615305e-02 1.040917e-01 1.546057e-01 1.248888e-01 1.670580e-01 1.966639e-01 4.458150e-02
<VARIANCE> 39
 4.139469e+00 4.698486e+00 9.159465e+00 6.422625e+00 5.541213e+00 2.152164e+01 2.124304e+01 1.667468e+01 1.238637e+01 1.178063e+01 1.123871e+01 1.122979e+01 2.090065e+00 1.668569e-01 3.430040e-01 6.468248e-01 5.982503e-01 5.599138e-01 8.321054e-01 8.007032e-01 1.064202e+00 9.713225e-01 9.862745e-01 9.784805e-01 1.321218e+00 8.150408e-02 2.020766e-02 4.646522e-02 9.725279e-02 1.231836e-01 1.106565e-01 1.399139e-01 1.509348e-01 1.875935e-01 1.782628e-01 1.703105e-01 1.691686e-01 1.951634e-01 1.113529e-02
<GCONST> 6.237117e+01
<STATE> 4
<MEAN> 39
 -1.316387e+01 4.861800e+00 2.740923e+00 2.655702e+00 1.980618e+00 -1.521577e+00 -3.432882e-01 -3.546620e+00 -7.677673e-01 -3.931570e+00 -4.285063e-01 -2.385420e+00 5.497794e+01 -2.664085e-01 -2.475757e-01 -2.196833e-01 -1.514139e-01 6.148362e-02 2.656856e-01 3.551778e-01 3.362903e-01 2.874754e-01 3.630597e-01 3.076190e-01 1.582123e-01 -1.274129e-01 2.277283e-02 3.930169e-04 -2.089687e-03 -5.507324e-03 5.886194e-03 6.595392e-03 -1.000785e-02 9.710798e-03 3.873675e-02 1.380214e-03 -3.261316e-02 -2.018463e-02 1.382136e-02
<VARIANCE> 39
 2.658700e+00 3.088784e+00 4.314039e+00 4.740681e+00 5.164793e+00 1.041702e+01 1.227556e+01 1.158302e+01 1.062487e+01 1.233224e+01 1.130660e+01 1.030272e+01 7.653577e-01 9.160928e-02 1.661493e-01 3.245449e-01 4.027731e-01 4.747433e-01 6.776466e-01 8.930538e-01 9.544781e-01 9.374425e-01 1.174446e+00 9.969988e-01 1.050022e+00 2.741038e-02 1.404917e-02 2.671018e-02 5.865784e-02 7.841662e-02 1.060349e-01 1.351346e-01 1.775744e-01 2.077955e-01 1.822987e-01 2.396993e-01 1.983515e-01 2.113259e-01 4.229684e-03
<GCONST> 5.155782e+01
<TRANSP> 5
 0.000000e+00 1.000000e+00 0.000000e+00 0.000000e+00 0.000000e+00
 0.000000e+00 6.318758e-01 3.681242e-01 0.000000e+00 0.000000e+00
 0.000000e+00 0.000000e+00 7.213169e-01 2.786831e-01 0.000000e+00
 0.000000e+00 0.000000e+00 0.000000e+00 8.871711e-01 1.128289e-01
 0.000000e+00 0.000000e+00 0.000000e+00 0.000000e+00 0.000000e+00
<ENDHMM>
~h "nn"
<BEGINHMM>
<NUMSTATES> 5
<STATE> 2
<MEAN> 39
 -1.096619e+01 6.013891e+00 1.849480e+00 2.420589e-01 -1.740518e-01 -3.199249e+00 -2.740080e+00 -6.382425e+00 -2.547127e+00 -3.012047e+00 2.486116e+00 6.443614e-01 5.608601e+01 -4.602560e-01 -3.074914e-01 -2.645240e-02 1.166968e-01 1.067044e-01 1.504439e-01 3.070384e-01 5.333643e-01 4.321715e-01 2.188270e-01 -6.481552e-03 -4.634009e-03 -2.311240e-01 2.888804e-02 3.356686e-03 -1.359684e-02 -9.453803e-03 2.691122e-02 6.156121e-02 5.588793e-02 3.790537e-02 5.850919e-02 5.109718e-02 5.692980e-02 4.382536e-02 1.705211e-02
<VARIANCE> 39
 3.853548e+00 2.862014e+00 3.346866e+00 4.498456e+00 5.169057e+00 7.524205e+00 1.155281e+01 1.490369e+01 1.255582e+01 1.190923e+01 1.133004e+01 8.855642e+00 1.100102e+00 1.221423e-01 1.741540e-01 3.466146e-01 4.204715e-01 5.485019e-01 7.477992e-01 8.339612e-01 7.266634e-01 8.672224e-01 1.248820e+00 1.414117e+00 9.573264e-01 4.327563e-02 2.158688e-02 3.266636e-02 7.235247e-02 9.262428e-02 1.163083e-01 1.636299e-01 1.739451e-01 1.696270e-01 2.002146e-01 2.652557e-01 3.057124e-01 1.768566e-01 7.723172e-03
<GCONST> 5.492056e+01
<STATE> 3
<MEAN> 39
 -1.471405e+01 2.812345e+00 4.816475e-01 6.489564e-01 1.300610e+00 -2.450398e-01 1.479277e+00 -1.818463e+00 1.495781e+00 -8.834558e-01 2.880718e+00 6.220098e-01 5.433724e+01 -2.267128e-01 -2.152109e-01 -1.170152e-01 4.743716e-02 2.037151e-01 2.115995e-01 3.818376e-01 3.391685e-01 2.319669e-01 8.734693e-02 -2.456906e-02 4.092007e-02 -1.110596e-01 4.073128e-02 4.429918e-02 3.929754e-02 1.193481e-02 1.546642e-02 1.227075e-02 -1.761229e-04 3.112001e-02 1.327354e-02 -3.534916e-03 -2.037905e-02 -2.562883e-02 2.095722e-02
<VARIANCE> 39
 8.729943e-01 1.359151e+00 2.785398e+00 5.329736e+00 6.984310e+00 7.696947e+00 8.562746e+00 8.428978e+00 7.746587e+00 6.594294e+00 9.442187e+00 7.771428e+00 6.052197e-01 1.250280e-01 2.259029e-01 3.693976e-01 5.946871e-01 7.396361e-01 6.708568e-01 7.817906e-01 1.150821e+00 9.527107e-01 7.856391e-01 1.073289e+00 8.588603e-01 3.753335e-02 2.213408e-02 4.926751e-02 7.674006e-02 1.305586e-01 1.662020e-01 1.412129e-01 1.630027e-01 2.318483e-01 1.694902e-01 1.554339e-01 2.249984e-01 1.623890e-01 7.238461e-03
<GCONST> 5.066749e+01
<STATE> 4
<MEAN> 39
 -1.596928e+01 1.624241e+00 7.685042e-02 1.100908e+00 2.703915e+00 1.498728e+00 3.822609e+00 9.413124e-01 3.568669e+00 5.149838e-01 3.521994e+00 6.787868e-01 5.369209e+01 -3.977441e-02 -4.217880e-02 -3.018994e-02 -3.917522e-02 -2.666712e-02 -3.954850e-03 1.368259e-02 3.896980e-02 4.952228e-02 4.346882e-02 3.788204e-02 -4.228887e-03 -1.934763e-02 7.039667e-03 1.504270e-03 -1.069822e-02 -8.810375e-03 -7.530631e-03 -6.896742e-03 -1.373494e-02 -2.684163e-02 -1.616179e-02 1.075446e-03 1.444556e-04 -3.459373e-03 3.068508e-03
<VARIANCE> 39
 6.890831e-01 1.290496e+00 2.334519e+00 3.557706e+00 4.868076e+00 6.166832e+00 7.731947e+00 7.660028e+00 8.258678e+00 1.010405e+01 8.869173e+00 8.730100e+00 6.052197e-01 6.226996e-02 1.347722e-01 2.652339e-01 4.248588e-01 5.533003e-01 7.676196e-01 7.868423e-01 8.253461e-01 9.773671e-01 1.159056e+00 9.779522e-01 8.264706e-01 1.985691e-02 1.299058e-02 2.775785e-02 5.790908e-02 8.854694e-02 1.107218e-01 1.559537e-01 1.640058e-01 1.782288e-01 2.146358e-01 2.402698e-01 1.969462e-01 1.624868e-01 4.544905e-03
<GCONST> 4.457961e+01
<TRANSP> 5
 0.000000e+00 1.000000e+00 0.000000e+00 0.000000e+00 0.000000e+00
 0.000000e+00 8.997502e-01 1.002498e-01 0.000000e+00 0.000000e+00
 0.000000e+00 0.000000e+00 8.553927e-01 1.446074e-01 0.000000e+00
 0.000000e+00 0.000000e+00 0.000000e+00 9.527489e-01 4.725115e-02
 0.000000e+00 0.000000e+00 0.000000e+00 0.000000e+00 0.000000e+00
<ENDHMM>
~h "s0"
<BEGINHMM>
<NUMSTATES> 5
<STATE> 2
<MEAN> 39
 -1.062915e+01 8.726496e+00 5.835713e-01 -6.539060e+00 6.182653e+00 2.518792e+00 -5.635987e+00 -7.392080e+00 4.143795e+00 -5.243935e+00 2.920160e-01 -3.962011e+00 7.321226e+01 5.943227e-01 -1.087599e-01 -1.249315e+00 -1.515466e+00 -6.982251e-01 1.928980e+00 9.826752e-01 3.495740e-01 2.662718e-01 5.775071e-02 5.106020e-01 7.788212e-01 -2.293616e-01 2.838413e-01 -1.348235e-01 4.725036e-02 -1.197522e-01 -4.292330e-01 9.030388e-02 3.072581e-01 -3.315444e-02 3.026169e-02 -6.697422e-02 -9.028084e-02 9.991790e-02 1.399459e-02
<VARIANCE> 39
 4.527424e+01 1.194260e+01 4.639632e+01 3.503217e+01 3.564983e+01 5.632716e+01 3.520404e+01 1.872365e+01 2.791431e+01 1.848075e+01 1.915871e+01 4.502532e+01 4.674154e+00 8.188422e+00 1.840369e+00 1.834364e+00 2.034218e+00 6.061374e+00 2.276876e+00 3.261487e+00 1.990574e+00 4.517514e+00 2.722669e+00 2.498173e+00 3.732341e+00 4.510864e-01 8.119715e-01 3.200998e-01 3.350717e-01 3.311008e-01 5.646154e-01 5.958291e-01 6.911920e-01 4.064610e-01 8.928856e-01 6.209538e-01 4.770446e-01 6.218428e-01 8.179004e-02
<GCONST> 1.162644e+02
<STATE> 3
<MEAN> 39
 4.715033e+00 5.104556e+00 -6.305093e+00 -2.071809e+01 -7.971291e+00 1.726809e+01 6.519920e+00 -3.243265e+00 7.196838e+00 -7.432025e+00 -4.986368e-01 4.275252e+00 7.160336e+01 2.884735e-01 2.312462e-01 2.744781e-01 5.631481e-01 1.694500e-01 -4.180398e-01 4.550819e-01 7.476065e-01 -1.235827e+00 -8.434684e-01 -3.618769e-01 -4.386581e-01 -9.731697e-01 -5.709205e-01 2.831155e-01 4.282194e-01 9.029140e-01 6.663617e-01 -7.392930e-01 -4.112588e-01 -8.125667e-02 -1.842629e-01 7.197075e-02 7.387827e-02 -1.700166e-01 -2.648668e-01
<VARIANCE> 39
 2.413227e+00 3.468602e+00 9.209729e+00 6.961001e+00 1.139834e+01 9.371391e+00 6.868214e+00 8.261006e+00 1.143340e+01 7.447468e+00 1.159154e+01 1.653823e+01 4.189553e+00 9.995584e-01 9.488060e-01 1.053982e+00 4.284296e+00 2.572272e+00 2.942092e+00 9.269535e-01 1.016896e+00 8.116310e-01 7.490693e-01 7.359876e-01 1.184362e+00 3.695230e-01 7.866181e-02 1.116332e-01 1.222116e-01 2.612681e-01 2.683909e-01 2.563497e-01 1.263831e-01 2.249830e-01 4.118395e-01 1.774672e-01 1.640521e-01 3.573812e-01 2.544970e-02
<GCONST> 7.605418e+01
<STATE> 4
<MEAN> 39
 1.353251e+00 1.017369e+01 4.401217e-01 -9.394650e+00 -2.303924e+00 8.839050e+00 4.295990e+00 -9.584035e-01 2.469773e+00 -1.061984e+01 -1.092016e+00 2.801534e+00 6.459409e+01 -9.226571e-01 8.122128e-01 1.358644e+00 2.022444e+00 9.088572e-01 -1.182310e+00 -3.964209e-01 1.910081e-01 -4.289221e-01 2.172422e-01 1.498110e-01 -4.016453e-01 -1.079239e+00 -3.411773e-03 -2.438487e-01 -2.936968e-01 -2.384675e-01 -5.694106e-02 3.601112e-01 3.063364e-01 -5.304525e-03 5.407281e-02 3.287586e-01 -9.829657e-03 -1.296037e-01 1.491542e-01
<VARIANCE> 39
 2.065922e+00 2.954028e+00 9.107690e+00 8.426255e+00 5.762927e+00 8.019767e+00 5.758170e+00 5.239954e+00 5.201820e+00 5.485451e+00 5.994602e+00 5.616010e+00 2.769668e+00 1.528582e-01 3.500660e-01 7.421862e-01 7.700592e-01 5.780224e-01 1.016795e+00 9.162653e-01 5.898191e-01 6.058387e-01 7.893089e-01 5.115013e-01 1.043394e+00 1.207805e-01 2.334269e-02 3.772139e-02 9.805309e-02 1.196933e-01 1.323525e-01 9.381047e-02 1.253477e-01 1.575274e-01 1.254528e-01 1.082937e-01 9.578804e-02 1.823591e-01 1.509470e-02
<GCONST> 5.250621e+01
<TRANSP> 5
 0.000000e+00 1.000000e+00 0.000000e+00 0.000000e+00 0.000000e+00
 0.000000e+00 9.196905e-01 8.030947e-02 0.000000e+00 0.000000e+00
 0.000000e+00 0.000000e+00 8.226413e-01 1.773587e-01 0.000000e+00
 0.000000e+00 0.000000e+00 0.000000e+00 7.896169e-01 2.103831e-01
 0.000000e+00 0.000000e+00 0.000000e+00 0.000000e+00 0.000000e+00
<ENDHMM>
~h "uu"
<BEGINHMM>
<NUMSTATES> 5
<STATE> 2
<MEAN> 39
 -1.780104e+01 -5.766049e+00 1.155406e+00 -8.965463e+00 -1.541739e+00 2.538974e+00 -2.756728e+00 7.979854e-01 2.705379e-01 -7.064882e-01 6.137301e+00 -2.092253e+00 6.343039e+01 -2.061031e+00 -1.807189e-01 7.558911e-01 -9.648094e-01 -6.698526e-01 5.150756e-01 -1.273528e+00 -2.785122e-01 6.594660e-01 -7.969232e-01 6.081893e-01 -5.734807e-01 2.056132e+00 -5.976256e-02 8.123168e-01 3.188182e-01 5.926741e-01 -9.498945e-02 -8.071494e-02 2.268289e-01 -2.827418e-01 8.821883e-01 9.076978e-02 -2.740829e-01 8.917911e-02 -2.250281e-01
<VARIANCE> 39
 1.881431e+01 3.465169e+01 1.205188e+01 4.477539e+01 3.466838e+01 2.216289e+01 3.443311e+01 2.792925e+01 1.909933e+01 3.269521e+01 1.085663e+01 4.066188e+01 4.390723e+01 3.190541e+00 1.247554e+00 6.218756e-01 2.680552e+00 2.343739e+00 1.313350e+00 1.712198e+00 1.133130e+00 2.829078e+00 1.591857e+00 1.643412e+00 1.585437e+00 2.277183e+00 9.194289e-01 2.005649e-01 3.201110e-01 7.107142e-01 1.097763e+00 3.360843e-01 6.556967e-01 5.241619e-01 4.540352e-01 5.622364e-01 4.084717e-01 3.671933e-01 3.587358e-01
<GCONST> 1.117108e+02
<STATE> 3
<MEAN> 39
 -2.476158e+01 -6.055048e+00 3.523841e+00 -9.944278e+00 -2.289207e+00 4.980911e+00 -7.185112e+00 -2.946172e+00 7.039515e+00 -2.011780e+00 9.379987e+00 -4.044330e+00 7.042850e+01 1.353969e+00 1.119528e+00 6.055545e-01 6.969988e-01 6.036733e-01 3.912026e-01 -8.002210e-01 -1.377939e+00 5.357915e-01 -3.287797e-01 -3.500751e-01 2.111271e-01 6.989124e-01 1.221576e+00 4.454277e-01 1.760677e-01 1.908198e-01 -1.244674e-01 -7.136045e-04 1.438840e-01 -2.304581e-01 -3.633147e-01 -1.462591e-01 -5.063431e-01 2.003472e-01 -7.764845e-02
<VARIANCE> 39
 1.877614e+01 1.155038e+01 1.005892e+01 3.071079e+01 4.875453e+01 2.322957e+01 3.283146e+01 2.897388e+01 1.460119e+01 1.620601e+01 1.476313e+01 3.829888e+01 4.426754e+01 6.850467e+00 1.797343e+00 1.411320e+00 2.165843e+00 4.452261e+00 2.374353e+00 1.555727e+00 1.306140e+00 2.597335e+00 1.422415e+00 1.756910e+00 1.617557e+00 8.095842e-01 1.163291e-01 2.452180e-01 3.717506e-01 3.933377e-01 1.334926e+00 4.627204e-01 2.698330e-01 4.205314e-01 4.509984e-01 3.272569e-01 2.634507e-01 2.488329e-01 3.278320e-01
<GCONST> 1.072181e+02
<STATE> 4
<MEAN> 39
 -6.572671e+00 2.996364e+00 6.622446e+00 -3.342480e+00 -2.427143e-01 6.317546e+00 -6.174487e+00 -8.766261e+00 2.234895e+00 -7.127392e+00 3.783201e+00 -2.174966e-01 7.163688e+01 3.921109e+00 1.239798e+00 8.274998e-01 -1.000456e-01 -2.670503e+00 -5.366100e-01 8.940868e-01 -1.493948e+00 -1.497118e+00 -1.031327e+00 -2.166553e+00 1.723108e-01 9.875579e-01 -4.880716e-01 -4.669854e-01 -1.077638e-01 -5.841314e-01 -6.818656e-01 7.035572e-02 2.193500e-01 -5.827136e-02 -1.742348e-03 4.137878e-01 -1.221256e-01 -2.910652e-01 4.032928e-02
<VARIANCE> 39
 3.613099e+01 4.073404e+00 1.203126e+01 1.156679e+01 3.657776e+01 1.433955e+01 2.954703e+01 2.748553e+01 1.235168e+01 2.405505e+01 1.232242e+01 1.457522e+01 7.066187e+01 2.760895e+00 3.514698e+00 2.452549e+00 1.707411e+00 3.609423e+00 9.868405e-01 3.431142e+00 2.648943e+00 3.701482e+00 2.212449e+00 1.355042e+00 1.337458e+00 9.331102e-01 8.327325e-01 4.254208e-01 2.915873e-01 9.765296e-02 1.080554e+00 3.743687e-01 2.794916e-01 3.936468e-01 3.497180e-01 2.877411e-01 3.842485e-01 1.772071e-01 2.054246e-01
<GCONST> 1.052451e+02
<TRANSP> 5
 0.000000e+00 1.000000e+00 0.000000e+00 0.000000e+00 0.000000e+00
 0.000000e+00 4.332187e-01 5.667813e-01 0.000000e+00 0.000000e+00
 0.000000e+00 0.000000e+00 7.412471e-01 2.587529e-01 0.000000e+00
 0.000000e+00 0.000000e+00 0.000000e+00 6.155375e-01 3.844625e-01
 0.000000e+00 0.000000e+00 0.000000e+00 0.000000e+00 0.000000e+00
<ENDHMM>
~h "vv"
<BEGINHMM>
<NUMSTATES> 5
<STATE> 2
<MEAN> 39
 2.441389e+00 8.338385e+00 3.565848e+00 -3.128781e+00 -2.513258e+00 -9.848073e-01 1.788409e+00 -2.828875e+00 6.741118e-01 -1.020559e+01 -5.632225e-01 2.886052e+00 6.801168e+01 -8.264557e-01 2.853258e-01 3.736553e-01 1.562551e-01 1.038427e+00 -2.280712e-01 -7.632891e-01 -2.531023e-01 -1.080762e-01 -8.101836e-02 2.995996e-01 -1.461368e-01 -3.334823e-01 -2.337874e-01 -8.895968e-02 4.510523e-02 -3.035614e-01 6.268046e-02 1.682119e-01 4.106101e-02 -7.869267e-02 5.606479e-02 1.088367e-01 -1.067586e-01 -1.490552e-01 1.243537e-01
<VARIANCE> 39
 1.660874e+01 8.423871e+00 5.430552e+00 1.714820e+01 2.227415e+01 8.920113e+00 1.392781e+01 1.026752e+01 1.106439e+01 2.368654e+01 1.358124e+01 7.171172e+00 1.646384e+01 1.599785e+00 5.718335e-01 1.043048e+00 3.439444e+00 1.724641e+00 1.195714e+00 1.290160e+00 1.025560e+00 1.359541e+00 1.778426e+00 1.349845e+00 1.256939e+00 3.557349e-01 2.296062e-01 7.715113e-02 1.763858e-01 2.581390e-01 2.230319e-01 1.314453e-01 2.615673e-01 1.747292e-01 2.933784e-01 2.574623e-01 2.450544e-01 1.768042e-01 9.102875e-02
<GCONST> 8.506883e+01
<STATE> 3
<MEAN> 39
 -1.430880e+01 6.701502e+00 1.161216e+01 -9.466867e+00 7.907555e+00 3.696803e+00 -5.656369e+00 -6.405179e+00 4.656555e+00 -4.717165e+00 -2.622127e+00 -3.776593e+00 6.885912e+01 -6.359673e-01 -6.818002e-01 8.315609e-01 1.932900e-01 -4.383495e-01 -2.286358e-01 -1.546420e+00 -7.481815e-01 5.288540e-01 2.741899e-01 -7.066866e-01 -3.093041e-01 6.202556e-01 8.098587e-01 3.303716e-02 -2.712673e-01 5.430730e-01 -4.384898e-01 -2.868073e-01 1.158698e-01 1.048039e-01 -1.366287e-01 -7.713825e-02 5.433383e-02 3.049294e-01 -9.476298e-02
<VARIANCE> 39
 3.151589e+01 1.247788e+01 4.170834e+01 3.509713e+01 3.272129e+01 2.079094e+01 3.370354e+01 2.537227e+01 3.199860e+01 1.665925e+01 1.980646e+01 3.867495e+01 3.958208e+01 8.698019e+00 7.836121e-01 1.951493e+00 3.326803e+00 2.845229e+00 3.155113e+00 1.647720e+00 1.550966e+00 2.276841e+00 1.577644e+00 1.074487e+00 3.159094e+00 6.029504e-01 5.748595e-01 1.569418e-01 2.394573e-01 4.579691e-01 4.471308e-01 4.043679e-01 4.111516e-01 3.052352e-01 2.889318e-01 2.837155e-01 2.390270e-01 4.431295e-01 4.363096e-02
<GCONST> 1.074502e+02
<STATE> 4
<MEAN> 39
 -3.902134e+00 4.065598e+00 1.225619e+01 -2.053410e-03 -1.166618e+00 -7.649933e-01 -8.337543e+00 -9.847888e+00 6.649827e+00 -4.981210e+00 -5.837121e+00 -7.133319e-01 6.910093e+01 4.144100e-01 2.397734e-02 -2.403882e-01 9.207497e-01 -5.117593e-01 -1.784001e-01 4.362580e-01 -2.698617e-02 -2.542239e-01 -3.221106e-01 1.866935e-02 3.092886e-01 -8.306574e-01 -2.976258e-01 1.008710e-01 3.457158e-02 -2.165821e-02 2.990971e-01 2.057314e-01 1.813034e-01 2.248471e-01 -1.527940e-02 3.322388e-02 1.215301e-01 -3.046531e-02 -1.332565e-01
<VARIANCE> 39
 1.226881e+01 7.742934e+00 2.926401e+01 1.389307e+01 1.290033e+01 4.843351e+00 1.871275e+01 1.075214e+01 3.041309e+01 8.355729e+00 2.295339e+01 1.307425e+01 3.590795e+01 1.723746e+00 1.070183e+00 3.567835e-01 8.748514e-01 1.559015e+00 7.090713e-01 8.340922e-01 1.020583e+00 8.196370e-01 7.950876e-01 1.094948e+00 5.302512e-01 3.149469e-01 7.484958e-02 1.090525e-01 8.390947e-02 1.103921e-01 9.362925e-02 1.189519e-01 2.262571e-01 1.825369e-01 1.867308e-01 1.673032e-01 1.884238e-01 1.163245e-01 2.199962e-02
<GCONST> 7.548337e+01
<TRANSP> 5
 0.000000e+00 1.000000e+00 0.000000e+00 0.000000e+00 0.000000e+00
 0.000000e+00 8.278401e-01 1.721599e-01 0.000000e+00 0.000000e+00
 0.000000e+00 0.000000e+00 6.745682e-01 3.254318e-01 0.000000e+00
 0.000000e+00 0.000000e+00 0.000000e+00 7.613431e-01 2.386569e-01
 0.000000e+00 0.000000e+00 0.000000e+00 0.000000e+00 0.000000e+00
<ENDHMM>
~h "wa"
<BEGINHMM>
<NUMSTATES> 5
<STATE> 2
<MEAN> 39
 -1.533826e+01 -8.309422e+00 3.229845e-02 -1.617090e+01 -2.282641e+00 -3.868758e+00 -7.897705e+00 3.737618e+00 -1.199601e+00 -4.230096e+00 7.383183e+00 -4.716545e-01 6.794338e+01 -1.788010e+00 -7.829683e-01 1.915097e+00 -3.558572e+00 -1.877592e-01 -5.273570e-01 -3.389343e+00 -4.522236e-01 -7.391956e-01 4.089087e-02 1.049492e+00 9.486209e-02 3.360409e+00 -9.444964e-02 8.758131e-01 -1.246479e-01 1.013859e+00 7.241098e-01 7.658485e-01 7.532804e-01 -6.051152e-01 3.163895e-01 8.965946e-01 -1.604213e-01 4.304538e-01 -8.649141e-01
<VARIANCE> 39
 2.061449e+01 3.844630e+00 2.667137e+01 2.325628e+01 2.949276e+01 1.217902e+01 1.675592e+01 1.535542e+01 1.276895e+01 2.551821e+01 9.934337e+00 2.412392e+01 1.180036e+01 9.942324e-01 1.892863e+00 7.345677e-01 2.655241e+00 2.707450e+00 2.035244e+00 2.377586e+00 2.707793e+00 1.358652e+00 2.549866e+00 1.001503e+00 1.823467e+00 1.502750e+00 6.925712e-01 1.036267e-01 7.064740e-01 4.033276e-01 4.213540e-01 2.245307e-01 4.026810e-01 4.307313e-01 2.513165e-01 4.721273e-01 3.635142e-01 2.114808e-01 3.411906e-01
<GCONST> 1.009971e+02
<STATE> 3
<MEAN> 39
 -9.544256e+00 -2.409507e+00 -1.772928e+00 -1.936861e+01 -1.433163e+00 3.101194e+00 -6.919422e+00 -1.502617e-01 4.845392e-01 -7.371749e-01 5.570542e+00 2.387171e+00 7.081865e+01 3.365874e+00 1.071302e+00 -1.092455e+00 -1.545239e-01 -1.836301e+00 1.504051e+00 1.630501e+00 -1.779237e-01 1.247795e+00 -7.125894e-01 -1.655903e+00 3.446587e-01 6.734438e-01 4.455741e-01 -2.347028e-01 -1.208830e-01 2.503940e-01 -7.092062e-01 1.233211e-01 4.345976e-01 1.457612e-01 3.223221e-01 -3.719761e-01 -3.152878e-01 -5.576856e-02 4.605323e-02
<VARIANCE> 39
 9.298748e+01 2.704208e+01 2.797197e+01 8.228137e+00 4.369982e+01 2.086059e+01 4.077032e+01 1.585392e+01 3.383496e+01 1.911974e+01 3.853965e+01 2.515746e+01 6.480567e+00 4.151761e+00 2.731941e+00 2.000586e+00 8.855247e-01 7.162468e+00 1.096065e+00 3.518361e+00 2.614977e+00 5.279768e+00 3.684911e+00 3.870225e+00 1.459312e+00 1.566071e+00 1.400781e+00 8.857039e-01 6.631492e-01 3.056320e-01 5.483769e-01 2.062286e-01 9.855351e-01 5.597565e-01 9.785218e-01 4.929143e-01 7.907400e-01 3.515815e-01 5.135648e-01
<GCONST> 1.190480e+02
<STATE> 4
<MEAN> 39
 1.742325e+00 -2.835725e+00 -7.896108e-01 -1.034248e+01 -7.834485e+00 4.403475e+00 -7.148237e+00 -1.193467e+01 8.809365e+00 -3.616848e+00 -3.640352e+00 5.565531e+00 7.592406e+01 -6.740031e-02 2.447874e-02 1.521051e-01 1.683963e-01 9.921788e-02 -1.746993e-02 -8.668681e-02 -4.698751e-01 -2.261274e-01 2.908540e-02 3.036461e-01 1.948764e-01 -4.006856e-02 -2.385955e-02 1.926538e-02 7.922789e-04 -2.636808e-02 6.962992e-02 7.215530e-03 -1.189915e-02 1.319420e-02 -2.709675e-02 1.009902e-02 6.203758e-02 3.204506e-02 -5.610520e-02
<VARIANCE> 39
 5.559235e+01 3.464001e+01 2.350387e+01 6.371013e+01 8.828506e+01 6.059173e+01 5.949996e+01 6.173287e+01 3.060896e+01 3.410589e+01 3.244305e+01 3.240143e+01 2.116128e+01 4.605362e+00 1.975636e+00 1.644938e+00 3.750307e+00 4.648631e+00 3.226709e+00 2.585660e+00 2.875829e+00 2.750513e+00 3.849983e+00 2.341811e+00 2.455185e+00 1.099416e+00 8.126490e-01 2.728265e-01 3.351072e-01 6.007404e-01 6.312949e-01 3.835066e-01 2.934036e-01 4.566767e-01 6.089666e-01 6.594287e-01 4.650840e-01 4.231076e-01 1.556969e-01
<GCONST> 1.223162e+02
<TRANSP> 5
 0.000000e+00 1.000000e+00 0.000000e+00 0.000000e+00 0.000000e+00
 0.000000e+00 6.085835e-01 3.914166e-01 0.000000e+00 0.000000e+00
 0.000000e+00 0.000000e+00 8.616395e-01 1.383605e-01 0.000000e+00
 0.000000e+00 0.000000e+00 0.000000e+00 9.702186e-01 2.978135e-02
 0.000000e+00 0.000000e+00 0.000000e+00 0.000000e+00 0.000000e+00
<ENDHMM>
~h "we"
<BEGINHMM>
<NUMSTATES> 5
<STATE> 2
<MEAN> 39
 -1.403630e+00 1.211905e+01 1.179857e+01 -5.961761e+00 -1.643998e+01 -2.685101e-01 -2.772151e+00 -1.191067e+01 1.006014e+01 1.524449e+00 -8.558349e+00 -1.167789e+00 6.283586e+01 4.377200e+00 1.846402e+00 2.998904e+00 -2.714694e+00 -5.892942e+00 1.985962e+00 -6.746691e-02 -4.195274e+00 1.667180e+00 3.009970e-01 -4.093037e+00 -2.359256e-01 3.187816e+00 -7.396441e-01 -9.176818e-01 -6.740379e-01 1.097443e-01 1.050717e+00 9.331785e-01 6.418443e-01 6.071199e-01 -3.322888e-01 -1.402650e-01 5.729488e-01 1.748590e-01 -2.392470e-01
<VARIANCE> 39
 1.678024e+01 5.088234e+00 8.295647e+00 1.454464e+01 3.971354e+01 1.734577e+01 8.088627e+00 2.107028e+01 1.423257e+01 7.876735e+00 2.526638e+01 6.360904e+00 8.801577e+00 1.526507e+00 1.972690e+00 1.786213e+00 4.685059e-01 3.360095e+00 2.831588e+00 2.415305e+00 1.676329e+00 1.231658e+00 9.912886e-01 1.518324e+00 1.022089e+00 4.057707e-01 4.555571e-01 1.224075e-01 1.950969e-01 2.933936e-01 1.090943e+00 3.164411e-01 2.299428e-01 5.134984e-01 3.893911e-01 1.990055e-01 6.606546e-01 1.518388e-01 2.045446e-01
<GCONST> 9.348613e+01
<STATE> 3
<MEAN> 39
 4.043527e+00 1.156951e+01 1.242340e+01 -1.122427e+01 -1.951136e+01 6.196754e+00 -9.468591e-01 -1.285382e+01 8.449050e+00 -1.951279e+00 -1.158621e+01 -4.582654e+00 6.896247e+01 2.965190e-01 -1.613048e-02 -7.029629e-01 -2.784693e-01 3.318094e-01 -2.438475e-01 4.906534e-01 4.793873e-01 -7.157987e-01 -7.985330e-01 -2.453632e-01 -3.402870e-01 3.842914e-01 -1.598433e-01 -1.250223e-01 -3.199837e-01 1.798936e-01 2.845295e-01 -1.685780e-01 2.537659e-02 -3.757895e-02 -7.213295e-02 -1.214053e-01 1.846260e-01 2.312859e-01 -7.398960e-02
<VARIANCE> 39
 1.979645e+00 2.933977e+00 1.421246e+01 4.562892e+00 2.301960e+01 1.392827e+01 2.046781e+01 2.293667e+01 2.096812e+01 1.860263e+01 1.446837e+01 1.714671e+01 1.076902e+00 2.428911e-01 3.500032e-01 1.081298e+00 5.379834e-01 1.020497e+00 1.746983e+00 2.206943e+00 1.982174e+00 1.558102e+00 1.464716e+00 2.204988e+00 1.339051e+00 3.104744e-01 2.024341e-01 1.246934e-01 1.183539e-01 1.721230e-01 5.658167e-01 3.404979e-01 4.042604e-01 9.864234e-01 3.274092e-01 2.441110e-01 7.449671e-01 3.984323e-01 1.411085e-01
<GCONST> 8.503141e+01
<STATE> 4
<MEAN> 39
 -1.567265e-01 3.556414e+00 1.184436e+00 -6.841169e+00 -4.079608e+00 2.533987e+00 -1.076168e+01 -2.246076e+01 7.850183e+00 -3.706696e+00 -3.170353e+00 2.899772e+00 7.348129e+01 -1.146118e-01 -3.170051e-01 -1.976724e-01 -1.306802e-01 4.427768e-01 3.015294e-01 -3.576292e-01 -4.471618e-01 4.736497e-03 2.341971e-01 9.373981e-01 6.215129e-01 5.787392e-02 9.098705e-02 4.731244e-02 7.574790e-02 -5.141813e-02 -1.367561e-01 6.614960e-02 3.127474e-02 1.487897e-01 3.875283e-02 5.141776e-02 2.360996e-02 -5.418291e-02 -6.025302e-02
<VARIANCE> 39
 7.380885e+01 2.479788e+01 1.914596e+01 4.626051e+01 7.195271e+01 1.944301e+01 8.693954e+01 4.898103e+01 4.814630e+01 2.855184e+01 3.998906e+01 2.281156e+01 1.501100e+01 7.880959e+00 3.390229e+00 2.746608e+00 4.368003e+00 5.541444e+00 2.292985e+00 7.418169e+00 6.130059e+00 4.513187e+00 4.226873e+00 3.881363e+00 3.650448e+00 1.583704e+00 1.240923e+00 4.669662e-01 4.036635e-01 6.628272e-01 6.734973e-01 4.075389e-01 1.014879e+00 7.698536e-01 7.453496e-01 9.732308e-01 1.005129e+00 6.250030e-01 2.170500e-01
<GCONST> 1.307978e+02
<TRANSP> 5
 0.000000e+00 1.000000e+00 0.000000e+00 0.000000e+00 0.000000e+00
 0.000000e+00 6.196311e-01 3.803689e-01 0.000000e+00 0.000000e+00
 0.000000e+00 0.000000e+00 9.221802e-01 7.781977e-02 0.000000e+00
 0.000000e+00 0.000000e+00 0.000000e+00 9.547436e-01 4.525638e-02
 0.000000e+00 0.000000e+00 0.000000e+00 0.000000e+00 0.000000e+00
<ENDHMM>
~h "sil"
<BEGINHMM>
<NUMSTATES> 5
<STATE> 2
<MEAN> 39
 -1.561258e+01 1.553112e+00 -9.147358e-01 2.904728e-01 2.985234e+00 1.697229e+00 3.821160e+00 2.181606e-01 3.556063e+00 5.497912e-01 3.708853e+00 5.204586e-01 5.455283e+01 -6.195069e-02 -3.453549e-02 2.425499e-02 3.265140e-02 -2.544359e-02 9.451220e-03 1.326682e-02 3.426039e-02 4.638366e-03 3.197867e-02 7.438652e-03 6.561583e-02 -6.479841e-02 1.478610e-02 2.039051e-02 4.933280e-02 3.907973e-02 -1.117707e-02 -7.782968e-03 -2.443286e-03 3.865552e-02 1.893649e-02 8.449215e-03 -4.291668e-05 -1.462197e-02 -1.842910e-02
<VARIANCE> 39
 3.432867e+00 4.123071e+00 8.435672e+00 8.905286e+00 8.487819e+00 1.081905e+01 1.171357e+01 1.284518e+01 1.161459e+01 1.062057e+01 1.105457e+01 9.294372e+00 5.051421e+00 3.917673e-01 4.276598e-01 1.039077e+00 1.001007e+00 9.203236e-01 1.215774e+00 1.148776e+00 1.441210e+00 1.148447e+00 1.081493e+00 1.025149e+00 9.694116e-01 6.839795e-01 7.695298e-02 8.674888e-02 2.033995e-01 1.958442e-01 1.772863e-01 2.446380e-01 2.091319e-01 2.869114e-01 2.165818e-01 2.096472e-01 1.964896e-01 1.820600e-01 1.449632e-01
<GCONST> 7.540940e+01
<STATE> 3
<MEAN> 39
 -1.634475e+01 1.291676e+00 -8.727933e-02 1.198692e+00 3.031949e+00 1.915245e+00 4.391519e+00 1.547465e+00 4.313078e+00 1.232913e+00 4.140312e+00 1.164423e+00 5.353329e+01 -3.029067e-03 -4.661002e-03 1.078764e-03 7.874233e-03 1.465645e-04 1.010167e-02 5.770016e-03 1.695934e-02 9.856173e-03 7.369912e-03 1.056579e-02 1.215713e-02 -4.087979e-03 2.873234e-03 1.486476e-03 -4.011045e-03 -5.790220e-03 -3.668595e-04 -3.032107e-03 -2.503679e-03 -6.558483e-03 -4.759054e-03 -3.952186e-03 -2.743107e-04 -3.585411e-03 3.702533e-03
<VARIANCE> 39
 8.468506e-01 1.509732e+00 2.686358e+00 4.173460e+00 5.435453e+00 6.653832e+00 7.916714e+00 8.683620e+00 9.120745e+00 9.263163e+00 9.310316e+00 8.464931e+00 6.052197e-01 7.353844e-02 1.618609e-01 2.858964e-01 4.304822e-01 5.785633e-01 7.054849e-01 8.692942e-01 9.387324e-01 9.957144e-01 9.671404e-01 9.552610e-01 9.255656e-01 2.117102e-02 1.535006e-02 3.388657e-02 5.944850e-02 8.849326e-02 1.191848e-01 1.465724e-01 1.815800e-01 1.912504e-01 2.060995e-01 2.007454e-01 1.990633e-01 1.926776e-01 4.483949e-03
<GCONST> 4.674899e+01
<STATE> 4
<MEAN> 39
 -1.595465e+01 1.213007e+00 -5.761096e-01 7.327155e-01 2.972356e+00 1.945143e+00 3.942953e+00 8.742365e-01 3.748882e+00 7.852749e-01 4.016484e+00 1.151100e+00 5.386412e+01 1.076264e-03 1.356406e-02 8.436568e-03 -6.887764e-03 -3.325430e-02 -4.425867e-02 2.987295e-02 2.843386e-02 7.785734e-03 1.573741e-03 -1.358070e-02 1.944614e-02 -1.588755e-03 6.095454e-03 -7.348293e-03 7.992123e-03 -1.991486e-02 -2.044702e-02 -4.162837e-03 6.160910e-03 1.656225e-02 3.574250e-03 -5.692232e-05 -3.936148e-03 -1.765084e-03 1.007682e-02
<VARIANCE> 39
 1.791023e+00 2.375431e+00 5.755509e+00 5.803146e+00 6.494952e+00 7.746578e+00 1.017490e+01 1.052923e+01 1.143975e+01 9.879575e+00 8.998602e+00 7.966355e+00 8.095593e-01 2.205176e-01 2.694991e-01 7.642656e-01 7.354354e-01 7.107431e-01 8.461869e-01 1.180162e+00 1.283069e+00 1.266116e+00 1.157723e+00 1.033275e+00 9.242906e-01 1.120390e-01 5.020397e-02 6.414949e-02 1.690031e-01 1.584796e-01 1.471207e-01 1.651708e-01 2.400917e-01 2.546757e-01 2.572153e-01 2.298868e-01 2.018426e-01 1.849800e-01 3.010910e-02
<GCONST> 6.318086e+01
<TRANSP> 5
 0.000000e+00 1.000000e+00 0.000000e+00 0.000000e+00 0.000000e+00
 0.000000e+00 8.045945e-01 1.954055e-01 0.000000e+00 0.000000e+00
 0.000000e+00 0.000000e+00 9.747652e-01 2.523477e-02 0.000000e+00
 0.000000e+00 0.000000e+00 0.000000e+00 8.198166e-01 1.801834e-01
 0.000000e+00 0.000000e+00 0.000000e+00 0.000000e+00 0.000000e+00
<ENDHMM>
