~o
<STREAMINFO> 1 39
<VECSIZE> 39<NULLD><MFCC_D_A_0><DIAGC>
~h "B"
<BEGINHMM>
<NUMSTATES> 5
<STATE> 2
<MEAN> 39
 -1.440147e+01 3.031383e+00 8.674031e-01 2.229312e+00 4.729063e+00 3.492898e+00 5.453923e+00 2.219644e+00 5.852138e+00 3.505124e+00 7.232066e+00 4.341045e+00 5.447706e+01 -1.428878e-02 -2.897074e-02 -4.317984e-02 -3.414364e-02 -2.085670e-02 -4.017762e-02 -4.813262e-02 -5.154353e-02 -5.770259e-02 5.371931e-02 2.902775e-02 1.509329e-02 -1.348571e-02 6.519691e-03 -4.961922e-03 -1.240540e-02 -5.031273e-03 4.076216e-03 1.381186e-04 5.100664e-03 1.878745e-02 1.852394e-02 3.690394e-03 6.796428e-03 -2.055208e-03 9.527493e-03
<VARIANCE> 39
 2.581574e+00 5.932347e+00 1.022599e+01 1.047410e+01 5.262631e+00 6.511176e+00 8.887363e+00 1.478579e+01 1.847354e+01 1.127050e+01 1.112400e+01 1.109556e+01 6.639750e-01 6.332118e-02 1.692109e-01 3.243412e-01 4.503080e-01 3.625858e-01 5.785843e-01 7.664501e-01 9.975197e-01 1.052626e+00 7.020031e-01 9.135463e-01 7.620070e-01 3.020640e-02 1.297068e-02 3.675754e-02 7.767641e-02 1.045687e-01 6.698848e-02 1.076032e-01 1.509227e-01 2.132991e-01 2.210730e-01 1.326515e-01 1.853830e-01 1.570590e-01 6.834142e-03
<GCONST> 5.190069e+01
<STATE> 3
<MEAN> 39
 -1.529942e+01 1.198818e+00 -1.607351e+00 2.534592e-02 3.881172e+00 2.443849e+00 3.760291e+00 -5.794973e-01 3.037780e+00 1.862506e+00 6.105139e+00 3.412693e+00 5.427122e+01 -3.714803e-02 -3.651623e-03 1.590697e-02 5.361078e-02 1.262612e-02 5.147308e-04 -2.144360e-02 2.667135e-02 7.910864e-02 4.709099e-02 7.636058e-02 1.437376e-01 -3.403199e-02 4.357757e-03 -5.959760e-03 -5.020262e-03 -4.688780e-03 -2.574081e-02 3.135365e-02 3.698039e-02 2.928318e-02 1.334810e-03 -2.747145e-02 -6.822509e-03 -2.896941e-02 1.126915e-02
<VARIANCE> 39
 1.510401e+00 2.981549e+00 7.077754e+00 7.868545e+00 5.182950e+00 7.138633e+00 7.602154e+00 1.218332e+01 1.174144e+01 8.492981e+00 9.805112e+00 7.758911e+00 9.350997e-01 9.434122e-02 2.180325e-01 4.127952e-01 7.505431e-01 6.940365e-01 8.332696e-01 9.094325e-01 1.052484e+00 1.275508e+00 9.920573e-01 1.204161e+00 1.047664e+00 5.651043e-02 1.802973e-02 5.244206e-02 9.021856e-02 1.700311e-01 1.391349e-01 1.715421e-01 2.277374e-01 2.305755e-01 2.600951e-01 1.857410e-01 2.846050e-01 2.584893e-01 1.095861e-02
<GCONST> 5.817921e+01
<STATE> 4
<MEAN> 39
 -1.651635e+01 1.130541e+00 -2.743825e-04 1.556100e+00 3.385710e+00 2.118415e+00 4.546510e+00 1.749051e+00 4.570922e+00 1.595526e+00 4.773383e+00 1.589000e+00 5.345045e+01 1.291880e-03 3.523470e-04 2.210360e-03 4.511616e-04 -6.069392e-03 -1.916450e-03 9.178694e-03 1.338698e-02 -2.040418e-03 -5.397411e-03 -5.034539e-03 -1.360761e-02 2.084300e-06 5.407179e-04 -6.372837e-04 -2.050640e-03 -3.279593e-03 -5.030740e-04 2.152115e-04 9.410244e-04 -2.462947e-04 -2.267730e-03 -1.177623e-03 -1.189946e-03 -3.622454e-03 6.441509e-04
<VARIANCE> 39
 8.936085e-01 1.598369e+00 3.007488e+00 4.028765e+00 5.069667e+00 6.514848e+00 7.184744e+00 7.942900e+00 9.623291e+00 9.064470e+00 9.512503e+00 8.645699e+00 6.052197e-01 7.341406e-02 1.698610e-01 3.449592e-01 4.548803e-01 5.502637e-01 7.075428e-01 7.935312e-01 8.570955e-01 1.055105e+00 1.057833e+00 1.084811e+00 8.924925e-01 2.732432e-02 1.511353e-02 3.555084e-02 7.245775e-02 9.575480e-02 1.158624e-01 1.505176e-01 1.677165e-01 1.754593e-01 2.162111e-01 2.219668e-01 2.338062e-01 1.872786e-01 5.931668e-03
<GCONST> 4.799111e+01
<TRANSP> 5
 0.000000e+00 1.000000e+00 0.000000e+00 0.000000e+00 0.000000e+00
 0.000000e+00 9.201455e-01 7.985452e-02 0.000000e+00 0.000000e+00
 0.000000e+00 0.000000e+00 8.262340e-01 1.737660e-01 0.000000e+00
 0.000000e+00 0.000000e+00 0.000000e+00 9.927751e-01 7.224874e-03
 0.000000e+00 0.000000e+00 0.000000e+00 0.000000e+00 0.000000e+00
<ENDHMM>
~h "p"
<BEGINHMM>
<NUMSTATES> 5
<STATE> 2
<MEAN> 39
 -1.611073e+01 9.584221e-01 -1.305991e+00 -3.663746e-02 2.619727e+00 1.369199e+00 3.978578e+00 1.772811e+00 4.773751e+00 1.932871e+00 5.320073e+00 2.141036e+00 5.367169e+01 -1.216622e-01 -3.841262e-02 -1.580506e-01 -3.087030e-01 -1.384338e-01 7.044035e-02 -1.035833e-01 1.315441e-01 7.951561e-02 -7.290624e-02 -2.567837e-01 -2.245143e-01 -3.036785e-02 3.908668e-01 5.137650e-02 -1.866435e-01 -1.155748e-01 1.234774e-01 1.306687e-01 -5.771549e-01 -6.790136e-01 -2.364371e-01 -4.169081e-01 -3.866647e-01 -1.240697e-01 5.735714e-01
<VARIANCE> 39
 1.423873e+00 3.323898e+00 8.257645e+00 7.921949e+00 9.118591e+00 8.531795e+00 1.005769e+01 8.019776e+00 1.635306e+01 1.195182e+01 8.577820e+00 1.435488e+01 6.069436e-01 1.447780e-01 4.507047e-01 9.742776e-01 6.701998e-01 6.999578e-01 7.712696e-01 1.333983e+00 6.161099e-01 1.673102e+00 2.705739e+00 8.116259e-01 1.234151e+00 8.731778e-02 9.695235e-02 9.514530e-02 3.577132e-01 2.419163e-01 2.945440e-01 2.423275e-01 3.292084e-01 2.262782e-01 2.533157e-01 3.156879e-01 2.693823e-01 3.844943e-01 2.164129e-01
<GCONST> 7.215722e+01
<STATE> 3
<MEAN> 39
 -1.642560e+01 8.200763e-01 -1.437093e+00 -2.074088e-01 2.057292e+00 8.185541e-01 3.166583e+00 1.228081e+00 3.760854e+00 7.394018e-01 3.946377e+00 7.196319e-01 5.357261e+01 6.763735e-01 1.351340e-01 -4.497360e-01 -5.108320e-01 4.087413e-02 1.687096e-01 -8.913810e-01 -1.388007e+00 -7.138106e-01 -9.306299e-01 -7.958182e-01 -3.472017e-01 8.196832e-01 5.472203e-01 -1.136621e-01 -8.657247e-02 4.273764e-02 3.373614e-01 1.020928e-01 -9.794617e-01 -8.696399e-01 -1.889230e-01 -4.289123e-01 -2.630996e-01 1.678245e-01 1.295466e+00
<VARIANCE> 39
 1.226726e+00 2.057912e+00 4.887050e+00 7.438980e+00 5.745473e+00 5.731249e+00 9.394615e+00 7.699847e+00 1.349503e+01 1.059446e+01 9.846765e+00 7.449767e+00 6.052197e-01 7.782962e-01 2.756879e-01 9.487143e-01 1.084976e+00 7.517986e-01 7.534060e-01 2.028935e+00 2.010839e+00 1.134482e+00 6.691774e-01 1.024644e+00 1.068389e+00 1.249786e+00 8.405176e-02 5.268802e-02 2.675673e-01 2.072259e-01 1.859740e-01 2.491058e-01 2.708848e-01 2.090784e-01 3.264567e-01 2.970639e-01 2.632685e-01 3.177190e-01 2.155513e-01
<GCONST> 7.148926e+01
<STATE> 4
<MEAN> 39
 -1.034024e+01 1.869881e+00 4.722548e+00 1.632593e+00 1.106656e+00 -9.956714e-01 -2.922997e+00 -6.386683e+00 2.016624e+00 -3.738372e+00 1.378755e+00 -9.001340e-01 6.880934e+01 1.140305e+00 5.015579e-01 1.622652e+00 3.192437e-01 -7.837373e-01 -6.221098e-01 -3.495637e-01 -1.562888e+00 2.630669e-01 -1.449641e-01 -5.924549e-01 -8.369852e-01 2.229854e+00 -6.130642e-02 3.891591e-02 1.212771e-01 2.152355e-02 -1.258781e-01 -9.096260e-02 2.779151e-01 1.869055e-02 1.629463e-01 1.882215e-01 -3.693113e-02 -8.681561e-02 -2.284103e-01
<VARIANCE> 39
 2.165692e+01 1.590359e+01 6.421318e+01 1.626335e+01 2.499203e+01 1.741043e+01 3.430938e+01 4.876685e+01 1.715718e+01 1.537277e+01 1.170513e+01 2.998121e+01 5.475802e+01 1.884387e+00 2.413243e+00 4.954681e+00 1.924958e+00 2.350504e+00 1.880671e+00 6.830043e+00 5.774341e+00 2.006977e+00 2.784876e+00 1.742329e+00 2.470296e+00 4.034207e+00 4.298700e-01 5.396733e-01 1.135477e+00 4.342955e-01 4.223271e-01 3.499547e-01 1.179935e+00 1.298006e+00 2.948386e-01 4.257157e-01 3.505401e-01 4.551151e-01 7.563913e-01
<GCONST> 1.190692e+02
<TRANSP> 5
 0.000000e+00 1.000000e+00 0.000000e+00 0.000000e+00 0.000000e+00
 0.000000e+00 2.730196e-01 7.269804e-01 0.000000e+00 0.000000e+00
 0.000000e+00 0.000000e+00 1.893080e-01 8.106920e-01 0.000000e+00
 0.000000e+00 0.000000e+00 0.000000e+00 8.895082e-01 1.104917e-01
 0.000000e+00 0.000000e+00 0.000000e+00 0.000000e+00 0.000000e+00
<ENDHMM>
~h "aa"
<BEGINHMM>
<NUMSTATES> 5
<STATE> 2
<MEAN> 39
 -2.343167e+00 1.036116e+01 1.868357e+00 -4.216427e+00 8.231306e-01 6.906372e+00 6.253942e+00 6.857086e-01 1.026946e+00 -8.254040e+00 -1.188190e+00 -1.331230e-01 6.140493e+01 -7.004307e-01 -1.926485e-01 -1.951811e-01 6.183466e-01 4.404388e-01 -5.049670e-01 3.394261e-01 2.960480e-01 -3.170610e-01 6.019299e-01 -2.477206e-02 -5.125552e-01 -5.986042e-01 1.334618e-02 -1.245467e-01 -1.819989e-01 -2.635936e-01 -2.008438e-01 3.948820e-02 -8.166605e-05 -3.686000e-02 1.003772e-01 2.189308e-02 3.959319e-02 1.246714e-02 5.690106e-02
<VARIANCE> 39
 8.832535e+00 2.706585e+00 5.118697e+00 1.491177e+01 1.099031e+01 8.090376e+00 1.145436e+01 1.100984e+01 7.673583e+00 9.815464e+00 8.227713e+00 1.360983e+01 4.733682e+00 1.203857e-01 4.865439e-01 4.406785e-01 6.812761e-01 8.252420e-01 5.058549e-01 1.021217e+00 1.343151e+00 1.093223e+00 8.160024e-01 9.553501e-01 6.607437e-01 3.766210e-02 1.626016e-02 4.935336e-02 7.717728e-02 7.698784e-02 1.373365e-01 1.206662e-01 2.290103e-01 2.973039e-01 2.380525e-01 1.791780e-01 2.100127e-01 1.523817e-01 9.831518e-03
<GCONST> 6.039497e+01
<STATE> 3
<MEAN> 39
 -4.783606e+00 9.115007e+00 -2.363489e-01 -4.643757e+00 -5.537142e-01 3.882861e+00 6.522318e+00 8.499013e-01 2.542210e-01 -5.670286e+00 -7.494993e-01 -1.786193e+00 5.947491e+01 -7.375602e-01 -4.178359e-01 -2.434511e-01 1.544927e-01 -1.200277e-01 -5.653232e-01 -7.735492e-02 -3.281634e-02 -5.623175e-02 3.622324e-01 -8.345278e-02 -4.556122e-01 -4.705088e-01 -1.172337e-02 -2.335381e-02 4.287594e-02 -2.690150e-02 -3.332096e-02 -2.781990e-03 -8.839837e-02 -3.019770e-02 3.509354e-02 -6.195959e-02 -7.207568e-04 6.674100e-02 2.215844e-02
<VARIANCE> 39
 9.350960e+00 5.626307e+00 4.194716e+00 5.950866e+00 8.059786e+00 1.175821e+01 1.101202e+01 1.126808e+01 1.110777e+01 1.029196e+01 8.594272e+00 1.001189e+01 3.391325e+00 9.658632e-02 3.857731e-01 3.895984e-01 3.735243e-01 5.321382e-01 5.524977e-01 1.057292e+00 1.335282e+00 1.339449e+00 1.244674e+00 1.092533e+00 7.329428e-01 3.869890e-02 1.706141e-02 6.202961e-02 7.249078e-02 8.716264e-02 1.117956e-01 1.143945e-01 2.110864e-01 2.621074e-01 2.756337e-01 2.752439e-01 2.479177e-01 1.429749e-01 5.754631e-03
<GCONST> 5.934014e+01
<STATE> 4
<MEAN> 39
 -1.152512e+01 5.180292e+00 1.574269e-01 -1.497312e+00 1.215744e-02 -3.441882e-02 3.574903e+00 6.274629e-02 1.310362e+00 -2.636299e+00 4.847157e-01 -1.783887e+00 5.581856e+01 -4.060063e-01 -2.884668e-01 2.583738e-02 2.249279e-01 7.092423e-02 -1.674998e-01 -1.555092e-01 -8.178338e-02 9.988284e-02 2.035518e-01 1.483248e-01 1.655336e-01 -2.063126e-01 3.142518e-02 1.542297e-02 -8.578721e-03 -2.609269e-02 -6.995560e-03 1.185144e-02 -1.162421e-02 -3.138294e-02 -2.989433e-02 -1.041538e-02 1.142998e-02 4.678977e-03 1.966261e-02
<VARIANCE> 39
 5.363830e+00 3.632292e+00 2.469739e+00 5.573030e+00 6.988566e+00 8.601505e+00 9.648958e+00 9.459042e+00 9.505330e+00 1.147416e+01 1.190072e+01 9.975959e+00 1.348330e+00 1.235536e-01 1.837830e-01 3.139626e-01 4.117099e-01 5.984418e-01 5.621322e-01 6.302164e-01 9.947948e-01 1.088222e+00 1.108978e+00 1.096459e+00 8.922321e-01 3.762110e-02 1.234177e-02 2.797383e-02 5.798637e-02 8.115138e-02 1.124142e-01 1.020376e-01 1.159521e-01 2.001532e-01 2.094338e-01 2.378365e-01 2.335554e-01 1.667781e-01 4.372242e-03
<GCONST> 5.190605e+01
<TRANSP> 5
 0.000000e+00 1.000000e+00 0.000000e+00 0.000000e+00 0.000000e+00
 0.000000e+00 7.286719e-01 2.713281e-01 0.000000e+00 0.000000e+00
 0.000000e+00 0.000000e+00 8.419233e-01 1.580767e-01 0.000000e+00
 0.000000e+00 0.000000e+00 0.000000e+00 9.079768e-01 9.202322e-02
 0.000000e+00 0.000000e+00 0.000000e+00 0.000000e+00 0.000000e+00
<ENDHMM>
~h "c0"
<BEGINHMM>
<NUMSTATES> 5
<STATE> 2
<MEAN> 39
 -9.485815e+00 5.673763e+00 2.211352e+00 5.161027e-01 2.115725e+00 1.914660e+00 1.157388e+00 -2.596296e+00 1.520043e+00 -2.389385e+00 3.326332e+00 1.801821e+00 5.773915e+01 -2.739428e-01 -3.328521e-02 -1.033372e-01 1.193210e-01 2.411884e-01 -1.375816e-01 9.461290e-02 1.336244e-01 -1.641154e-01 2.321972e-01 5.632006e-02 -1.969309e-01 -2.634759e-01 3.559513e-02 -3.392397e-01 -4.601343e-02 -5.700348e-01 -2.197101e-01 1.165520e-01 -1.647905e-01 -1.913065e-01 -3.392056e-03 4.864509e-02 1.616903e-02 -2.351858e-03 3.504041e-01
<VARIANCE> 39
 5.822680e+01 2.283315e+01 1.361782e+01 9.172626e+00 8.945732e+00 1.082961e+01 2.076793e+01 2.871978e+01 1.820891e+01 2.286477e+01 1.386885e+01 1.385915e+01 2.314147e+01 3.146125e-01 4.227486e-01 6.637049e-01 1.368653e+00 1.302493e+00 1.067698e+00 1.228907e+00 1.175749e+00 1.366122e+00 1.034577e+00 1.120885e+00 1.228664e+00 3.056327e-01 8.203667e-02 1.499382e-01 1.719299e-01 4.529417e-01 2.730608e-01 2.593268e-01 3.588353e-01 4.143212e-01 3.923644e-01 2.893459e-01 2.728997e-01 2.601588e-01 1.966043e-01
<GCONST> 8.920665e+01
<STATE> 3
<MEAN> 39
 -1.078063e+01 5.034340e+00 1.699987e+00 5.797126e-01 2.417955e+00 1.745806e+00 1.662560e+00 -1.922393e+00 1.786642e+00 -1.868713e+00 3.571749e+00 1.347326e+00 5.694459e+01 -1.837418e-01 -5.558718e-01 -4.494209e-04 -6.530952e-01 -1.062019e-03 5.003849e-02 -2.492606e-01 -1.527346e-01 -1.738034e-01 2.883746e-01 1.199203e-01 -2.240175e-01 2.537776e-01 -7.926381e-02 -3.372682e-01 1.642408e-02 -6.285828e-01 -1.981209e-01 4.458091e-02 -2.949727e-01 -1.667323e-01 -4.366210e-02 2.743081e-03 4.594102e-03 -6.698808e-02 4.771951e-01
<VARIANCE> 39
 5.083472e+01 2.192268e+01 1.387046e+01 1.038384e+01 9.627205e+00 1.005345e+01 1.797781e+01 2.672752e+01 1.941792e+01 1.933827e+01 1.251391e+01 1.342423e+01 1.849916e+01 6.421282e-01 1.068874e+00 9.655457e-01 3.367575e+00 1.659905e+00 1.230741e+00 1.599637e+00 1.804689e+00 1.876351e+00 1.272704e+00 1.191359e+00 1.170661e+00 1.280656e+00 1.445120e-01 1.626505e-01 2.151943e-01 6.735727e-01 3.861069e-01 2.238017e-01 4.194375e-01 4.353255e-01 3.679133e-01 2.724147e-01 3.325649e-01 2.960647e-01 3.767132e-01
<GCONST> 9.698262e+01
<STATE> 4
<MEAN> 39
 -7.493587e+00 2.477577e+00 3.472680e+00 -9.725689e+00 -1.284021e+00 2.608727e+00 -1.446464e-01 -4.465137e+00 2.970096e+00 -3.313406e+00 -6.272895e-01 4.866667e-01 6.871936e+01 2.970073e-01 -2.107740e-01 2.091492e-01 -4.688141e-01 -3.707505e-01 -2.513873e-02 -3.057826e-01 -1.648586e-01 -3.672700e-02 -2.864774e-01 -2.566600e-01 -1.692563e-01 8.317443e-01 -1.484985e-02 7.078692e-02 1.966649e-02 1.867993e-01 1.130035e-02 -5.537903e-02 -1.478366e-02 6.162242e-02 4.194828e-02 -5.376827e-02 5.886831e-02 2.486142e-02 -6.502843e-02
<VARIANCE> 39
 1.147074e+02 3.855117e+01 4.192535e+01 7.208388e+01 6.467729e+01 2.200139e+01 5.801185e+01 3.210677e+01 1.998526e+01 4.477346e+01 3.347023e+01 2.414845e+01 4.754745e+01 7.552392e+00 1.983485e+00 1.789297e+00 7.025579e+00 4.159840e+00 2.361325e+00 4.906910e+00 2.886420e+00 1.985783e+00 2.829316e+00 2.756003e+00 1.923157e+00 3.578554e+00 1.104933e+00 2.660914e-01 2.924009e-01 1.004974e+00 7.272391e-01 4.273189e-01 7.734694e-01 4.459194e-01 4.048257e-01 4.826374e-01 5.738410e-01 3.556133e-01 4.137163e-01
<GCONST> 1.262843e+02
<TRANSP> 5
 0.000000e+00 1.000000e+00 0.000000e+00 0.000000e+00 0.000000e+00
 0.000000e+00 2.202628e-01 7.797372e-01 0.000000e+00 0.000000e+00
 0.000000e+00 0.000000e+00 2.660576e-01 7.339423e-01 0.000000e+00
 0.000000e+00 0.000000e+00 0.000000e+00 8.281378e-01 1.718623e-01
 0.000000e+00 0.000000e+00 0.000000e+00 0.000000e+00 0.000000e+00
<ENDHMM>
~h "ee"
<BEGINHMM>
<NUMSTATES> 5
<STATE> 2
<MEAN> 39
 2.059789e-01 5.262965e+00 2.299681e+00 -9.266596e+00 -5.098359e+00 6.608890e+00 -2.233119e+00 -1.397965e+01 3.320228e+00 -4.538781e+00 1.748040e+00 5.773353e+00 6.818563e+01 -4.613596e-01 8.370017e-01 5.181241e-01 1.178752e+00 9.324685e-01 -1.592895e-01 2.385529e-01 1.222301e+00 -2.863245e-01 -3.242317e-01 -1.552882e-01 -4.446099e-01 -1.010427e+00 -2.800587e-01 7.867078e-02 1.689086e-01 3.413048e-01 3.444532e-01 -3.185119e-01 -1.869403e-01 1.503295e-01 -1.609291e-01 -2.791528e-02 3.393568e-02 -1.674815e-01 -8.942346e-02
<VARIANCE> 39
 3.310457e+01 1.934195e+01 1.038881e+01 6.024651e+01 3.031806e+01 4.860635e+01 3.108032e+01 5.315532e+01 2.089337e+01 1.346936e+01 1.707400e+01 3.257764e+01 3.831916e+01 1.448542e+00 1.345642e+00 1.038920e+00 4.010127e+00 3.515485e+00 3.859944e+00 1.320470e+00 2.100834e+00 2.367254e+00 1.408356e+00 1.412615e+00 2.250871e+00 5.766637e-01 3.760798e-01 2.493156e-01 2.171249e-01 4.634906e-01 5.113326e-01 5.254749e-01 2.062041e-01 3.682812e-01 4.179361e-01 2.985054e-01 3.671463e-01 2.893789e-01 7.931235e-02
<GCONST> 1.070106e+02
<STATE> 3
<MEAN> 39
 -4.077649e-01 7.858641e+00 3.455380e+00 -6.351334e+00 -3.063301e+00 6.370987e+00 -1.165910e+00 -1.021680e+01 1.780145e+00 -5.563819e+00 2.032297e+00 5.566702e+00 6.509862e+01 -7.286754e-01 9.419402e-01 8.468856e-01 2.248873e+00 1.634226e+00 -1.099268e+00 -2.506346e-01 1.476740e+00 -6.829837e-01 -4.804149e-01 1.357823e-01 -9.163160e-01 -1.197495e+00 -7.373436e-02 -1.410884e-01 -1.771998e-02 2.405703e-02 3.705703e-02 -1.164679e-01 -9.983096e-02 -9.755930e-02 -5.526762e-02 7.123081e-02 1.640369e-01 -7.229149e-02 6.648776e-02
<VARIANCE> 39
 2.588549e+01 1.216820e+01 1.024696e+01 5.524475e+01 2.559159e+01 4.048623e+01 1.692371e+01 3.547943e+01 1.395634e+01 8.867918e+00 1.015303e+01 3.327066e+01 2.545044e+01 5.544149e-01 8.686193e-01 7.454185e-01 3.027869e+00 2.282463e+00 3.331627e+00 1.473673e+00 1.305740e+00 1.881224e+00 1.045080e+00 9.039319e-01 2.056062e+00 3.749354e-01 9.840319e-02 1.610390e-01 1.829364e-01 5.781367e-01 4.324641e-01 5.965557e-01 2.326798e-01 3.179611e-01 3.993212e-01 2.210408e-01 1.830896e-01 3.344941e-01 6.275148e-02
<GCONST> 9.572932e+01
<STATE> 4
<MEAN> 39
 -2.032665e+00 1.022841e+01 5.322150e+00 -8.436577e-01 1.104013e+00 3.075952e+00 -2.365412e+00 -7.657174e+00 -4.204977e-01 -6.132375e+00 3.312959e+00 3.392661e+00 6.223925e+01 -7.303185e-01 3.458852e-01 3.036355e-01 1.329696e+00 1.037988e+00 -6.194493e-01 2.358489e-03 7.402937e-01 -4.152030e-01 3.384437e-01 2.980914e-01 -7.164344e-01 -8.293114e-01 3.705756e-02 -2.762842e-01 -2.614030e-01 -4.555461e-01 -3.231842e-01 2.940443e-01 1.711755e-01 -2.292339e-01 2.174778e-01 2.861074e-01 -1.863048e-02 2.097246e-01 1.485510e-01
<VARIANCE> 39
 1.799249e+01 7.085888e+00 6.071511e+00 1.629395e+01 1.130572e+01 1.621525e+01 1.785700e+01 2.129627e+01 1.104813e+01 1.049476e+01 9.101686e+00 2.253787e+01 1.058665e+01 1.696111e-01 6.058126e-01 8.595506e-01 1.895396e+00 1.343001e+00 1.752250e+00 1.194399e+00 1.118347e+00 1.376521e+00 1.296237e+00 7.785956e-01 1.701349e+00 1.634702e-01 2.101582e-02 7.445059e-02 1.105420e-01 2.207952e-01 1.894701e-01 3.581430e-01 2.372616e-01 2.630230e-01 2.733642e-01 2.150066e-01 1.446157e-01 2.882102e-01 2.285940e-02
<GCONST> 7.768765e+01
<TRANSP> 5
 0.000000e+00 1.000000e+00 0.000000e+00 0.000000e+00 0.000000e+00
 0.000000e+00 4.483395e-01 5.516605e-01 0.000000e+00 0.000000e+00
 0.000000e+00 0.000000e+00 3.981885e-01 6.018115e-01 0.000000e+00
 0.000000e+00 0.000000e+00 0.000000e+00 4.804105e-01 5.195895e-01
 0.000000e+00 0.000000e+00 0.000000e+00 0.000000e+00 0.000000e+00
<ENDHMM>
~h "hh"
<BEGINHMM>
<NUMSTATES> 5
<STATE> 2
<MEAN> 39
 1.306619e+00 1.899033e+00 3.272379e+00 -2.183025e+00 -3.395884e+00 3.411770e+00 -6.476843e+00 -7.463523e+00 9.958437e+00 -7.207288e+00 -4.743510e+00 2.809268e+00 7.310936e+01 1.270078e-01 2.714896e-01 -9.150730e-02 2.339566e-01 -1.111196e-01 -5.170458e-01 -7.353951e-02 2.886733e-01 4.331071e-01 -2.755667e-01 -1.348725e-01 4.060148e-01 -3.416341e-01 -7.949402e-02 8.212401e-02 3.522158e-02 1.419231e-02 1.444026e-01 2.364534e-02 -1.482546e-02 3.674054e-02 -8.925674e-02 4.701066e-02 1.196777e-01 2.008011e-02 -9.271022e-02
<VARIANCE> 39
 5.110176e+00 1.013122e+01 6.101593e+00 2.439442e+01 3.572556e+01 2.874391e+01 2.004993e+01 3.472688e+01 1.437547e+02 2.674715e+01 2.133618e+01 1.472734e+01 7.144417e+00 6.524909e-01 1.221274e+00 5.364046e-01 1.173910e+00 3.254089e+00 1.050148e+00 1.366479e+00 3.530669e+00 5.438438e+00 2.231786e+00 1.876217e+00 8.732594e-01 7.443370e-01 1.387802e-01 2.154542e-01 1.102650e-01 2.237579e-01 4.549465e-01 1.824951e-01 2.562119e-01 6.598670e-01 5.399646e-01 3.845896e-01 2.954357e-01 1.815158e-01 8.669934e-02
<GCONST> 9.646487e+01
<STATE> 3
<MEAN> 39
 1.859694e+00 4.934619e+00 2.401885e+00 9.495984e-01 -3.829636e+00 -1.976951e+00 -8.521086e+00 -4.198635e+00 1.377300e+01 -1.072712e+01 -5.050840e+00 6.183002e+00 6.940358e+01 -1.233076e-01 9.578575e-01 2.325226e-01 4.347413e-01 9.796511e-01 -4.104522e-01 4.281148e-01 5.475245e-01 -1.551327e+00 1.186372e-01 8.932536e-01 -1.147879e-01 -1.184030e+00 -9.042919e-02 -2.851204e-02 6.830367e-02 6.729849e-02 6.147182e-02 4.226070e-02 8.775713e-02 -6.844477e-03 -5.859436e-02 2.806536e-01 -1.416825e-02 -3.033743e-01 -2.670794e-02
<VARIANCE> 39
 1.427399e+00 9.986813e+00 4.965764e+00 5.986208e+00 1.334956e+01 1.576826e+01 1.073609e+01 1.305562e+01 2.415569e+01 1.191090e+01 1.480496e+01 9.919762e+00 9.636406e+00 1.776039e-01 7.857128e-01 2.874068e-01 6.679218e-01 1.712556e+00 6.525744e-01 1.129950e+00 1.128691e+00 2.188201e+00 1.841191e+00 1.479791e+00 1.444645e+00 4.687302e-01 3.644638e-02 1.650082e-01 5.763834e-02 1.167471e-01 2.462207e-01 1.407831e-01 1.988263e-01 1.549959e-01 3.876878e-01 2.566333e-01 2.904668e-01 2.061369e-01 7.397173e-02
<GCONST> 7.438185e+01
<STATE> 4
<MEAN> 39
 -4.862419e+00 8.295366e+00 4.127213e+00 3.834275e+00 8.795144e-01 -6.803343e+00 -6.473883e+00 -3.024138e+00 3.498679e+00 -5.823083e+00 -2.268378e+00 3.763047e-01 6.002039e+01 -6.128309e-01 3.948773e-02 2.472994e-02 2.005063e-02 1.261045e-01 3.931468e-02 3.110609e-01 -1.009602e-01 -5.994890e-01 3.409200e-01 1.027631e-01 -4.475808e-01 -5.333158e-01 -1.372759e-02 -5.539113e-02 -6.972754e-03 -2.148951e-02 -4.731283e-02 5.867977e-02 2.070561e-02 -2.786157e-02 8.361974e-02 -4.252622e-02 -3.048751e-02 9.626062e-03 4.761085e-02
<VARIANCE> 39
 2.097481e+01 4.055996e+00 4.202448e+00 5.671237e+00 5.984980e+00 1.150726e+01 1.135451e+01 1.058972e+01 2.160638e+01 1.500813e+01 8.772878e+00 1.487241e+01 1.093785e+01 1.140533e-01 3.494712e-01 4.372739e-01 5.710754e-01 7.029850e-01 7.301918e-01 7.261679e-01 9.446753e-01 1.207606e+00 1.539454e+00 1.075528e+00 1.178129e+00 1.111376e-01 2.232717e-02 4.364890e-02 7.584268e-02 1.045315e-01 1.225913e-01 1.303973e-01 1.315330e-01 1.851271e-01 2.585158e-01 3.181916e-01 2.337763e-01 2.336740e-01 6.993576e-03
<GCONST> 6.437468e+01
<TRANSP> 5
 0.000000e+00 1.000000e+00 0.000000e+00 0.000000e+00 0.000000e+00
 0.000000e+00 9.142151e-01 8.578485e-02 0.000000e+00 0.000000e+00
 0.000000e+00 0.000000e+00 7.570561e-01 2.429439e-01 0.000000e+00
 0.000000e+00 0.000000e+00 0.000000e+00 9.358996e-01 6.410048e-02
 0.000000e+00 0.000000e+00 0.000000e+00 0.000000e+00 0.000000e+00
<ENDHMM>
~h "ii"
<BEGINHMM>
<NUMSTATES> 5
<STATE> 2
<MEAN> 39
 -6.938881e+00 4.974409e+00 8.910326e+00 2.924642e+00 -1.060421e+00 -2.509429e+00 -1.339930e+00 -9.179029e+00 4.157292e+00 -3.443690e+00 -3.249567e+00 -2.902054e+00 6.621501e+01 -1.175919e-01 2.365530e-02 -1.324960e-01 3.944119e-02 1.911711e-01 1.153197e-01 5.562251e-01 4.953772e-02 2.280730e-01 2.958426e-01 -4.446375e-02 -2.009429e-01 -3.045200e-01 -1.756934e-01 -7.928699e-02 -4.278024e-02 -3.667720e-02 1.619194e-01 9.044357e-02 -9.221950e-04 3.575729e-01 -1.119436e-01 -9.677150e-02 1.496623e-01 1.528053e-01 -8.250526e-02
<VARIANCE> 39
 2.076188e+01 7.659823e+00 3.901002e+01 9.068270e+00 1.972894e+01 1.153317e+01 1.279328e+01 4.427813e+01 2.021897e+01 1.280033e+01 1.330957e+01 2.598053e+01 7.332651e+01 4.069997e-01 5.900491e-01 7.929258e-01 6.837548e-01 1.069462e+00 9.132131e-01 1.064665e+00 2.460350e+00 1.144917e+00 6.946479e-01 1.455416e+00 8.175384e-01 5.595186e-01 5.083606e-02 1.278568e-01 1.956611e-01 1.278600e-01 1.861268e-01 1.644559e-01 2.156201e-01 3.644192e-01 2.138639e-01 1.456901e-01 1.791310e-01 1.976182e-01 3.090442e-02
<GCONST> 8.330235e+01
<STATE> 3
<MEAN> 39
 -7.337476e+00 5.149524e+00 8.707235e+00 2.885411e+00 -6.174974e-01 -1.858304e+00 1.720428e-02 -8.432057e+00 4.301561e+00 -2.829917e+00 -2.648002e+00 -3.213128e+00 6.559383e+01 -3.115497e-01 -1.315592e-01 -2.819031e-01 -2.001602e-01 3.023458e-01 1.173760e-01 3.780483e-01 4.502690e-01 9.095155e-02 2.892660e-01 2.006886e-01 -5.394381e-02 -3.587385e-01 -9.123931e-02 -2.869352e-02 -4.316664e-02 -1.323430e-02 6.515243e-02 -7.623531e-02 -1.116611e-01 2.263391e-01 -6.253816e-02 -1.161999e-01 8.281116e-02 1.510150e-01 -1.298115e-02
<VARIANCE> 39
 1.846717e+01 8.060673e+00 4.064073e+01 8.956535e+00 2.218110e+01 1.662332e+01 1.140005e+01 6.225319e+01 1.710768e+01 1.206513e+01 1.340611e+01 2.497133e+01 7.647910e+01 3.901654e-01 5.911536e-01 9.698445e-01 6.594106e-01 8.743443e-01 1.056679e+00 1.400833e+00 1.853058e+00 1.403784e+00 7.737927e-01 1.120519e+00 6.834996e-01 4.518703e-01 3.400616e-02 1.042210e-01 1.961288e-01 1.383902e-01 2.107119e-01 1.931157e-01 2.608831e-01 3.842914e-01 2.408179e-01 1.469724e-01 2.100155e-01 1.979871e-01 3.134941e-02
<GCONST> 8.378024e+01
<STATE> 4
<MEAN> 39
 -8.971266e+00 4.851101e+00 6.823153e+00 2.437791e+00 4.081913e-01 -1.042145e+00 1.330515e+00 -5.383223e+00 4.066062e+00 -2.196230e+00 -1.331211e+00 -2.712095e+00 6.286855e+01 -5.379804e-01 -3.279530e-01 -5.224561e-01 -3.253391e-01 3.832316e-02 -2.198353e-01 1.394390e-01 4.151908e-01 -1.082219e-01 8.622706e-02 2.179142e-01 9.105790e-02 -3.712032e-01 -3.575280e-02 4.874125e-02 1.041088e-02 4.427307e-02 7.313436e-02 -7.590456e-02 -1.712452e-01 4.737557e-02 -3.486275e-02 -1.326283e-01 1.031622e-02 1.310654e-01 2.896129e-02
<VARIANCE> 39
 1.788241e+01 7.106648e+00 4.086997e+01 8.760259e+00 2.076301e+01 1.938616e+01 1.117844e+01 6.687862e+01 1.460008e+01 8.976227e+00 1.396379e+01 2.102982e+01 8.032616e+01 3.693209e-01 5.154572e-01 1.421256e+00 9.167649e-01 1.096288e+00 9.401954e-01 1.426239e+00 1.517207e+00 1.321197e+00 1.107413e+00 8.653084e-01 8.800040e-01 3.088738e-01 2.867915e-02 8.636568e-02 2.249729e-01 1.844667e-01 2.874149e-01 2.196538e-01 2.448529e-01 3.615139e-01 3.104475e-01 1.986805e-01 1.592942e-01 1.812843e-01 2.264835e-02
<GCONST> 8.381461e+01
<TRANSP> 5
 0.000000e+00 1.000000e+00 0.000000e+00 0.000000e+00 0.000000e+00
 0.000000e+00 4.469050e-01 5.530950e-01 0.000000e+00 0.000000e+00
 0.000000e+00 0.000000e+00 4.505861e-01 5.494139e-01 0.000000e+00
 0.000000e+00 0.000000e+00 0.000000e+00 4.818806e-01 5.181194e-01
 0.000000e+00 0.000000e+00 0.000000e+00 0.000000e+00 0.000000e+00
<ENDHMM>
~h "ng"
<BEGINHMM>
<NUMSTATES> 5
<STATE> 2
<MEAN> 39
 -7.265220e+00 6.838250e+00 6.702078e+00 3.794085e+00 1.582940e+00 -3.614496e-01 -1.297856e+00 -3.270416e+00 1.370636e+00 -5.980892e+00 -2.341915e+00 -1.516689e+00 5.994587e+01 -5.794276e-01 -1.125015e-01 -5.690210e-01 -4.266314e-02 2.376986e-01 -1.809072e-01 4.342631e-02 7.740976e-02 -4.466564e-01 1.135262e-01 5.645121e-02 -1.484202e-01 -5.628260e-01 3.354834e-02 -5.188746e-02 -1.659125e-02 -1.330981e-01 -9.086313e-02 -3.444082e-02 -8.965632e-02 -1.300282e-01 3.734912e-02 7.071604e-02 -1.786586e-02 3.374600e-02 5.669003e-02
<VARIANCE> 39
 2.868105e+01 7.720482e+00 3.249841e+01 1.277845e+01 1.207337e+01 1.257422e+01 2.690362e+01 1.601551e+01 1.179570e+01 1.411931e+01 1.527963e+01 1.665986e+01 2.468178e+01 2.365177e-01 4.609886e-01 6.372848e-01 7.615957e-01 9.426252e-01 8.817518e-01 1.104594e+00 9.499096e-01 1.124449e+00 1.060487e+00 8.890299e-01 9.908103e-01 1.980865e-01 2.377504e-02 4.479972e-02 9.765688e-02 1.485685e-01 2.026131e-01 1.655941e-01 1.668064e-01 2.176384e-01 1.900187e-01 1.976533e-01 1.887159e-01 1.706472e-01 1.562293e-02
<GCONST> 7.474515e+01
<STATE> 3
<MEAN> 39
 -9.107536e+00 6.623609e+00 4.847762e+00 3.185079e+00 1.994067e+00 -1.212093e+00 -1.528835e+00 -3.932984e+00 -5.340924e-01 -5.941001e+00 -2.555277e+00 -2.636391e+00 5.801525e+01 -4.788936e-01 -2.596621e-01 -5.056770e-01 -2.086695e-01 3.688008e-02 -1.309015e-01 -7.920782e-02 -2.405273e-01 -3.551286e-01 1.585317e-01 1.115925e-01 -2.322971e-02 -3.913632e-01 2.904264e-02 -1.306174e-02 4.918201e-02 9.883021e-03 1.779703e-02 7.047269e-02 3.754155e-02 -5.595630e-03 6.293339e-02 2.154943e-02 9.152360e-02 6.137691e-02 3.224973e-02
<VARIANCE> 39
 2.385461e+01 6.454536e+00 1.703354e+01 1.045132e+01 7.293007e+00 1.294581e+01 2.428265e+01 1.674239e+01 1.196874e+01 1.472034e+01 1.550649e+01 1.638278e+01 1.841120e+01 2.121920e-01 4.300912e-01 6.203989e-01 6.054332e-01 6.865022e-01 8.959953e-01 8.629346e-01 8.553232e-01 1.086378e+00 9.390889e-01 9.960620e-01 1.142081e+00 1.122720e-01 2.250435e-02 4.388522e-02 9.179904e-02 1.264298e-01 1.348784e-01 1.600282e-01 1.620616e-01 1.826335e-01 2.006102e-01 1.997021e-01 1.805227e-01 1.747856e-01 1.519549e-02
<GCONST> 7.028000e+01
<STATE> 4
<MEAN> 39
 -1.256106e+01 5.064810e+00 2.796559e+00 2.551163e+00 2.078646e+00 -1.066378e+00 -5.715096e-01 -4.011340e+00 -1.182792e+00 -4.446360e+00 -8.384469e-01 -2.509492e+00 5.542535e+01 -3.182785e-01 -2.660417e-01 -2.288162e-01 -1.215368e-01 4.871108e-02 1.618804e-01 2.198618e-01 1.433999e-01 1.445752e-01 2.630102e-01 2.839642e-01 1.597153e-01 -1.699872e-01 1.223498e-02 1.250882e-02 2.626322e-02 -5.317350e-03 6.518802e-03 -3.608628e-03 5.578615e-03 3.553385e-02 4.928619e-02 6.971929e-03 3.036336e-03 -5.810103e-03 9.926296e-03
<VARIANCE> 39
 8.339474e+00 4.019855e+00 6.936452e+00 6.503537e+00 5.236330e+00 7.483232e+00 1.215930e+01 1.218408e+01 1.219680e+01 1.501658e+01 1.365314e+01 1.165490e+01 4.805199e+00 1.196828e-01 2.283173e-01 3.206447e-01 4.484427e-01 5.332321e-01 6.841491e-01 7.530846e-01 8.698620e-01 8.945283e-01 1.027586e+00 8.531222e-01 8.875215e-01 4.339503e-02 1.694608e-02 3.714442e-02 6.877457e-02 9.117694e-02 1.092915e-01 1.454683e-01 1.540070e-01 1.704667e-01 1.710177e-01 1.994539e-01 1.814179e-01 1.816938e-01 6.524939e-03
<GCONST> 5.699758e+01
<TRANSP> 5
 0.000000e+00 1.000000e+00 0.000000e+00 0.000000e+00 0.000000e+00
 0.000000e+00 5.057049e-01 4.942951e-01 0.000000e+00 0.000000e+00
 0.000000e+00 0.000000e+00 4.958272e-01 5.041728e-01 0.000000e+00
 0.000000e+00 0.000000e+00 0.000000e+00 8.185895e-01 1.814105e-01
 0.000000e+00 0.000000e+00 0.000000e+00 0.000000e+00 0.000000e+00
<ENDHMM>
~h "nn"
<BEGINHMM>
<NUMSTATES> 5
<STATE> 2
<MEAN> 39
 -1.245402e+01 4.805708e+00 1.482369e+00 3.651214e-01 3.374578e-01 -1.772941e+00 -7.897189e-01 -3.944652e+00 -4.623058e-01 -1.741930e+00 3.011191e+00 7.067096e-01 5.538956e+01 -4.005943e-01 -3.060185e-01 -1.005837e-01 7.421125e-02 8.937646e-02 1.635454e-01 2.786546e-01 3.191500e-01 3.006793e-01 1.825067e-01 2.669960e-03 5.719234e-02 -1.912656e-01 3.398662e-02 2.148683e-02 4.637446e-03 2.035829e-02 4.424621e-02 2.638916e-02 2.553963e-02 1.183085e-03 -8.070421e-03 -1.886052e-02 -5.005924e-03 -4.795592e-03 1.751715e-02
<VARIANCE> 39
 3.506252e+00 3.925611e+00 3.768504e+00 4.874125e+00 6.156079e+00 1.026704e+01 1.295084e+01 1.326718e+01 1.230140e+01 1.029906e+01 1.054657e+01 8.697336e+00 8.806789e-01 1.383533e-01 2.522904e-01 4.119089e-01 5.335517e-01 5.983990e-01 8.434791e-01 9.212606e-01 1.007717e+00 1.054946e+00 1.085703e+00 1.234966e+00 8.362248e-01 4.999607e-02 2.355498e-02 4.747584e-02 8.462992e-02 1.157786e-01 1.218855e-01 1.712608e-01 1.787983e-01 1.924466e-01 2.137923e-01 2.183768e-01 2.633201e-01 1.664039e-01 8.807591e-03
<GCONST> 5.769574e+01
<STATE> 3
<MEAN> 39
 -1.474175e+01 2.802166e+00 5.673691e-01 8.051288e-01 1.448544e+00 -1.498320e-01 1.661932e+00 -1.766131e+00 1.441053e+00 -7.007048e-01 2.929037e+00 5.588793e-01 5.433858e+01 -2.090121e-01 -1.521919e-01 -7.195790e-02 8.979547e-02 2.175537e-01 2.182562e-01 3.497799e-01 3.769456e-01 2.856357e-01 1.691668e-01 9.842633e-02 6.501834e-02 -1.091785e-01 5.030847e-02 4.438896e-02 2.542746e-02 -9.988013e-03 1.278783e-02 5.181998e-03 -1.643300e-02 3.514138e-02 2.253472e-02 -1.042878e-02 -2.803114e-02 -1.424977e-02 2.111082e-02
<VARIANCE> 39
 1.089834e+00 1.575652e+00 2.907579e+00 4.930707e+00 7.066358e+00 8.647468e+00 9.256467e+00 9.345707e+00 8.824709e+00 7.488914e+00 8.962042e+00 7.718403e+00 6.052197e-01 1.309919e-01 2.036535e-01 4.131439e-01 6.224488e-01 8.355057e-01 7.137418e-01 8.927882e-01 1.187572e+00 9.686155e-01 8.523850e-01 1.060455e+00 8.404242e-01 4.708543e-02 2.445924e-02 4.351028e-02 8.498304e-02 1.301935e-01 1.765813e-01 1.498286e-01 1.824113e-01 2.635618e-01 1.839787e-01 1.698329e-01 2.089570e-01 1.635459e-01 9.319529e-03
<GCONST> 5.304143e+01
<STATE> 4
<MEAN> 39
 -1.627742e+01 1.379339e+00 2.463894e-02 1.233280e+00 2.845266e+00 1.638052e+00 4.091727e+00 1.261176e+00 4.000926e+00 8.506670e-01 3.834733e+00 9.478134e-01 5.353679e+01 -2.755123e-02 -3.076599e-02 -1.815275e-02 -6.345415e-03 1.251406e-02 2.401013e-02 3.309446e-02 5.369462e-02 4.867183e-02 2.167812e-02 2.409259e-02 1.640397e-02 -1.350900e-02 5.530813e-03 2.191482e-03 -1.855348e-03 -2.118566e-03 -1.454747e-03 -8.028064e-04 -6.830989e-03 -1.015723e-02 -4.092820e-03 -3.387545e-03 -2.591175e-04 3.051134e-04 3.518865e-03
<VARIANCE> 39
 8.841926e-01 1.541954e+00 2.645334e+00 4.178092e+00 5.307837e+00 6.381221e+00 7.742265e+00 8.334675e+00 8.896965e+00 9.992361e+00 9.287087e+00 8.713131e+00 6.052197e-01 7.234790e-02 1.537424e-01 2.870168e-01 4.269517e-01 5.828984e-01 7.222097e-01 8.180733e-01 8.781607e-01 9.957534e-01 1.094280e+00 9.567081e-01 8.747700e-01 2.142083e-02 1.476514e-02 3.143011e-02 6.250516e-02 9.022216e-02 1.206966e-01 1.481742e-01 1.720740e-01 1.824868e-01 2.090162e-01 2.292519e-01 1.946125e-01 1.742714e-01 4.594273e-03
<GCONST> 4.658542e+01
<TRANSP> 5
 0.000000e+00 1.000000e+00 0.000000e+00 0.000000e+00 0.000000e+00
 0.000000e+00 8.969623e-01 1.030377e-01 0.000000e+00 0.000000e+00
 0.000000e+00 0.000000e+00 7.079614e-01 2.920385e-01 0.000000e+00
 0.000000e+00 0.000000e+00 0.000000e+00 9.788257e-01 2.117433e-02
 0.000000e+00 0.000000e+00 0.000000e+00 0.000000e+00 0.000000e+00
<ENDHMM>
~h "s0"
<BEGINHMM>
<NUMSTATES> 5
<STATE> 2
<MEAN> 39
 -6.712044e+00 7.400634e+00 1.920019e+00 -7.227634e+00 1.887044e+00 2.781092e+00 -3.018938e+00 -8.162046e+00 5.392532e+00 -5.293191e+00 -9.855504e-01 -2.683363e+00 7.356861e+01 4.143690e-01 1.986277e-02 -9.509501e-01 -1.002322e+00 -1.076202e-01 1.115751e+00 3.512944e-01 6.241545e-01 -6.127484e-03 -3.173600e-01 1.800864e-01 5.333257e-01 -2.475625e-01 7.594952e-03 2.835611e-02 5.256633e-02 4.723376e-02 -3.220456e-02 2.095629e-04 5.011090e-02 -6.840751e-04 -5.148453e-02 2.660908e-03 7.704580e-03 -4.094611e-02 -6.209086e-02
<VARIANCE> 39
 6.201772e+01 1.191850e+01 7.042570e+01 7.378097e+01 6.123719e+01 9.789620e+01 4.369872e+01 2.934971e+01 2.391334e+01 1.581797e+01 1.990865e+01 4.645622e+01 5.498314e+00 5.461035e+00 1.494243e+00 1.689106e+00 2.526531e+00 5.394631e+00 3.275370e+00 3.837379e+00 1.822598e+00 3.423358e+00 2.274573e+00 2.037262e+00 2.914366e+00 4.456271e-01 6.773466e-01 2.885589e-01 2.926389e-01 4.483139e-01 6.827319e-01 6.268394e-01 6.245786e-01 3.580632e-01 6.767246e-01 4.975470e-01 3.807385e-01 5.351944e-01 7.455295e-02
<GCONST> 1.172704e+02
<STATE> 3
<MEAN> 39
 3.767300e+00 6.750855e+00 -4.028537e+00 -1.670097e+01 -5.799259e+00 1.441333e+01 6.309070e+00 -1.922042e+00 4.785554e+00 -9.086914e+00 -7.256702e-01 3.178414e+00 6.893649e+01 -4.545398e-01 8.960938e-01 1.157487e+00 1.826304e+00 8.087561e-01 -1.386255e+00 -2.696999e-01 4.916860e-01 -8.825451e-01 -5.983729e-01 -8.137225e-02 -3.931009e-01 -1.268592e+00 -2.757871e-01 1.133572e-01 2.107173e-01 3.650337e-01 2.167594e-01 -2.278116e-01 -2.364948e-01 -1.445279e-01 1.029869e-01 1.415927e-01 5.398442e-02 6.223413e-03 -5.586951e-02
<VARIANCE> 39
 3.689041e+00 5.877139e+00 1.377729e+01 2.397804e+01 1.715412e+01 2.043785e+01 8.280956e+00 7.401682e+00 1.050339e+01 8.698750e+00 1.006411e+01 9.145191e+00 9.439835e+00 7.961152e-01 5.043314e-01 1.129554e+00 2.650347e+00 1.756287e+00 1.920209e+00 1.162646e+00 7.673395e-01 1.053380e+00 9.043567e-01 6.513368e-01 1.468632e+00 2.407283e-01 8.227516e-02 9.921235e-02 1.789825e-01 4.615846e-01 3.445559e-01 3.981976e-01 2.115547e-01 1.573402e-01 2.761649e-01 1.939239e-01 1.362180e-01 2.659691e-01 5.715020e-02
<GCONST> 7.978196e+01
<STATE> 4
<MEAN> 39
 -3.000450e-02 1.069337e+01 1.538940e+00 -6.966567e+00 -1.171533e+00 8.190096e+00 4.901092e+00 -6.674320e-01 2.243940e+00 -9.472113e+00 -1.031021e+00 1.302181e+00 6.329178e+01 -1.063617e+00 3.646395e-01 9.766371e-01 1.781887e+00 9.659373e-01 -6.569970e-01 6.787928e-02 3.024712e-01 -3.312273e-01 4.382442e-01 1.450820e-01 -4.943181e-01 -9.951631e-01 1.544061e-02 -3.080924e-01 -3.833171e-01 -2.934996e-01 -3.491376e-02 2.898130e-01 2.605489e-01 4.981276e-02 1.494271e-02 2.310538e-01 -3.404769e-02 -5.107239e-02 1.363940e-01
<VARIANCE> 39
 7.795647e+00 3.084810e+00 8.437020e+00 2.198374e+01 1.116148e+01 9.110723e+00 7.995913e+00 8.084781e+00 5.534484e+00 8.879906e+00 5.367959e+00 9.005001e+00 6.388078e+00 2.456785e-01 6.712217e-01 7.985580e-01 8.328669e-01 6.690052e-01 9.852090e-01 1.158008e+00 8.693399e-01 6.852850e-01 7.889226e-01 5.205386e-01 9.247621e-01 7.515115e-02 2.545347e-02 3.947409e-02 8.188049e-02 1.749709e-01 1.312232e-01 1.231483e-01 1.708527e-01 1.957768e-01 1.165659e-01 1.211194e-01 9.937242e-02 1.795444e-01 1.583081e-02
<GCONST> 6.083981e+01
<TRANSP> 5
 0.000000e+00 1.000000e+00 0.000000e+00 0.000000e+00 0.000000e+00
 0.000000e+00 9.496630e-01 5.033705e-02 0.000000e+00 0.000000e+00
 0.000000e+00 0.000000e+00 7.344362e-01 2.655638e-01 0.000000e+00
 0.000000e+00 0.000000e+00 0.000000e+00 6.856294e-01 3.143707e-01
 0.000000e+00 0.000000e+00 0.000000e+00 0.000000e+00 0.000000e+00
<ENDHMM>
~h "uu"
<BEGINHMM>
<NUMSTATES> 5
<STATE> 2
<MEAN> 39
 -2.037802e+01 -4.216390e+00 2.169297e+00 -6.725114e+00 -7.185222e-01 3.309170e+00 -1.657300e+00 9.457591e-01 3.594268e+00 -3.598273e-01 6.642323e+00 -1.293272e+00 6.296085e+01 -9.936727e-01 -3.497431e-02 5.646238e-01 -4.748819e-01 -4.946725e-01 4.448268e-01 -1.014931e+00 -7.942713e-01 5.173410e-01 -4.849973e-01 5.297135e-01 -4.724211e-01 1.330861e+00 4.898263e-01 5.049794e-01 1.690573e-01 1.612684e-01 -1.945040e-01 -1.686881e-01 -9.037691e-02 -3.802562e-01 2.993485e-01 -2.302296e-02 -3.323831e-01 -8.258897e-03 -3.404615e-02
<VARIANCE> 39
 2.776247e+01 2.827279e+01 9.326778e+00 3.959093e+01 3.236782e+01 1.960664e+01 4.004748e+01 2.125714e+01 1.529560e+01 1.907856e+01 1.093482e+01 3.206067e+01 6.651535e+01 3.626591e+00 1.560719e+00 6.676167e-01 2.626105e+00 2.988400e+00 1.233255e+00 2.661509e+00 1.683430e+00 2.983794e+00 1.756489e+00 1.562726e+00 1.807741e+00 2.266682e+00 6.629910e-01 2.255008e-01 3.019938e-01 3.649939e-01 8.101555e-01 2.695426e-01 3.522493e-01 3.875706e-01 5.444209e-01 2.521254e-01 3.268909e-01 3.032622e-01 2.676556e-01
<GCONST> 1.085659e+02
<STATE> 3
<MEAN> 39
 -2.332882e+01 -5.087473e+00 3.820165e+00 -9.045311e+00 -3.206380e+00 5.088204e+00 -5.625390e+00 -3.180732e+00 5.611000e+00 -1.276630e+00 9.022431e+00 -4.549945e+00 6.843087e+01 5.854714e-01 8.120988e-01 5.180039e-01 2.624160e-01 8.810341e-03 1.894164e-01 -8.442125e-01 -1.141687e+00 7.224618e-01 -3.429889e-01 -1.084002e-01 -6.572875e-02 9.859310e-01 1.036129e+00 4.621439e-01 1.399675e-01 2.299270e-01 -6.419122e-02 -6.316341e-02 9.974396e-02 -2.471738e-01 -8.807090e-02 -1.949153e-02 -5.392376e-01 1.872368e-01 -1.144624e-01
<VARIANCE> 39
 3.254042e+01 2.014080e+01 1.064298e+01 3.375653e+01 4.898198e+01 1.977360e+01 3.728718e+01 2.533300e+01 1.917325e+01 1.668624e+01 1.693517e+01 3.793446e+01 6.318977e+01 6.841483e+00 1.590768e+00 1.123302e+00 2.162767e+00 3.742795e+00 1.733243e+00 1.629816e+00 1.363540e+00 2.437839e+00 1.278878e+00 2.146732e+00 1.567676e+00 1.252355e+00 4.943148e-01 3.176295e-01 4.027815e-01 4.640741e-01 1.359949e+00 4.039728e-01 4.076911e-01 4.728984e-01 5.959015e-01 3.478912e-01 2.862532e-01 3.064269e-01 3.659187e-01
<GCONST> 1.118853e+02
<STATE> 4
<MEAN> 39
 -4.166635e+00 6.815050e-01 5.473716e+00 -3.919315e+00 -2.839867e+00 6.656739e+00 -6.509677e+00 -1.020731e+01 4.873225e+00 -4.997108e+00 9.222276e-01 -1.236658e+00 7.293904e+01 1.660305e+00 4.930382e-01 8.189320e-02 4.019708e-01 -3.889207e-01 -2.355209e-01 -7.385806e-02 -4.143088e-01 3.112071e-01 -2.768504e-01 -1.076595e+00 2.678417e-01 2.262371e-01 -3.474995e-02 -4.479564e-02 1.545491e-02 -1.091642e-01 -2.151652e-01 -5.570678e-02 3.281888e-02 1.126094e-02 3.197922e-02 1.557448e-02 -8.020475e-02 -3.833904e-02 2.593827e-02
<VARIANCE> 39
 9.207028e+01 1.593713e+01 1.028468e+01 2.422104e+01 4.065883e+01 1.672546e+01 2.854195e+01 4.475669e+01 9.145322e+01 2.894944e+01 4.062693e+01 1.904410e+01 3.055589e+01 5.130739e+00 2.572770e+00 1.468253e+00 2.207683e+00 5.907066e+00 1.710069e+00 2.501230e+00 4.655469e+00 6.369300e+00 3.264861e+00 1.825272e+00 1.379805e+00 8.635625e-01 6.614088e-01 4.597426e-01 2.422511e-01 4.134265e-01 1.087711e+00 2.943187e-01 3.705525e-01 8.479186e-01 6.976426e-01 5.580852e-01 4.079745e-01 2.820802e-01 1.583985e-01
<GCONST> 1.177123e+02
<TRANSP> 5
 0.000000e+00 1.000000e+00 0.000000e+00 0.000000e+00 0.000000e+00
 0.000000e+00 2.588262e-01 7.411737e-01 0.000000e+00 0.000000e+00
 0.000000e+00 0.000000e+00 5.987157e-01 4.012842e-01 0.000000e+00
 0.000000e+00 0.000000e+00 0.000000e+00 8.703879e-01 1.296121e-01
 0.000000e+00 0.000000e+00 0.000000e+00 0.000000e+00 0.000000e+00
<ENDHMM>
~h "vv"
<BEGINHMM>
<NUMSTATES> 5
<STATE> 2
<MEAN> 39
 -1.214401e+00 8.862011e+00 4.848042e+00 -3.106861e+00 -1.356473e-01 3.024852e-01 1.522031e-01 -5.321710e+00 2.354252e-01 -8.084225e+00 2.603664e-01 1.849406e+00 6.588189e+01 -8.513373e-01 1.155365e-02 2.529846e-01 1.530649e-01 5.733930e-01 -1.895834e-01 -4.827912e-01 -1.488748e-01 7.430756e-02 1.698167e-01 7.598382e-02 -3.266390e-01 -2.596827e-01 -5.451290e-02 -8.066009e-02 -1.327078e-02 -1.193627e-01 -7.487221e-02 8.234224e-02 3.916792e-03 -2.154899e-02 3.229427e-02 4.393636e-02 -5.089259e-02 -8.483251e-02 7.070576e-02
<VARIANCE> 39
 4.024273e+01 8.086723e+00 1.633068e+01 2.735237e+01 3.161176e+01 1.441060e+01 2.753548e+01 2.003360e+01 1.915107e+01 2.829434e+01 2.194057e+01 1.678998e+01 3.005733e+01 2.140765e+00 6.166549e-01 1.238232e+00 2.620817e+00 1.704556e+00 1.421417e+00 1.622759e+00 1.294657e+00 1.457982e+00 1.554497e+00 1.456903e+00 1.467192e+00 4.943043e-01 2.705635e-01 6.453367e-02 1.487667e-01 3.582518e-01 2.827988e-01 1.890792e-01 2.944346e-01 2.580368e-01 2.944852e-01 2.557551e-01 2.554739e-01 2.287221e-01 6.326801e-02
<GCONST> 9.488933e+01
<STATE> 3
<MEAN> 39
 -5.400035e+00 8.092508e+00 5.272028e+00 -2.054342e+00 1.411019e+00 6.691992e-01 -1.795547e+00 -6.239204e+00 -1.311898e-02 -5.160634e+00 1.112306e+00 6.173843e-01 6.340390e+01 -6.446159e-01 -3.407736e-01 1.696330e-02 2.156812e-01 -1.234159e-02 -2.524191e-01 -3.337149e-01 -1.783939e-02 9.625994e-02 1.923812e-01 -6.667538e-02 -3.359075e-01 -2.352271e-01 1.056946e-01 -3.439083e-02 -6.868694e-02 3.890642e-03 -1.079896e-01 -3.549955e-02 2.078623e-02 1.088080e-02 -2.083433e-02 -3.457329e-02 -3.716488e-03 4.682260e-02 1.350013e-03
<VARIANCE> 39
 4.306783e+01 7.793791e+00 2.866925e+01 2.695285e+01 2.794506e+01 2.157728e+01 3.227192e+01 2.260762e+01 2.782994e+01 1.991269e+01 2.320562e+01 2.407982e+01 4.053722e+01 1.664638e+00 5.787877e-01 1.204879e+00 1.697910e+00 1.282869e+00 1.249130e+00 1.676882e+00 1.376630e+00 1.525239e+00 1.599354e+00 1.502177e+00 1.242479e+00 3.463775e-01 3.054524e-01 5.600547e-02 1.337020e-01 2.809246e-01 2.200483e-01 2.410985e-01 2.360572e-01 2.686999e-01 2.618790e-01 2.465164e-01 2.280688e-01 2.461950e-01 3.195979e-02
<GCONST> 9.381768e+01
<STATE> 4
<MEAN> 39
 -5.910013e+00 6.325450e+00 8.176826e+00 -4.932654e-02 5.054736e-02 -5.406014e-01 -5.128048e+00 -7.904464e+00 2.233141e+00 -4.529138e+00 -1.544341e+00 -8.288947e-01 6.402003e+01 -1.428572e-01 -1.464807e-01 -2.703919e-01 4.260795e-01 -2.306766e-01 -3.779376e-01 3.345441e-02 1.015181e-01 -1.864396e-01 -3.868755e-02 -1.334159e-02 6.307691e-02 -5.960283e-01 -5.838858e-02 2.818392e-02 -1.925067e-02 -3.014402e-02 5.778497e-02 3.950896e-02 5.670512e-02 5.360938e-02 -1.687451e-02 7.735261e-04 3.745443e-02 3.327935e-02 -3.688483e-02
<VARIANCE> 39
 2.191930e+01 7.385037e+00 5.080707e+01 1.494789e+01 1.536871e+01 1.415446e+01 3.385698e+01 1.906221e+01 4.365049e+01 1.340233e+01 3.064747e+01 1.696170e+01 4.988088e+01 1.335714e+00 6.047052e-01 5.442184e-01 8.656532e-01 1.251142e+00 8.982553e-01 1.300333e+00 1.086439e+00 9.675792e-01 1.117805e+00 1.067576e+00 9.535623e-01 3.142071e-01 1.197993e-01 6.912844e-02 1.067194e-01 1.087974e-01 1.602427e-01 1.721969e-01 2.320609e-01 1.904968e-01 1.633552e-01 2.328976e-01 2.282758e-01 1.766368e-01 2.212213e-02
<GCONST> 8.396862e+01
<TRANSP> 5
 0.000000e+00 1.000000e+00 0.000000e+00 0.000000e+00 0.000000e+00
 0.000000e+00 7.055300e-01 2.944700e-01 0.000000e+00 0.000000e+00
 0.000000e+00 0.000000e+00 5.447722e-01 4.552278e-01 0.000000e+00
 0.000000e+00 0.000000e+00 0.000000e+00 8.409963e-01 1.590037e-01
 0.000000e+00 0.000000e+00 0.000000e+00 0.000000e+00 0.000000e+00
<ENDHMM>
~h "wa"
<BEGINHMM>
<NUMSTATES> 5
<STATE> 2
<MEAN> 39
 -1.567380e+01 -5.207391e+00 -3.174644e-01 -9.686497e+00 1.748307e-01 -5.782008e-01 -2.537628e+00 2.557223e+00 1.024037e+00 4.247069e-02 7.168085e+00 -4.912341e-01 6.220156e+01 -1.422821e-01 -1.693749e+00 4.391490e-01 -3.871516e+00 -1.019359e+00 -8.865222e-01 -2.893126e+00 6.287190e-02 -1.167939e+00 -6.447303e-01 9.082564e-01 -3.038784e-01 3.294688e+00 -1.110373e-01 3.981050e-01 1.410702e-01 5.096838e-03 1.205494e-01 2.466294e-01 -1.006202e-01 -2.907019e-01 2.797127e-02 6.559641e-02 -1.200863e-01 2.371077e-01 8.382203e-02
<VARIANCE> 39
 1.455258e+01 1.924458e+01 1.939225e+01 6.456069e+01 1.957151e+01 1.440388e+01 5.071836e+01 1.689762e+01 1.835588e+01 1.599934e+01 1.231655e+01 1.439666e+01 4.669619e+01 3.196613e+00 2.507760e+00 2.994177e+00 3.731903e+00 3.051520e+00 2.158486e+00 3.562547e+00 2.344080e+00 1.518552e+00 3.117130e+00 1.813122e+00 1.669088e+00 2.521574e+00 7.957848e-01 3.422481e-01 6.383997e-01 1.185208e+00 4.897305e-01 2.985481e-01 1.105987e+00 4.950652e-01 4.531370e-01 5.585767e-01 3.605419e-01 2.647522e-01 8.768790e-01
<GCONST> 1.156742e+02
<STATE> 3
<MEAN> 39
 -9.288792e+00 -4.331128e+00 -1.900731e+00 -1.864680e+01 -3.844225e+00 2.609017e+00 -6.188839e+00 7.485218e-01 1.096869e+00 -2.285386e+00 5.073846e+00 2.020230e+00 7.109696e+01 1.844419e+00 4.410165e-01 -4.366106e-01 -8.810937e-01 -1.281658e+00 1.102330e+00 4.037955e-01 -3.112074e-01 5.210429e-01 -4.276423e-01 -8.472179e-01 3.731022e-01 1.181659e+00 2.756911e-01 1.313946e-01 -8.673901e-02 4.071654e-01 -1.807373e-01 2.352989e-01 4.500650e-01 -1.691241e-02 2.150604e-01 -8.121780e-03 -2.056865e-01 4.944681e-02 -2.367012e-01
<VARIANCE> 39
 1.050665e+02 2.303826e+01 2.757793e+01 1.310861e+01 8.450823e+01 3.786533e+01 4.733363e+01 2.013400e+01 3.308567e+01 2.792972e+01 3.700762e+01 2.714542e+01 1.573932e+01 7.084018e+00 3.468942e+00 2.997355e+00 3.511724e+00 5.831035e+00 1.950986e+00 7.285209e+00 2.559479e+00 4.088201e+00 3.498047e+00 3.855496e+00 1.477951e+00 2.707641e+00 1.193897e+00 7.704309e-01 6.340780e-01 4.437581e-01 1.037625e+00 3.150888e-01 9.431951e-01 6.237180e-01 7.509199e-01 7.990662e-01 7.070323e-01 3.457269e-01 5.845479e-01
<GCONST> 1.276397e+02
<STATE> 4
<MEAN> 39
 1.612884e+00 -2.261042e+00 -6.645586e-01 -1.124197e+01 -7.837664e+00 5.120748e+00 -6.362268e+00 -1.165221e+01 7.975795e+00 -3.764148e+00 -2.363049e+00 6.128549e+00 7.526075e+01 9.046218e-02 1.938839e-01 1.759417e-01 2.302544e-01 7.260382e-02 5.476625e-02 5.427027e-02 -3.175012e-01 -1.411325e-02 -4.818251e-02 6.029079e-02 1.465595e-01 -1.294727e-01 -7.761632e-02 4.667586e-02 3.635460e-02 8.069684e-02 1.168524e-01 -8.216269e-02 -3.207057e-02 5.109242e-02 -4.435020e-02 5.986822e-03 1.720696e-02 -4.014939e-02 -7.157847e-02
<VARIANCE> 39
 5.346826e+01 3.493388e+01 2.223114e+01 6.175635e+01 7.863255e+01 5.942297e+01 5.722725e+01 5.840336e+01 3.439011e+01 3.259262e+01 4.051002e+01 3.310865e+01 2.202897e+01 4.957031e+00 2.011322e+00 1.686548e+00 3.811320e+00 5.054496e+00 3.287953e+00 2.638666e+00 2.782568e+00 3.264167e+00 3.658967e+00 2.605592e+00 2.391342e+00 1.263578e+00 8.124214e-01 3.462932e-01 3.370361e-01 6.514888e-01 7.069556e-01 4.341135e-01 3.082812e-01 4.261622e-01 6.697343e-01 6.401802e-01 4.718388e-01 4.450863e-01 1.700459e-01
<GCONST> 1.236476e+02
<TRANSP> 5
 0.000000e+00 1.000000e+00 0.000000e+00 0.000000e+00 0.000000e+00
 0.000000e+00 6.177038e-01 3.822962e-01 0.000000e+00 0.000000e+00
 0.000000e+00 0.000000e+00 8.710412e-01 1.289588e-01 0.000000e+00
 0.000000e+00 0.000000e+00 0.000000e+00 9.734037e-01 2.659633e-02
 0.000000e+00 0.000000e+00 0.000000e+00 0.000000e+00 0.000000e+00
<ENDHMM>
~h "we"
<BEGINHMM>
<NUMSTATES> 5
<STATE> 2
<MEAN> 39
 -3.433053e+00 9.832134e+00 9.479537e+00 -4.862909e+00 -1.221382e+01 1.032118e+00 -1.719458e+00 -9.904515e+00 7.793853e+00 6.340477e-01 -5.925323e+00 -1.190495e+00 6.201175e+01 3.393931e+00 1.864439e+00 2.338619e+00 -1.861530e+00 -4.186858e+00 5.242369e-01 -8.350533e-01 -2.896229e+00 1.255143e+00 8.036924e-02 -2.794007e+00 -5.737131e-01 2.332146e+00 -8.638492e-02 -3.176522e-01 -1.623994e-01 -1.505726e-01 6.218192e-02 5.551847e-01 3.909832e-01 8.271714e-02 -1.111336e-02 -1.296283e-02 -7.526549e-03 1.172953e-01 6.637983e-02
<VARIANCE> 39
 4.506122e+01 1.661272e+01 2.674031e+01 2.326931e+01 7.853313e+01 2.253465e+01 1.116465e+01 3.614871e+01 2.164417e+01 1.188082e+01 4.234933e+01 8.614057e+00 2.440935e+01 5.020020e+00 2.645261e+00 3.661143e+00 1.567363e+00 1.123859e+01 2.782319e+00 2.055199e+00 6.447304e+00 2.048197e+00 1.200389e+00 5.391776e+00 8.783098e-01 1.928452e+00 6.032745e-01 3.487740e-01 3.776564e-01 3.378834e-01 1.450143e+00 6.144493e-01 3.571252e-01 7.832294e-01 3.981244e-01 1.950895e-01 7.970479e-01 1.596197e-01 2.790407e-01
<GCONST> 1.154227e+02
<STATE> 3
<MEAN> 39
 3.351141e+00 1.161228e+01 1.343132e+01 -1.058369e+01 -2.073527e+01 5.971367e+00 -9.587508e-01 -1.385869e+01 9.777256e+00 -8.419433e-01 -1.169869e+01 -3.995279e+00 6.819910e+01 8.232489e-01 1.927875e-01 -1.929392e-02 -6.014585e-01 -4.983366e-01 2.735370e-01 1.733178e-01 -1.126169e-01 -2.411876e-01 -5.689349e-01 -5.193061e-01 -4.560247e-01 7.644719e-01 -3.255005e-01 -2.210574e-01 -3.963821e-01 2.032871e-01 5.339916e-01 -1.229754e-01 1.086130e-01 2.804441e-01 -2.011065e-01 -1.150541e-01 3.113618e-01 9.724566e-02 -1.970796e-01
<VARIANCE> 39
 4.348354e+00 3.443275e+00 1.039259e+01 6.806484e+00 2.034824e+01 1.832256e+01 1.754413e+01 2.164439e+01 1.436294e+01 1.908100e+01 1.445855e+01 1.614929e+01 4.417366e+00 2.105455e+00 7.936245e-01 2.300653e+00 1.307214e+00 5.617819e+00 3.010859e+00 1.864879e+00 4.690901e+00 1.898074e+00 1.363514e+00 3.922873e+00 1.101954e+00 1.261563e+00 3.380821e-01 2.192622e-01 1.722984e-01 1.757949e-01 8.270383e-01 4.754446e-01 3.829165e-01 8.613259e-01 2.785922e-01 2.410908e-01 7.582473e-01 2.676708e-01 1.504181e-01
<GCONST> 9.798244e+01
<STATE> 4
<MEAN> 39
 7.230004e-01 4.734767e+00 2.364106e+00 -7.963943e+00 -6.072564e+00 3.317960e+00 -8.990683e+00 -2.067331e+01 7.336989e+00 -3.678368e+00 -3.806611e+00 2.169484e+00 7.280429e+01 -4.514706e-02 -2.473561e-01 -3.321193e-01 -1.307963e-01 3.794460e-01 2.019453e-01 -6.134239e-02 -2.422528e-01 -1.295129e-01 5.075469e-02 5.857343e-01 5.241171e-01 5.616431e-02 1.774639e-02 2.911722e-02 4.127252e-02 1.803080e-02 -3.731256e-02 3.245390e-02 8.758758e-03 7.062842e-02 4.045255e-02 1.909046e-02 7.655226e-03 -7.887751e-03 -4.920532e-02
<VARIANCE> 39
 6.330336e+01 2.891385e+01 2.631068e+01 4.406853e+01 7.894550e+01 2.229565e+01 8.741827e+01 6.049625e+01 4.417162e+01 2.520868e+01 4.650172e+01 3.280074e+01 1.471231e+01 6.440969e+00 2.860675e+00 2.553406e+00 3.782083e+00 4.779678e+00 2.331340e+00 6.718074e+00 5.492819e+00 4.184371e+00 3.911337e+00 4.013322e+00 3.355191e+00 1.396131e+00 1.080549e+00 4.208414e-01 3.714353e-01 6.055434e-01 6.829703e-01 4.305723e-01 9.092171e-01 8.306626e-01 6.894297e-01 8.440010e-01 9.590716e-01 6.815817e-01 1.976888e-01
<GCONST> 1.298827e+02
<TRANSP> 5
 0.000000e+00 1.000000e+00 0.000000e+00 0.000000e+00 0.000000e+00
 0.000000e+00 5.892962e-01 4.107038e-01 0.000000e+00 0.000000e+00
 0.000000e+00 0.000000e+00 8.976841e-01 1.023159e-01 0.000000e+00
 0.000000e+00 0.000000e+00 0.000000e+00 9.634171e-01 3.658286e-02
 0.000000e+00 0.000000e+00 0.000000e+00 0.000000e+00 0.000000e+00
<ENDHMM>
~h "sil"
<BEGINHMM>
<NUMSTATES> 5
<STATE> 2
<MEAN> 39
 -1.578117e+01 1.582861e+00 -8.101462e-01 3.157921e-01 3.156785e+00 1.611653e+00 4.055927e+00 1.630504e-01 3.548986e+00 4.763789e-01 3.733499e+00 5.311803e-01 5.449958e+01 -9.230101e-02 -3.530610e-02 3.801215e-02 4.337417e-02 -5.977402e-02 2.624055e-02 6.644336e-02 7.977909e-02 -2.901498e-04 -7.133178e-03 -9.497175e-03 1.444219e-01 -1.023790e-01 2.154033e-02 1.174561e-02 4.705502e-02 3.176525e-02 -3.362953e-02 -5.003078e-03 -1.461576e-02 4.668212e-02 3.626283e-02 3.916648e-02 8.520217e-03 -2.430559e-02 -2.490097e-02
<VARIANCE> 39
 3.101763e+00 3.902359e+00 7.894513e+00 7.957717e+00 7.097643e+00 9.879601e+00 1.145459e+01 1.291817e+01 1.170338e+01 1.059060e+01 9.972906e+00 9.058150e+00 6.731645e+00 3.762215e-01 3.758025e-01 9.186145e-01 9.852031e-01 8.578344e-01 1.126467e+00 1.117430e+00 1.401662e+00 1.077776e+00 1.154445e+00 9.840826e-01 9.658347e-01 9.903623e-01 6.233981e-02 7.134026e-02 1.614352e-01 1.710926e-01 1.391108e-01 2.135568e-01 1.819020e-01 2.567695e-01 1.912797e-01 2.128961e-01 1.760168e-01 1.606592e-01 2.110816e-01
<GCONST> 7.339796e+01
<STATE> 3
<MEAN> 39
 -1.624755e+01 1.353875e+00 -1.055286e-01 1.118196e+00 2.983495e+00 1.889842e+00 4.292607e+00 1.397435e+00 4.166425e+00 1.126111e+00 4.043599e+00 1.071627e+00 5.360003e+01 -7.250798e-03 -9.819207e-03 2.127467e-04 7.803194e-03 -1.514843e-03 5.060980e-03 4.559347e-03 1.781350e-02 1.527254e-02 1.815377e-02 9.843684e-03 1.474861e-02 -6.567819e-03 3.447054e-03 6.424849e-04 -5.214873e-03 -6.228339e-03 2.380740e-04 -3.959829e-03 -3.033351e-03 -4.593106e-03 -3.943271e-03 -5.045435e-03 -2.156372e-03 -4.250004e-03 4.177488e-03
<VARIANCE> 39
 9.881656e-01 1.647789e+00 3.071474e+00 4.384081e+00 5.595533e+00 7.006372e+00 8.304571e+00 9.239164e+00 9.583843e+00 9.561841e+00 9.371012e+00 8.423463e+00 6.052197e-01 9.231561e-02 1.717588e-01 3.378135e-01 4.577362e-01 5.981708e-01 7.353701e-01 8.973939e-01 9.983026e-01 1.034423e+00 9.876093e-01 9.521747e-01 9.214571e-01 3.179375e-02 1.956757e-02 3.612801e-02 7.134885e-02 9.456029e-02 1.236382e-01 1.519976e-01 1.865857e-01 2.058432e-01 2.152463e-01 2.052377e-01 1.996448e-01 1.932014e-01 6.974997e-03
<GCONST> 4.983091e+01
<STATE> 4
<MEAN> 39
 -1.554646e+01 1.409030e+00 -6.613131e-01 9.608511e-01 3.109901e+00 1.653451e+00 3.716523e+00 7.859743e-01 3.837031e+00 7.197587e-01 3.798767e+00 8.661397e-01 5.424905e+01 -4.228622e-03 1.346107e-02 -2.752576e-02 -6.406486e-02 -7.403897e-02 -6.087195e-02 8.612201e-04 9.188978e-03 -3.145925e-02 -2.616242e-02 1.594244e-02 2.262296e-02 -4.816238e-03 4.214170e-03 -6.294864e-03 2.520540e-02 -3.983251e-02 -3.883905e-02 1.673884e-02 2.257666e-02 -5.856569e-03 -2.452616e-02 -8.159482e-03 -7.756372e-03 3.487564e-03 1.488998e-02
<VARIANCE> 39
 2.998928e+00 3.553001e+00 6.433100e+00 6.341981e+00 7.508739e+00 7.990160e+00 1.141774e+01 1.166009e+01 1.156487e+01 1.039660e+01 1.205320e+01 9.411909e+00 2.220519e+00 2.579758e-01 3.412139e-01 7.732546e-01 7.525643e-01 7.310345e-01 8.885605e-01 1.232416e+00 1.324076e+00 1.136302e+00 1.103778e+00 1.264918e+00 9.703340e-01 1.939451e-01 5.590276e-02 7.796628e-02 1.575272e-01 1.730916e-01 1.512607e-01 1.791155e-01 2.531400e-01 2.445469e-01 2.227770e-01 2.002532e-01 2.280585e-01 1.818178e-01 5.202772e-02
<GCONST> 6.825695e+01
<TRANSP> 5
 0.000000e+00 1.000000e+00 0.000000e+00 0.000000e+00 0.000000e+00
 0.000000e+00 6.468357e-01 3.531643e-01 0.000000e+00 0.000000e+00
 0.000000e+00 0.000000e+00 9.737088e-01 2.629117e-02 0.000000e+00
 0.000000e+00 0.000000e+00 0.000000e+00 6.654789e-01 3.345212e-01
 0.000000e+00 0.000000e+00 0.000000e+00 0.000000e+00 0.000000e+00
<ENDHMM>
