~o
<STREAMINFO> 1 39
<VECSIZE> 39<NULLD><MFCC_D_A_0><DIAGC>
~h "B"
<BEGINHMM>
<NUMSTATES> 5
<STATE> 2
<MEAN> 39
 -1.410498e+01 3.937917e+00 2.451309e+00 3.622736e+00 5.162689e+00 3.864054e+00 6.382686e+00 3.999682e+00 7.456671e+00 4.346082e+00 7.761173e+00 5.221163e+00 5.439191e+01 -3.615067e-02 -3.780532e-02 -2.253468e-02 -3.717541e-02 -8.076171e-02 -3.231968e-02 -3.675520e-02 -4.621614e-02 -4.681520e-02 -4.863893e-02 -2.630783e-02 4.050418e-02 -1.853125e-02 -1.221568e-03 -2.193978e-02 -4.433450e-02 -1.736373e-02 -1.495905e-02 1.064860e-02 -8.154681e-03 6.785601e-03 -1.281983e-02 1.452058e-02 9.968598e-03 -3.940147e-02 6.214821e-03
<VARIANCE> 39
 1.875320e+00 3.360348e+00 4.295858e+00 5.719448e+00 4.200465e+00 4.626958e+00 6.160687e+00 7.133099e+00 1.200642e+01 8.871273e+00 1.056450e+01 8.484355e+00 6.052197e-01 3.992027e-02 1.075367e-01 2.830106e-01 3.079870e-01 3.036836e-01 5.749919e-01 5.990307e-01 6.425189e-01 1.034471e+00 8.337945e-01 1.251648e+00 5.876744e-01 2.173685e-02 8.508600e-03 2.233584e-02 7.734901e-02 5.625055e-02 6.040959e-02 1.299946e-01 1.258235e-01 1.304391e-01 2.198738e-01 1.805136e-01 2.917769e-01 1.174932e-01 5.642226e-03
<GCONST> 4.251745e+01
<STATE> 3
<MEAN> 39
 -1.529218e+01 9.193308e-01 -1.849759e+00 -4.932262e-01 2.867952e+00 2.061129e+00 3.923773e+00 -4.968814e-01 2.624278e+00 1.194609e+00 6.409983e+00 3.617666e+00 5.412353e+01 -2.021041e-02 -1.901565e-02 9.849859e-03 2.038521e-02 -1.346204e-02 6.764759e-03 -3.036182e-02 4.274746e-02 5.109747e-02 4.680115e-02 8.484058e-03 2.675399e-03 -6.931879e-03 -1.276252e-04 6.583854e-03 1.580155e-02 1.856820e-02 1.630742e-02 8.153398e-03 7.434398e-03 6.081332e-04 6.013439e-03 -9.127166e-03 -1.886728e-02 -3.791243e-02 1.935402e-03
<VARIANCE> 39
 1.088993e+00 2.363709e+00 5.954460e+00 5.054868e+00 7.759485e+00 9.627563e+00 7.603691e+00 1.185751e+01 1.134660e+01 8.335421e+00 1.001869e+01 8.289002e+00 6.052197e-01 9.961909e-02 2.277606e-01 4.917213e-01 7.164230e-01 7.354009e-01 7.437073e-01 9.979041e-01 1.388487e+00 1.480282e+00 9.948035e-01 1.328099e+00 1.049844e+00 4.665893e-02 1.916056e-02 5.167362e-02 9.574789e-02 1.500846e-01 1.420875e-01 1.541737e-01 2.187675e-01 3.159258e-01 3.220588e-01 1.960720e-01 3.140541e-01 2.582502e-01 9.222274e-03
<GCONST> 5.824327e+01
<STATE> 4
<MEAN> 39
 -1.678176e+01 1.016888e+00 1.408461e-01 1.740939e+00 3.440883e+00 2.016533e+00 4.558010e+00 1.971846e+00 4.860492e+00 1.800212e+00 4.811408e+00 1.452215e+00 5.329702e+01 -1.921878e-03 -4.806834e-03 -7.537814e-03 -5.427727e-03 -6.114109e-04 -7.823712e-03 -9.197850e-03 4.344936e-03 -4.383298e-03 1.217644e-04 -9.094225e-03 -1.510762e-02 -1.197609e-03 1.784066e-03 -2.052122e-03 -5.261498e-03 -4.709789e-03 1.862568e-03 1.140458e-03 -2.293349e-03 -5.579141e-03 -3.145495e-03 -5.079974e-03 -1.778581e-03 1.258831e-03 1.789086e-03
<VARIANCE> 39
 6.726057e-01 1.410493e+00 2.504305e+00 3.747174e+00 4.934395e+00 6.204003e+00 6.878369e+00 7.850955e+00 9.433994e+00 9.472285e+00 9.281911e+00 7.778294e+00 6.052197e-01 6.209390e-02 1.455531e-01 2.875114e-01 4.281476e-01 5.865659e-01 7.222538e-01 7.497344e-01 8.847235e-01 1.082397e+00 1.156492e+00 1.097144e+00 8.731213e-01 2.120602e-02 1.243920e-02 2.863904e-02 5.995651e-02 8.842786e-02 1.255048e-01 1.514412e-01 1.581874e-01 1.825665e-01 2.231371e-01 2.455375e-01 2.359512e-01 1.833071e-01 4.866567e-03
<GCONST> 4.574406e+01
<TRANSP> 5
 0.000000e+00 1.000000e+00 0.000000e+00 0.000000e+00 0.000000e+00
 0.000000e+00 9.146524e-01 8.534759e-02 0.000000e+00 0.000000e+00
 0.000000e+00 0.000000e+00 9.139192e-01 8.608082e-02 0.000000e+00
 0.000000e+00 0.000000e+00 0.000000e+00 9.884944e-01 1.150555e-02
 0.000000e+00 0.000000e+00 0.000000e+00 0.000000e+00 0.000000e+00
<ENDHMM>
~h "p"
<BEGINHMM>
<NUMSTATES> 5
<STATE> 2
<MEAN> 39
 -1.610460e+01 1.120663e+00 -9.479568e-01 4.055106e-01 3.003711e+00 1.299099e+00 4.196116e+00 1.986086e+00 5.220254e+00 2.505065e+00 5.613920e+00 2.419457e+00 5.369555e+01 -1.348626e-01 -6.018646e-03 -1.280870e-01 -3.520189e-01 -3.072298e-01 8.902986e-03 -1.397278e-01 6.643985e-02 -5.873796e-02 -3.722288e-01 -3.482212e-01 -2.131968e-01 -6.217567e-02 4.011179e-01 1.850257e-02 -2.420123e-01 -1.634755e-01 8.612035e-02 1.258985e-01 -6.264772e-01 -7.000458e-01 -3.795633e-01 -5.223554e-01 -4.293660e-01 -1.851797e-01 5.855200e-01
<VARIANCE> 39
 1.540414e+00 3.631091e+00 8.255258e+00 8.244726e+00 7.620559e+00 9.533957e+00 1.000262e+01 7.121428e+00 1.493100e+01 1.164684e+01 8.602111e+00 1.405727e+01 6.198441e-01 1.245284e-01 4.024202e-01 9.253932e-01 5.949247e-01 6.806440e-01 7.304202e-01 1.307195e+00 6.621140e-01 1.587133e+00 2.030832e+00 7.921220e-01 1.288321e+00 5.207253e-02 9.605513e-02 9.836900e-02 3.354053e-01 2.062138e-01 2.600100e-01 2.681546e-01 3.302585e-01 1.893625e-01 2.461390e-01 2.532828e-01 2.694046e-01 4.140997e-01 2.530276e-01
<GCONST> 7.033730e+01
<STATE> 3
<MEAN> 39
 -1.636211e+01 1.047910e+00 -1.161881e+00 -3.924765e-01 1.839404e+00 5.559964e-01 3.411112e+00 1.537392e+00 3.639581e+00 2.788596e-01 3.111201e+00 -3.928280e-02 5.356856e+01 1.518570e+00 2.206019e-02 -9.582784e-01 -7.995139e-01 5.406317e-01 5.324422e-01 -2.203538e+00 -2.531892e+00 -1.060101e+00 -1.285232e+00 -9.935959e-01 -2.023772e-01 2.330941e+00 4.180777e-01 -2.125458e-01 1.757491e-01 2.907693e-01 3.348601e-01 -3.892675e-03 -8.718027e-01 -6.106142e-01 -4.432175e-02 -4.047069e-01 -1.127940e-01 3.048286e-01 1.453288e+00
<VARIANCE> 39
 1.042782e+00 1.314795e+00 2.758363e+00 5.285944e+00 6.310724e+00 5.859199e+00 7.988806e+00 7.252683e+00 1.048081e+01 7.925559e+00 7.009442e+00 3.986210e+00 6.052197e-01 8.483574e-01 2.456396e-01 1.142751e+00 1.190334e+00 1.049941e+00 1.470699e+00 3.410329e+00 2.592476e+00 1.455815e+00 1.092309e+00 1.508466e+00 1.257139e+00 2.816497e+00 1.118214e-01 6.011783e-02 2.491879e-01 1.926210e-01 1.517205e-01 1.904846e-01 2.539094e-01 3.349189e-01 2.885352e-01 2.248430e-01 2.067372e-01 2.112226e-01 4.512142e-02
<GCONST> 7.006997e+01
<STATE> 4
<MEAN> 39
 -1.059446e+01 1.124946e+00 3.829741e+00 1.593218e+00 2.194525e+00 -4.044295e-01 -4.355765e+00 -5.891864e+00 9.201179e-01 -4.785111e+00 1.745772e+00 3.171988e-01 6.971780e+01 1.130677e+00 6.802616e-01 2.297020e+00 6.250659e-01 -1.047996e+00 -8.033493e-01 -7.984513e-02 -1.105149e+00 3.391267e-01 -1.379218e-01 -3.580755e-01 -9.771852e-01 2.386685e+00 -1.762529e-02 1.933120e-01 1.796751e-01 -3.278377e-02 -3.091103e-01 -1.636888e-01 4.867427e-01 -8.072598e-02 2.861648e-01 3.746937e-01 -7.351647e-02 -2.648005e-01 -4.619731e-01
<VARIANCE> 39
 1.788934e+01 1.678006e+01 6.645858e+01 1.921002e+01 2.177322e+01 1.763042e+01 3.399131e+01 3.666277e+01 1.513362e+01 1.356237e+01 1.120327e+01 2.657177e+01 3.272800e+01 2.227584e+00 3.012072e+00 4.383264e+00 1.943407e+00 2.415487e+00 1.846461e+00 7.185500e+00 6.308896e+00 1.866981e+00 2.984026e+00 1.680496e+00 2.803422e+00 4.299038e+00 4.944719e-01 5.968223e-01 1.412112e+00 5.200678e-01 3.952062e-01 3.790866e-01 1.301563e+00 1.519886e+00 2.695441e-01 3.928944e-01 4.174067e-01 4.288268e-01 5.498823e-01
<GCONST> 1.188923e+02
<TRANSP> 5
 0.000000e+00 1.000000e+00 0.000000e+00 0.000000e+00 0.000000e+00
 0.000000e+00 4.117647e-01 5.882353e-01 0.000000e+00 0.000000e+00
 0.000000e+00 0.000000e+00 4.780448e-01 5.219553e-01 0.000000e+00
 0.000000e+00 0.000000e+00 0.000000e+00 8.522539e-01 1.477461e-01
 0.000000e+00 0.000000e+00 0.000000e+00 0.000000e+00 0.000000e+00
<ENDHMM>
~h "aa"
<BEGINHMM>
<NUMSTATES> 5
<STATE> 2
<MEAN> 39
 -2.009042e+00 1.089139e+01 2.163123e+00 -3.652898e+00 1.261684e+00 7.226495e+00 6.712992e+00 8.707713e-01 5.444409e-01 -8.628021e+00 -1.347044e+00 -1.004744e-02 6.150256e+01 -6.936338e-01 -2.473482e-01 -3.581268e-01 6.550086e-01 5.153137e-01 -2.653378e-01 7.979809e-01 6.898634e-01 -7.387367e-02 8.398742e-01 6.923793e-02 -5.692997e-01 -5.980940e-01 1.585028e-02 -1.489457e-01 -1.727231e-01 -3.436380e-01 -2.593361e-01 1.063497e-02 -6.410194e-02 -2.505871e-02 1.945732e-01 7.210267e-02 1.391093e-01 1.028754e-01 5.207257e-02
<VARIANCE> 39
 5.192095e+00 1.211371e+00 4.631904e+00 1.332307e+01 8.933366e+00 4.830745e+00 8.882807e+00 9.280916e+00 6.121645e+00 6.876590e+00 7.897707e+00 1.141797e+01 2.578852e+00 1.477182e-01 4.491346e-01 2.599910e-01 3.491092e-01 5.460588e-01 3.684150e-01 4.558747e-01 1.002555e+00 8.696060e-01 6.910068e-01 8.619335e-01 5.378667e-01 3.636728e-02 1.371516e-02 2.521660e-02 5.937943e-02 7.523826e-02 8.633733e-02 8.873639e-02 1.766940e-01 2.517737e-01 1.448237e-01 1.423261e-01 1.793419e-01 1.327433e-01 7.435094e-03
<GCONST> 4.902768e+01
<STATE> 3
<MEAN> 39
 -5.548419e+00 8.721600e+00 -4.473424e-01 -4.334439e+00 -4.177774e-01 3.384233e+00 6.895877e+00 1.208304e+00 3.236096e-01 -5.141953e+00 -7.619355e-01 -2.225966e+00 5.892731e+01 -7.811359e-01 -4.594717e-01 -1.999519e-01 1.569684e-02 -2.482481e-01 -6.863433e-01 -3.656127e-01 -2.991146e-01 -1.527085e-01 1.294719e-01 -1.760824e-01 -4.748533e-01 -4.632991e-01 -1.141610e-02 3.943233e-03 6.755732e-02 1.654005e-02 -3.434216e-02 -1.351042e-02 -1.210694e-01 -7.434428e-02 -8.064449e-03 -1.056138e-01 -5.605465e-02 2.866162e-02 1.613112e-02
<VARIANCE> 39
 5.898163e+00 4.601478e+00 3.937143e+00 6.213900e+00 9.628118e+00 1.053636e+01 1.192601e+01 1.314301e+01 1.237634e+01 8.792550e+00 8.653754e+00 7.770290e+00 1.880443e+00 9.383687e-02 4.095080e-01 4.516217e-01 4.021708e-01 6.068767e-01 5.393167e-01 9.416080e-01 1.356761e+00 1.509619e+00 1.333666e+00 1.152476e+00 6.749443e-01 3.294828e-02 1.660131e-02 6.842373e-02 7.331256e-02 8.127305e-02 1.333804e-01 1.266362e-01 2.187704e-01 2.965628e-01 2.950476e-01 3.155830e-01 2.701586e-01 1.401913e-01 5.338803e-03
<GCONST> 5.897844e+01
<STATE> 4
<MEAN> 39
 -1.211259e+01 4.784004e+00 2.454923e-01 -1.278214e+00 -3.305412e-02 -2.549770e-01 3.397119e+00 4.576020e-02 1.544423e+00 -2.138214e+00 8.237034e-01 -1.607517e+00 5.554062e+01 -3.686662e-01 -2.848355e-01 4.083772e-02 2.524776e-01 1.367030e-01 -4.917516e-02 -7.880439e-02 -6.101497e-03 1.463080e-01 2.661323e-01 1.944645e-01 1.893535e-01 -1.832578e-01 3.301647e-02 1.182241e-02 -9.398087e-03 -4.497517e-03 2.936508e-02 2.343450e-02 -3.480830e-03 -3.656355e-02 -3.773496e-02 -3.721806e-02 -5.741963e-03 8.770484e-04 1.959531e-02
<VARIANCE> 39
 3.668139e+00 3.016691e+00 2.411129e+00 5.069479e+00 6.611893e+00 7.951356e+00 8.396153e+00 8.403512e+00 9.115129e+00 1.093670e+01 1.234820e+01 1.007824e+01 9.175480e-01 1.025094e-01 1.774596e-01 2.707273e-01 3.697333e-01 5.715227e-01 5.929436e-01 6.850787e-01 9.367197e-01 1.062713e+00 1.007572e+00 1.102974e+00 8.333003e-01 2.869339e-02 1.165765e-02 2.452526e-02 5.271208e-02 8.091086e-02 1.244889e-01 1.053551e-01 1.229979e-01 1.886119e-01 2.216475e-01 2.179925e-01 2.284795e-01 1.585201e-01 4.485284e-03
<GCONST> 4.927187e+01
<TRANSP> 5
 0.000000e+00 1.000000e+00 0.000000e+00 0.000000e+00 0.000000e+00
 0.000000e+00 7.266373e-01 2.733627e-01 0.000000e+00 0.000000e+00
 0.000000e+00 0.000000e+00 8.466703e-01 1.533298e-01 0.000000e+00
 0.000000e+00 0.000000e+00 0.000000e+00 9.126319e-01 8.736809e-02
 0.000000e+00 0.000000e+00 0.000000e+00 0.000000e+00 0.000000e+00
<ENDHMM>
~h "c0"
<BEGINHMM>
<NUMSTATES> 5
<STATE> 2
<MEAN> 39
 -1.074248e+01 5.197969e+00 1.669962e+00 1.371192e+00 2.811096e+00 1.753294e+00 2.816658e+00 -7.496659e-01 2.286951e+00 -7.456328e-01 3.668940e+00 1.757380e+00 5.670097e+01 -2.931828e-01 -1.988065e-01 -2.827965e-01 -8.699194e-02 1.046562e-01 -7.832326e-02 2.445079e-01 2.313982e-01 1.231345e-01 3.826330e-01 3.033588e-02 -9.547349e-02 -2.341052e-01 4.272706e-02 -3.998916e-01 -3.524013e-03 -7.250428e-01 -2.558440e-01 -2.244359e-02 -4.604962e-01 -3.387001e-01 -1.809790e-01 -1.344262e-01 -2.696795e-02 -1.298895e-01 4.557227e-01
<VARIANCE> 39
 4.632738e+01 2.173788e+01 9.762080e+00 6.482638e+00 6.878775e+00 8.937732e+00 1.504639e+01 2.086646e+01 1.328906e+01 1.648421e+01 1.164103e+01 1.194255e+01 1.757691e+01 2.270396e-01 3.491796e-01 3.772571e-01 5.727568e-01 9.052654e-01 8.265900e-01 1.005713e+00 9.675040e-01 1.155189e+00 1.096095e+00 1.200154e+00 1.080188e+00 1.727050e-01 8.436570e-02 1.731733e-01 1.463898e-01 3.813284e-01 2.279190e-01 1.985075e-01 2.717975e-01 3.978952e-01 3.470899e-01 3.381496e-01 2.806046e-01 2.375288e-01 2.298695e-01
<GCONST> 8.140085e+01
<STATE> 3
<MEAN> 39
 -1.294910e+01 3.730953e+00 6.925886e-01 8.955986e-01 2.929967e+00 2.008490e+00 3.180960e+00 8.593380e-02 3.192607e+00 -2.390405e-01 3.995867e+00 1.059163e+00 5.564082e+01 -9.119466e-03 -9.904094e-01 -1.157294e-01 -1.398997e+00 -3.750415e-01 8.693831e-02 -5.969343e-01 -3.755173e-01 -1.358573e-01 2.036669e-01 6.335483e-02 -2.122724e-01 7.622931e-01 -1.291008e-01 -3.231314e-01 8.841018e-02 -7.732253e-01 -2.884272e-01 -6.850618e-02 -4.934382e-01 -3.096199e-01 -2.354511e-01 -1.483260e-01 -4.749219e-02 -1.521521e-01 6.106275e-01
<VARIANCE> 39
 3.547701e+01 1.711915e+01 9.329473e+00 1.138409e+01 1.100524e+01 8.074674e+00 1.251680e+01 1.819959e+01 1.729076e+01 1.279884e+01 1.065247e+01 1.125444e+01 1.188439e+01 8.196995e-01 1.415558e+00 1.296277e+00 4.600425e+00 1.918659e+00 1.329501e+00 1.784196e+00 2.372465e+00 2.198708e+00 1.460544e+00 1.318482e+00 1.335062e+00 2.042994e+00 1.819978e-01 1.618975e-01 2.019842e-01 7.849522e-01 4.285885e-01 1.988618e-01 3.547872e-01 4.463274e-01 3.816673e-01 2.860401e-01 3.542216e-01 2.751785e-01 4.415083e-01
<GCONST> 9.705666e+01
<STATE> 4
<MEAN> 39
 -7.973965e+00 1.759453e+00 1.787001e+00 -1.194160e+01 -1.946231e+00 3.409260e+00 1.394760e+00 -4.376208e+00 2.665340e+00 -1.005153e+00 -4.305876e-01 6.626105e-01 6.885934e+01 7.297649e-01 -2.502691e-01 1.074063e-01 -7.418236e-01 -6.798577e-01 -1.534680e-01 -2.473321e-01 -1.435906e-01 -2.540500e-01 -4.590164e-01 -4.322034e-01 -1.618834e-01 1.043344e+00 -1.487480e-02 8.688156e-02 6.566416e-02 3.336574e-01 4.482748e-02 -1.074093e-01 -8.702210e-02 7.416705e-02 8.171912e-03 -1.563711e-01 9.526329e-02 3.028663e-02 -1.283703e-01
<VARIANCE> 39
 1.152792e+02 2.981958e+01 3.767448e+01 6.666470e+01 7.632895e+01 2.259753e+01 6.291399e+01 3.245826e+01 1.726772e+01 3.238515e+01 3.410534e+01 2.005366e+01 5.447393e+01 8.694224e+00 2.240035e+00 1.932206e+00 7.959634e+00 4.530249e+00 2.737408e+00 6.071293e+00 3.414030e+00 1.934016e+00 3.109967e+00 3.195565e+00 1.820933e+00 4.098649e+00 1.329928e+00 2.660837e-01 3.094380e-01 1.045817e+00 8.713596e-01 5.013407e-01 9.427781e-01 5.285650e-01 4.076397e-01 5.277132e-01 7.265085e-01 3.637591e-01 4.416686e-01
<GCONST> 1.284163e+02
<TRANSP> 5
 0.000000e+00 1.000000e+00 0.000000e+00 0.000000e+00 0.000000e+00
 0.000000e+00 5.267997e-02 9.473200e-01 0.000000e+00 0.000000e+00
 0.000000e+00 0.000000e+00 3.502398e-01 6.497602e-01 0.000000e+00
 0.000000e+00 0.000000e+00 0.000000e+00 7.547870e-01 2.452130e-01
 0.000000e+00 0.000000e+00 0.000000e+00 0.000000e+00 0.000000e+00
<ENDHMM>
~h "ee"
<BEGINHMM>
<NUMSTATES> 5
<STATE> 2
<MEAN> 39
 2.765468e+00 3.619206e+00 8.548193e-01 -1.407516e+01 -9.230719e+00 1.036272e+01 -5.103687e-01 -1.509139e+01 4.048015e+00 -4.262990e+00 3.622893e+00 8.465828e+00 7.011926e+01 -3.070669e-01 8.580017e-01 4.227605e-01 6.416897e-01 5.573097e-01 6.218799e-01 5.229765e-01 9.738849e-01 4.386263e-01 -8.438209e-02 -6.811253e-01 -5.209532e-02 -1.086045e+00 -5.255132e-01 4.412059e-01 3.652467e-01 8.876535e-01 8.811644e-01 -7.792195e-01 -3.259071e-01 3.706835e-01 -4.299393e-01 -9.275714e-02 -1.064647e-01 -4.213365e-01 -3.199768e-01
<VARIANCE> 39
 1.426757e+01 1.298966e+01 8.114406e+00 3.716976e+01 2.329308e+01 4.028105e+01 9.234240e+00 3.900634e+01 1.235034e+01 1.234934e+01 1.008811e+01 2.278431e+01 2.210271e+01 4.151908e-01 8.874937e-01 7.847173e-01 2.297686e+00 2.478381e+00 2.192962e+00 7.276634e-01 1.546104e+00 1.905698e+00 9.121265e-01 8.383454e-01 1.112753e+00 3.347221e-01 2.014139e-01 1.495468e-01 1.284121e-01 2.384251e-01 2.643070e-01 4.091004e-01 1.476405e-01 2.011850e-01 4.302731e-01 2.694439e-01 3.215221e-01 2.762827e-01 3.758821e-02
<GCONST> 8.910380e+01
<STATE> 3
<MEAN> 39
 -2.959371e-04 8.310731e+00 3.225210e+00 -6.808868e+00 -3.781995e+00 6.621372e+00 -3.674995e-01 -9.281000e+00 2.024284e+00 -5.890171e+00 1.883549e+00 6.816448e+00 6.494164e+01 -9.716833e-01 1.451308e+00 1.247200e+00 3.219577e+00 2.266983e+00 -2.073717e+00 -5.690472e-01 1.682251e+00 -1.345266e+00 -7.350572e-01 1.789929e-01 -1.419317e+00 -1.535278e+00 -4.939739e-02 -1.844587e-01 4.201291e-02 1.438135e-01 9.338911e-02 -2.151665e-01 -1.634848e-01 -8.271334e-02 -1.170343e-01 -1.028027e-02 2.272502e-01 -2.647858e-01 1.059593e-01
<VARIANCE> 39
 1.706571e+01 8.185669e+00 5.612110e+00 3.958857e+01 1.786092e+01 4.598753e+01 1.676684e+01 2.439879e+01 1.145999e+01 8.757096e+00 8.617498e+00 3.009010e+01 1.561987e+01 2.076076e-01 7.344594e-01 6.575292e-01 2.202245e+00 1.614390e+00 2.512324e+00 1.123101e+00 1.265301e+00 1.306813e+00 1.097807e+00 6.986181e-01 2.582818e+00 2.995452e-01 3.048393e-02 9.584118e-02 1.187777e-01 3.931890e-01 3.189113e-01 4.138439e-01 2.137790e-01 2.336764e-01 3.350375e-01 1.810891e-01 1.681659e-01 2.479042e-01 3.370089e-02
<GCONST> 8.435567e+01
<STATE> 4
<MEAN> 39
 -1.624599e+00 1.079626e+01 5.839197e+00 3.407115e-02 1.729377e+00 2.858132e+00 -2.314348e+00 -6.961176e+00 -8.416552e-01 -6.377162e+00 3.762855e+00 3.311459e+00 6.223714e+01 -7.211426e-01 2.082755e-01 1.133771e-01 1.052181e+00 8.615209e-01 -4.611567e-01 1.906519e-01 5.412064e-01 -2.469400e-01 5.488720e-01 1.663570e-01 -5.701512e-01 -7.565585e-01 1.209406e-02 -2.658167e-01 -2.604530e-01 -4.007965e-01 -3.087430e-01 2.556899e-01 1.844015e-01 -1.319773e-01 2.327323e-01 2.262783e-01 -3.111972e-02 1.978790e-01 1.174599e-01
<VARIANCE> 39
 7.361470e+00 3.954225e+00 4.458450e+00 9.465089e+00 7.822239e+00 1.121650e+01 1.237656e+01 1.444905e+01 8.904123e+00 8.968841e+00 8.344513e+00 1.482424e+01 5.627234e+00 1.632535e-01 3.971568e-01 6.873987e-01 1.237782e+00 1.151097e+00 1.268772e+00 1.072639e+00 8.859581e-01 1.072140e+00 1.082624e+00 7.715409e-01 1.333264e+00 9.292991e-02 2.071977e-02 6.073447e-02 8.464837e-02 1.741869e-01 1.583313e-01 2.804627e-01 1.765265e-01 2.068801e-01 2.007755e-01 1.897141e-01 1.434222e-01 2.207721e-01 2.043296e-02
<GCONST> 6.667895e+01
<TRANSP> 5
 0.000000e+00 1.000000e+00 0.000000e+00 0.000000e+00 0.000000e+00
 0.000000e+00 6.321810e-01 3.678190e-01 0.000000e+00 0.000000e+00
 0.000000e+00 0.000000e+00 4.151740e-01 5.848260e-01 0.000000e+00
 0.000000e+00 0.000000e+00 0.000000e+00 7.892940e-01 2.107060e-01
 0.000000e+00 0.000000e+00 0.000000e+00 0.000000e+00 0.000000e+00
<ENDHMM>
~h "hh"
<BEGINHMM>
<NUMSTATES> 5
<STATE> 2
<MEAN> 39
 1.353018e+00 1.377723e+00 3.743745e+00 -2.565362e+00 -3.192883e+00 4.832722e+00 -6.386239e+00 -8.179729e+00 9.560579e+00 -5.965299e+00 -4.529181e+00 1.763789e+00 7.335014e+01 1.455945e-01 -1.034853e-02 -2.543530e-01 2.027602e-01 -4.432940e-01 -6.244090e-01 -2.274767e-01 3.019764e-01 1.079895e+00 -2.258920e-01 -4.307481e-01 2.765083e-01 -4.644251e-02 -6.264356e-02 7.659527e-02 2.264813e-02 1.177280e-02 1.027438e-01 -2.407909e-02 -4.710813e-02 -3.442663e-02 -8.506789e-02 -4.754416e-02 1.201833e-01 5.783398e-02 -5.717038e-02
<VARIANCE> 39
 5.553601e+00 1.132421e+01 7.648615e+00 2.593008e+01 3.747321e+01 2.262132e+01 2.165367e+01 4.212230e+01 1.469135e+02 2.389595e+01 2.151352e+01 1.303862e+01 6.957409e+00 7.517979e-01 1.077617e+00 6.392037e-01 1.539390e+00 3.353516e+00 1.263703e+00 1.437033e+00 4.544149e+00 4.820535e+00 2.392240e+00 1.732395e+00 8.701552e-01 6.062393e-01 1.601465e-01 2.454288e-01 1.388873e-01 2.944179e-01 5.789278e-01 1.988103e-01 2.799331e-01 9.049821e-01 5.829307e-01 3.773289e-01 3.523175e-01 1.847987e-01 9.991035e-02
<GCONST> 9.933780e+01
<STATE> 3
<MEAN> 39
 2.050927e+00 5.008613e+00 2.536209e+00 1.045148e+00 -4.433015e+00 -2.800512e+00 -8.879730e+00 -4.864166e+00 1.404926e+01 -1.166314e+01 -5.041507e+00 6.474633e+00 6.954491e+01 -1.650261e-01 1.192256e+00 2.924982e-01 4.074005e-01 1.352303e+00 -3.488509e-01 4.212446e-01 7.176622e-01 -1.734031e+00 1.531343e-01 1.066999e+00 6.259940e-02 -1.369746e+00 -7.072713e-02 -4.146333e-02 5.175418e-02 6.776381e-02 8.774912e-02 2.678955e-02 6.354813e-02 5.533227e-02 -9.045031e-02 3.548548e-01 -3.001283e-02 -3.653889e-01 -2.610376e-02
<VARIANCE> 39
 1.012347e+00 9.056644e+00 4.669518e+00 4.758858e+00 1.422919e+01 1.193471e+01 1.021659e+01 1.343939e+01 2.577427e+01 8.319190e+00 1.371669e+01 8.982752e+00 9.182914e+00 1.394246e-01 7.177708e-01 2.601554e-01 6.090645e-01 1.323807e+00 4.745499e-01 9.395630e-01 9.884862e-01 1.877459e+00 1.820565e+00 1.011395e+00 1.606747e+00 2.683050e-01 3.761885e-02 1.645012e-01 5.273623e-02 9.809672e-02 2.598262e-01 1.016724e-01 1.898609e-01 1.501259e-01 3.911663e-01 2.572581e-01 2.666883e-01 1.694270e-01 7.123851e-02
<GCONST> 6.959039e+01
<STATE> 4
<MEAN> 39
 -3.818553e+00 8.562634e+00 4.362944e+00 4.318448e+00 1.267200e+00 -7.486444e+00 -7.304221e+00 -2.278808e+00 4.646578e+00 -5.916041e+00 -2.653652e+00 7.293750e-01 6.063664e+01 -6.802826e-01 1.389539e-02 -2.517443e-02 -7.962888e-02 -1.716696e-02 -6.219040e-02 2.886533e-01 -1.276001e-01 -6.795278e-01 3.964723e-01 1.210591e-01 -4.455714e-01 -5.594456e-01 -2.673618e-03 -4.396718e-02 -2.358039e-02 -5.233074e-02 -8.380809e-02 5.995512e-02 1.211668e-02 -6.569662e-02 6.767298e-02 -3.219483e-02 3.615091e-03 5.426938e-02 4.894815e-02
<VARIANCE> 39
 1.408886e+01 3.247141e+00 4.605812e+00 5.146896e+00 5.982191e+00 8.900612e+00 9.058727e+00 9.535047e+00 1.684660e+01 1.560637e+01 9.298162e+00 1.329608e+01 7.541392e+00 8.737289e-02 3.121936e-01 4.613901e-01 5.559303e-01 6.688996e-01 7.166964e-01 7.752481e-01 1.025485e+00 1.327719e+00 1.657313e+00 1.187772e+00 1.167159e+00 7.815823e-02 1.969338e-02 3.964718e-02 7.955282e-02 1.041602e-01 1.206070e-01 1.386019e-01 1.387338e-01 1.912106e-01 2.951131e-01 3.465349e-01 2.627473e-01 2.444718e-01 6.213925e-03
<GCONST> 6.237289e+01
<TRANSP> 5
 0.000000e+00 1.000000e+00 0.000000e+00 0.000000e+00 0.000000e+00
 0.000000e+00 9.366359e-01 6.336413e-02 0.000000e+00 0.000000e+00
 0.000000e+00 0.000000e+00 8.350207e-01 1.649794e-01 0.000000e+00
 0.000000e+00 0.000000e+00 0.000000e+00 9.066268e-01 9.337322e-02
 0.000000e+00 0.000000e+00 0.000000e+00 0.000000e+00 0.000000e+00
<ENDHMM>
~h "ii"
<BEGINHMM>
<NUMSTATES> 5
<STATE> 2
<MEAN> 39
 -4.257502e+00 4.326412e+00 1.123932e+01 2.727404e+00 -3.380081e+00 -3.059611e+00 -2.648782e+00 -1.181087e+01 6.403463e+00 -3.809373e+00 -4.467451e+00 -2.894042e+00 7.069465e+01 1.278127e-01 2.049080e-01 2.853720e-02 2.406827e-01 -2.412539e-01 -1.853276e-01 4.804137e-01 -5.435292e-01 2.638327e-01 8.433267e-02 -3.328718e-01 -1.987128e-01 -3.127024e-01 -2.842103e-01 -5.429897e-02 -8.535732e-02 -3.519495e-02 3.639700e-01 1.141814e-01 3.139708e-02 4.805083e-01 -1.819222e-01 -7.486568e-02 1.673637e-01 2.288443e-01 -1.267098e-01
<VARIANCE> 39
 1.379657e+01 8.279979e+00 2.037870e+01 7.309907e+00 1.333271e+01 8.715174e+00 1.289849e+01 2.794222e+01 1.234369e+01 1.378211e+01 1.607844e+01 3.202204e+01 3.978991e+01 3.665772e-01 5.442279e-01 2.739688e-01 8.825645e-01 1.041859e+00 5.806680e-01 6.853098e-01 2.370783e+00 1.093512e+00 7.420506e-01 1.454927e+00 6.687807e-01 5.758170e-01 5.515578e-02 1.783367e-01 1.203132e-01 1.096776e-01 9.679389e-02 1.351622e-01 1.225233e-01 2.030110e-01 1.549559e-01 1.417518e-01 1.727814e-01 1.629643e-01 1.974727e-02
<GCONST> 7.499573e+01
<STATE> 3
<MEAN> 39
 -6.031281e+00 5.341595e+00 1.109762e+01 2.243573e+00 -2.642044e+00 -3.474425e+00 1.375223e-01 -1.196385e+01 5.313039e+00 -2.387610e+00 -2.932376e+00 -4.404918e+00 6.952801e+01 -1.870569e-01 -8.050105e-02 -1.903281e-01 -8.289188e-02 6.355237e-01 -1.298867e-01 1.398714e-01 9.211972e-01 -4.513533e-02 -8.577687e-02 -8.165419e-03 2.727169e-01 -1.871981e-01 -7.916351e-02 1.085546e-03 -1.448448e-01 2.191762e-02 2.258222e-01 -6.817622e-02 -2.589809e-01 3.529072e-01 6.247693e-02 -1.398442e-01 3.610121e-02 1.204645e-01 3.185294e-02
<VARIANCE> 39
 1.382318e+01 8.292116e+00 3.554875e+01 8.572815e+00 2.177066e+01 1.684354e+01 5.706104e+00 5.811895e+01 1.656997e+01 1.003213e+01 1.047854e+01 2.403304e+01 6.691357e+01 3.507600e-01 4.018272e-01 4.868075e-01 3.997819e-01 5.716818e-01 1.077389e+00 1.709289e+00 1.155467e+00 1.030734e+00 6.957260e-01 9.270994e-01 7.148044e-01 4.309191e-01 2.282446e-02 9.975103e-02 1.398297e-01 1.026360e-01 1.387992e-01 1.421670e-01 2.181908e-01 2.277798e-01 2.235097e-01 1.508941e-01 1.392936e-01 1.542235e-01 2.903052e-02
<GCONST> 7.568098e+01
<STATE> 4
<MEAN> 39
 -8.946692e+00 4.879402e+00 6.933174e+00 2.820942e+00 1.058089e+00 -1.288095e+00 2.369886e+00 -3.531623e+00 4.634858e+00 -2.114871e+00 -1.042767e+00 -1.848468e+00 6.288128e+01 -6.264941e-01 -3.949100e-01 -1.022912e+00 -4.702407e-01 3.916066e-01 -3.870416e-01 -3.162773e-01 6.820478e-01 -6.241440e-02 -1.636142e-01 2.838043e-01 3.468061e-01 -3.022612e-01 -6.764366e-02 1.256818e-01 -6.246350e-02 -7.091001e-02 1.188026e-01 -1.703292e-03 -4.582388e-01 -1.764937e-01 -5.421711e-03 -1.258387e-01 -4.519997e-02 -4.284512e-02 7.710001e-03
<VARIANCE> 39
 1.820325e+01 5.263279e+00 3.173835e+01 9.267386e+00 1.700341e+01 2.878779e+01 1.580814e+01 6.760683e+01 1.251960e+01 7.003505e+00 1.357288e+01 1.627598e+01 8.430728e+01 3.326401e-01 6.539757e-01 1.342033e+00 1.057759e+00 1.614058e+00 1.308977e+00 2.262758e+00 2.041275e+00 1.494869e+00 1.926887e+00 1.042788e+00 1.009136e+00 3.115618e-01 4.459053e-02 8.014646e-02 1.825342e-01 1.768375e-01 3.741041e-01 2.754099e-01 3.382087e-01 4.030216e-01 3.596764e-01 1.872361e-01 1.395871e-01 1.720250e-01 1.878703e-02
<GCONST> 8.670827e+01
<TRANSP> 5
 0.000000e+00 1.000000e+00 0.000000e+00 0.000000e+00 0.000000e+00
 0.000000e+00 7.343517e-01 2.656483e-01 0.000000e+00 0.000000e+00
 0.000000e+00 0.000000e+00 5.449988e-01 4.550013e-01 0.000000e+00
 0.000000e+00 0.000000e+00 0.000000e+00 4.535390e-01 5.464610e-01
 0.000000e+00 0.000000e+00 0.000000e+00 0.000000e+00 0.000000e+00
<ENDHMM>
~h "ng"
<BEGINHMM>
<NUMSTATES> 5
<STATE> 2
<MEAN> 39
 -7.270816e+00 7.438571e+00 8.265328e+00 5.091120e+00 2.782255e+00 3.630581e-01 -1.619858e+00 -3.193359e+00 2.408067e+00 -5.606380e+00 -2.786747e+00 -1.417414e+00 5.968791e+01 -7.049292e-01 -1.508091e-01 -7.439784e-01 4.694018e-02 3.798404e-01 -2.001126e-01 2.639548e-01 1.619934e-01 -6.332240e-01 2.512529e-03 9.345920e-02 -2.752209e-01 -7.151726e-01 3.554453e-02 -9.674162e-02 -1.120079e-01 -2.987053e-01 -2.774100e-01 -1.647689e-01 -1.652565e-01 -2.033888e-01 -3.901195e-03 3.095493e-02 -1.725468e-02 -6.161429e-03 9.298514e-02
<VARIANCE> 39
 1.822465e+01 7.656526e+00 2.890699e+01 9.552921e+00 1.064884e+01 1.463832e+01 2.953327e+01 1.512257e+01 8.930512e+00 1.113004e+01 1.306286e+01 1.333991e+01 1.553607e+01 2.372044e-01 4.975400e-01 5.275246e-01 7.559981e-01 1.146494e+00 8.285106e-01 1.010441e+00 1.168315e+00 9.582310e-01 1.046489e+00 8.368265e-01 7.003262e-01 1.961810e-01 2.028548e-02 4.731314e-02 8.261731e-02 1.069511e-01 1.862365e-01 1.443917e-01 1.540254e-01 1.972523e-01 1.609116e-01 2.139534e-01 1.808820e-01 1.864385e-01 1.603155e-02
<GCONST> 7.110888e+01
<STATE> 3
<MEAN> 39
 -9.463747e+00 6.709747e+00 4.906380e+00 3.570277e+00 2.083678e+00 -2.024443e+00 -2.634701e+00 -5.056355e+00 -1.323097e+00 -6.503775e+00 -3.345374e+00 -3.681093e+00 5.754438e+01 -4.914123e-01 -2.826957e-01 -6.044673e-01 -2.404593e-01 -7.425696e-03 -2.085908e-01 -1.322798e-01 -4.007383e-01 -5.135872e-01 -3.459901e-03 -1.760460e-03 -1.599172e-01 -3.963421e-01 2.874870e-02 3.792343e-03 7.547691e-02 3.029583e-03 1.136154e-02 1.000142e-01 7.223085e-02 1.145189e-01 1.694044e-01 1.221012e-01 1.894583e-01 1.820909e-01 3.860804e-02
<VARIANCE> 39
 1.549292e+01 6.311586e+00 1.186991e+01 8.666202e+00 5.473460e+00 1.675572e+01 2.629043e+01 1.755747e+01 1.163955e+01 1.507512e+01 1.473161e+01 1.426579e+01 1.131163e+01 2.224610e-01 4.592036e-01 7.819480e-01 6.445701e-01 6.468011e-01 8.880630e-01 8.059382e-01 8.440214e-01 1.058457e+00 8.277277e-01 8.240041e-01 1.268689e+00 1.116726e-01 2.351337e-02 4.112181e-02 1.152431e-01 1.378532e-01 1.016617e-01 1.643812e-01 1.572240e-01 1.570092e-01 1.923790e-01 1.779122e-01 1.642511e-01 1.538363e-01 1.757318e-02
<GCONST> 6.833046e+01
<STATE> 4
<MEAN> 39
 -1.291766e+01 4.969428e+00 2.823648e+00 2.660346e+00 2.036671e+00 -1.414194e+00 -6.055940e-01 -3.967676e+00 -1.150143e+00 -4.365187e+00 -9.132240e-01 -2.768035e+00 5.516769e+01 -2.737433e-01 -2.386902e-01 -2.090951e-01 -1.565340e-01 5.018872e-02 2.327055e-01 3.219054e-01 2.942114e-01 2.389935e-01 3.245406e-01 3.107417e-01 1.492038e-01 -1.374912e-01 1.461983e-02 4.263151e-03 6.963952e-03 4.052406e-03 1.687073e-02 1.875153e-02 1.467477e-02 3.618365e-02 4.294481e-02 1.919918e-02 1.123992e-02 1.532401e-02 9.235291e-03
<VARIANCE> 39
 6.139614e+00 3.228155e+00 4.665714e+00 4.962480e+00 4.783167e+00 8.507661e+00 1.181777e+01 1.168124e+01 1.079942e+01 1.309395e+01 1.244896e+01 1.097392e+01 3.172017e+00 8.834763e-02 1.734330e-01 2.819075e-01 3.746775e-01 4.733908e-01 6.589617e-01 8.232053e-01 9.619968e-01 9.522828e-01 1.095878e+00 9.711015e-01 1.059708e+00 3.096824e-02 1.596018e-02 2.693040e-02 5.798808e-02 7.742313e-02 1.005088e-01 1.311309e-01 1.626164e-01 2.055492e-01 1.834856e-01 2.202749e-01 1.898150e-01 2.102936e-01 5.013928e-03
<GCONST> 5.362423e+01
<TRANSP> 5
 0.000000e+00 1.000000e+00 0.000000e+00 0.000000e+00 0.000000e+00
 0.000000e+00 5.548226e-01 4.451773e-01 0.000000e+00 0.000000e+00
 0.000000e+00 0.000000e+00 5.126446e-01 4.873554e-01 0.000000e+00
 0.000000e+00 0.000000e+00 0.000000e+00 8.827124e-01 1.172877e-01
 0.000000e+00 0.000000e+00 0.000000e+00 0.000000e+00 0.000000e+00
<ENDHMM>
~h "nn"
<BEGINHMM>
<NUMSTATES> 5
<STATE> 2
<MEAN> 39
 -1.147349e+01 5.589568e+00 1.744400e+00 2.780293e-01 -1.700634e-02 -2.755879e+00 -2.127682e+00 -5.516513e+00 -1.777178e+00 -2.544467e+00 2.648546e+00 6.123776e-01 5.584760e+01 -4.527801e-01 -3.343562e-01 -7.350373e-02 1.003582e-01 9.377927e-02 1.790433e-01 2.956750e-01 4.075896e-01 3.984484e-01 2.017131e-01 5.778225e-03 6.012196e-02 -2.223909e-01 2.938476e-02 1.058243e-02 -1.344787e-02 2.418730e-03 2.698562e-02 4.157294e-02 4.182123e-02 5.019936e-03 1.312793e-02 1.443026e-02 2.702975e-02 2.827583e-02 1.717323e-02
<VARIANCE> 39
 3.000988e+00 2.647393e+00 3.246473e+00 4.459034e+00 5.447216e+00 8.677060e+00 1.121518e+01 1.331033e+01 1.256530e+01 1.237534e+01 1.128729e+01 8.653681e+00 8.743989e-01 1.256717e-01 1.946680e-01 3.621124e-01 4.488463e-01 5.623286e-01 7.370105e-01 8.547755e-01 8.933064e-01 9.469876e-01 1.222523e+00 1.402772e+00 8.891344e-01 4.549780e-02 2.039220e-02 3.424204e-02 7.262286e-02 9.852448e-02 1.172575e-01 1.617451e-01 1.749142e-01 1.765341e-01 2.048362e-01 2.718725e-01 3.121274e-01 1.768014e-01 7.551106e-03
<GCONST> 5.505650e+01
<STATE> 3
<MEAN> 39
 -1.479973e+01 2.750315e+00 4.398744e-01 7.590432e-01 1.406936e+00 -1.361230e-01 1.751695e+00 -1.705821e+00 1.459567e+00 -8.579730e-01 2.829202e+00 4.427903e-01 5.429211e+01 -2.148422e-01 -1.764829e-01 -7.544802e-02 8.726662e-02 2.193408e-01 1.945577e-01 3.912362e-01 4.154325e-01 2.540449e-01 1.207965e-01 2.036642e-02 6.600778e-02 -1.135724e-01 4.991910e-02 4.678651e-02 4.225092e-02 -5.462334e-03 1.911868e-02 2.321303e-02 -1.319648e-02 3.700477e-02 3.456646e-02 6.242988e-03 -7.576674e-03 1.554158e-03 2.538341e-02
<VARIANCE> 39
 7.784371e-01 1.261032e+00 2.843414e+00 4.989119e+00 7.078378e+00 7.652430e+00 8.110723e+00 8.269798e+00 7.352907e+00 6.662099e+00 9.209717e+00 7.674904e+00 6.052197e-01 1.268623e-01 2.097352e-01 3.616439e-01 5.907921e-01 7.697350e-01 6.670251e-01 7.816284e-01 1.113352e+00 9.407201e-01 8.124885e-01 1.050417e+00 8.651106e-01 3.875992e-02 2.307221e-02 5.012835e-02 7.907331e-02 1.288940e-01 1.767250e-01 1.401669e-01 1.674646e-01 2.401997e-01 1.639348e-01 1.563373e-01 2.155448e-01 1.595631e-01 7.323126e-03
<GCONST> 5.035551e+01
<STATE> 4
<MEAN> 39
 -1.621733e+01 1.393226e+00 5.622873e-02 1.285222e+00 2.902534e+00 1.591082e+00 4.034971e+00 1.205490e+00 3.920696e+00 8.676445e-01 3.887619e+00 9.818959e-01 5.356957e+01 -3.081663e-02 -3.328206e-02 -2.330638e-02 -1.684115e-02 -7.273458e-03 7.918570e-03 2.095998e-02 3.329520e-02 3.513884e-02 2.289001e-02 2.902869e-02 -2.371278e-04 -1.356524e-02 7.694048e-03 4.881372e-03 -4.309373e-03 -5.312681e-03 -4.751646e-03 -4.160251e-03 -9.221778e-03 -1.819310e-02 -1.051379e-02 -3.873841e-03 -1.801070e-03 -5.978544e-03 3.534659e-03
<VARIANCE> 39
 7.644942e-01 1.456970e+00 2.463145e+00 3.940643e+00 5.215725e+00 6.018838e+00 7.656628e+00 7.824743e+00 8.638242e+00 1.012600e+01 9.049241e+00 8.761749e+00 6.052197e-01 6.347184e-02 1.437880e-01 2.750471e-01 4.247305e-01 5.568596e-01 7.138649e-01 7.889740e-01 8.167459e-01 9.934561e-01 1.154823e+00 9.625223e-01 8.523354e-01 1.909389e-02 1.286648e-02 2.932774e-02 6.021218e-02 8.980490e-02 1.124759e-01 1.470168e-01 1.637881e-01 1.738712e-01 2.131155e-01 2.421956e-01 1.966026e-01 1.680104e-01 4.202668e-03
<GCONST> 4.510537e+01
<TRANSP> 5
 0.000000e+00 1.000000e+00 0.000000e+00 0.000000e+00 0.000000e+00
 0.000000e+00 8.990937e-01 1.009063e-01 0.000000e+00 0.000000e+00
 0.000000e+00 0.000000e+00 8.423443e-01 1.576556e-01 0.000000e+00
 0.000000e+00 0.000000e+00 0.000000e+00 9.677056e-01 3.229442e-02
 0.000000e+00 0.000000e+00 0.000000e+00 0.000000e+00 0.000000e+00
<ENDHMM>
~h "s0"
<BEGINHMM>
<NUMSTATES> 5
<STATE> 2
<MEAN> 39
 -8.820169e+00 8.150148e+00 1.285022e+00 -6.769498e+00 4.356043e+00 2.216997e+00 -4.781240e+00 -7.683598e+00 4.992351e+00 -5.387492e+00 -4.484301e-01 -3.090228e+00 7.358089e+01 5.295695e-01 -3.222853e-02 -1.223708e+00 -1.430861e+00 -3.854379e-01 1.666391e+00 5.518444e-01 5.428519e-01 1.973105e-01 -1.581849e-01 3.218241e-01 6.598708e-01 -1.954924e-01 1.095597e-01 -6.172248e-02 3.333047e-02 -6.782827e-02 -2.165356e-01 9.573300e-02 2.057843e-01 -3.527472e-02 -6.837302e-02 2.449669e-02 -8.323140e-03 -4.402878e-02 -3.650674e-02
<VARIANCE> 39
 5.399970e+01 1.182885e+01 5.447372e+01 5.364198e+01 4.814402e+01 7.937135e+01 3.693892e+01 1.955178e+01 2.767938e+01 1.602912e+01 2.102486e+01 4.530195e+01 5.035172e+00 6.934171e+00 1.743070e+00 1.610161e+00 1.969460e+00 6.393917e+00 2.497240e+00 4.367509e+00 1.999635e+00 3.930923e+00 2.554935e+00 2.317096e+00 3.291710e+00 3.945816e-01 8.056598e-01 3.115604e-01 3.080881e-01 3.884198e-01 6.845834e-01 6.624604e-01 6.555893e-01 3.916617e-01 8.369902e-01 5.870069e-01 4.578661e-01 6.231451e-01 8.083692e-02
<GCONST> 1.173749e+02
<STATE> 3
<MEAN> 39
 4.692924e+00 5.447823e+00 -5.864908e+00 -1.926212e+01 -7.081741e+00 1.645533e+01 6.865414e+00 -2.445755e+00 5.654643e+00 -8.445975e+00 -8.339547e-01 3.869990e+00 7.046655e+01 -2.066911e-01 6.403994e-01 8.019345e-01 1.496285e+00 7.574612e-01 -1.138441e+00 4.831004e-02 6.568519e-01 -1.236967e+00 -7.905070e-01 -1.948805e-01 -5.130445e-01 -1.232854e+00 -4.268807e-01 3.067888e-01 4.243077e-01 7.179482e-01 4.540862e-01 -5.528910e-01 -3.673186e-01 -1.175465e-01 5.260668e-02 8.940832e-02 8.710973e-02 -2.769354e-02 -1.884623e-01
<VARIANCE> 39
 2.379924e+00 4.028646e+00 1.027563e+01 1.472920e+01 1.523509e+01 1.287113e+01 6.338201e+00 8.076549e+00 9.177552e+00 8.336774e+00 1.148610e+01 1.347478e+01 6.128966e+00 6.760284e-01 7.279634e-01 1.027463e+00 2.799212e+00 1.600209e+00 2.150273e+00 1.033933e+00 8.330389e-01 6.813022e-01 8.051274e-01 7.082704e-01 1.323033e+00 2.296531e-01 7.075060e-02 9.085771e-02 1.002777e-01 3.982182e-01 3.408557e-01 3.002612e-01 1.315592e-01 1.842361e-01 2.444853e-01 1.762829e-01 1.295743e-01 2.746642e-01 4.675737e-02
<GCONST> 7.485141e+01
<STATE> 4
<MEAN> 39
 5.979869e-01 1.077100e+01 1.381354e+00 -7.972468e+00 -1.803466e+00 8.146617e+00 4.227610e+00 -9.596300e-01 2.377645e+00 -9.938725e+00 -9.269902e-01 1.995820e+00 6.378635e+01 -9.708448e-01 5.768656e-01 1.167177e+00 1.871061e+00 9.154316e-01 -8.376489e-01 -1.140795e-01 2.160737e-01 -3.714578e-01 4.672188e-01 1.387755e-01 -4.999422e-01 -9.870437e-01 1.266197e-02 -3.133923e-01 -3.981531e-01 -2.834220e-01 -2.954005e-02 3.644585e-01 3.611325e-01 5.114289e-02 2.698055e-02 2.777858e-01 -3.818102e-02 -1.140816e-01 1.488100e-01
<VARIANCE> 39
 3.577418e+00 2.220173e+00 6.641838e+00 1.241186e+01 7.249787e+00 7.290375e+00 5.794731e+00 5.192840e+00 5.326823e+00 7.700405e+00 5.274435e+00 8.444013e+00 3.495465e+00 2.147524e-01 4.097815e-01 6.679528e-01 6.781235e-01 6.118022e-01 8.879073e-01 1.088294e+00 6.441786e-01 6.111984e-01 6.283780e-01 4.828718e-01 9.671201e-01 7.151832e-02 2.285550e-02 3.220964e-02 6.552173e-02 1.282199e-01 1.216384e-01 1.050333e-01 1.067732e-01 1.621422e-01 1.118333e-01 1.047572e-01 9.387840e-02 1.971129e-01 1.624738e-02
<GCONST> 5.278474e+01
<TRANSP> 5
 0.000000e+00 1.000000e+00 0.000000e+00 0.000000e+00 0.000000e+00
 0.000000e+00 9.349136e-01 6.508633e-02 0.000000e+00 0.000000e+00
 0.000000e+00 0.000000e+00 8.112275e-01 1.887725e-01 0.000000e+00
 0.000000e+00 0.000000e+00 0.000000e+00 7.619583e-01 2.380417e-01
 0.000000e+00 0.000000e+00 0.000000e+00 0.000000e+00 0.000000e+00
<ENDHMM>
~h "uu"
<BEGINHMM>
<NUMSTATES> 5
<STATE> 2
<MEAN> 39
 -1.842586e+01 -6.018994e+00 1.520450e+00 -8.356558e+00 -7.744058e-01 2.359872e+00 -2.193317e+00 1.854692e+00 1.391870e+00 -1.534477e-01 6.222675e+00 -1.380296e+00 6.310433e+01 -1.819336e+00 -3.869126e-01 7.882510e-01 -1.063332e+00 -7.244026e-01 5.606960e-01 -1.466382e+00 -6.062396e-01 6.363572e-01 -6.340798e-01 6.623063e-01 -7.881724e-01 1.998240e+00 5.111539e-02 7.167720e-01 2.173058e-01 4.023332e-01 -1.900431e-01 -9.893582e-02 5.015329e-02 -3.813221e-01 6.627450e-01 -5.178495e-02 -2.255985e-01 4.122900e-02 -1.193214e-01
<VARIANCE> 39
 1.815018e+01 3.361929e+01 8.577559e+00 4.065926e+01 3.090050e+01 1.794551e+01 3.079125e+01 2.455481e+01 1.695723e+01 2.699956e+01 1.036787e+01 3.354142e+01 4.627573e+01 2.918525e+00 1.380565e+00 6.624712e-01 2.920851e+00 2.942038e+00 1.278716e+00 2.225919e+00 1.816682e+00 3.680133e+00 1.877986e+00 1.650824e+00 2.051198e+00 2.480034e+00 9.177110e-01 2.506614e-01 2.948610e-01 5.681971e-01 8.632719e-01 2.612212e-01 5.116838e-01 4.350209e-01 5.302746e-01 3.478170e-01 3.479235e-01 2.966130e-01 2.967584e-01
<GCONST> 1.101169e+02
<STATE> 3
<MEAN> 39
 -2.475545e+01 -6.014536e+00 3.537026e+00 -1.025084e+01 -2.784471e+00 5.210119e+00 -7.151203e+00 -3.423063e+00 6.643675e+00 -1.832593e+00 9.412619e+00 -4.573869e+00 7.021074e+01 1.062773e+00 1.037655e+00 5.314916e-01 6.498043e-01 5.673664e-01 4.473910e-01 -7.957502e-01 -1.309435e+00 5.312597e-01 -3.688353e-01 -2.030375e-01 2.072458e-01 7.355323e-01 1.167594e+00 4.888389e-01 1.795567e-01 2.647821e-01 -4.895903e-02 -1.287756e-02 1.835902e-01 -1.622223e-01 -2.783870e-01 -1.245069e-01 -4.988431e-01 2.376603e-01 -1.166986e-01
<VARIANCE> 39
 1.880144e+01 1.201663e+01 1.028196e+01 2.796608e+01 4.851654e+01 2.084676e+01 3.360014e+01 2.452082e+01 1.689700e+01 1.718843e+01 1.488216e+01 3.790476e+01 4.478250e+01 7.072217e+00 1.700286e+00 1.278765e+00 2.057026e+00 4.216077e+00 2.333862e+00 1.513133e+00 1.325844e+00 2.275813e+00 1.294701e+00 1.732714e+00 1.544737e+00 9.858518e-01 1.905033e-01 2.341813e-01 3.742934e-01 3.782093e-01 1.259290e+00 4.535560e-01 3.198721e-01 4.141426e-01 5.264572e-01 3.566109e-01 2.500428e-01 2.702847e-01 3.226494e-01
<GCONST> 1.075436e+02
<STATE> 4
<MEAN> 39
 -3.559977e+00 2.281790e+00 6.495912e+00 -3.268578e+00 -1.976181e+00 7.449313e+00 -5.473270e+00 -1.151174e+01 3.359046e-01 -5.550433e+00 2.318215e+00 -1.441792e+00 7.266052e+01 2.492957e+00 7.333534e-01 3.928770e-01 2.601793e-01 -1.057288e+00 -2.704441e-01 2.490748e-01 -8.939216e-01 -4.023764e-01 -3.047274e-01 -1.605201e+00 1.570288e-01 3.688462e-01 -3.486114e-01 -2.752159e-01 -4.977527e-02 -3.001976e-01 -4.245067e-01 -3.465437e-02 6.129443e-02 8.360098e-02 2.804635e-01 1.715623e-01 -1.277725e-01 -1.396272e-01 3.660553e-02
<VARIANCE> 39
 5.108671e+01 5.631471e+00 9.385241e+00 1.227740e+01 3.971257e+01 1.200855e+01 2.713255e+01 4.033775e+01 3.375089e+01 3.197533e+01 1.770938e+01 1.464754e+01 4.969989e+01 5.783419e+00 3.072151e+00 1.845718e+00 2.081995e+00 6.332475e+00 9.731036e-01 3.239203e+00 3.800159e+00 7.025420e+00 4.078708e+00 1.663106e+00 1.468832e+00 1.178800e+00 6.235061e-01 4.336649e-01 2.397198e-01 3.535138e-01 1.128058e+00 2.842489e-01 3.724954e-01 6.477077e-01 6.367877e-01 6.205152e-01 3.750893e-01 2.794078e-01 1.688353e-01
<GCONST> 1.133667e+02
<TRANSP> 5
 0.000000e+00 1.000000e+00 0.000000e+00 0.000000e+00 0.000000e+00
 0.000000e+00 3.907103e-01 6.092896e-01 0.000000e+00 0.000000e+00
 0.000000e+00 0.000000e+00 7.382718e-01 2.617282e-01 0.000000e+00
 0.000000e+00 0.000000e+00 0.000000e+00 7.622712e-01 2.377287e-01
 0.000000e+00 0.000000e+00 0.000000e+00 0.000000e+00 0.000000e+00
<ENDHMM>
~h "vv"
<BEGINHMM>
<NUMSTATES> 5
<STATE> 2
<MEAN> 39
 1.200824e+00 8.672968e+00 4.616336e+00 -3.901503e+00 -1.760036e+00 -4.494402e-01 1.647344e+00 -3.772938e+00 1.091537e+00 -1.036378e+01 -6.004915e-01 2.217938e+00 6.790631e+01 -1.010738e+00 1.988686e-01 4.616837e-01 1.723320e-01 9.816685e-01 -1.730473e-01 -8.247850e-01 -4.196367e-01 -5.077820e-02 -1.261356e-01 2.917628e-01 -4.230667e-01 -1.551076e-01 -1.300681e-01 -9.894958e-02 -3.108697e-03 -2.080956e-01 -6.463236e-02 1.504002e-01 2.493380e-02 -5.001398e-02 3.521022e-02 9.561120e-02 -1.338346e-01 -1.612338e-01 1.235553e-01
<VARIANCE> 39
 3.058481e+01 8.593026e+00 9.921305e+00 2.227955e+01 3.308938e+01 9.762268e+00 1.589239e+01 1.227497e+01 1.294835e+01 2.705378e+01 1.456690e+01 1.261139e+01 1.826574e+01 2.540763e+00 6.585371e-01 1.436940e+00 3.469959e+00 1.746825e+00 1.462809e+00 1.419280e+00 1.164218e+00 1.782447e+00 1.652408e+00 1.489091e+00 1.790990e+00 6.272438e-01 2.579476e-01 7.177261e-02 1.943809e-01 3.556643e-01 2.983267e-01 1.399125e-01 3.003767e-01 2.141398e-01 3.325609e-01 2.704442e-01 2.318100e-01 1.855918e-01 8.413859e-02
<GCONST> 9.222076e+01
<STATE> 3
<MEAN> 39
 -1.143378e+01 7.505129e+00 9.231229e+00 -5.581173e+00 4.709757e+00 3.057431e+00 -4.527510e+00 -7.556803e+00 2.177798e+00 -4.969940e+00 -5.168893e-01 -4.015181e+00 6.622106e+01 -4.622949e-01 -8.048455e-01 3.977191e-01 3.266578e-01 -7.406658e-01 -3.251337e-01 -1.413534e+00 -5.059653e-01 2.359340e-01 2.955785e-01 -4.667993e-01 -1.695518e-01 2.014399e-01 6.643523e-01 5.255786e-02 -2.011378e-01 3.691722e-01 -2.468657e-01 -3.241911e-01 1.024669e-01 1.786514e-01 -5.233659e-02 4.350528e-02 6.212937e-02 4.431172e-01 -1.195712e-01
<VARIANCE> 39
 4.787678e+01 6.098634e+00 5.969891e+01 4.039426e+01 3.122141e+01 3.023714e+01 2.851023e+01 2.581575e+01 4.297576e+01 1.998089e+01 2.480286e+01 4.673381e+01 5.776332e+01 2.559494e+00 4.886796e-01 1.463869e+00 1.375057e+00 1.075154e+00 1.909397e+00 1.445532e+00 9.231335e-01 1.879865e+00 2.200145e+00 1.198332e+00 2.248527e+00 4.885922e-01 6.237476e-01 8.183106e-02 2.024219e-01 3.530501e-01 3.328190e-01 3.956635e-01 2.166221e-01 2.557205e-01 2.939336e-01 2.630940e-01 2.230106e-01 4.759684e-01 3.283755e-02
<GCONST> 1.013333e+02
<STATE> 4
<MEAN> 39
 -5.241047e+00 5.371602e+00 1.110066e+01 -6.972274e-01 -8.162482e-01 -8.341345e-01 -8.153154e+00 -9.864817e+00 4.477323e+00 -4.594476e+00 -3.760332e+00 -1.643201e+00 6.725934e+01 2.908120e-01 -6.016207e-02 -2.425295e-01 6.814490e-01 -4.083538e-01 -4.125957e-01 1.628259e-01 9.788226e-02 -2.119301e-01 -1.784626e-01 -1.953733e-01 2.809957e-01 -6.861930e-01 -1.734395e-01 5.643298e-02 -7.367794e-03 1.745145e-02 2.173037e-01 1.709107e-01 2.196907e-01 1.835963e-01 6.816307e-03 1.429943e-02 8.051333e-02 -4.080544e-02 -9.929453e-02
<VARIANCE> 39
 1.803332e+01 7.237620e+00 5.040133e+01 1.365143e+01 1.233041e+01 1.000183e+01 2.816540e+01 1.605518e+01 5.072863e+01 9.676427e+00 2.710108e+01 1.579070e+01 5.148660e+01 1.938365e+00 7.647496e-01 4.092605e-01 8.860070e-01 1.350659e+00 9.888710e-01 1.272904e+00 1.104425e+00 7.327625e-01 9.668784e-01 9.618390e-01 8.771650e-01 3.591443e-01 9.532021e-02 9.257823e-02 1.124565e-01 1.012412e-01 1.060439e-01 1.261737e-01 2.654764e-01 1.828648e-01 1.671539e-01 2.194026e-01 1.884385e-01 1.491841e-01 1.931879e-02
<GCONST> 8.130985e+01
<TRANSP> 5
 0.000000e+00 1.000000e+00 0.000000e+00 0.000000e+00 0.000000e+00
 0.000000e+00 7.841611e-01 2.158389e-01 0.000000e+00 0.000000e+00
 0.000000e+00 0.000000e+00 4.195609e-01 5.804391e-01 0.000000e+00
 0.000000e+00 0.000000e+00 0.000000e+00 7.530180e-01 2.469821e-01
 0.000000e+00 0.000000e+00 0.000000e+00 0.000000e+00 0.000000e+00
<ENDHMM>
~h "wa"
<BEGINHMM>
<NUMSTATES> 5
<STATE> 2
<MEAN> 39
 -1.404513e+01 -7.935277e+00 -1.644906e+00 -1.262691e+01 -8.877492e-01 -2.370102e+00 -4.943230e+00 3.653188e+00 -4.240412e-01 -2.592388e+00 7.117318e+00 -8.830724e-01 6.472559e+01 -1.044909e+00 -1.766644e+00 1.319456e+00 -4.690964e+00 -1.096814e+00 -1.188421e+00 -3.745866e+00 1.180279e-01 -1.322411e+00 -9.553756e-01 1.172114e+00 -3.342250e-01 4.099571e+00 -4.402533e-01 7.565299e-01 3.093610e-01 5.303349e-01 5.170500e-01 5.262269e-01 1.806256e-01 -5.929723e-01 2.324240e-01 6.031224e-01 -1.062862e-01 3.934613e-01 -3.246323e-01
<VARIANCE> 39
 1.424118e+01 1.002676e+01 2.366684e+01 3.692578e+01 2.032208e+01 1.522658e+01 2.316620e+01 1.761441e+01 1.397383e+01 2.365749e+01 9.573709e+00 1.810485e+01 2.261518e+01 1.855288e+00 1.449755e+00 1.620641e+00 2.021137e+00 2.857429e+00 1.463477e+00 1.621298e+00 2.304262e+00 1.545908e+00 2.460911e+00 1.702366e+00 1.819945e+00 8.114349e-01 5.253022e-01 1.645108e-01 5.486128e-01 6.829995e-01 3.534597e-01 2.653104e-01 5.103048e-01 4.012624e-01 2.564068e-01 4.749501e-01 3.234030e-01 1.594181e-01 5.317835e-01
<GCONST> 1.033300e+02
<STATE> 3
<MEAN> 39
 -9.861619e+00 -2.941513e+00 -1.361540e+00 -1.925706e+01 -2.206181e+00 2.487605e+00 -7.065066e+00 2.485277e-01 5.716468e-01 -1.384352e+00 5.520624e+00 2.169315e+00 7.096210e+01 2.746748e+00 8.997787e-01 -7.842663e-01 -3.463389e-01 -1.625959e+00 1.417282e+00 1.226959e+00 -2.994179e-01 1.095399e+00 -5.018823e-01 -1.385574e+00 3.590005e-01 8.431424e-01 3.864360e-01 -1.215091e-01 -1.699671e-01 3.544522e-01 -5.091896e-01 2.181351e-01 5.018843e-01 8.096055e-02 2.865038e-01 -2.051391e-01 -2.500488e-01 -1.507149e-02 -1.052863e-01
<VARIANCE> 39
 9.768927e+01 2.631688e+01 2.799070e+01 8.828486e+00 5.304227e+01 2.471223e+01 4.079968e+01 1.716134e+01 3.252046e+01 2.298894e+01 3.646022e+01 2.535296e+01 7.273773e+00 6.542472e+00 2.959925e+00 2.720327e+00 1.241794e+00 7.260579e+00 1.156045e+00 4.882405e+00 2.623831e+00 4.954145e+00 3.808915e+00 3.989230e+00 1.423798e+00 1.684915e+00 1.382806e+00 8.945309e-01 6.484818e-01 4.018282e-01 8.207415e-01 2.554102e-01 9.832972e-01 5.789223e-01 9.166119e-01 7.037874e-01 7.995160e-01 3.577478e-01 6.276978e-01
<GCONST> 1.228400e+02
<STATE> 4
<MEAN> 39
 1.764621e+00 -2.758365e+00 -7.311276e-01 -1.043096e+01 -7.877326e+00 4.529464e+00 -7.039302e+00 -1.210331e+01 8.613675e+00 -3.701577e+00 -3.323452e+00 5.754154e+00 7.586250e+01 -5.281009e-02 2.755329e-02 1.610731e-01 1.367989e-01 8.473628e-02 2.696719e-02 -7.032828e-02 -4.410217e-01 -1.772784e-01 2.046203e-02 2.864978e-01 2.103746e-01 -5.803023e-02 -4.658959e-02 4.014335e-02 1.413543e-02 -1.991057e-02 9.694535e-02 -4.943781e-03 -9.973535e-03 2.278885e-02 -1.328843e-02 2.620448e-02 2.908687e-02 8.149225e-03 -6.712513e-02
<VARIANCE> 39
 5.427791e+01 3.439866e+01 2.343764e+01 6.284661e+01 8.650996e+01 6.010105e+01 5.856240e+01 6.023546e+01 3.171387e+01 3.399878e+01 3.544888e+01 3.266592e+01 2.094077e+01 4.533448e+00 1.898084e+00 1.609648e+00 3.731144e+00 4.538088e+00 3.255744e+00 2.544641e+00 2.843846e+00 2.799583e+00 3.787593e+00 2.332350e+00 2.424575e+00 1.066653e+00 8.206908e-01 2.872861e-01 3.403190e-01 5.951548e-01 6.622975e-01 3.802510e-01 2.893703e-01 4.555511e-01 6.096618e-01 6.647957e-01 4.725102e-01 4.387469e-01 1.588475e-01
<GCONST> 1.223202e+02
<TRANSP> 5
 0.000000e+00 1.000000e+00 0.000000e+00 0.000000e+00 0.000000e+00
 0.000000e+00 5.971535e-01 4.028465e-01 0.000000e+00 0.000000e+00
 0.000000e+00 0.000000e+00 8.783470e-01 1.216530e-01 0.000000e+00
 0.000000e+00 0.000000e+00 0.000000e+00 9.708930e-01 2.910704e-02
 0.000000e+00 0.000000e+00 0.000000e+00 0.000000e+00 0.000000e+00
<ENDHMM>
~h "we"
<BEGINHMM>
<NUMSTATES> 5
<STATE> 2
<MEAN> 39
 -3.431373e+00 1.136394e+01 1.050514e+01 -4.715819e+00 -1.381645e+01 -1.737399e+00 -2.880234e+00 -1.030203e+01 9.157104e+00 1.730659e+00 -6.587297e+00 -1.237213e+00 6.137128e+01 4.822641e+00 2.451689e+00 3.466099e+00 -2.703245e+00 -6.437484e+00 1.418827e+00 -4.593479e-01 -4.473627e+00 1.925558e+00 4.246636e-01 -4.387325e+00 -4.674274e-01 3.338904e+00 -4.253249e-01 -7.869347e-01 -4.872369e-01 -7.607124e-02 5.750376e-01 1.088859e+00 7.123736e-01 3.100863e-01 -2.334218e-01 -1.042874e-01 2.450817e-01 2.151954e-01 -3.477556e-02
<VARIANCE> 39
 2.158111e+01 1.093409e+01 1.406637e+01 1.551333e+01 4.676317e+01 1.061550e+01 8.553045e+00 2.080865e+01 1.894575e+01 8.031528e+00 3.413738e+01 7.147231e+00 9.268551e+00 6.319921e-01 9.995661e-01 1.038077e+00 4.121866e-01 1.655974e+00 2.830862e+00 2.210765e+00 1.184012e+00 1.191429e+00 1.012806e+00 1.541809e+00 9.911103e-01 2.645023e-01 5.386912e-01 2.360214e-01 3.010071e-01 3.154611e-01 1.154053e+00 2.193465e-01 2.202891e-01 6.216615e-01 4.213059e-01 1.912929e-01 7.972369e-01 1.313429e-01 2.202795e-01
<GCONST> 9.307863e+01
<STATE> 3
<MEAN> 39
 3.910146e+00 1.158146e+01 1.284720e+01 -1.101336e+01 -1.987038e+01 6.386098e+00 -1.270727e+00 -1.326051e+01 9.008066e+00 -1.641368e+00 -1.141396e+01 -4.301133e+00 6.878316e+01 3.863969e-01 2.686128e-03 -5.450736e-01 -3.677199e-01 2.093980e-01 -7.748109e-02 4.141418e-01 4.550227e-01 -6.581609e-01 -7.040665e-01 -2.593981e-01 -4.496734e-01 4.266511e-01 -2.162163e-01 -1.364959e-01 -3.478146e-01 1.758328e-01 3.628656e-01 -1.958829e-01 9.192711e-02 9.895571e-02 -1.408218e-01 -1.284188e-01 1.676240e-01 1.659968e-01 -1.197950e-01
<VARIANCE> 39
 1.903429e+00 2.979049e+00 1.168159e+01 4.602271e+00 2.241901e+01 1.309966e+01 1.859518e+01 2.234675e+01 1.714401e+01 1.804269e+01 1.311187e+01 1.706589e+01 1.260305e+00 4.298108e-01 3.378230e-01 1.085959e+00 7.498279e-01 1.499811e+00 2.321486e+00 2.073068e+00 2.194973e+00 1.664685e+00 1.332615e+00 2.253800e+00 9.437357e-01 4.449816e-01 2.743968e-01 1.449564e-01 1.358989e-01 1.718016e-01 7.212515e-01 3.152498e-01 3.178730e-01 9.072175e-01 2.873197e-01 2.396429e-01 7.033383e-01 3.438389e-01 1.541826e-01
<GCONST> 8.618361e+01
<STATE> 4
<MEAN> 39
 6.918985e-02 3.789857e+00 1.298112e+00 -7.119069e+00 -4.461620e+00 2.566825e+00 -1.022171e+01 -2.202932e+01 7.562586e+00 -3.756315e+00 -3.441984e+00 2.693988e+00 7.339478e+01 -9.099229e-02 -3.308997e-01 -2.608361e-01 -1.421295e-01 4.041007e-01 2.966980e-01 -2.637322e-01 -4.746841e-01 -3.895536e-03 1.651124e-01 8.491975e-01 6.807466e-01 8.541262e-02 6.869128e-02 3.160013e-02 7.040203e-02 -3.205518e-02 -1.118704e-01 8.276761e-02 -7.435697e-03 1.019101e-01 6.779173e-02 5.032154e-02 5.417165e-02 -2.579707e-02 -5.397436e-02
<VARIANCE> 39
 7.221507e+01 2.592515e+01 1.909329e+01 4.647244e+01 7.321302e+01 1.912261e+01 9.144044e+01 5.360719e+01 4.866006e+01 2.791068e+01 4.433751e+01 2.538165e+01 1.472332e+01 7.601713e+00 3.274958e+00 2.775959e+00 4.213409e+00 5.438389e+00 2.279264e+00 7.385335e+00 5.998176e+00 4.381788e+00 4.283608e+00 4.006475e+00 3.643374e+00 1.556283e+00 1.221646e+00 4.653097e-01 3.989806e-01 6.503029e-01 6.731282e-01 4.079225e-01 1.032710e+00 8.415029e-01 7.448669e-01 9.476303e-01 1.046477e+00 6.654844e-01 2.136464e-01
<GCONST> 1.311082e+02
<TRANSP> 5
 0.000000e+00 1.000000e+00 0.000000e+00 0.000000e+00 0.000000e+00
 0.000000e+00 5.692830e-01 4.307170e-01 0.000000e+00 0.000000e+00
 0.000000e+00 0.000000e+00 9.212293e-01 7.877073e-02 0.000000e+00
 0.000000e+00 0.000000e+00 0.000000e+00 9.565100e-01 4.349000e-02
 0.000000e+00 0.000000e+00 0.000000e+00 0.000000e+00 0.000000e+00
<ENDHMM>
~h "sil"
<BEGINHMM>
<NUMSTATES> 5
<STATE> 2
<MEAN> 39
 -1.555272e+01 1.475259e+00 -9.636295e-01 2.680008e-01 3.100748e+00 1.692576e+00 3.723972e+00 8.945592e-02 3.330698e+00 3.920045e-01 3.575721e+00 3.835086e-01 5.461793e+01 -7.575545e-02 -3.505635e-02 3.038540e-02 3.384614e-02 -4.501149e-02 -1.833661e-03 1.542099e-03 1.725592e-02 -2.125948e-03 3.078805e-02 6.986372e-03 4.961556e-02 -7.838145e-02 1.353300e-02 2.838292e-02 6.571028e-02 4.830710e-02 -1.914201e-02 -7.348960e-03 2.964373e-03 4.442392e-02 3.467901e-02 2.176263e-02 2.312215e-03 -5.880544e-03 -2.359863e-02
<VARIANCE> 39
 3.438779e+00 4.154643e+00 8.649333e+00 8.086638e+00 7.790814e+00 1.037399e+01 1.222464e+01 1.289957e+01 1.134841e+01 1.010395e+01 1.012878e+01 8.717934e+00 5.591422e+00 4.011720e-01 4.376827e-01 1.046306e+00 9.597280e-01 8.326810e-01 1.173233e+00 1.150167e+00 1.409658e+00 1.081411e+00 1.106596e+00 9.544272e-01 9.244565e-01 7.648333e-01 7.436310e-02 8.730047e-02 2.046643e-01 1.832681e-01 1.585235e-01 2.303459e-01 2.050942e-01 2.727202e-01 1.995065e-01 2.067292e-01 1.767194e-01 1.726424e-01 1.612604e-01
<GCONST> 7.447513e+01
<STATE> 3
<MEAN> 39
 -1.631066e+01 1.316867e+00 -1.036318e-01 1.156032e+00 3.007113e+00 1.911039e+00 4.347358e+00 1.468252e+00 4.249775e+00 1.175695e+00 4.088706e+00 1.124854e+00 5.355925e+01 -3.828780e-03 -4.574259e-03 3.465788e-03 7.269915e-03 -1.113493e-03 7.671766e-03 6.067137e-03 2.028907e-02 1.406570e-02 1.307781e-02 1.125631e-02 1.663118e-02 -4.677137e-03 3.548530e-03 3.814395e-04 -5.922856e-03 -6.758638e-03 4.726286e-04 -3.275244e-03 -2.892290e-03 -4.424922e-03 -4.050871e-03 -4.483595e-03 -3.097929e-04 -3.745706e-03 4.495752e-03
<VARIANCE> 39
 8.851060e-01 1.550377e+00 2.785186e+00 4.244071e+00 5.485417e+00 6.836679e+00 8.027463e+00 8.891459e+00 9.331643e+00 9.367353e+00 9.362348e+00 8.489422e+00 6.052197e-01 7.944841e-02 1.667628e-01 3.024479e-01 4.418376e-01 5.897282e-01 7.254753e-01 8.865817e-01 9.695840e-01 1.018622e+00 9.698166e-01 9.545484e-01 9.273207e-01 2.389508e-02 1.674592e-02 3.517440e-02 6.361925e-02 9.106439e-02 1.213614e-01 1.507854e-01 1.847935e-01 1.979100e-01 2.110850e-01 2.007855e-01 1.995716e-01 1.935176e-01 5.170349e-03
<GCONST> 4.791761e+01
<STATE> 4
<MEAN> 39
 -1.581236e+01 1.282972e+00 -6.410440e-01 7.679794e-01 2.990303e+00 1.982260e+00 4.068305e+00 1.121301e+00 3.953236e+00 9.974189e-01 4.219085e+00 1.301875e+00 5.395535e+01 2.796417e-04 1.811917e-03 -3.706802e-02 -3.326258e-02 -5.035484e-02 -4.556103e-02 5.204088e-02 1.705122e-02 -3.517644e-02 -2.992083e-02 -2.072772e-02 3.643704e-02 -2.021071e-03 6.393728e-03 -1.470436e-02 1.858286e-02 -3.849744e-02 -2.990318e-02 6.402630e-03 1.276019e-02 1.045382e-03 -5.778437e-03 -1.257145e-03 -1.567232e-02 -5.487088e-03 1.828002e-02
<VARIANCE> 39
 2.237224e+00 2.682305e+00 6.188668e+00 5.988240e+00 6.847137e+00 7.826836e+00 1.063604e+01 1.065204e+01 1.128420e+01 9.852504e+00 9.618263e+00 7.622342e+00 1.020818e+00 2.523147e-01 2.959894e-01 8.586985e-01 7.693319e-01 6.931803e-01 8.751863e-01 1.229578e+00 1.275803e+00 1.163792e+00 1.152600e+00 1.137289e+00 9.250690e-01 1.379278e-01 5.652494e-02 7.326607e-02 1.826180e-01 1.789880e-01 1.456868e-01 1.679122e-01 2.562926e-01 2.546950e-01 2.336040e-01 2.257352e-01 2.124753e-01 1.763484e-01 4.285793e-02
<GCONST> 6.540050e+01
<TRANSP> 5
 0.000000e+00 1.000000e+00 0.000000e+00 0.000000e+00 0.000000e+00
 0.000000e+00 7.722621e-01 2.277379e-01 0.000000e+00 0.000000e+00
 0.000000e+00 0.000000e+00 9.752466e-01 2.475339e-02 0.000000e+00
 0.000000e+00 0.000000e+00 0.000000e+00 7.212641e-01 2.787358e-01
 0.000000e+00 0.000000e+00 0.000000e+00 0.000000e+00 0.000000e+00
<ENDHMM>
