~o
<STREAMINFO> 1 39
<VECSIZE> 39<NULLD><MFCC_D_A_0><DIAGC>
~h "B"
<BEGINHMM>
<NUMSTATES> 5
<STATE> 2
<MEAN> 39
 -1.410088e+01 4.023701e+00 2.573592e+00 3.748876e+00 5.267166e+00 3.975512e+00 6.454436e+00 4.162886e+00 7.606083e+00 4.429980e+00 7.807307e+00 5.305132e+00 5.437502e+01 -3.902885e-02 -5.569884e-02 -5.230502e-02 -4.667237e-02 -8.347158e-02 -4.898662e-02 -5.295251e-02 -6.288391e-02 -6.606514e-02 -7.127063e-02 -4.298796e-02 2.862204e-02 -1.670760e-02 -6.616015e-03 -2.606106e-02 -4.250531e-02 -2.168066e-02 -2.791485e-02 -6.331387e-03 2.326969e-03 1.765862e-04 -3.039043e-02 1.052773e-02 -1.280772e-03 -5.282500e-02 4.039512e-03
<VARIANCE> 39
 1.914999e+00 3.083595e+00 3.426458e+00 5.204370e+00 4.046413e+00 4.305691e+00 6.031723e+00 6.260040e+00 1.105837e+01 8.296701e+00 1.093354e+01 8.195723e+00 6.052197e-01 3.754251e-02 1.032399e-01 2.848359e-01 3.143238e-01 2.844504e-01 5.264384e-01 5.775715e-01 6.260521e-01 9.969796e-01 8.383983e-01 1.191214e+00 5.901915e-01 2.096627e-02 7.738711e-03 2.299466e-02 6.975435e-02 5.512711e-02 5.572889e-02 1.337967e-01 1.282361e-01 1.299915e-01 2.156040e-01 1.841446e-01 2.971222e-01 1.239492e-01 5.030222e-03
<GCONST> 4.104883e+01
<STATE> 3
<MEAN> 39
 -1.535255e+01 9.822925e-01 -1.639471e+00 -3.969379e-01 2.741859e+00 1.896976e+00 3.683385e+00 -6.035469e-01 2.779953e+00 1.161464e+00 6.003582e+00 3.037246e+00 5.408209e+01 -1.336645e-02 -1.612804e-02 -3.758509e-02 -3.444160e-02 -3.089817e-02 2.782050e-02 8.463018e-03 4.939199e-02 4.814420e-02 6.907025e-02 6.245077e-05 -1.612411e-02 -6.756596e-04 -2.018512e-04 1.827154e-02 2.930181e-02 2.937265e-02 3.057763e-02 1.451413e-02 2.584538e-02 4.570884e-02 3.187469e-02 3.459652e-03 -1.130317e-02 -1.226229e-02 -1.701816e-03
<VARIANCE> 39
 1.154697e+00 2.475787e+00 6.342229e+00 4.892407e+00 7.273974e+00 9.195342e+00 7.307593e+00 1.076267e+01 1.175230e+01 8.228425e+00 9.881819e+00 9.346984e+00 6.052197e-01 9.822784e-02 2.356653e-01 4.979004e-01 6.462922e-01 6.503085e-01 7.299785e-01 9.314091e-01 1.350963e+00 1.415806e+00 9.325230e-01 1.232313e+00 1.060943e+00 4.257227e-02 1.926269e-02 5.273749e-02 1.068860e-01 1.425672e-01 1.358953e-01 1.436946e-01 1.931498e-01 2.893348e-01 3.027354e-01 1.914185e-01 2.785290e-01 2.470855e-01 8.243539e-03
<GCONST> 5.708102e+01
<STATE> 4
<MEAN> 39
 -1.682740e+01 1.001785e+00 1.700235e-01 1.785833e+00 3.483422e+00 2.058610e+00 4.610632e+00 2.014537e+00 4.886593e+00 1.835949e+00 4.860132e+00 1.497205e+00 5.327823e+01 -1.436901e-03 -5.661734e-03 -2.938705e-03 -2.655208e-03 -2.798204e-03 -1.399844e-02 -1.067880e-02 3.218749e-04 -7.610024e-03 -2.436082e-03 -9.064658e-03 -1.831559e-02 -1.575832e-03 2.193963e-03 -2.471613e-03 -5.791003e-03 -5.964676e-03 4.538773e-04 2.825999e-03 -4.611906e-03 -1.002213e-02 -5.455037e-03 -7.174085e-03 -2.824464e-03 2.154392e-04 1.990912e-03
<VARIANCE> 39
 6.170341e-01 1.363679e+00 2.379566e+00 3.684335e+00 4.877914e+00 6.211775e+00 6.850455e+00 7.822983e+00 9.551639e+00 9.568645e+00 9.239137e+00 7.666536e+00 6.052197e-01 6.161603e-02 1.422086e-01 2.797804e-01 4.323487e-01 5.940109e-01 7.287363e-01 7.580102e-01 8.882868e-01 1.101001e+00 1.176152e+00 1.103778e+00 8.543823e-01 2.135249e-02 1.225407e-02 2.771222e-02 5.717947e-02 8.839817e-02 1.255602e-01 1.525798e-01 1.606704e-01 1.847015e-01 2.270877e-01 2.487271e-01 2.378951e-01 1.802403e-01 4.910385e-03
<GCONST> 4.552502e+01
<TRANSP> 5
 0.000000e+00 1.000000e+00 0.000000e+00 0.000000e+00 0.000000e+00
 0.000000e+00 9.129111e-01 8.708899e-02 0.000000e+00 0.000000e+00
 0.000000e+00 0.000000e+00 9.272833e-01 7.271675e-02 0.000000e+00
 0.000000e+00 0.000000e+00 0.000000e+00 9.879318e-01 1.206824e-02
 0.000000e+00 0.000000e+00 0.000000e+00 0.000000e+00 0.000000e+00
<ENDHMM>
~h "p"
<BEGINHMM>
<NUMSTATES> 5
<STATE> 2
<MEAN> 39
 -1.630974e+01 1.121614e+00 -8.497066e-01 5.900472e-01 3.022822e+00 1.246901e+00 3.992998e+00 1.859956e+00 4.895773e+00 2.182363e+00 5.312273e+00 2.174441e+00 5.358301e+01 -1.160933e-01 2.676558e-02 -9.468947e-02 -3.801146e-01 -3.860772e-01 -8.832466e-03 -2.019997e-01 2.106371e-02 -1.995160e-01 -5.879408e-01 -4.388786e-01 -2.382726e-01 -6.409750e-02 4.700627e-01 -3.936702e-03 -2.731255e-01 -2.072713e-01 1.075492e-01 1.411562e-01 -7.204842e-01 -7.900026e-01 -3.940426e-01 -5.000739e-01 -4.278651e-01 -1.425600e-01 7.122796e-01
<VARIANCE> 39
 1.270984e+00 3.233912e+00 6.249428e+00 7.467292e+00 7.838015e+00 9.243318e+00 1.192206e+01 7.721703e+00 1.682312e+01 1.252206e+01 1.023316e+01 1.368981e+01 6.052197e-01 1.275390e-01 3.800989e-01 8.009067e-01 5.620110e-01 5.498152e-01 7.436570e-01 1.256914e+00 6.675638e-01 1.323286e+00 1.201350e+00 9.204212e-01 1.306509e+00 4.048371e-02 8.487427e-02 8.087656e-02 2.467865e-01 1.698649e-01 2.631544e-01 3.015586e-01 3.716253e-01 2.002457e-01 2.824839e-01 2.622001e-01 2.569954e-01 3.923019e-01 2.738939e-01
<GCONST> 6.859834e+01
<STATE> 3
<MEAN> 39
 -1.627006e+01 1.243352e+00 -8.933293e-01 -3.422655e-01 1.688454e+00 3.064857e-01 3.372506e+00 1.243650e+00 3.465655e+00 -5.945623e-03 2.943487e+00 -1.582386e-01 5.362828e+01 1.943327e+00 -1.356601e-01 -1.159422e+00 -7.779458e-01 8.266240e-01 5.666801e-01 -3.087708e+00 -3.127768e+00 -1.235380e+00 -1.438383e+00 -9.788159e-01 1.741144e-01 3.328010e+00 2.400906e-01 -2.897300e-01 3.239301e-01 4.500546e-01 2.832122e-01 -8.422512e-02 -6.180110e-01 -3.310792e-01 -1.525326e-02 -3.962350e-01 -3.249638e-03 3.360745e-01 1.374703e+00
<VARIANCE> 39
 9.701995e-01 1.163799e+00 2.467752e+00 5.224065e+00 6.037344e+00 5.875113e+00 5.740518e+00 6.607405e+00 8.353344e+00 6.459962e+00 6.068794e+00 3.987200e+00 6.052197e-01 5.489768e-01 2.989424e-01 1.343483e+00 1.458303e+00 9.403234e-01 1.619889e+00 3.348587e+00 1.472729e+00 1.596646e+00 1.383777e+00 1.320640e+00 1.643208e+00 3.015830e+00 1.384789e-01 7.016157e-02 2.507446e-01 1.809423e-01 1.602013e-01 1.690257e-01 3.823932e-01 3.824086e-01 2.316548e-01 1.829543e-01 2.443181e-01 1.878867e-01 6.647510e-02
<GCONST> 6.957357e+01
<STATE> 4
<MEAN> 39
 -1.049785e+01 7.470773e-01 3.548385e+00 1.660551e+00 2.698641e+00 -1.791573e-01 -5.169857e+00 -5.950277e+00 5.853217e-01 -5.272967e+00 1.742299e+00 8.232873e-01 7.065972e+01 9.975183e-01 7.938256e-01 2.726459e+00 8.161944e-01 -1.200292e+00 -8.895789e-01 3.300148e-01 -7.334549e-01 4.049177e-01 -1.172759e-01 -2.226864e-01 -1.114669e+00 2.244998e+00 3.996440e-02 3.201124e-01 2.119366e-01 -9.728562e-02 -3.995188e-01 -1.815261e-01 5.670725e-01 -1.320830e-01 3.414562e-01 4.695923e-01 -8.336501e-02 -3.750787e-01 -6.032054e-01
<VARIANCE> 39
 1.597596e+01 1.755187e+01 6.953707e+01 2.117765e+01 2.072856e+01 1.861362e+01 3.242073e+01 3.662322e+01 1.554659e+01 1.301501e+01 1.173488e+01 2.569390e+01 1.375160e+01 2.363820e+00 3.284933e+00 3.378507e+00 1.784661e+00 2.227404e+00 1.728038e+00 6.159472e+00 6.076694e+00 1.601178e+00 2.863214e+00 1.657272e+00 2.652837e+00 4.027977e+00 5.308191e-01 5.524839e-01 1.528386e+00 5.248985e-01 3.650549e-01 3.938419e-01 1.409292e+00 1.692225e+00 2.637408e-01 3.686342e-01 4.403653e-01 3.790589e-01 4.230767e-01
<GCONST> 1.169978e+02
<TRANSP> 5
 0.000000e+00 1.000000e+00 0.000000e+00 0.000000e+00 0.000000e+00
 0.000000e+00 4.871288e-01 5.128711e-01 0.000000e+00 0.000000e+00
 0.000000e+00 0.000000e+00 5.276743e-01 4.723257e-01 0.000000e+00
 0.000000e+00 0.000000e+00 0.000000e+00 8.296793e-01 1.703208e-01
 0.000000e+00 0.000000e+00 0.000000e+00 0.000000e+00 0.000000e+00
<ENDHMM>
~h "aa"
<BEGINHMM>
<NUMSTATES> 5
<STATE> 2
<MEAN> 39
 -2.143407e+00 1.102042e+01 2.050084e+00 -3.568453e+00 1.336796e+00 7.191818e+00 6.910286e+00 8.791848e-01 4.951781e-01 -8.130588e+00 -1.202650e+00 -2.918886e-01 6.131918e+01 -7.438368e-01 -2.586258e-01 -2.971385e-01 6.618790e-01 4.530157e-01 -2.857605e-01 8.584833e-01 7.907172e-01 3.582888e-02 9.227627e-01 6.810758e-02 -5.534228e-01 -6.134301e-01 1.575851e-02 -1.731892e-01 -1.844675e-01 -3.392220e-01 -2.397210e-01 -1.227685e-02 -8.278014e-02 -1.146576e-02 2.021163e-01 5.414841e-02 1.303828e-01 1.270766e-01 5.726046e-02
<VARIANCE> 39
 4.764369e+00 1.261211e+00 4.438435e+00 1.233565e+01 8.081669e+00 4.726983e+00 7.929558e+00 8.725702e+00 6.234524e+00 7.761558e+00 7.472250e+00 9.923356e+00 2.382012e+00 1.960042e-01 3.727053e-01 2.509825e-01 4.584636e-01 5.687832e-01 3.691749e-01 4.747478e-01 8.711655e-01 9.497582e-01 7.802978e-01 8.502250e-01 5.265115e-01 3.833208e-02 1.505106e-02 3.324600e-02 6.692934e-02 9.207880e-02 8.771048e-02 8.739814e-02 1.702608e-01 2.330945e-01 1.378882e-01 1.439002e-01 1.625316e-01 1.202312e-01 7.924474e-03
<GCONST> 4.933896e+01
<STATE> 3
<MEAN> 39
 -6.045219e+00 8.462791e+00 -4.675304e-01 -4.121413e+00 -4.538428e-01 2.872774e+00 6.602119e+00 1.017244e+00 2.875932e-01 -5.085833e+00 -9.672583e-01 -2.517789e+00 5.864508e+01 -7.884582e-01 -4.999376e-01 -1.823201e-01 2.099553e-02 -2.232729e-01 -6.518561e-01 -4.324332e-01 -3.746081e-01 -2.003222e-01 9.536506e-02 -1.761909e-01 -4.708283e-01 -4.509487e-01 -8.238737e-03 4.373980e-03 7.011206e-02 1.473947e-02 -3.610510e-02 4.166120e-03 -9.056155e-02 -5.105686e-02 -1.698987e-02 -8.437805e-02 -3.922942e-02 3.261140e-02 1.394733e-02
<VARIANCE> 39
 5.437664e+00 4.302177e+00 4.098772e+00 6.654492e+00 9.881151e+00 1.010112e+01 1.330601e+01 1.432905e+01 1.227092e+01 8.490263e+00 8.757166e+00 7.725245e+00 1.643134e+00 9.406038e-02 4.253654e-01 4.713662e-01 4.312975e-01 7.692547e-01 5.828220e-01 8.877429e-01 1.271639e+00 1.439690e+00 1.214886e+00 1.146652e+00 6.999747e-01 3.356539e-02 1.658981e-02 6.805804e-02 7.360891e-02 8.101856e-02 1.405327e-01 1.257350e-01 2.224751e-01 3.115288e-01 2.905479e-01 3.211990e-01 2.821103e-01 1.436161e-01 5.308786e-03
<GCONST> 5.936920e+01
<STATE> 4
<MEAN> 39
 -1.230663e+01 4.644835e+00 2.840054e-01 -1.162764e+00 2.109008e-02 -2.774080e-01 3.380450e+00 1.161435e-01 1.659918e+00 -1.959377e+00 1.034296e+00 -1.467816e+00 5.544620e+01 -3.525327e-01 -2.739043e-01 3.999158e-02 2.601761e-01 1.663387e-01 -1.848576e-02 -7.065875e-02 3.311282e-03 1.523266e-01 2.409059e-01 1.998994e-01 1.909645e-01 -1.741379e-01 3.416014e-02 1.673645e-02 -9.158404e-03 -1.348960e-03 3.430714e-02 2.581109e-02 -1.369077e-02 -4.933320e-02 -4.381090e-02 -5.103646e-02 -1.667921e-02 -3.695576e-03 1.971822e-02
<VARIANCE> 39
 3.286381e+00 2.746668e+00 2.455961e+00 5.055719e+00 6.692428e+00 8.052749e+00 8.291428e+00 8.087044e+00 8.852157e+00 1.076984e+01 1.202370e+01 1.007831e+01 8.116652e-01 9.890322e-02 1.732606e-01 2.767507e-01 3.741934e-01 5.557325e-01 5.965286e-01 6.782252e-01 9.500961e-01 1.046317e+00 1.011557e+00 1.080858e+00 8.256745e-01 2.735876e-02 1.159464e-02 2.393575e-02 5.343265e-02 8.492474e-02 1.293644e-01 1.071020e-01 1.170876e-01 1.829708e-01 2.211585e-01 2.174999e-01 2.217780e-01 1.603097e-01 4.530658e-03
<GCONST> 4.872609e+01
<TRANSP> 5
 0.000000e+00 1.000000e+00 0.000000e+00 0.000000e+00 0.000000e+00
 0.000000e+00 7.612390e-01 2.387610e-01 0.000000e+00 0.000000e+00
 0.000000e+00 0.000000e+00 8.485776e-01 1.514224e-01 0.000000e+00
 0.000000e+00 0.000000e+00 0.000000e+00 9.105715e-01 8.942848e-02
 0.000000e+00 0.000000e+00 0.000000e+00 0.000000e+00 0.000000e+00
<ENDHMM>
~h "c0"
<BEGINHMM>
<NUMSTATES> 5
<STATE> 2
<MEAN> 39
 -1.157504e+01 4.946709e+00 1.904886e+00 1.799842e+00 3.254546e+00 2.232111e+00 3.109670e+00 -2.503830e-01 2.774873e+00 -5.472744e-02 3.866553e+00 1.283605e+00 5.602150e+01 -3.448916e-01 -3.494211e-01 -3.716475e-01 -1.690632e-01 1.652093e-02 -3.328807e-02 3.118107e-01 2.808057e-01 2.085171e-01 4.659303e-01 6.309977e-02 -3.286726e-02 -2.158500e-01 7.382085e-02 -3.895023e-01 -4.460578e-02 -7.170402e-01 -3.108051e-01 -7.282536e-02 -4.823205e-01 -3.765694e-01 -2.641149e-01 -1.980488e-01 -4.313128e-02 -1.350759e-01 4.497245e-01
<VARIANCE> 39
 3.287203e+01 1.894238e+01 7.971327e+00 5.964669e+00 6.448803e+00 6.227260e+00 1.170235e+01 1.897820e+01 1.364646e+01 1.264684e+01 9.610179e+00 1.206833e+01 9.670094e+00 2.445657e-01 2.831687e-01 4.682198e-01 6.074708e-01 8.943893e-01 8.259880e-01 1.026948e+00 9.578015e-01 1.036152e+00 1.008701e+00 1.122747e+00 9.543106e-01 1.197598e-01 5.736687e-02 1.684227e-01 1.214512e-01 3.319626e-01 1.709177e-01 1.483872e-01 2.874472e-01 3.295937e-01 2.832476e-01 3.268868e-01 2.604361e-01 2.120231e-01 2.167376e-01
<GCONST> 7.629976e+01
<STATE> 3
<MEAN> 39
 -1.328650e+01 3.479453e+00 1.043140e+00 1.317933e+00 3.427128e+00 2.229013e+00 3.701193e+00 3.638761e-01 3.590234e+00 1.618439e-01 3.648409e+00 1.383434e+00 5.524059e+01 6.094031e-02 -1.460238e+00 -3.107383e-01 -2.369034e+00 -8.687901e-01 -3.405634e-02 -1.016090e+00 -7.063718e-01 -3.943206e-01 1.213414e-01 1.754321e-02 -2.655129e-01 1.346823e+00 -1.629470e-01 -3.384526e-01 1.370991e-01 -9.159508e-01 -4.441859e-01 -1.383189e-01 -6.954412e-01 -4.710947e-01 -3.677564e-01 -2.039084e-01 -2.019661e-02 -2.466888e-01 8.064183e-01
<VARIANCE> 39
 2.512771e+01 1.616134e+01 6.627769e+00 5.511394e+00 6.997485e+00 7.112632e+00 1.268877e+01 1.893531e+01 1.515499e+01 9.865706e+00 1.048748e+01 1.068978e+01 6.793184e+00 7.675880e-01 1.263386e+00 1.349857e+00 4.553683e+00 1.539349e+00 1.382062e+00 1.896799e+00 3.026639e+00 1.968557e+00 1.970241e+00 1.608610e+00 1.344100e+00 2.981170e+00 1.190470e-01 1.615611e-01 1.360245e-01 6.052922e-01 2.501120e-01 1.918988e-01 2.242368e-01 3.470870e-01 2.801827e-01 3.410575e-01 3.642923e-01 2.304487e-01 4.231848e-01
<GCONST> 9.209704e+01
<STATE> 4
<MEAN> 39
 -7.861589e+00 5.823926e-01 -5.514562e-02 -1.301606e+01 -4.127594e+00 4.219082e+00 2.747808e+00 -5.089124e+00 2.454632e+00 6.464220e-01 4.743692e-01 5.173385e-01 6.872749e+01 1.094146e+00 -1.212546e-01 -7.198712e-02 -8.126134e-01 -9.532060e-01 -2.084610e-01 2.535179e-03 -4.580343e-02 -5.029617e-01 -6.228397e-01 -4.134835e-01 -2.744456e-01 1.083570e+00 -5.662585e-02 1.257627e-01 1.033968e-01 4.109098e-01 1.634640e-01 -1.307077e-01 -1.261070e-01 1.310484e-01 5.474667e-03 -2.158175e-01 9.703971e-02 6.762508e-02 -2.068864e-01
<VARIANCE> 39
 1.227420e+02 2.556729e+01 2.274585e+01 6.980109e+01 5.649567e+01 1.977180e+01 5.824377e+01 3.392685e+01 1.515292e+01 2.635038e+01 3.416309e+01 2.054523e+01 6.076727e+01 8.421272e+00 2.391928e+00 1.793852e+00 7.587566e+00 3.994911e+00 2.742494e+00 6.781395e+00 3.486085e+00 1.846250e+00 3.268108e+00 3.763278e+00 1.832615e+00 4.629510e+00 1.423045e+00 2.806696e-01 3.318835e-01 1.048616e+00 8.982468e-01 5.048410e-01 1.030017e+00 5.897859e-01 3.759648e-01 5.427814e-01 8.599407e-01 3.755324e-01 4.291864e-01
<GCONST> 1.279598e+02
<TRANSP> 5
 0.000000e+00 1.000000e+00 0.000000e+00 0.000000e+00 0.000000e+00
 0.000000e+00 6.103725e-02 9.389628e-01 0.000000e+00 0.000000e+00
 0.000000e+00 0.000000e+00 2.917669e-01 7.082331e-01 0.000000e+00
 0.000000e+00 0.000000e+00 0.000000e+00 6.816357e-01 3.183644e-01
 0.000000e+00 0.000000e+00 0.000000e+00 0.000000e+00 0.000000e+00
<ENDHMM>
~h "ee"
<BEGINHMM>
<NUMSTATES> 5
<STATE> 2
<MEAN> 39
 3.155971e+00 3.331078e+00 8.965698e-01 -1.419856e+01 -9.532152e+00 1.032768e+01 -6.091585e-01 -1.499152e+01 4.174644e+00 -4.388475e+00 4.012454e+00 8.930016e+00 7.067677e+01 -2.474773e-01 7.246143e-01 3.739374e-01 4.537365e-01 4.066087e-01 7.003837e-01 5.540801e-01 9.532168e-01 5.339929e-01 -7.457422e-02 -6.866503e-01 -4.949375e-02 -1.040287e+00 -5.753284e-01 4.819685e-01 3.844377e-01 8.427718e-01 9.168234e-01 -7.450946e-01 -3.211100e-01 3.397297e-01 -3.830016e-01 -5.168070e-02 -1.881509e-01 -4.890477e-01 -3.385890e-01
<VARIANCE> 39
 8.746675e+00 1.405384e+01 9.073266e+00 3.517469e+01 2.363606e+01 3.703512e+01 8.900651e+00 4.282388e+01 1.114828e+01 1.215894e+01 9.705029e+00 1.800874e+01 1.819573e+01 4.270636e-01 9.949170e-01 7.905381e-01 2.482794e+00 2.537408e+00 2.153908e+00 7.499831e-01 1.448454e+00 1.962242e+00 8.897016e-01 7.539436e-01 1.115649e+00 3.392535e-01 2.150386e-01 1.440120e-01 1.340894e-01 2.566215e-01 2.787872e-01 4.054252e-01 1.437609e-01 2.166943e-01 4.411333e-01 3.180597e-01 3.416116e-01 2.590112e-01 4.267236e-02
<GCONST> 8.881290e+01
<STATE> 3
<MEAN> 39
 4.108028e-01 8.529644e+00 3.357759e+00 -6.291229e+00 -3.202344e+00 6.216329e+00 -7.085052e-01 -8.717226e+00 2.062163e+00 -6.256977e+00 2.101311e+00 6.859936e+00 6.509195e+01 -9.946910e-01 1.504776e+00 1.274837e+00 3.186329e+00 2.320094e+00 -2.182920e+00 -6.524985e-01 1.659081e+00 -1.427899e+00 -7.314612e-01 1.659865e-01 -1.599634e+00 -1.534620e+00 -4.063253e-02 -2.202807e-01 3.131763e-02 6.196959e-02 -1.896098e-03 -1.196164e-01 -1.332003e-01 -1.722684e-01 -6.669359e-02 2.356712e-02 1.844154e-01 -2.154858e-01 1.404635e-01
<VARIANCE> 39
 1.058915e+01 8.090755e+00 5.121828e+00 3.454852e+01 1.957506e+01 4.228697e+01 1.673505e+01 2.569916e+01 1.112899e+01 7.839690e+00 1.018469e+01 2.267695e+01 1.128896e+01 1.758973e-01 6.005799e-01 6.450704e-01 2.256999e+00 1.473271e+00 2.025810e+00 1.061953e+00 1.526208e+00 1.249055e+00 1.069971e+00 7.257571e-01 2.358197e+00 2.529568e-01 3.078547e-02 9.913538e-02 1.147897e-01 3.896221e-01 3.214030e-01 4.000881e-01 2.126343e-01 2.272158e-01 3.248193e-01 1.729512e-01 1.744518e-01 2.367463e-01 3.465654e-02
<GCONST> 8.216951e+01
<STATE> 4
<MEAN> 39
 -1.702562e+00 1.093958e+01 5.817467e+00 2.941509e-01 1.949346e+00 2.686783e+00 -2.327880e+00 -6.856720e+00 -7.791168e-01 -6.123673e+00 3.661393e+00 3.137412e+00 6.209573e+01 -7.211156e-01 1.247452e-01 1.642765e-02 9.275696e-01 7.439649e-01 -3.677560e-01 2.493199e-01 4.510316e-01 -1.743847e-01 6.383862e-01 1.360755e-01 -5.199388e-01 -7.285538e-01 7.097182e-03 -2.507173e-01 -2.412896e-01 -3.773235e-01 -3.013789e-01 2.333875e-01 1.827482e-01 -1.027278e-01 2.177045e-01 1.967127e-01 -2.809730e-02 2.015202e-01 1.039070e-01
<VARIANCE> 39
 5.866166e+00 3.546919e+00 4.563369e+00 8.713079e+00 7.683278e+00 1.168375e+01 1.258725e+01 1.462782e+01 9.214113e+00 9.998206e+00 9.450195e+00 1.512573e+01 4.672923e+00 1.563509e-01 3.493415e-01 6.251552e-01 1.038888e+00 1.063544e+00 1.084070e+00 1.006673e+00 8.040507e-01 1.018685e+00 1.018537e+00 7.752731e-01 1.222284e+00 6.938947e-02 2.235824e-02 5.938827e-02 8.824933e-02 1.904645e-01 1.562061e-01 2.791927e-01 1.799031e-01 2.163096e-01 2.079162e-01 2.080112e-01 1.386779e-01 2.189173e-01 1.907735e-02
<GCONST> 6.535895e+01
<TRANSP> 5
 0.000000e+00 1.000000e+00 0.000000e+00 0.000000e+00 0.000000e+00
 0.000000e+00 6.706203e-01 3.293797e-01 0.000000e+00 0.000000e+00
 0.000000e+00 0.000000e+00 4.716529e-01 5.283471e-01 0.000000e+00
 0.000000e+00 0.000000e+00 0.000000e+00 7.920696e-01 2.079304e-01
 0.000000e+00 0.000000e+00 0.000000e+00 0.000000e+00 0.000000e+00
<ENDHMM>
~h "hh"
<BEGINHMM>
<NUMSTATES> 5
<STATE> 2
<MEAN> 39
 1.524344e+00 1.431000e+00 4.006579e+00 -2.651914e+00 -3.188728e+00 5.633104e+00 -6.087504e+00 -9.192633e+00 7.849981e+00 -5.318554e+00 -4.103215e+00 1.178297e+00 7.339333e+01 8.820758e-02 -9.777431e-02 -2.950090e-01 3.057764e-01 -2.396605e-01 -5.231337e-01 -3.376953e-01 2.912033e-01 1.342897e+00 -9.396870e-02 -5.146584e-01 2.373862e-01 -8.354185e-02 -7.680222e-02 4.959738e-02 2.818386e-02 3.024673e-02 7.899145e-02 -3.760098e-02 -4.923581e-02 1.174443e-02 2.215986e-02 -1.044888e-01 9.397208e-02 6.268402e-02 -3.869001e-02
<VARIANCE> 39
 5.641813e+00 1.076940e+01 8.061160e+00 2.490617e+01 3.613496e+01 1.947547e+01 2.184242e+01 4.862580e+01 1.511178e+02 2.664896e+01 2.117418e+01 1.503523e+01 7.065208e+00 7.636902e-01 1.024077e+00 5.885747e-01 1.694211e+00 3.544448e+00 1.307075e+00 1.437464e+00 4.783576e+00 4.816037e+00 2.750286e+00 1.663356e+00 9.259818e-01 5.785462e-01 1.518574e-01 2.493220e-01 1.341464e-01 3.137259e-01 5.983372e-01 2.017465e-01 3.008369e-01 9.493995e-01 6.536552e-01 4.425094e-01 3.448849e-01 2.135345e-01 1.010382e-01
<GCONST> 1.003603e+02
<STATE> 3
<MEAN> 39
 2.152283e+00 4.525997e+00 2.565300e+00 9.897859e-01 -4.839238e+00 -3.036771e+00 -9.098895e+00 -5.435024e+00 1.461148e+01 -1.172330e+01 -5.287637e+00 6.215540e+00 7.005886e+01 -1.760872e-01 1.299031e+00 3.297702e-01 3.319111e-01 1.402751e+00 -3.559542e-01 3.625883e-01 7.806928e-01 -1.748465e+00 5.769224e-02 1.094653e+00 2.273573e-01 -1.407416e+00 -5.064519e-02 -7.572994e-03 3.885543e-02 5.658754e-02 1.082266e-01 1.609696e-02 5.778490e-02 8.839923e-02 -1.206447e-01 3.720361e-01 -9.894919e-03 -3.466481e-01 -4.861572e-02
<VARIANCE> 39
 1.108953e+00 1.015610e+01 4.333021e+00 4.471400e+00 1.825718e+01 1.200682e+01 8.630082e+00 1.492964e+01 2.698050e+01 8.466455e+00 1.387099e+01 1.017188e+01 9.666241e+00 1.431830e-01 6.723921e-01 2.855147e-01 6.505756e-01 1.371165e+00 4.675898e-01 8.676469e-01 9.932359e-01 1.874572e+00 1.834190e+00 1.062671e+00 1.668911e+00 2.154014e-01 3.864525e-02 1.891727e-01 6.005295e-02 1.142509e-01 3.095282e-01 9.167356e-02 1.733764e-01 1.800370e-01 4.406407e-01 2.494552e-01 2.970147e-01 1.735706e-01 7.567649e-02
<GCONST> 7.093224e+01
<STATE> 4
<MEAN> 39
 -2.563130e+00 8.650136e+00 4.507445e+00 4.633164e+00 1.316099e+00 -7.609178e+00 -7.780766e+00 -1.771367e+00 5.781475e+00 -6.374704e+00 -2.744858e+00 1.390382e+00 6.160142e+01 -6.732898e-01 9.801517e-02 1.142546e-02 -5.067423e-03 6.599500e-02 -1.059682e-01 3.399876e-01 1.048540e-02 -7.589333e-01 5.344814e-01 1.654719e-01 -4.198015e-01 -6.244029e-01 -1.834663e-02 -6.790946e-02 -6.048270e-02 -1.099812e-01 -1.129818e-01 7.950126e-02 1.747752e-02 -8.369987e-02 9.318107e-02 -1.250082e-02 -5.493279e-03 4.285622e-02 5.614797e-02
<VARIANCE> 39
 1.204645e+01 3.303138e+00 5.342606e+00 5.722929e+00 6.520579e+00 8.906761e+00 1.018655e+01 8.244004e+00 1.722299e+01 1.869339e+01 9.927580e+00 1.206935e+01 6.979915e+00 7.334662e-02 3.502144e-01 5.559977e-01 6.619985e-01 7.019635e-01 8.205287e-01 9.125469e-01 9.490265e-01 1.680140e+00 1.852525e+00 1.264686e+00 1.045287e+00 8.421940e-02 1.742566e-02 3.922144e-02 9.405857e-02 1.088745e-01 1.209694e-01 1.625322e-01 1.662674e-01 1.866065e-01 3.781174e-01 3.774248e-01 2.754238e-01 2.416929e-01 6.687634e-03
<GCONST> 6.442455e+01
<TRANSP> 5
 0.000000e+00 1.000000e+00 0.000000e+00 0.000000e+00 0.000000e+00
 0.000000e+00 9.428939e-01 5.710615e-02 0.000000e+00 0.000000e+00
 0.000000e+00 0.000000e+00 8.401099e-01 1.598901e-01 0.000000e+00
 0.000000e+00 0.000000e+00 0.000000e+00 8.679290e-01 1.320710e-01
 0.000000e+00 0.000000e+00 0.000000e+00 0.000000e+00 0.000000e+00
<ENDHMM>
~h "ii"
<BEGINHMM>
<NUMSTATES> 5
<STATE> 2
<MEAN> 39
 -6.066814e+00 4.861617e+00 1.068210e+01 2.284996e+00 -3.822899e+00 -3.541646e+00 -1.167171e+00 -1.181694e+01 5.067667e+00 -2.101398e+00 -2.215397e+00 -5.347964e+00 7.057166e+01 2.816109e-01 1.931378e-02 1.458059e-01 -6.533642e-02 -4.373053e-01 -4.194875e-01 2.458705e-01 -1.309269e+00 4.410350e-01 3.326763e-01 -7.498969e-01 -4.339542e-01 1.018697e-01 -3.209591e-01 -2.208824e-01 -1.588893e-01 5.513441e-02 4.334544e-01 1.515812e-01 7.450768e-02 5.508020e-01 -1.550048e-01 -1.744736e-01 1.430942e-01 4.038183e-01 -1.385598e-01
<VARIANCE> 39
 1.722320e+01 5.412651e+00 3.121663e+01 6.150702e+00 1.317167e+01 8.895278e+00 8.406605e+00 3.671816e+01 1.152986e+01 9.371265e+00 1.488864e+01 2.486140e+01 6.165293e+01 4.025739e-01 4.715421e-01 3.991099e-01 5.667132e-01 7.451923e-01 5.912490e-01 7.646599e-01 2.497514e+00 1.191314e+00 8.366092e-01 1.103937e+00 7.604990e-01 3.717639e-01 9.358614e-02 1.949862e-01 1.742824e-01 8.675881e-02 8.672406e-02 1.528897e-01 1.359423e-01 2.556148e-01 1.873616e-01 1.442894e-01 1.455250e-01 1.450640e-01 2.293137e-02
<GCONST> 7.507324e+01
<STATE> 3
<MEAN> 39
 -6.003572e+00 4.806241e+00 1.156516e+01 1.716177e+00 -3.491377e+00 -5.026308e+00 1.129732e-01 -1.379239e+01 5.730537e+00 -1.687278e+00 -3.275524e+00 -5.616630e+00 7.149902e+01 -3.755233e-02 -8.036718e-02 -1.873589e-01 -1.432884e-01 6.478187e-01 -4.628257e-01 -3.573676e-01 6.456353e-01 6.604414e-02 -4.142075e-01 -2.276583e-01 5.786810e-01 7.208920e-02 -8.216514e-02 1.138886e-01 -1.761930e-01 2.412253e-02 3.545389e-01 9.867579e-03 -3.439866e-01 4.323346e-01 6.008683e-02 -2.028691e-01 7.351080e-02 1.125434e-01 1.522342e-02
<VARIANCE> 39
 1.610854e+01 4.919533e+00 3.302930e+01 5.325569e+00 1.929467e+01 1.218442e+01 4.700046e+00 4.478378e+01 1.497368e+01 6.959538e+00 1.176873e+01 1.480392e+01 6.334197e+01 1.940182e-01 2.881529e-01 4.636437e-01 3.687460e-01 5.407342e-01 8.755161e-01 1.231833e+00 9.593026e-01 8.331203e-01 9.450506e-01 7.559205e-01 5.797913e-01 1.407123e-01 3.552132e-02 7.278844e-02 1.221357e-01 6.145755e-02 1.015069e-01 1.179981e-01 2.572071e-01 1.955789e-01 1.883385e-01 1.508624e-01 9.312945e-02 1.150600e-01 2.109121e-02
<GCONST> 6.750808e+01
<STATE> 4
<MEAN> 39
 -9.320483e+00 4.016484e+00 6.591474e+00 2.212648e+00 6.365395e-01 -3.140678e+00 8.686212e-01 -5.601189e+00 3.763603e+00 -3.050916e+00 -1.509096e+00 -1.512490e+00 6.483347e+01 -4.843919e-01 8.021176e-02 -8.277671e-01 -1.113476e-01 1.193029e+00 -2.285319e-01 -8.166093e-01 1.129132e+00 4.910549e-01 -4.885129e-01 1.309011e-01 4.842910e-01 -1.040536e-01 -1.441828e-01 2.377681e-01 -1.262223e-01 -2.127929e-01 2.284737e-01 2.472704e-01 -2.967794e-01 -1.587436e-02 1.005637e-01 9.889564e-02 5.861400e-02 -2.755073e-01 -4.710560e-02
<VARIANCE> 39
 2.741756e+01 5.113374e+00 3.427346e+01 7.903678e+00 1.429238e+01 3.759667e+01 2.228732e+01 5.102923e+01 1.723189e+01 1.063173e+01 2.081997e+01 9.819508e+00 1.128573e+02 3.324891e-01 7.170985e-01 1.500909e+00 6.467054e-01 1.847624e+00 1.468299e+00 3.703431e+00 1.508404e+00 1.320787e+00 2.066072e+00 8.686782e-01 8.011374e-01 2.831037e-01 8.445700e-02 1.078473e-01 1.966740e-01 1.154350e-01 3.385839e-01 3.943695e-01 3.826676e-01 2.831600e-01 4.083460e-01 2.030381e-01 2.067483e-01 1.739866e-01 2.944750e-02
<GCONST> 8.937651e+01
<TRANSP> 5
 0.000000e+00 1.000000e+00 0.000000e+00 0.000000e+00 0.000000e+00
 0.000000e+00 6.205252e-01 3.794748e-01 0.000000e+00 0.000000e+00
 0.000000e+00 0.000000e+00 6.294178e-01 3.705822e-01 0.000000e+00
 0.000000e+00 0.000000e+00 0.000000e+00 1.514079e-01 8.485920e-01
 0.000000e+00 0.000000e+00 0.000000e+00 0.000000e+00 0.000000e+00
<ENDHMM>
~h "ng"
<BEGINHMM>
<NUMSTATES> 5
<STATE> 2
<MEAN> 39
 -7.176013e+00 7.884830e+00 8.921289e+00 5.629831e+00 2.983697e+00 3.540032e-01 -1.703598e+00 -3.022646e+00 3.144644e+00 -5.254840e+00 -2.910469e+00 -1.252312e+00 5.958706e+01 -8.286169e-01 -1.092874e-01 -7.333980e-01 1.739188e-01 4.355976e-01 -1.061980e-01 4.997563e-01 4.212810e-01 -5.748715e-01 9.777264e-02 2.090584e-01 -3.235163e-01 -8.563029e-01 2.716019e-02 -1.565851e-01 -1.616005e-01 -3.172341e-01 -2.943876e-01 -1.598847e-01 -1.528532e-01 -1.743103e-01 1.995168e-02 2.925429e-02 -2.096616e-02 1.443981e-02 1.091096e-01
<VARIANCE> 39
 1.066964e+01 7.159934e+00 2.396659e+01 7.460401e+00 9.154128e+00 1.717159e+01 3.019476e+01 1.565953e+01 9.322371e+00 1.035270e+01 1.235581e+01 1.362740e+01 9.447504e+00 2.199784e-01 5.803253e-01 4.621517e-01 8.085698e-01 1.233175e+00 9.600263e-01 1.232440e+00 1.602667e+00 1.022941e+00 9.800792e-01 7.780489e-01 7.487357e-01 2.245075e-01 1.970577e-02 5.119544e-02 8.288682e-02 1.104018e-01 1.694598e-01 1.713888e-01 1.472985e-01 2.033708e-01 1.755891e-01 1.896921e-01 1.882397e-01 2.096373e-01 1.445996e-02
<GCONST> 7.062173e+01
<STATE> 3
<MEAN> 39
 -9.691752e+00 6.972968e+00 5.096464e+00 3.772114e+00 1.918499e+00 -2.902648e+00 -3.613412e+00 -5.436173e+00 -1.268847e+00 -6.717198e+00 -3.830707e+00 -4.061263e+00 5.710776e+01 -5.350156e-01 -3.367467e-01 -5.224396e-01 -2.608781e-01 -7.901950e-02 -1.101583e-01 2.658629e-02 -3.567660e-01 -5.309716e-01 -3.576476e-02 1.051058e-01 -1.300856e-01 -3.937718e-01 3.192369e-02 -1.948682e-03 6.025216e-02 1.781924e-02 3.621669e-02 1.053882e-01 7.145765e-02 1.026624e-01 1.548249e-01 1.360434e-01 1.815673e-01 2.259643e-01 4.754594e-02
<VARIANCE> 39
 5.996640e+00 5.738601e+00 1.037845e+01 7.000502e+00 5.020422e+00 1.878542e+01 2.427486e+01 1.773354e+01 1.295641e+01 1.288599e+01 1.205442e+01 1.164744e+01 3.423478e+00 1.887237e-01 3.704408e-01 6.661417e-01 5.880741e-01 5.563477e-01 8.578547e-01 8.257854e-01 9.914780e-01 9.657477e-01 9.143302e-01 9.235494e-01 1.427681e+00 9.772903e-02 2.236390e-02 4.407287e-02 1.058604e-01 1.333074e-01 1.022523e-01 1.445333e-01 1.518082e-01 1.830170e-01 1.807887e-01 1.623537e-01 1.676882e-01 1.855192e-01 1.379496e-02
<GCONST> 6.443201e+01
<STATE> 4
<MEAN> 39
 -1.301458e+01 4.985397e+00 2.838202e+00 2.700825e+00 1.977393e+00 -1.607397e+00 -5.687104e-01 -3.790113e+00 -9.443765e-01 -4.127003e+00 -6.316782e-01 -2.536106e+00 5.505665e+01 -2.747374e-01 -2.405326e-01 -2.115744e-01 -1.477482e-01 6.638197e-02 2.594118e-01 3.448484e-01 3.086036e-01 2.508809e-01 3.503533e-01 3.171145e-01 1.621147e-01 -1.334093e-01 2.063666e-02 7.781109e-04 3.075883e-03 6.178285e-04 1.127657e-02 1.454427e-02 -2.228646e-04 2.382624e-02 4.611951e-02 1.477941e-02 -1.563159e-02 -6.812841e-03 1.345220e-02
<VARIANCE> 39
 3.444719e+00 3.279202e+00 4.428834e+00 4.695365e+00 5.071491e+00 1.010736e+01 1.237939e+01 1.200804e+01 1.082619e+01 1.252451e+01 1.155741e+01 1.026151e+01 1.141956e+00 9.083939e-02 1.688892e-01 3.158084e-01 3.932093e-01 4.753526e-01 6.550825e-01 8.509257e-01 9.517114e-01 9.254551e-01 1.132353e+00 9.955030e-01 1.040424e+00 2.992752e-02 1.447943e-02 2.847887e-02 5.731285e-02 7.676198e-02 1.033313e-01 1.296685e-01 1.675638e-01 2.096202e-01 1.774584e-01 2.309926e-01 1.945308e-01 2.064693e-01 4.242692e-03
<GCONST> 5.207210e+01
<TRANSP> 5
 0.000000e+00 1.000000e+00 0.000000e+00 0.000000e+00 0.000000e+00
 0.000000e+00 6.232580e-01 3.767421e-01 0.000000e+00 0.000000e+00
 0.000000e+00 0.000000e+00 6.427953e-01 3.572048e-01 0.000000e+00
 0.000000e+00 0.000000e+00 0.000000e+00 8.865867e-01 1.134133e-01
 0.000000e+00 0.000000e+00 0.000000e+00 0.000000e+00 0.000000e+00
<ENDHMM>
~h "nn"
<BEGINHMM>
<NUMSTATES> 5
<STATE> 2
<MEAN> 39
 -1.106673e+01 5.937621e+00 1.845013e+00 2.502670e-01 -1.626953e-01 -3.115141e+00 -2.644963e+00 -6.218767e+00 -2.389573e+00 -2.901787e+00 2.534797e+00 6.507435e-01 5.604048e+01 -4.589872e-01 -3.151954e-01 -3.885742e-02 1.020962e-01 9.353214e-02 1.553783e-01 3.028376e-01 5.087983e-01 4.234791e-01 2.217938e-01 7.932158e-03 9.932961e-03 -2.293048e-01 2.667319e-02 3.114769e-03 -1.584357e-02 -5.560800e-03 3.040300e-02 5.848723e-02 5.772649e-02 3.162964e-02 4.718844e-02 4.074261e-02 4.980258e-02 3.935302e-02 1.527208e-02
<VARIANCE> 39
 3.750465e+00 2.781982e+00 3.240222e+00 4.433955e+00 5.092387e+00 7.578613e+00 1.137485e+01 1.458611e+01 1.255331e+01 1.197172e+01 1.146046e+01 8.849204e+00 1.066357e+00 1.223146e-01 1.815487e-01 3.514827e-01 4.233052e-01 5.546528e-01 7.425855e-01 8.430904e-01 7.301335e-01 8.786817e-01 1.233100e+00 1.397501e+00 9.626831e-01 4.342702e-02 2.097894e-02 3.247863e-02 7.059170e-02 9.425594e-02 1.149918e-01 1.629430e-01 1.739499e-01 1.705410e-01 2.001880e-01 2.606415e-01 3.027925e-01 1.784441e-01 7.656844e-03
<GCONST> 5.476058e+01
<STATE> 3
<MEAN> 39
 -1.476878e+01 2.763175e+00 4.519222e-01 6.700464e-01 1.365804e+00 -1.711526e-01 1.609951e+00 -1.731789e+00 1.536996e+00 -8.665389e-01 2.855505e+00 5.450650e-01 5.430243e+01 -2.188732e-01 -2.002066e-01 -9.984313e-02 6.563909e-02 2.142169e-01 2.088522e-01 3.780416e-01 3.637903e-01 2.531056e-01 9.289864e-02 -2.704207e-02 4.212357e-02 -1.101466e-01 4.317612e-02 4.542904e-02 4.190713e-02 1.142210e-02 1.616255e-02 1.358735e-02 -5.059940e-03 3.170106e-02 1.642001e-02 -1.562345e-04 -1.212925e-02 -1.285547e-02 2.386514e-02
<VARIANCE> 39
 8.278013e-01 1.311320e+00 2.775781e+00 5.246251e+00 6.979898e+00 7.681861e+00 8.261302e+00 8.302395e+00 7.402285e+00 6.585123e+00 9.333293e+00 7.654317e+00 6.052197e-01 1.253313e-01 2.190420e-01 3.641642e-01 5.937600e-01 7.408227e-01 6.822999e-01 7.814593e-01 1.141393e+00 9.391797e-01 7.916844e-01 1.069845e+00 8.408018e-01 3.782292e-02 2.255613e-02 4.986320e-02 7.691027e-02 1.310114e-01 1.697319e-01 1.426025e-01 1.661822e-01 2.304657e-01 1.612204e-01 1.560835e-01 2.239266e-01 1.602393e-01 7.175758e-03
<GCONST> 5.038234e+01
<STATE> 4
<MEAN> 39
 -1.606753e+01 1.538258e+00 7.973786e-02 1.167835e+00 2.777079e+00 1.522403e+00 3.864969e+00 1.072572e+00 3.742387e+00 6.746187e-01 3.678508e+00 8.028348e-01 5.364272e+01 -3.766363e-02 -3.920597e-02 -2.577419e-02 -2.930111e-02 -2.045562e-02 -2.966642e-03 1.716992e-02 3.261616e-02 3.443989e-02 2.903542e-02 3.359132e-02 -6.413290e-03 -1.692846e-02 8.262703e-03 3.682387e-03 -7.624668e-03 -7.995961e-03 -6.705466e-03 -5.850277e-03 -1.333063e-02 -2.661284e-02 -1.589730e-02 -2.515136e-03 -4.784408e-03 -8.019629e-03 3.501683e-03
<VARIANCE> 39
 7.215523e-01 1.344588e+00 2.380579e+00 3.696244e+00 4.977724e+00 6.104581e+00 7.582177e+00 7.573823e+00 8.343211e+00 1.017219e+01 8.872760e+00 8.707592e+00 6.052197e-01 6.417241e-02 1.378142e-01 2.693018e-01 4.221494e-01 5.536351e-01 7.495608e-01 7.754588e-01 8.108732e-01 9.855865e-01 1.166220e+00 9.655960e-01 8.150364e-01 1.945654e-02 1.322471e-02 2.806491e-02 5.887052e-02 8.954339e-02 1.116536e-01 1.523813e-01 1.609347e-01 1.741901e-01 2.150573e-01 2.444749e-01 1.954046e-01 1.600111e-01 4.397393e-03
<GCONST> 4.465669e+01
<TRANSP> 5
 0.000000e+00 1.000000e+00 0.000000e+00 0.000000e+00 0.000000e+00
 0.000000e+00 9.012314e-01 9.876859e-02 0.000000e+00 0.000000e+00
 0.000000e+00 0.000000e+00 8.558622e-01 1.441378e-01 0.000000e+00
 0.000000e+00 0.000000e+00 0.000000e+00 9.582151e-01 4.178492e-02
 0.000000e+00 0.000000e+00 0.000000e+00 0.000000e+00 0.000000e+00
<ENDHMM>
~h "s0"
<BEGINHMM>
<NUMSTATES> 5
<STATE> 2
<MEAN> 39
 -9.715223e+00 8.450018e+00 1.038971e+00 -6.524188e+00 5.376901e+00 2.122432e+00 -5.367189e+00 -7.531603e+00 4.625460e+00 -5.378504e+00 -1.154835e-01 -3.526048e+00 7.344392e+01 5.433334e-01 -3.654376e-02 -1.250763e+00 -1.502903e+00 -4.976167e-01 1.824068e+00 6.990734e-01 4.643196e-01 2.442664e-01 -3.723222e-02 4.136652e-01 6.939284e-01 -2.119121e-01 1.865814e-01 -1.000371e-01 3.788383e-02 -1.086294e-01 -3.307670e-01 1.176921e-01 2.769491e-01 -4.954915e-02 -3.182806e-02 -5.956907e-04 -3.974569e-02 1.181698e-02 -1.314911e-02
<VARIANCE> 39
 4.926913e+01 1.172942e+01 5.003637e+01 4.354503e+01 4.001580e+01 6.841644e+01 3.484246e+01 1.849375e+01 2.802711e+01 1.705353e+01 2.075773e+01 4.429773e+01 4.945736e+00 7.554178e+00 1.824465e+00 1.720114e+00 1.958136e+00 6.493930e+00 2.279987e+00 4.150000e+00 2.014894e+00 4.157882e+00 2.587178e+00 2.406698e+00 3.528676e+00 4.154088e-01 8.174000e-01 3.153099e-01 3.189390e-01 3.439941e-01 6.053531e-01 6.268848e-01 6.501428e-01 3.999276e-01 8.729652e-01 6.173297e-01 4.785860e-01 6.358411e-01 8.166774e-02
<GCONST> 1.167962e+02
<STATE> 3
<MEAN> 39
 4.800285e+00 5.179872e+00 -6.167999e+00 -2.032662e+01 -7.864031e+00 1.711878e+01 6.788141e+00 -2.918802e+00 6.593710e+00 -7.900141e+00 -6.967040e-01 4.178530e+00 7.119749e+01 6.941296e-02 3.839035e-01 4.974067e-01 9.880349e-01 4.575625e-01 -7.345006e-01 3.149735e-01 7.241374e-01 -1.275504e+00 -8.317677e-01 -3.362090e-01 -4.540471e-01 -1.097964e+00 -5.209430e-01 3.166199e-01 4.381569e-01 8.689194e-01 6.142696e-01 -6.991260e-01 -4.041440e-01 -7.471229e-02 -7.796855e-02 8.032030e-02 9.985270e-02 -1.047406e-01 -2.451639e-01
<VARIANCE> 39
 2.192612e+00 3.459727e+00 1.012737e+01 8.786077e+00 1.207211e+01 1.011312e+01 5.890650e+00 8.118792e+00 1.021347e+01 8.577372e+00 1.108123e+01 1.590258e+01 4.626818e+00 8.223668e-01 8.946074e-01 1.002748e+00 3.582295e+00 2.082745e+00 2.594512e+00 9.505757e-01 9.551650e-01 6.774682e-01 7.667872e-01 7.283561e-01 1.161005e+00 3.030553e-01 7.162280e-02 8.768021e-02 9.795416e-02 2.902905e-01 2.951820e-01 2.582510e-01 1.270678e-01 2.135162e-01 3.323274e-01 1.871006e-01 1.438298e-01 3.206031e-01 3.146467e-02
<GCONST> 7.446159e+01
<STATE> 4
<MEAN> 39
 1.117198e+00 1.038728e+01 7.313392e-01 -8.847835e+00 -2.071129e+00 8.563273e+00 4.182867e+00 -9.440913e-01 2.436119e+00 -1.034212e+01 -1.127247e+00 2.532199e+00 6.428775e+01 -9.362606e-01 7.369667e-01 1.289618e+00 1.966745e+00 9.112002e-01 -1.059525e+00 -3.236756e-01 1.592427e-01 -4.272434e-01 3.335445e-01 1.733283e-01 -5.033327e-01 -1.037334e+00 6.930545e-03 -2.661409e-01 -3.285508e-01 -2.617422e-01 -5.598035e-02 3.735285e-01 3.367170e-01 4.112702e-03 3.957091e-02 3.024029e-01 -2.836754e-02 -1.275112e-01 1.510956e-01
<VARIANCE> 39
 2.395561e+00 2.613423e+00 8.466487e+00 8.895894e+00 6.155021e+00 7.450318e+00 5.778095e+00 5.208843e+00 5.319639e+00 5.792539e+00 6.033243e+00 6.798939e+00 2.656334e+00 1.735513e-01 3.686514e-01 7.471567e-01 7.404007e-01 6.008008e-01 1.001274e+00 9.578888e-01 5.506484e-01 6.157591e-01 6.738493e-01 4.987895e-01 1.094025e+00 1.010959e-01 2.170279e-02 3.338994e-02 8.684290e-02 1.159075e-01 1.348873e-01 9.212632e-02 1.184548e-01 1.595333e-01 1.176071e-01 1.049095e-01 9.237406e-02 1.924715e-01 1.535575e-02
<GCONST> 5.212983e+01
<TRANSP> 5
 0.000000e+00 1.000000e+00 0.000000e+00 0.000000e+00 0.000000e+00
 0.000000e+00 9.280832e-01 7.191674e-02 0.000000e+00 0.000000e+00
 0.000000e+00 0.000000e+00 8.159894e-01 1.840106e-01 0.000000e+00
 0.000000e+00 0.000000e+00 0.000000e+00 7.827586e-01 2.172414e-01
 0.000000e+00 0.000000e+00 0.000000e+00 0.000000e+00 0.000000e+00
<ENDHMM>
~h "uu"
<BEGINHMM>
<NUMSTATES> 5
<STATE> 2
<MEAN> 39
 -1.785408e+01 -6.006118e+00 1.241393e+00 -8.958200e+00 -1.454613e+00 2.254359e+00 -2.794671e+00 1.132377e+00 3.299586e-01 -8.659078e-01 6.187262e+00 -1.892589e+00 6.350960e+01 -1.978882e+00 -2.861107e-01 7.739208e-01 -1.074138e+00 -7.061332e-01 4.925587e-01 -1.363900e+00 -3.915055e-01 6.453957e-01 -7.695295e-01 6.582674e-01 -6.719637e-01 2.104172e+00 -6.197083e-02 7.957508e-01 2.878369e-01 5.626701e-01 -7.617120e-02 -5.011428e-02 2.057336e-01 -3.037728e-01 8.564287e-01 8.538811e-02 -2.574729e-01 7.389939e-02 -2.089444e-01
<VARIANCE> 39
 1.897426e+01 3.450983e+01 1.180208e+01 4.337924e+01 3.361520e+01 2.133972e+01 3.319043e+01 2.840839e+01 1.929363e+01 3.236273e+01 1.092564e+01 3.824352e+01 4.315365e+01 3.083424e+00 1.387170e+00 6.170778e-01 2.906648e+00 2.438563e+00 1.328429e+00 1.989833e+00 1.493858e+00 3.116971e+00 1.663936e+00 1.654927e+00 1.699791e+00 2.376309e+00 9.530144e-01 2.206492e-01 3.248651e-01 7.107024e-01 1.067504e+00 3.239220e-01 6.250402e-01 5.080884e-01 4.775332e-01 5.367562e-01 3.978512e-01 3.463313e-01 3.423874e-01
<GCONST> 1.122598e+02
<STATE> 3
<MEAN> 39
 -2.474983e+01 -6.037311e+00 3.532145e+00 -9.967742e+00 -2.384803e+00 5.140169e+00 -7.170416e+00 -3.120933e+00 7.017544e+00 -1.904711e+00 9.416411e+00 -4.183326e+00 7.040166e+01 1.327876e+00 1.126363e+00 5.994924e-01 7.024434e-01 5.969265e-01 3.982345e-01 -8.003690e-01 -1.373424e+00 5.102318e-01 -3.578097e-01 -3.539364e-01 2.211216e-01 7.080828e-01 1.211718e+00 4.562894e-01 1.836307e-01 2.035854e-01 -1.232122e-01 -9.498836e-03 1.536739e-01 -2.155827e-01 -3.500034e-01 -1.461099e-01 -5.101673e-01 2.087461e-01 -8.187197e-02
<VARIANCE> 39
 1.881630e+01 1.155168e+01 1.011420e+01 3.069625e+01 4.874295e+01 2.248648e+01 3.305810e+01 2.708710e+01 1.462429e+01 1.633105e+01 1.467491e+01 3.844753e+01 4.444864e+01 6.989268e+00 1.791777e+00 1.406410e+00 2.141362e+00 4.467359e+00 2.371252e+00 1.536769e+00 1.314558e+00 2.497736e+00 1.443576e+00 1.733298e+00 1.629830e+00 8.424671e-01 1.266663e-01 2.398511e-01 3.709037e-01 3.906012e-01 1.331826e+00 4.663194e-01 2.749260e-01 4.189404e-01 4.670936e-01 3.327274e-01 2.609786e-01 2.509868e-01 3.316334e-01
<GCONST> 1.072877e+02
<STATE> 4
<MEAN> 39
 -5.364216e+00 2.781997e+00 6.725366e+00 -3.503087e+00 -1.322031e+00 6.649339e+00 -5.762009e+00 -9.795306e+00 1.060030e+00 -6.963580e+00 3.459261e+00 -7.964134e-01 7.228675e+01 3.503904e+00 1.038421e+00 6.626961e-01 -8.921278e-02 -2.193267e+00 -4.614464e-01 7.104806e-01 -1.415312e+00 -1.401398e+00 -6.027063e-01 -1.941742e+00 9.961914e-02 7.837715e-01 -4.695554e-01 -3.713270e-01 -9.728222e-02 -4.512126e-01 -5.140388e-01 4.571933e-02 1.028615e-01 -2.680181e-02 1.427593e-01 3.982971e-01 -1.159800e-01 -2.138841e-01 1.482433e-02
<VARIANCE> 39
 4.149362e+01 4.177756e+00 1.065389e+01 1.066906e+01 3.906144e+01 1.313131e+01 2.777835e+01 3.180803e+01 2.093462e+01 2.469976e+01 1.192012e+01 1.436751e+01 6.341423e+01 3.536336e+00 3.324655e+00 2.293839e+00 1.769237e+00 4.537025e+00 8.937040e-01 3.423442e+00 2.516085e+00 4.027858e+00 3.497186e+00 1.525463e+00 1.308652e+00 1.084227e+00 7.316656e-01 4.386990e-01 2.609592e-01 2.337136e-01 1.129982e+00 3.235916e-01 3.645562e-01 4.419518e-01 5.037109e-01 3.805612e-01 3.517172e-01 2.162299e-01 1.844218e-01
<GCONST> 1.082829e+02
<TRANSP> 5
 0.000000e+00 1.000000e+00 0.000000e+00 0.000000e+00 0.000000e+00
 0.000000e+00 4.545215e-01 5.454785e-01 0.000000e+00 0.000000e+00
 0.000000e+00 0.000000e+00 7.402927e-01 2.597073e-01 0.000000e+00
 0.000000e+00 0.000000e+00 0.000000e+00 6.707831e-01 3.292169e-01
 0.000000e+00 0.000000e+00 0.000000e+00 0.000000e+00 0.000000e+00
<ENDHMM>
~h "vv"
<BEGINHMM>
<NUMSTATES> 5
<STATE> 2
<MEAN> 39
 2.099823e+00 8.389578e+00 3.824312e+00 -3.497988e+00 -2.056282e+00 -8.629299e-01 1.731897e+00 -2.983618e+00 7.043681e-01 -1.022691e+01 -5.924091e-01 2.687175e+00 6.807130e+01 -9.591516e-01 2.616485e-01 4.358848e-01 8.665922e-02 1.119164e+00 -1.750436e-01 -7.675400e-01 -2.799535e-01 -4.413308e-02 -9.160319e-02 2.396957e-01 -2.104702e-01 -2.645350e-01 -2.136752e-01 -8.850881e-02 4.039846e-02 -2.658145e-01 2.147346e-02 1.687423e-01 2.512112e-02 -7.168579e-02 5.728885e-02 1.080757e-01 -1.153021e-01 -1.590693e-01 1.286575e-01
<VARIANCE> 39
 1.980716e+01 8.453814e+00 6.817576e+00 2.003701e+01 2.922795e+01 9.189052e+00 1.369884e+01 1.157923e+01 1.123293e+01 2.351790e+01 1.335808e+01 8.294649e+00 1.615093e+01 2.201467e+00 5.773155e-01 1.268208e+00 3.725248e+00 1.898861e+00 1.334270e+00 1.343515e+00 1.083015e+00 1.591191e+00 1.746629e+00 1.439762e+00 1.417192e+00 4.556345e-01 2.263232e-01 7.288942e-02 1.817030e-01 3.099724e-01 2.699125e-01 1.329915e-01 2.742683e-01 1.860914e-01 2.937586e-01 2.554923e-01 2.455544e-01 1.691180e-01 8.854664e-02
<GCONST> 8.800861e+01
<STATE> 3
<MEAN> 39
 -1.420906e+01 7.183032e+00 1.155534e+01 -8.740444e+00 7.586953e+00 3.745976e+00 -5.572989e+00 -6.491837e+00 3.992087e+00 -5.056104e+00 -2.547514e+00 -4.444583e+00 6.849137e+01 -5.579988e-01 -7.574894e-01 7.412164e-01 3.572106e-01 -6.579782e-01 -2.729228e-01 -1.678241e+00 -7.290311e-01 4.543031e-01 3.359965e-01 -6.060504e-01 -2.429754e-01 5.578536e-01 8.944007e-01 4.723156e-02 -2.899566e-01 5.314918e-01 -4.381257e-01 -3.610934e-01 1.255405e-01 1.231513e-01 -1.433042e-01 -2.640750e-02 9.830906e-02 4.045596e-01 -1.171212e-01
<VARIANCE> 39
 2.860863e+01 8.544993e+00 4.557940e+01 3.785979e+01 3.713318e+01 2.453520e+01 3.493784e+01 2.571780e+01 3.567949e+01 1.576337e+01 2.060650e+01 3.925481e+01 4.594393e+01 6.107494e+00 5.857340e-01 1.699058e+00 2.289260e+00 1.874265e+00 3.001265e+00 1.588949e+00 1.540722e+00 2.061998e+00 1.814657e+00 1.121879e+00 3.242610e+00 6.434159e-01 5.314221e-01 1.340821e-01 2.113985e-01 4.607770e-01 4.582874e-01 4.250396e-01 3.869804e-01 3.008026e-01 3.090753e-01 2.837016e-01 2.342962e-01 4.456049e-01 3.817552e-02
<GCONST> 1.058099e+02
<STATE> 4
<MEAN> 39
 -4.262884e+00 4.297307e+00 1.231172e+01 -2.821088e-01 -8.447342e-01 -6.818981e-01 -8.546883e+00 -9.774949e+00 6.515376e+00 -4.832789e+00 -5.628222e+00 -8.987702e-01 6.911493e+01 4.813439e-01 7.915791e-03 -2.392456e-01 8.996124e-01 -5.380159e-01 -2.593016e-01 3.865439e-01 -2.914461e-02 -2.469672e-01 -2.893185e-01 -1.451792e-02 3.208406e-01 -7.905637e-01 -2.681817e-01 9.006989e-02 1.999932e-02 -1.524289e-02 2.734302e-01 2.049951e-01 2.075085e-01 2.207524e-01 -2.146492e-03 1.332168e-02 1.004044e-01 -5.357815e-02 -1.320431e-01
<VARIANCE> 39
 1.385366e+01 7.624881e+00 3.207047e+01 1.516772e+01 1.408233e+01 6.343254e+00 2.062037e+01 1.213107e+01 3.235455e+01 8.860587e+00 2.257990e+01 1.415886e+01 3.773274e+01 1.973930e+00 1.011092e+00 3.599906e-01 9.112401e-01 1.595476e+00 8.809652e-01 9.684376e-01 1.088891e+00 7.748563e-01 7.947290e-01 1.130859e+00 5.735646e-01 3.549457e-01 6.769438e-02 1.036516e-01 9.091842e-02 1.106520e-01 9.840430e-02 1.174156e-01 2.514133e-01 1.829688e-01 1.890575e-01 1.996650e-01 1.959830e-01 1.281146e-01 2.132432e-02
<GCONST> 7.770364e+01
<TRANSP> 5
 0.000000e+00 1.000000e+00 0.000000e+00 0.000000e+00 0.000000e+00
 0.000000e+00 8.277107e-01 1.722893e-01 0.000000e+00 0.000000e+00
 0.000000e+00 0.000000e+00 6.046051e-01 3.953949e-01 0.000000e+00
 0.000000e+00 0.000000e+00 0.000000e+00 7.631624e-01 2.368376e-01
 0.000000e+00 0.000000e+00 0.000000e+00 0.000000e+00 0.000000e+00
<ENDHMM>
~h "wa"
<BEGINHMM>
<NUMSTATES> 5
<STATE> 2
<MEAN> 39
 -1.416059e+01 -8.659011e+00 -1.282856e+00 -1.487013e+01 -1.871577e+00 -3.229856e+00 -6.701246e+00 3.852900e+00 -9.170310e-01 -4.295156e+00 7.288595e+00 -6.212801e-01 6.664229e+01 -1.488916e+00 -1.343904e+00 1.650372e+00 -4.249777e+00 -6.409386e-01 -9.457533e-01 -3.684897e+00 -4.094372e-02 -1.099749e+00 -6.073248e-01 9.839255e-01 -1.257889e-01 3.880909e+00 -3.659761e-01 8.563471e-01 1.617305e-01 8.174454e-01 6.684546e-01 6.434970e-01 4.600179e-01 -6.091320e-01 2.792021e-01 8.678530e-01 -1.153807e-01 4.242889e-01 -6.148055e-01
<VARIANCE> 39
 1.579936e+01 5.357969e+00 2.645985e+01 3.179309e+01 2.728186e+01 1.224079e+01 1.919470e+01 1.763442e+01 1.329484e+01 2.546549e+01 8.488693e+00 2.278154e+01 1.586972e+01 1.332797e+00 2.060847e+00 1.240457e+00 2.573657e+00 2.746289e+00 1.580362e+00 1.908976e+00 2.498217e+00 1.447955e+00 2.745691e+00 1.500749e+00 1.855186e+00 1.110282e+00 5.734239e-01 1.114182e-01 6.382994e-01 5.590071e-01 4.271068e-01 2.493420e-01 4.534663e-01 4.285256e-01 2.213072e-01 4.542751e-01 3.318527e-01 1.818904e-01 4.389109e-01
<GCONST> 1.024628e+02
<STATE> 3
<MEAN> 39
 -9.936183e+00 -2.633349e+00 -1.486865e+00 -1.922785e+01 -1.558610e+00 2.744527e+00 -7.064379e+00 9.462886e-02 5.642292e-01 -8.827316e-01 5.592306e+00 2.327675e+00 7.080065e+01 3.061826e+00 1.010240e+00 -9.330183e-01 -2.377230e-01 -1.703611e+00 1.477296e+00 1.427954e+00 -2.470133e-01 1.176346e+00 -5.757294e-01 -1.502403e+00 3.816869e-01 7.377402e-01 4.453191e-01 -1.801926e-01 -1.660421e-01 2.995774e-01 -6.299821e-01 1.688375e-01 4.831995e-01 1.101379e-01 3.053403e-01 -3.062862e-01 -2.862447e-01 -3.098826e-02 -3.007767e-02
<VARIANCE> 39
 9.609367e+01 2.667985e+01 2.862286e+01 8.612765e+00 4.537632e+01 2.346591e+01 4.011270e+01 1.679552e+01 3.350328e+01 1.955086e+01 3.789533e+01 2.503498e+01 6.606098e+00 5.445025e+00 2.705806e+00 2.387491e+00 9.673051e-01 7.275441e+00 1.106113e+00 4.065667e+00 2.677058e+00 5.103027e+00 3.854762e+00 4.053360e+00 1.438606e+00 1.547258e+00 1.366266e+00 9.007761e-01 6.654226e-01 3.440393e-01 6.328786e-01 2.385203e-01 9.992874e-01 5.696488e-01 9.565604e-01 5.548367e-01 7.909414e-01 3.572727e-01 5.782990e-01
<GCONST> 1.207577e+02
<STATE> 4
<MEAN> 39
 1.752762e+00 -2.816371e+00 -7.787666e-01 -1.035582e+01 -7.847141e+00 4.430554e+00 -7.119562e+00 -1.198355e+01 8.741705e+00 -3.640018e+00 -3.540189e+00 5.627694e+00 7.590818e+01 -6.342995e-02 1.949199e-02 1.527915e-01 1.615597e-01 9.293754e-02 -3.685813e-03 -8.321941e-02 -4.640207e-01 -2.149275e-01 2.169783e-02 3.048848e-01 2.026603e-01 -4.370600e-02 -3.350049e-02 2.488049e-02 6.502792e-03 -2.736634e-02 7.749343e-02 5.191042e-03 -1.148198e-02 1.562804e-02 -1.845511e-02 1.504206e-02 5.012473e-02 2.364043e-02 -5.940816e-02
<VARIANCE> 39
 5.526049e+01 3.458731e+01 2.342243e+01 6.334298e+01 8.794652e+01 6.037888e+01 5.925209e+01 6.130132e+01 3.100690e+01 3.411660e+01 3.347651e+01 3.262222e+01 2.110758e+01 4.578119e+00 1.962938e+00 1.630239e+00 3.744518e+00 4.618859e+00 3.240969e+00 2.572972e+00 2.862866e+00 2.757830e+00 3.841767e+00 2.331815e+00 2.447127e+00 1.083884e+00 8.233302e-01 2.732812e-01 3.382653e-01 5.976889e-01 6.407599e-01 3.819499e-01 2.916378e-01 4.576226e-01 6.113549e-01 6.627167e-01 4.704741e-01 4.305683e-01 1.564527e-01
<GCONST> 1.223427e+02
<TRANSP> 5
 0.000000e+00 1.000000e+00 0.000000e+00 0.000000e+00 0.000000e+00
 0.000000e+00 6.080619e-01 3.919381e-01 0.000000e+00 0.000000e+00
 0.000000e+00 0.000000e+00 8.703369e-01 1.296631e-01 0.000000e+00
 0.000000e+00 0.000000e+00 0.000000e+00 9.704000e-01 2.960005e-02
 0.000000e+00 0.000000e+00 0.000000e+00 0.000000e+00 0.000000e+00
<ENDHMM>
~h "we"
<BEGINHMM>
<NUMSTATES> 5
<STATE> 2
<MEAN> 39
 -1.892174e+00 1.208234e+01 1.166171e+01 -5.700559e+00 -1.596478e+01 -7.866808e-01 -2.713974e+00 -1.152113e+01 1.003243e+01 1.709571e+00 -8.263174e+00 -1.312050e+00 6.241140e+01 4.622287e+00 2.064320e+00 3.206389e+00 -2.779077e+00 -6.251861e+00 1.860990e+00 -1.193126e-01 -4.398169e+00 1.802221e+00 4.371392e-01 -4.237903e+00 -3.384604e-01 3.302153e+00 -6.632082e-01 -9.060412e-01 -6.428903e-01 6.698113e-02 9.065458e-01 9.908851e-01 6.945348e-01 5.274282e-01 -3.077452e-01 -1.141709e-01 4.839660e-01 1.968360e-01 -1.815434e-01
<VARIANCE> 39
 1.607774e+01 5.364533e+00 8.769923e+00 1.490371e+01 4.129484e+01 1.561305e+01 8.182361e+00 2.004830e+01 1.515471e+01 8.014606e+00 2.638461e+01 6.560459e+00 7.661921e+00 9.909421e-01 1.632558e+00 1.441705e+00 4.010758e-01 2.182738e+00 2.845617e+00 2.610974e+00 1.267576e+00 1.054821e+00 8.541191e-01 1.387686e+00 9.802105e-01 2.940118e-01 4.410978e-01 1.337770e-01 2.050897e-01 2.994454e-01 9.668061e-01 2.975376e-01 1.889808e-01 4.826275e-01 4.094986e-01 2.043146e-01 6.442774e-01 1.442671e-01 1.886322e-01
<GCONST> 9.071632e+01
<STATE> 3
<MEAN> 39
 3.999937e+00 1.157578e+01 1.252654e+01 -1.112009e+01 -1.958350e+01 6.246395e+00 -1.129287e+00 -1.299360e+01 8.616098e+00 -1.829429e+00 -1.148709e+01 -4.459905e+00 6.889582e+01 3.276334e-01 -6.116229e-03 -6.466881e-01 -3.101645e-01 2.790152e-01 -1.730992e-01 4.593514e-01 4.842273e-01 -6.984282e-01 -7.856513e-01 -2.729059e-01 -3.767724e-01 3.982918e-01 -1.844941e-01 -1.319433e-01 -3.309584e-01 1.774309e-01 3.201436e-01 -1.729989e-01 5.456166e-02 1.710917e-02 -1.001194e-01 -1.333557e-01 1.798294e-01 2.135804e-01 -9.320249e-02
<VARIANCE> 39
 1.949988e+00 2.939610e+00 1.366965e+01 4.538029e+00 2.280129e+01 1.365932e+01 1.936880e+01 2.282292e+01 1.979182e+01 1.788433e+01 1.382573e+01 1.718932e+01 1.117703e+00 2.854451e-01 3.352608e-01 1.085836e+00 6.010402e-01 1.118122e+00 1.965040e+00 2.141246e+00 1.940751e+00 1.589654e+00 1.435997e+00 2.273127e+00 1.158953e+00 3.427117e-01 2.336017e-01 1.321495e-01 1.254356e-01 1.693445e-01 6.503853e-01 3.346068e-01 3.588355e-01 9.667597e-01 3.071747e-01 2.395093e-01 7.241134e-01 3.894490e-01 1.484536e-01
<GCONST> 8.530020e+01
<STATE> 4
<MEAN> 39
 -8.575834e-02 3.642573e+00 1.235206e+00 -6.949205e+00 -4.212056e+00 2.550664e+00 -1.055755e+01 -2.232352e+01 7.750485e+00 -3.744556e+00 -3.268239e+00 2.839101e+00 7.345153e+01 -1.053466e-01 -3.261031e-01 -2.192702e-01 -1.347580e-01 4.346015e-01 3.020594e-01 -3.257818e-01 -4.653232e-01 4.151149e-03 2.119636e-01 9.137960e-01 6.498364e-01 6.936290e-02 8.188643e-02 4.031699e-02 7.293094e-02 -4.400096e-02 -1.266083e-01 6.925434e-02 1.285589e-02 1.334966e-01 5.175457e-02 5.524446e-02 3.768556e-02 -4.684727e-02 -5.843461e-02
<VARIANCE> 39
 7.323812e+01 2.518446e+01 1.921071e+01 4.657161e+01 7.262811e+01 1.938827e+01 8.925075e+01 5.053037e+01 4.838229e+01 2.846581e+01 4.180530e+01 2.376074e+01 1.489988e+01 7.793827e+00 3.354591e+00 2.758312e+00 4.314720e+00 5.514881e+00 2.309039e+00 7.407141e+00 6.113828e+00 4.469721e+00 4.226092e+00 3.890822e+00 3.674735e+00 1.578602e+00 1.238752e+00 4.670839e-01 4.011782e-01 6.601942e-01 6.743080e-01 4.089946e-01 1.034612e+00 8.003731e-01 7.509143e-01 9.646088e-01 1.029450e+00 6.311718e-01 2.160221e-01
<GCONST> 1.310023e+02
<TRANSP> 5
 0.000000e+00 1.000000e+00 0.000000e+00 0.000000e+00 0.000000e+00
 0.000000e+00 5.836661e-01 4.163339e-01 0.000000e+00 0.000000e+00
 0.000000e+00 0.000000e+00 9.223346e-01 7.766540e-02 0.000000e+00
 0.000000e+00 0.000000e+00 0.000000e+00 9.553379e-01 4.466211e-02
 0.000000e+00 0.000000e+00 0.000000e+00 0.000000e+00 0.000000e+00
<ENDHMM>
~h "sil"
<BEGINHMM>
<NUMSTATES> 5
<STATE> 2
<MEAN> 39
 -1.563138e+01 1.511061e+00 -9.469884e-01 2.354038e-01 2.927734e+00 1.632999e+00 3.742022e+00 1.648998e-01 3.472644e+00 4.379173e-01 3.611449e+00 4.462040e-01 5.454768e+01 -6.163225e-02 -3.106172e-02 2.405709e-02 2.951091e-02 -3.562871e-02 -8.407130e-05 -4.259136e-04 1.977184e-02 -7.258522e-04 3.182341e-02 7.122071e-03 5.251581e-02 -6.483957e-02 1.327428e-02 2.285961e-02 5.509355e-02 4.236661e-02 -1.098662e-02 -3.991565e-03 2.159363e-03 4.108486e-02 2.179655e-02 1.011773e-02 8.496332e-04 -1.122962e-02 -2.046643e-02
<VARIANCE> 39
 3.336409e+00 4.009175e+00 8.471871e+00 8.665540e+00 8.266541e+00 1.044516e+01 1.166901e+01 1.261029e+01 1.140917e+01 1.002963e+01 1.034150e+01 8.911056e+00 5.077199e+00 4.006418e-01 4.244417e-01 1.041840e+00 1.007815e+00 9.122683e-01 1.165825e+00 1.135652e+00 1.426794e+00 1.135774e+00 1.063652e+00 9.929055e-01 9.351121e-01 6.911916e-01 7.847507e-02 8.622500e-02 2.057698e-01 1.952849e-01 1.767078e-01 2.335821e-01 2.067525e-01 2.822717e-01 2.135573e-01 2.077392e-01 1.917697e-01 1.759099e-01 1.463374e-01
<GCONST> 7.480653e+01
<STATE> 3
<MEAN> 39
 -1.633689e+01 1.295796e+00 -9.924152e-02 1.185430e+00 3.027199e+00 1.913389e+00 4.378488e+00 1.519908e+00 4.278983e+00 1.209960e+00 4.120471e+00 1.149458e+00 5.354105e+01 -3.187329e-03 -4.903456e-03 2.087249e-03 8.973876e-03 5.994730e-04 9.956667e-03 6.327155e-03 1.912763e-02 1.287719e-02 1.100542e-02 1.133717e-02 1.381272e-02 -4.155098e-03 3.068596e-03 8.454853e-04 -4.764563e-03 -6.231268e-03 -2.856549e-04 -3.156307e-03 -2.882831e-03 -5.928473e-03 -4.037980e-03 -3.321307e-03 2.453068e-04 -3.464485e-03 3.972574e-03
<VARIANCE> 39
 8.537962e-01 1.519350e+00 2.705308e+00 4.216916e+00 5.465733e+00 6.733257e+00 7.974149e+00 8.765011e+00 9.245155e+00 9.325617e+00 9.369704e+00 8.494232e+00 6.052197e-01 7.481600e-02 1.639562e-01 2.906481e-01 4.366732e-01 5.820050e-01 7.142685e-01 8.785723e-01 9.508604e-01 1.006684e+00 9.712587e-01 9.583275e-01 9.310119e-01 2.170380e-02 1.568477e-02 3.442608e-02 6.077512e-02 9.013545e-02 1.199152e-01 1.484974e-01 1.835882e-01 1.935666e-01 2.083285e-01 2.010716e-01 1.996985e-01 1.939031e-01 4.621446e-03
<GCONST> 4.716883e+01
<STATE> 4
<MEAN> 39
 -1.587458e+01 1.247214e+00 -5.768212e-01 7.585840e-01 3.011745e+00 2.027440e+00 4.033255e+00 9.667944e-01 3.890618e+00 8.905274e-01 4.158460e+00 1.237929e+00 5.390425e+01 2.958651e-03 1.239072e-02 -6.645391e-03 -2.569381e-02 -4.482464e-02 -4.379040e-02 3.906056e-02 2.944534e-02 -9.432996e-03 -2.023165e-02 -1.914785e-02 3.423047e-02 -2.236529e-03 6.212095e-03 -1.142828e-02 1.193300e-02 -2.690641e-02 -2.400754e-02 -3.582789e-03 5.255541e-03 1.246700e-02 1.560933e-03 -1.579812e-03 -9.916371e-03 -2.620245e-03 1.462584e-02
<VARIANCE> 39
 2.043550e+00 2.529129e+00 6.007627e+00 5.885398e+00 6.713893e+00 7.858518e+00 1.043027e+01 1.088294e+01 1.127308e+01 9.968678e+00 9.350170e+00 7.888131e+00 9.189577e-01 2.320435e-01 2.759217e-01 8.027791e-01 7.457355e-01 7.142667e-01 8.781182e-01 1.211280e+00 1.299790e+00 1.249077e+00 1.157466e+00 1.071529e+00 9.389377e-01 1.234383e-01 5.317979e-02 6.760079e-02 1.756265e-01 1.621406e-01 1.476146e-01 1.701509e-01 2.475814e-01 2.636705e-01 2.534016e-01 2.239056e-01 2.067539e-01 1.857386e-01 3.571290e-02
<GCONST> 6.446828e+01
<TRANSP> 5
 0.000000e+00 1.000000e+00 0.000000e+00 0.000000e+00 0.000000e+00
 0.000000e+00 8.029696e-01 1.970304e-01 0.000000e+00 0.000000e+00
 0.000000e+00 0.000000e+00 9.750401e-01 2.495991e-02 0.000000e+00
 0.000000e+00 0.000000e+00 0.000000e+00 7.843086e-01 2.156915e-01
 0.000000e+00 0.000000e+00 0.000000e+00 0.000000e+00 0.000000e+00
<ENDHMM>
