~o
<STREAMINFO> 1 39
<VECSIZE> 39<NULLD><MFCC_D_A_0><DIAGC>
~h "B"
<BEGINHMM>
<NUMSTATES> 5
<STATE> 2
<MEAN> 39
 -1.412423e+01 3.982535e+00 2.492662e+00 3.657282e+00 5.190937e+00 4.036884e+00 6.432254e+00 4.190013e+00 7.564786e+00 4.559409e+00 7.964046e+00 5.297388e+00 5.436517e+01 -4.080003e-02 -7.708678e-02 -7.607742e-02 -6.562311e-02 -9.082898e-02 -3.668321e-02 -1.946911e-02 -3.054695e-02 -6.222770e-02 -5.513171e-02 -5.572017e-02 -2.503160e-02 -9.396079e-03 -1.224357e-02 -1.777575e-02 -1.866375e-02 -9.406721e-03 -2.552108e-02 -3.239791e-02 9.960625e-04 -4.872901e-03 -2.358438e-02 -2.575991e-03 -2.048347e-02 -4.921452e-02 -2.533800e-03
<VARIANCE> 39
 1.851426e+00 3.042878e+00 3.326185e+00 5.165594e+00 3.961319e+00 4.264007e+00 6.060553e+00 6.228090e+00 1.115989e+01 7.882790e+00 1.025369e+01 7.496121e+00 6.052197e-01 3.589856e-02 9.741569e-02 2.681755e-01 3.125033e-01 2.780054e-01 5.170901e-01 5.828886e-01 6.448781e-01 1.040251e+00 8.654270e-01 1.212344e+00 5.613778e-01 1.742775e-02 6.733414e-03 2.168490e-02 5.977349e-02 5.442171e-02 5.482868e-02 1.211510e-01 1.294370e-01 1.348921e-01 2.204503e-01 1.886201e-01 3.008557e-01 1.230142e-01 3.886696e-03
<GCONST> 3.978262e+01
<STATE> 3
<MEAN> 39
 -1.538120e+01 9.726430e-01 -1.621347e+00 -4.101113e-01 2.658384e+00 1.832738e+00 3.602639e+00 -7.391778e-01 2.672257e+00 1.078262e+00 5.831032e+00 2.879354e+00 5.405694e+01 -1.165726e-02 -1.671356e-02 -4.215252e-02 -4.555044e-02 -3.885205e-02 1.317520e-02 -1.020408e-02 5.035402e-02 5.548362e-02 8.099432e-02 1.257125e-03 -2.701030e-02 -2.515483e-03 3.867059e-03 2.562554e-02 3.548435e-02 3.895921e-02 4.600401e-02 2.891762e-02 3.080674e-02 6.670807e-02 4.760719e-02 8.746673e-03 4.855380e-03 8.304117e-03 1.098794e-03
<VARIANCE> 39
 1.188312e+00 2.537947e+00 6.310317e+00 4.635555e+00 7.046057e+00 9.044663e+00 7.292283e+00 1.028836e+01 1.157095e+01 8.139353e+00 9.887861e+00 9.312453e+00 6.052197e-01 9.603082e-02 2.467964e-01 4.980997e-01 6.033973e-01 6.410546e-01 7.201756e-01 9.155091e-01 1.365875e+00 1.433488e+00 9.288445e-01 1.223593e+00 1.039119e+00 4.209117e-02 1.869253e-02 5.449595e-02 1.097690e-01 1.387554e-01 1.362699e-01 1.385388e-01 1.909530e-01 2.923722e-01 3.023264e-01 1.936723e-01 2.682509e-01 2.322452e-01 8.123557e-03
<GCONST> 5.670447e+01
<STATE> 4
<MEAN> 39
 -1.680860e+01 1.022351e+00 1.999734e-01 1.818223e+00 3.552238e+00 2.107613e+00 4.641639e+00 2.043719e+00 4.914819e+00 1.904971e+00 4.955600e+00 1.556826e+00 5.329149e+01 -1.607501e-03 -3.547520e-03 6.812980e-04 3.775664e-03 4.136689e-03 -9.490364e-03 -7.498543e-03 1.521496e-03 -5.891130e-03 -5.181911e-04 -7.648055e-03 -1.587463e-02 -1.306192e-03 1.761784e-03 -3.807702e-03 -8.418296e-03 -9.170723e-03 -2.954426e-03 6.652712e-04 -5.796672e-03 -1.377517e-02 -7.115045e-03 -7.018382e-03 -6.094830e-03 -3.625769e-03 1.547591e-03
<VARIANCE> 39
 6.217460e-01 1.337483e+00 2.352700e+00 3.672112e+00 4.911412e+00 6.392630e+00 6.785833e+00 7.806966e+00 9.337612e+00 9.639118e+00 9.289968e+00 7.912562e+00 6.052197e-01 6.128424e-02 1.385987e-01 2.795857e-01 4.405711e-01 5.978540e-01 7.370631e-01 7.404974e-01 8.867122e-01 1.097460e+00 1.192822e+00 1.118813e+00 8.796600e-01 2.156413e-02 1.237104e-02 2.735498e-02 5.688418e-02 8.849558e-02 1.253819e-01 1.543244e-01 1.548475e-01 1.841885e-01 2.275164e-01 2.537064e-01 2.450217e-01 1.868191e-01 5.000861e-03
<GCONST> 4.565544e+01
<TRANSP> 5
 0.000000e+00 1.000000e+00 0.000000e+00 0.000000e+00 0.000000e+00
 0.000000e+00 9.091163e-01 9.088361e-02 0.000000e+00 0.000000e+00
 0.000000e+00 0.000000e+00 9.292883e-01 7.071169e-02 0.000000e+00
 0.000000e+00 0.000000e+00 0.000000e+00 9.869053e-01 1.309469e-02
 0.000000e+00 0.000000e+00 0.000000e+00 0.000000e+00 0.000000e+00
<ENDHMM>
~h "p"
<BEGINHMM>
<NUMSTATES> 5
<STATE> 2
<MEAN> 39
 -1.649741e+01 1.221830e+00 -8.689700e-01 6.091157e-01 2.653550e+00 8.931433e-01 3.905136e+00 2.139678e+00 4.284326e+00 1.640203e+00 5.198868e+00 1.951048e+00 5.341138e+01 -6.660433e-02 -9.037935e-02 -2.807500e-01 -5.052515e-01 -4.053796e-01 -1.290694e-01 -4.027769e-01 -1.587205e-01 -3.527001e-01 -5.861042e-01 -3.702897e-01 -1.075549e-01 -1.961900e-02 5.002683e-01 -2.989065e-02 -2.701892e-01 -1.682980e-01 2.322857e-01 2.093868e-01 -7.424437e-01 -8.506052e-01 -3.409842e-01 -4.300248e-01 -4.271194e-01 -1.211786e-01 7.917256e-01
<VARIANCE> 39
 9.941476e-01 2.089544e+00 4.265549e+00 6.321112e+00 7.580699e+00 7.836841e+00 1.130326e+01 9.369806e+00 1.556781e+01 9.389023e+00 9.770884e+00 1.207214e+01 6.052197e-01 1.036349e-01 2.325951e-01 3.142161e-01 3.604063e-01 4.407895e-01 6.912363e-01 1.253293e+00 7.876546e-01 1.384297e+00 1.119127e+00 1.009414e+00 1.395174e+00 1.998656e-02 7.319774e-02 4.998870e-02 1.806547e-01 1.744739e-01 2.264816e-01 2.457569e-01 3.512467e-01 1.736686e-01 3.475132e-01 2.013064e-01 2.276233e-01 3.347950e-01 2.347576e-01
<GCONST> 6.202872e+01
<STATE> 3
<MEAN> 39
 -1.605755e+01 1.350909e+00 -7.945597e-01 -3.110428e-01 1.809329e+00 4.516360e-01 3.399894e+00 8.844560e-01 3.464441e+00 -9.311958e-02 2.828321e+00 -1.514911e-02 5.373026e+01 2.107413e+00 -1.615163e-01 -1.258016e+00 -8.361760e-01 9.255113e-01 5.783816e-01 -3.447427e+00 -3.322668e+00 -1.176482e+00 -1.471495e+00 -9.739610e-01 3.589354e-01 3.667857e+00 1.669766e-01 -3.191586e-01 3.660245e-01 4.778037e-01 2.217286e-01 -1.428005e-01 -5.674992e-01 -2.222582e-01 -2.375255e-03 -3.978321e-01 3.632838e-02 3.321602e-01 1.357778e+00
<VARIANCE> 39
 1.243874e+00 1.047548e+00 2.549934e+00 5.393475e+00 6.094931e+00 6.575747e+00 5.878187e+00 8.410788e+00 9.001912e+00 7.122244e+00 6.812708e+00 4.271213e+00 6.052197e-01 2.431069e-01 2.906608e-01 1.210982e+00 1.375255e+00 1.060860e+00 1.708888e+00 2.192927e+00 9.216059e-01 1.664400e+00 1.467633e+00 1.305696e+00 1.823718e+00 2.160136e+00 1.399093e-01 6.138421e-02 2.676604e-01 1.702120e-01 1.409682e-01 1.970674e-01 3.975926e-01 4.417471e-01 2.640575e-01 1.961152e-01 2.835585e-01 1.977065e-01 7.922209e-02
<GCONST> 6.932726e+01
<STATE> 4
<MEAN> 39
 -1.100906e+01 1.024307e-01 2.666409e+00 1.636761e+00 3.479425e+00 1.064197e-01 -5.635568e+00 -5.642108e+00 3.327033e-01 -5.662528e+00 1.791367e+00 1.430208e+00 7.052197e+01 8.352508e-01 7.276588e-01 2.954782e+00 9.698233e-01 -1.135153e+00 -8.566263e-01 4.077846e-01 -2.983164e-01 3.165147e-01 -2.177567e-01 -4.628707e-02 -1.066548e+00 2.346771e+00 1.092285e-01 4.544040e-01 3.358891e-01 -1.093076e-01 -5.061564e-01 -1.890467e-01 6.824961e-01 -1.133063e-01 3.506566e-01 5.485833e-01 -5.852566e-02 -4.882325e-01 -6.800117e-01
<VARIANCE> 39
 1.492354e+01 1.559241e+01 6.784773e+01 2.247755e+01 1.692596e+01 1.905779e+01 3.398569e+01 3.903876e+01 1.576656e+01 1.219283e+01 1.258192e+01 2.418506e+01 1.129283e+01 2.401598e+00 3.596004e+00 3.282512e+00 1.779188e+00 2.106136e+00 1.775935e+00 6.539142e+00 5.037527e+00 1.631673e+00 2.954179e+00 1.517010e+00 2.639848e+00 4.299661e+00 5.507149e-01 4.479541e-01 1.535434e+00 5.646636e-01 2.992911e-01 4.142759e-01 1.450235e+00 1.828681e+00 2.653080e-01 3.407204e-01 4.512107e-01 3.016970e-01 4.116623e-01
<GCONST> 1.160381e+02
<TRANSP> 5
 0.000000e+00 1.000000e+00 0.000000e+00 0.000000e+00 0.000000e+00
 0.000000e+00 5.412973e-01 4.587027e-01 0.000000e+00 0.000000e+00
 0.000000e+00 0.000000e+00 5.001107e-01 4.998893e-01 0.000000e+00
 0.000000e+00 0.000000e+00 0.000000e+00 8.080496e-01 1.919504e-01
 0.000000e+00 0.000000e+00 0.000000e+00 0.000000e+00 0.000000e+00
<ENDHMM>
~h "aa"
<BEGINHMM>
<NUMSTATES> 5
<STATE> 2
<MEAN> 39
 -2.138768e+00 1.104931e+01 1.978767e+00 -3.738078e+00 1.161396e+00 7.057988e+00 6.766097e+00 8.346626e-01 7.030903e-01 -7.667123e+00 -1.005206e+00 -2.682810e-01 6.128704e+01 -7.655041e-01 -2.327392e-01 -2.520323e-01 6.945320e-01 4.733015e-01 -2.954057e-01 8.327051e-01 7.290314e-01 1.650439e-02 9.095528e-01 8.474226e-02 -5.858178e-01 -6.262555e-01 5.978788e-03 -1.773326e-01 -1.858566e-01 -3.160581e-01 -2.122841e-01 -2.142878e-02 -7.267477e-02 -1.200287e-02 1.504614e-01 -9.389916e-03 8.466539e-02 1.199124e-01 5.553377e-02
<VARIANCE> 39
 4.138412e+00 1.271538e+00 4.279461e+00 1.111227e+01 7.252012e+00 4.409525e+00 7.897209e+00 8.446420e+00 6.480963e+00 9.675458e+00 7.198465e+00 9.529903e+00 2.150692e+00 2.119770e-01 3.350527e-01 2.604850e-01 6.353006e-01 6.746503e-01 4.278120e-01 4.724672e-01 8.293051e-01 9.413095e-01 8.106425e-01 7.804226e-01 6.313898e-01 4.433407e-02 1.565953e-02 3.609092e-02 6.556049e-02 8.938035e-02 8.464828e-02 9.222021e-02 1.857573e-01 2.247553e-01 1.504951e-01 1.743427e-01 1.632515e-01 1.252654e-01 7.214793e-03
<GCONST> 5.017123e+01
<STATE> 3
<MEAN> 39
 -6.648807e+00 8.182507e+00 -4.461030e-01 -3.985847e+00 -5.418002e-01 2.468161e+00 6.318505e+00 8.048440e-01 6.880897e-02 -5.172316e+00 -1.259117e+00 -2.870209e+00 5.830046e+01 -8.000590e-01 -5.420603e-01 -1.603433e-01 2.475017e-02 -2.036859e-01 -5.901880e-01 -4.348163e-01 -2.917869e-01 -1.418812e-01 1.111168e-01 -1.413423e-01 -3.701539e-01 -4.326874e-01 5.368269e-04 -4.412692e-04 6.252201e-02 3.613509e-02 -1.487315e-02 2.547095e-02 -5.780857e-02 -1.954900e-02 1.393558e-02 -3.435238e-02 -2.037737e-03 3.319687e-02 1.628799e-02
<VARIANCE> 39
 5.392467e+00 3.969172e+00 4.055458e+00 6.437367e+00 1.010780e+01 9.728119e+00 1.374448e+01 1.437391e+01 1.248369e+01 7.686944e+00 8.993731e+00 7.553968e+00 1.587760e+00 8.547967e-02 4.031536e-01 4.811007e-01 4.222381e-01 7.852316e-01 5.919683e-01 8.582639e-01 1.409770e+00 1.439515e+00 1.141036e+00 1.194780e+00 8.184688e-01 3.428448e-02 1.525573e-02 6.610541e-02 7.949023e-02 8.563241e-02 1.575620e-01 1.213192e-01 2.119074e-01 3.181538e-01 2.953807e-01 2.872902e-01 2.889298e-01 1.393002e-01 5.379527e-03
<GCONST> 5.923793e+01
<STATE> 4
<MEAN> 39
 -1.250652e+01 4.455248e+00 2.273718e-01 -1.070421e+00 -1.041222e-03 -5.559475e-01 3.065954e+00 5.754548e-02 1.852060e+00 -1.704933e+00 1.196314e+00 -1.366950e+00 5.536178e+01 -3.103869e-01 -2.400772e-01 5.783530e-02 2.830442e-01 1.833600e-01 -5.323850e-02 -1.275717e-01 -8.131532e-02 8.275048e-02 2.200129e-01 2.193514e-01 1.862314e-01 -1.579324e-01 3.452690e-02 2.935926e-02 -2.727174e-03 -8.844870e-03 2.791488e-02 2.869957e-02 -1.616394e-02 -4.830236e-02 -5.987131e-02 -6.784822e-02 -2.837971e-02 -4.431381e-03 1.687813e-02
<VARIANCE> 39
 2.883259e+00 2.441407e+00 2.648595e+00 4.645132e+00 6.463746e+00 8.465921e+00 8.282644e+00 8.525307e+00 8.353213e+00 1.093233e+01 1.091241e+01 9.541437e+00 7.357754e-01 9.499013e-02 1.767077e-01 2.951093e-01 3.644647e-01 5.684993e-01 6.815231e-01 7.488121e-01 1.005594e+00 1.102128e+00 1.053670e+00 1.088383e+00 8.061407e-01 2.789267e-02 1.145929e-02 2.371276e-02 5.603443e-02 7.883664e-02 1.264279e-01 1.268162e-01 1.353336e-01 2.077611e-01 2.237661e-01 2.336221e-01 2.232746e-01 1.635428e-01 4.712688e-03
<GCONST> 4.918550e+01
<TRANSP> 5
 0.000000e+00 1.000000e+00 0.000000e+00 0.000000e+00 0.000000e+00
 0.000000e+00 7.973512e-01 2.026488e-01 0.000000e+00 0.000000e+00
 0.000000e+00 0.000000e+00 8.555683e-01 1.444317e-01 0.000000e+00
 0.000000e+00 0.000000e+00 0.000000e+00 9.026285e-01 9.737144e-02
 0.000000e+00 0.000000e+00 0.000000e+00 0.000000e+00 0.000000e+00
<ENDHMM>
~h "c0"
<BEGINHMM>
<NUMSTATES> 5
<STATE> 2
<MEAN> 39
 -1.198437e+01 4.730139e+00 1.920280e+00 1.985251e+00 3.502592e+00 2.506293e+00 3.380240e+00 1.020153e-01 3.047624e+00 9.561575e-02 3.795531e+00 9.996440e-01 5.579430e+01 -3.363676e-01 -3.704667e-01 -4.753365e-01 -1.661647e-01 8.686043e-03 -5.783642e-02 3.844166e-01 3.996036e-01 3.129731e-01 5.500690e-01 1.364233e-01 -5.962193e-03 -2.204504e-01 1.005241e-01 -3.659064e-01 -7.848709e-02 -6.926613e-01 -3.327547e-01 -1.168013e-01 -4.806869e-01 -3.673692e-01 -2.753169e-01 -2.321766e-01 -5.188032e-02 -1.096026e-01 4.154986e-01
<VARIANCE> 39
 3.038132e+01 1.817785e+01 8.729887e+00 6.548510e+00 7.319662e+00 5.904837e+00 1.194507e+01 1.787071e+01 1.393359e+01 1.219318e+01 8.820861e+00 1.102640e+01 8.622723e+00 2.313462e-01 2.931439e-01 4.789002e-01 5.565788e-01 8.160449e-01 7.251639e-01 9.942625e-01 9.265267e-01 1.129858e+00 1.106811e+00 1.240848e+00 9.748796e-01 9.399116e-02 4.785215e-02 1.622672e-01 1.229794e-01 3.304084e-01 1.705270e-01 1.550057e-01 2.888102e-01 3.089373e-01 2.856890e-01 3.114139e-01 2.334275e-01 2.043427e-01 1.821716e-01
<GCONST> 7.518736e+01
<STATE> 3
<MEAN> 39
 -1.373437e+01 3.110499e+00 8.399532e-01 1.066968e+00 3.399639e+00 2.394806e+00 4.074424e+00 5.305043e-01 3.800419e+00 4.794298e-01 3.719077e+00 1.274796e+00 5.500870e+01 1.582980e-01 -1.594642e+00 -3.352146e-01 -2.574052e+00 -9.551659e-01 -1.836334e-01 -1.267061e+00 -7.087548e-01 -5.567840e-01 -8.234746e-02 1.297385e-02 -3.618934e-01 1.598817e+00 -1.905946e-01 -3.436031e-01 1.848139e-01 -9.339618e-01 -4.591344e-01 -1.526536e-01 -7.563299e-01 -4.685867e-01 -3.748279e-01 -2.036018e-01 2.620787e-02 -2.284939e-01 8.568904e-01
<VARIANCE> 39
 2.223697e+01 1.414817e+01 5.532331e+00 5.427182e+00 6.790442e+00 6.939212e+00 1.194158e+01 1.814049e+01 1.356889e+01 9.501134e+00 1.031748e+01 9.569528e+00 5.903052e+00 7.781383e-01 1.482034e+00 1.395580e+00 4.619023e+00 1.541973e+00 1.517371e+00 2.290553e+00 2.908993e+00 1.848884e+00 2.242325e+00 1.598988e+00 1.465047e+00 3.259858e+00 1.028208e-01 1.518994e-01 1.150921e-01 5.565379e-01 2.459246e-01 1.972133e-01 2.162281e-01 3.695065e-01 2.636509e-01 3.387991e-01 3.866261e-01 2.263621e-01 3.916953e-01
<GCONST> 9.124706e+01
<STATE> 4
<MEAN> 39
 -7.300432e+00 3.955036e-03 -7.128503e-01 -1.335088e+01 -4.750560e+00 4.128065e+00 2.699939e+00 -4.915770e+00 2.046651e+00 5.840873e-01 7.691846e-01 2.437823e-01 6.904370e+01 1.078713e+00 -8.746564e-02 -5.710895e-02 -8.947396e-01 -1.016341e+00 -2.520498e-01 -3.612722e-02 -7.605085e-03 -5.616759e-01 -6.724856e-01 -3.612705e-01 -2.822970e-01 1.130278e+00 -1.068319e-01 1.853586e-01 1.426629e-01 4.651993e-01 2.106060e-01 -1.077857e-01 -8.921127e-02 1.172606e-01 3.280359e-02 -1.840497e-01 9.180889e-02 9.371758e-02 -2.627398e-01
<VARIANCE> 39
 1.171634e+02 3.041437e+01 1.969989e+01 6.568475e+01 5.093756e+01 2.103125e+01 5.924464e+01 3.752940e+01 1.366905e+01 2.789413e+01 3.553571e+01 2.207710e+01 5.531832e+01 7.964867e+00 2.262574e+00 1.768154e+00 7.799528e+00 4.055766e+00 2.918157e+00 7.350100e+00 3.563070e+00 1.823458e+00 3.391458e+00 3.927806e+00 1.877785e+00 5.047593e+00 1.431176e+00 2.848005e-01 3.416506e-01 9.702933e-01 8.973522e-01 5.213405e-01 1.023435e+00 6.124617e-01 3.851566e-01 5.893382e-01 8.700054e-01 3.783976e-01 3.597893e-01
<GCONST> 1.281729e+02
<TRANSP> 5
 0.000000e+00 1.000000e+00 0.000000e+00 0.000000e+00 0.000000e+00
 0.000000e+00 1.492800e-01 8.507200e-01 0.000000e+00 0.000000e+00
 0.000000e+00 0.000000e+00 3.587805e-01 6.412195e-01 0.000000e+00
 0.000000e+00 0.000000e+00 0.000000e+00 6.686661e-01 3.313340e-01
 0.000000e+00 0.000000e+00 0.000000e+00 0.000000e+00 0.000000e+00
<ENDHMM>
~h "ee"
<BEGINHMM>
<NUMSTATES> 5
<STATE> 2
<MEAN> 39
 3.379145e+00 3.361355e+00 8.945143e-01 -1.408067e+01 -9.509524e+00 1.036284e+01 -6.254622e-01 -1.500691e+01 4.017497e+00 -4.613636e+00 4.210229e+00 9.245975e+00 7.090230e+01 -1.793452e-01 6.102312e-01 3.189250e-01 4.295041e-01 2.859856e-01 7.138935e-01 5.615011e-01 9.390109e-01 5.263611e-01 -1.824249e-01 -6.133097e-01 1.901436e-02 -1.003650e+00 -6.381965e-01 4.580632e-01 3.940865e-01 7.671344e-01 9.139572e-01 -7.358453e-01 -3.283550e-01 3.493341e-01 -2.955024e-01 1.163187e-03 -2.276141e-01 -5.250075e-01 -3.382185e-01
<VARIANCE> 39
 5.225562e+00 1.474509e+01 9.220088e+00 3.752156e+01 2.511532e+01 3.294707e+01 9.075136e+00 4.306210e+01 1.273337e+01 1.275980e+01 1.044318e+01 1.650666e+01 1.557570e+01 6.173394e-01 1.279876e+00 8.382961e-01 2.696855e+00 2.863173e+00 2.421903e+00 7.709309e-01 1.478656e+00 2.085926e+00 9.181269e-01 7.785878e-01 1.224824e+00 4.066403e-01 2.827551e-01 1.505405e-01 1.397189e-01 3.175122e-01 3.098763e-01 3.801181e-01 1.527141e-01 2.185995e-01 5.669423e-01 3.638542e-01 3.897579e-01 2.640049e-01 4.489404e-02
<GCONST> 9.112400e+01
<STATE> 3
<MEAN> 39
 4.401380e-01 8.968300e+00 3.955030e+00 -5.102655e+00 -2.322263e+00 5.455828e+00 -1.155674e+00 -8.173577e+00 1.529467e+00 -6.635470e+00 2.446911e+00 6.414199e+00 6.489599e+01 -9.885357e-01 1.386653e+00 1.217020e+00 3.038319e+00 2.269388e+00 -2.197818e+00 -7.241817e-01 1.555588e+00 -1.414795e+00 -7.235966e-01 2.133191e-01 -1.649285e+00 -1.462567e+00 -1.972694e-03 -2.805539e-01 -4.968816e-02 -1.555734e-01 -1.392221e-01 7.902081e-02 -4.760019e-02 -2.502756e-01 8.739726e-02 1.203813e-01 1.100732e-01 -1.257247e-01 1.907056e-01
<VARIANCE> 39
 6.736907e+00 7.133357e+00 5.630707e+00 3.199654e+01 1.882028e+01 3.594424e+01 1.706186e+01 2.405922e+01 1.045193e+01 8.269686e+00 9.831122e+00 1.949515e+01 8.228496e+00 1.585639e-01 6.300139e-01 6.556923e-01 2.419940e+00 1.384045e+00 1.712748e+00 8.808323e-01 1.295946e+00 1.206639e+00 1.068723e+00 7.045394e-01 2.085325e+00 2.255802e-01 3.068554e-02 9.342217e-02 1.266244e-01 4.386700e-01 3.025458e-01 4.399188e-01 2.386179e-01 2.234073e-01 3.043154e-01 1.884141e-01 1.780648e-01 2.481279e-01 2.940052e-02
<GCONST> 8.020547e+01
<STATE> 4
<MEAN> 39
 -1.746503e+00 1.099693e+01 5.765986e+00 4.279016e-01 2.128150e+00 2.610590e+00 -2.344641e+00 -6.782763e+00 -7.310750e-01 -6.071950e+00 3.583902e+00 3.111809e+00 6.199834e+01 -7.127948e-01 5.187465e-02 -8.059278e-02 7.710315e-01 6.385712e-01 -2.601900e-01 3.128022e-01 3.928058e-01 -8.464361e-02 7.312508e-01 7.581683e-02 -4.907618e-01 -6.937004e-01 -1.448719e-04 -2.274193e-01 -2.231133e-01 -3.267379e-01 -2.851271e-01 1.765906e-01 1.698577e-01 -6.537102e-02 1.970643e-01 1.844636e-01 -2.106095e-02 1.845318e-01 8.743410e-02
<VARIANCE> 39
 4.840588e+00 3.383158e+00 4.720847e+00 8.452062e+00 6.760269e+00 1.259132e+01 1.282512e+01 1.494837e+01 9.836884e+00 9.631773e+00 1.049368e+01 1.395484e+01 4.011271e+00 1.521350e-01 2.874202e-01 5.361227e-01 8.234309e-01 1.009044e+00 8.455325e-01 9.296788e-01 7.556821e-01 9.544062e-01 9.866070e-01 8.220110e-01 1.092745e+00 5.397469e-02 2.440926e-02 5.579843e-02 9.013356e-02 1.738240e-01 1.412424e-01 2.486368e-01 1.697369e-01 2.099803e-01 2.048562e-01 1.975049e-01 1.412851e-01 2.139763e-01 1.581466e-02
<GCONST> 6.294905e+01
<TRANSP> 5
 0.000000e+00 1.000000e+00 0.000000e+00 0.000000e+00 0.000000e+00
 0.000000e+00 7.030312e-01 2.969688e-01 0.000000e+00 0.000000e+00
 0.000000e+00 0.000000e+00 5.347130e-01 4.652870e-01 0.000000e+00
 0.000000e+00 0.000000e+00 0.000000e+00 7.745645e-01 2.254355e-01
 0.000000e+00 0.000000e+00 0.000000e+00 0.000000e+00 0.000000e+00
<ENDHMM>
~h "hh"
<BEGINHMM>
<NUMSTATES> 5
<STATE> 2
<MEAN> 39
 1.453488e+00 1.570383e+00 4.344898e+00 -2.923875e+00 -3.204228e+00 6.142631e+00 -5.774522e+00 -9.559508e+00 6.392352e+00 -5.376478e+00 -3.481767e+00 8.864465e-01 7.351921e+01 1.881621e-01 -1.542954e-01 -3.201636e-01 2.638215e-01 -2.500294e-01 -4.664674e-01 -2.975574e-01 2.126421e-01 1.187131e+00 6.778131e-02 -5.526599e-01 1.504193e-01 -6.869249e-02 -1.106591e-01 3.327105e-02 1.564933e-02 4.525642e-02 9.702469e-02 -4.296122e-02 -8.833851e-02 1.028832e-02 9.528206e-02 -6.485866e-02 7.838345e-02 5.280842e-02 -3.582552e-02
<VARIANCE> 39
 5.640675e+00 9.884088e+00 8.166433e+00 2.390975e+01 3.366836e+01 1.604753e+01 2.133125e+01 4.985260e+01 1.494630e+02 2.692669e+01 2.156916e+01 1.610138e+01 7.170711e+00 8.321340e-01 9.482905e-01 5.436607e-01 1.745773e+00 3.467256e+00 1.291326e+00 1.584486e+00 4.741894e+00 5.414042e+00 2.934978e+00 1.609170e+00 9.232509e-01 5.456902e-01 1.687617e-01 2.286562e-01 1.245930e-01 3.201843e-01 5.818172e-01 1.911930e-01 3.229899e-01 9.360190e-01 6.878624e-01 4.911762e-01 3.284009e-01 2.164040e-01 9.334328e-02
<GCONST> 1.001673e+02
<STATE> 3
<MEAN> 39
 2.286377e+00 3.361845e+00 2.325406e+00 8.573686e-01 -6.020173e+00 -2.801591e+00 -9.172983e+00 -6.283626e+00 1.595560e+01 -1.173084e+01 -6.135033e+00 5.643845e+00 7.120005e+01 -1.800221e-01 1.344137e+00 3.419680e-01 2.866883e-01 1.352025e+00 -3.647168e-01 3.572209e-01 7.177860e-01 -1.680690e+00 -2.091105e-01 1.075476e+00 5.200891e-01 -1.405622e+00 -4.389796e-02 9.679338e-02 6.068261e-02 3.666392e-02 2.125867e-01 3.094906e-02 5.599010e-02 1.724551e-01 -2.086638e-01 4.060673e-01 9.846301e-02 -3.002819e-01 -1.254050e-01
<VARIANCE> 39
 1.364468e+00 1.246016e+01 4.601902e+00 3.552916e+00 2.082541e+01 1.032152e+01 6.875757e+00 1.674944e+01 2.644020e+01 8.916978e+00 1.337800e+01 1.269722e+01 1.045145e+01 1.459605e-01 6.977527e-01 2.956417e-01 5.859442e-01 1.491395e+00 4.152229e-01 8.300391e-01 1.041948e+00 1.841221e+00 1.876968e+00 1.091689e+00 1.380633e+00 2.310413e-01 4.503541e-02 2.417049e-01 8.154400e-02 1.191096e-01 3.367178e-01 9.780332e-02 1.482548e-01 1.875964e-01 4.123995e-01 2.194749e-01 2.969429e-01 2.078872e-01 8.556411e-02
<GCONST> 7.209342e+01
<STATE> 4
<MEAN> 39
 -2.599581e-01 9.040663e+00 5.064135e+00 4.835089e+00 1.354604e+00 -6.911567e+00 -8.366531e+00 -1.572577e+00 7.642271e+00 -7.380204e+00 -2.815323e+00 3.051758e+00 6.337894e+01 -6.414000e-01 2.942522e-01 1.436876e-01 2.446378e-01 3.437115e-01 -1.456760e-01 4.210120e-01 1.562710e-01 -9.615550e-01 7.929397e-01 2.389600e-01 -5.475956e-01 -7.644977e-01 -7.104599e-02 -1.200306e-01 -9.209740e-02 -1.519278e-01 -1.633098e-01 9.831356e-02 1.757167e-02 -1.518294e-01 1.029460e-01 -6.983262e-02 -7.469298e-02 1.914300e-02 7.608133e-02
<VARIANCE> 39
 3.281924e+00 2.586625e+00 4.605620e+00 5.651078e+00 7.375632e+00 7.429947e+00 1.110032e+01 7.281394e+00 1.305567e+01 1.684521e+01 9.649660e+00 1.010629e+01 3.496989e+00 6.400523e-02 3.371583e-01 5.463598e-01 7.744198e-01 7.536987e-01 6.318924e-01 8.797144e-01 9.913762e-01 2.017281e+00 1.687060e+00 1.264423e+00 1.196513e+00 7.012025e-02 1.632006e-02 3.028882e-02 8.207715e-02 1.192500e-01 1.292145e-01 1.317475e-01 1.777227e-01 1.616443e-01 4.232826e-01 3.561222e-01 2.860222e-01 2.526104e-01 9.987679e-03
<GCONST> 6.111467e+01
<TRANSP> 5
 0.000000e+00 1.000000e+00 0.000000e+00 0.000000e+00 0.000000e+00
 0.000000e+00 9.453992e-01 5.460084e-02 0.000000e+00 0.000000e+00
 0.000000e+00 0.000000e+00 8.362193e-01 1.637807e-01 0.000000e+00
 0.000000e+00 0.000000e+00 0.000000e+00 8.291881e-01 1.708119e-01
 0.000000e+00 0.000000e+00 0.000000e+00 0.000000e+00 0.000000e+00
<ENDHMM>
~h "ii"
<BEGINHMM>
<NUMSTATES> 5
<STATE> 2
<MEAN> 39
 -7.257020e+00 5.229312e+00 9.993676e+00 2.045034e+00 -3.537939e+00 -3.389476e+00 -7.362761e-01 -1.068274e+01 3.994371e+00 -1.320182e+00 -3.041242e-01 -5.671760e+00 7.006804e+01 6.128156e-01 1.158376e-01 2.888991e-01 -1.982161e-01 -8.412624e-01 -7.060741e-01 1.017730e-01 -2.270273e+00 6.222116e-01 5.192010e-01 -1.036139e+00 -7.530158e-01 4.196959e-01 -3.694403e-01 -3.954944e-01 -2.947342e-01 7.725147e-02 4.710804e-01 1.598016e-01 3.637282e-02 4.312177e-01 -4.630388e-02 -2.034675e-01 7.649153e-03 4.954351e-01 -1.403034e-01
<VARIANCE> 39
 1.620430e+01 4.187325e+00 3.493837e+01 6.484877e+00 1.514518e+01 7.429790e+00 6.046233e+00 3.877712e+01 1.080159e+01 5.539841e+00 9.271418e+00 2.109499e+01 7.147865e+01 8.811015e-01 6.576051e-01 5.897248e-01 4.667414e-01 9.577762e-01 7.376682e-01 9.387069e-01 2.438693e+00 1.420862e+00 8.285682e-01 1.138304e+00 1.105583e+00 2.797165e-01 9.157705e-02 1.841495e-01 2.599717e-01 9.311926e-02 9.113739e-02 1.783788e-01 1.749607e-01 3.988047e-01 2.243440e-01 1.405822e-01 1.709472e-01 1.220832e-01 2.543649e-02
<GCONST> 7.731633e+01
<STATE> 3
<MEAN> 39
 -5.835334e+00 4.743936e+00 1.169402e+01 1.784473e+00 -3.889513e+00 -5.331972e+00 7.410007e-02 -1.421768e+01 5.740743e+00 -1.484231e+00 -3.207647e+00 -6.002685e+00 7.203426e+01 2.611378e-02 -7.351570e-02 -1.288336e-01 -2.250544e-01 4.968561e-01 -4.746439e-01 -3.324973e-01 4.504189e-01 1.209951e-01 -3.546231e-01 -2.915362e-01 5.315173e-01 6.587891e-02 -8.396521e-02 1.143168e-01 -1.473542e-01 7.205268e-03 3.477870e-01 5.122104e-02 -3.195659e-01 4.892474e-01 3.107462e-02 -2.114580e-01 1.034477e-01 1.465248e-01 -3.623079e-03
<VARIANCE> 39
 1.522255e+01 4.442516e+00 3.347326e+01 4.771436e+00 1.666957e+01 1.054614e+01 4.655217e+00 4.034831e+01 1.438562e+01 5.447403e+00 1.161313e+01 1.482569e+01 5.805916e+01 1.602306e-01 2.622603e-01 4.233336e-01 3.284367e-01 5.188766e-01 6.757707e-01 1.082145e+00 1.055103e+00 6.361627e-01 9.952079e-01 6.298118e-01 5.687875e-01 1.171287e-01 3.444459e-02 5.520211e-02 1.190485e-01 6.062083e-02 9.126947e-02 1.306278e-01 2.472147e-01 2.027748e-01 1.947425e-01 1.409155e-01 1.009122e-01 1.056895e-01 2.155448e-02
<GCONST> 6.466208e+01
<STATE> 4
<MEAN> 39
 -7.434534e+00 5.109971e+00 8.013180e+00 1.206509e+00 1.140658e+00 -6.511248e+00 -3.848375e+00 -7.951626e+00 5.722403e+00 -4.806374e+00 -3.849045e+00 -2.132522e+00 7.043155e+01 -7.385902e-01 8.075085e-01 -8.726779e-01 -4.393527e-01 2.215958e+00 4.036643e-01 -1.863927e+00 1.279959e+00 2.862876e-01 -5.986989e-01 5.246696e-02 3.597736e-03 -7.067742e-02 -3.485180e-01 2.851841e-01 -1.247739e-01 -2.450919e-01 3.231967e-01 5.897932e-01 1.509501e-01 -5.537779e-02 -1.048125e-01 3.786735e-01 4.160331e-01 -4.903846e-01 -1.337271e-01
<VARIANCE> 39
 2.409576e+01 6.929389e+00 3.106845e+01 4.383468e+00 1.346924e+01 2.678845e+01 3.595408e+01 3.258276e+01 1.528703e+01 1.219673e+01 2.149354e+01 7.952147e+00 9.621902e+01 4.312096e-01 7.350469e-01 1.277075e+00 5.862115e-01 1.716491e+00 1.284537e+00 3.063097e+00 1.295176e+00 9.990672e-01 1.278311e+00 7.704630e-01 1.232607e+00 1.596607e-01 1.001063e-01 1.015865e-01 1.691626e-01 1.262723e-01 1.775707e-01 2.516596e-01 4.455853e-01 2.773582e-01 2.929744e-01 2.665242e-01 2.495727e-01 1.884371e-01 3.704285e-02
<GCONST> 8.615189e+01
<TRANSP> 5
 0.000000e+00 1.000000e+00 0.000000e+00 0.000000e+00 0.000000e+00
 0.000000e+00 5.461459e-01 4.538541e-01 0.000000e+00 0.000000e+00
 0.000000e+00 0.000000e+00 6.826540e-01 3.173460e-01 0.000000e+00
 0.000000e+00 0.000000e+00 0.000000e+00 4.739950e-01 5.260050e-01
 0.000000e+00 0.000000e+00 0.000000e+00 0.000000e+00 0.000000e+00
<ENDHMM>
~h "ng"
<BEGINHMM>
<NUMSTATES> 5
<STATE> 2
<MEAN> 39
 -6.918513e+00 8.001040e+00 9.037119e+00 5.691039e+00 3.091767e+00 4.574060e-01 -1.787758e+00 -3.016760e+00 3.235047e+00 -5.417284e+00 -2.866596e+00 -1.195282e+00 5.976097e+01 -8.778968e-01 -9.163307e-02 -6.831015e-01 2.290648e-01 4.507280e-01 -9.565863e-02 5.499099e-01 5.066433e-01 -5.832487e-01 1.215983e-01 2.566421e-01 -3.158749e-01 -8.971518e-01 2.346555e-02 -1.738760e-01 -1.690420e-01 -3.153079e-01 -3.080132e-01 -1.470391e-01 -1.176362e-01 -1.505150e-01 5.854416e-02 6.434225e-02 -3.123457e-02 2.516058e-02 1.086839e-01
<VARIANCE> 39
 9.351765e+00 7.375653e+00 2.376340e+01 7.051327e+00 8.509653e+00 1.683977e+01 3.040803e+01 1.577543e+01 1.026339e+01 1.064151e+01 1.321556e+01 1.333347e+01 8.270416e+00 2.181138e-01 6.068616e-01 4.913479e-01 8.143425e-01 1.359267e+00 1.065335e+00 1.299738e+00 1.611652e+00 1.107412e+00 9.423114e-01 8.748391e-01 7.868467e-01 2.184901e-01 2.089813e-02 6.286468e-02 8.655629e-02 1.087483e-01 1.616393e-01 1.749502e-01 1.659532e-01 2.041378e-01 1.995270e-01 2.000196e-01 1.917411e-01 2.165352e-01 1.368188e-02
<GCONST> 7.152214e+01
<STATE> 3
<MEAN> 39
 -9.641700e+00 7.086104e+00 4.839855e+00 3.700265e+00 1.431443e+00 -4.132983e+00 -4.290324e+00 -5.404243e+00 -1.116190e+00 -6.474129e+00 -3.497161e+00 -3.610118e+00 5.700425e+01 -5.182004e-01 -2.814892e-01 -3.696024e-01 -1.854005e-01 -6.311492e-02 9.153747e-02 2.007942e-01 -2.537228e-01 -4.204353e-01 2.123179e-02 2.001335e-01 -4.802855e-02 -3.605657e-01 2.968786e-02 -1.068801e-02 3.190706e-02 2.678272e-02 5.272385e-02 1.162672e-01 7.916488e-02 1.030070e-01 1.455096e-01 1.200112e-01 1.369879e-01 1.518873e-01 4.278736e-02
<VARIANCE> 39
 3.862058e+00 4.269629e+00 8.787937e+00 6.363485e+00 5.862256e+00 2.076500e+01 1.933095e+01 1.576901e+01 1.350442e+01 1.247007e+01 1.227380e+01 1.157950e+01 1.839373e+00 1.526331e-01 3.476461e-01 6.683635e-01 5.683972e-01 5.241463e-01 9.072239e-01 8.108318e-01 1.011471e+00 9.086823e-01 9.623715e-01 1.022783e+00 1.212591e+00 7.690642e-02 1.948839e-02 4.659693e-02 1.006364e-01 1.135184e-01 1.081289e-01 1.553411e-01 1.448423e-01 1.732158e-01 1.665100e-01 1.647597e-01 1.808478e-01 1.975049e-01 1.087331e-02
<GCONST> 6.169059e+01
<STATE> 4
<MEAN> 39
 -1.332375e+01 4.695672e+00 2.602072e+00 2.589142e+00 2.005337e+00 -1.309538e+00 -5.054563e-02 -3.304482e+00 -6.095996e-01 -3.748466e+00 -3.061341e-01 -2.352263e+00 5.489453e+01 -2.594814e-01 -2.540975e-01 -2.292362e-01 -1.630425e-01 6.073867e-02 2.622969e-01 3.383953e-01 3.381437e-01 2.924023e-01 3.518482e-01 2.961329e-01 1.582036e-01 -1.219481e-01 1.935961e-02 1.473563e-03 -1.452621e-03 -5.353935e-03 7.133272e-03 -7.123426e-04 -1.597222e-02 -1.945296e-03 3.080549e-02 3.636545e-03 -2.230740e-02 -7.539483e-03 1.261662e-02
<VARIANCE> 39
 2.526273e+00 2.983750e+00 4.176234e+00 4.748123e+00 5.226016e+00 1.050637e+01 1.304819e+01 1.177424e+01 1.048999e+01 1.183192e+01 1.102322e+01 1.018388e+01 7.269024e-01 9.239863e-02 1.651260e-01 3.271938e-01 4.072835e-01 4.775273e-01 6.725017e-01 9.154774e-01 9.496263e-01 9.526249e-01 1.220806e+00 1.001931e+00 1.067616e+00 2.719427e-02 1.408099e-02 2.672352e-02 6.062613e-02 8.048477e-02 1.063012e-01 1.327768e-01 1.832670e-01 2.078286e-01 1.885458e-01 2.493741e-01 2.035258e-01 2.139448e-01 4.252930e-03
<GCONST> 5.169948e+01
<TRANSP> 5
 0.000000e+00 1.000000e+00 0.000000e+00 0.000000e+00 0.000000e+00
 0.000000e+00 6.347502e-01 3.652497e-01 0.000000e+00 0.000000e+00
 0.000000e+00 0.000000e+00 7.605848e-01 2.394153e-01 0.000000e+00
 0.000000e+00 0.000000e+00 0.000000e+00 8.870068e-01 1.129932e-01
 0.000000e+00 0.000000e+00 0.000000e+00 0.000000e+00 0.000000e+00
<ENDHMM>
~h "nn"
<BEGINHMM>
<NUMSTATES> 5
<STATE> 2
<MEAN> 39
 -1.090991e+01 6.060900e+00 1.862574e+00 2.367804e-01 -1.717537e-01 -3.226432e+00 -2.772257e+00 -6.438745e+00 -2.577534e+00 -3.040459e+00 2.466399e+00 6.329750e-01 5.611131e+01 -4.603254e-01 -3.039830e-01 -1.918774e-02 1.259390e-01 1.124314e-01 1.457440e-01 3.094512e-01 5.403566e-01 4.343635e-01 2.219070e-01 -1.509187e-02 -1.552677e-02 -2.312491e-01 2.958072e-02 2.301430e-03 -1.365363e-02 -1.154604e-02 2.317628e-02 6.153934e-02 5.297426e-02 3.985795e-02 6.124898e-02 5.455131e-02 6.165013e-02 4.867310e-02 1.797927e-02
<VARIANCE> 39
 3.837240e+00 2.843773e+00 3.374193e+00 4.531268e+00 5.176611e+00 7.506919e+00 1.162563e+01 1.502359e+01 1.259910e+01 1.191080e+01 1.119459e+01 8.820947e+00 1.105148e+00 1.224985e-01 1.727223e-01 3.479151e-01 4.206082e-01 5.496791e-01 7.578174e-01 8.328884e-01 7.252225e-01 8.667669e-01 1.260601e+00 1.427387e+00 9.517164e-01 4.358943e-02 2.203211e-02 3.284261e-02 7.328944e-02 9.201449e-02 1.168930e-01 1.631917e-01 1.722869e-01 1.682721e-01 1.998329e-01 2.668996e-01 3.051149e-01 1.762256e-01 7.847317e-03
<GCONST> 5.499292e+01
<STATE> 3
<MEAN> 39
 -1.465321e+01 2.854170e+00 4.980683e-01 6.380792e-01 1.240640e+00 -3.229486e-01 1.383777e+00 -1.934619e+00 1.371811e+00 -9.671265e-01 2.885847e+00 6.905646e-01 5.437679e+01 -2.404230e-01 -2.314044e-01 -1.325033e-01 3.475849e-02 1.981256e-01 2.098414e-01 3.815229e-01 3.445065e-01 2.240781e-01 8.792495e-02 -1.675406e-02 4.110207e-02 -1.158966e-01 4.149957e-02 4.718808e-02 3.962195e-02 1.122340e-02 1.758223e-02 1.436639e-02 3.666283e-03 3.560423e-02 1.884277e-02 -9.477469e-04 -2.633034e-02 -3.721765e-02 1.898783e-02
<VARIANCE> 39
 9.135490e-01 1.395183e+00 2.828682e+00 5.354202e+00 7.074764e+00 7.817476e+00 8.853222e+00 8.700349e+00 8.196868e+00 6.693375e+00 9.637450e+00 7.863736e+00 6.052197e-01 1.236660e-01 2.282603e-01 3.730144e-01 6.034027e-01 7.412201e-01 6.512687e-01 7.880791e-01 1.168899e+00 9.737256e-01 7.914342e-01 1.089188e+00 8.764263e-01 3.774642e-02 2.187837e-02 4.879434e-02 7.754471e-02 1.303783e-01 1.654281e-01 1.385254e-01 1.621740e-01 2.366537e-01 1.777191e-01 1.554743e-01 2.306930e-01 1.627055e-01 7.284084e-03
<GCONST> 5.110600e+01
<STATE> 4
<MEAN> 39
 -1.592852e+01 1.653587e+00 8.068192e-02 1.092321e+00 2.668607e+00 1.439003e+00 3.745841e+00 8.282850e-01 3.455393e+00 4.232647e-01 3.456928e+00 6.314896e-01 5.371241e+01 -4.130374e-02 -4.479717e-02 -3.291361e-02 -4.404793e-02 -2.339579e-02 6.127432e-03 2.100831e-02 4.387082e-02 5.804904e-02 4.735814e-02 3.948690e-02 -1.973007e-05 -2.035980e-02 6.489831e-03 6.421641e-04 -1.144852e-02 -8.130010e-03 -7.837260e-03 -8.155735e-03 -1.368930e-02 -2.613872e-02 -1.576542e-02 8.290528e-04 3.238187e-03 -1.690514e-03 3.243278e-03
<VARIANCE> 39
 6.874325e-01 1.280792e+00 2.349794e+00 3.564386e+00 4.865793e+00 6.162948e+00 7.880200e+00 7.688748e+00 8.216230e+00 9.687932e+00 8.725035e+00 8.712011e+00 6.052197e-01 6.180456e-02 1.330902e-01 2.659644e-01 4.299261e-01 5.510778e-01 7.714508e-01 8.039893e-01 8.301654e-01 9.871663e-01 1.130909e+00 9.509048e-01 8.270708e-01 2.001415e-02 1.300300e-02 2.758663e-02 5.756912e-02 8.987048e-02 1.104156e-01 1.564013e-01 1.687711e-01 1.799917e-01 2.161778e-01 2.357702e-01 1.918506e-01 1.625795e-01 4.606481e-03
<GCONST> 4.454120e+01
<TRANSP> 5
 0.000000e+00 1.000000e+00 0.000000e+00 0.000000e+00 0.000000e+00
 0.000000e+00 8.978871e-01 1.021130e-01 0.000000e+00 0.000000e+00
 0.000000e+00 0.000000e+00 8.511544e-01 1.488456e-01 0.000000e+00
 0.000000e+00 0.000000e+00 0.000000e+00 9.511175e-01 4.888248e-02
 0.000000e+00 0.000000e+00 0.000000e+00 0.000000e+00 0.000000e+00
<ENDHMM>
~h "s0"
<BEGINHMM>
<NUMSTATES> 5
<STATE> 2
<MEAN> 39
 -1.137992e+01 8.889634e+00 1.010575e-01 -6.718767e+00 6.717761e+00 2.890637e+00 -5.502254e+00 -7.289536e+00 3.650711e+00 -5.076404e+00 7.604400e-01 -4.332443e+00 7.302019e+01 6.912313e-01 -2.060082e-01 -1.261132e+00 -1.489492e+00 -9.178035e-01 1.937492e+00 1.224600e+00 2.890821e-01 2.853434e-01 1.042873e-01 5.301654e-01 9.087499e-01 -2.330120e-01 3.827658e-01 -1.537095e-01 6.576237e-02 -1.244076e-01 -5.037127e-01 7.471326e-02 2.804580e-01 -2.176680e-02 1.106915e-01 -1.091762e-01 -1.606373e-01 1.757866e-01 3.747349e-02
<VARIANCE> 39
 4.190769e+01 1.257167e+01 4.171782e+01 2.983493e+01 3.364572e+01 4.666587e+01 3.302491e+01 1.965429e+01 2.664361e+01 1.924653e+01 1.666471e+01 4.502031e+01 4.376983e+00 8.545418e+00 1.755680e+00 1.922059e+00 2.108079e+00 5.274355e+00 2.418066e+00 2.516061e+00 1.997898e+00 4.850929e+00 2.822729e+00 2.630587e+00 3.763470e+00 4.805163e-01 7.729129e-01 3.405033e-01 3.446730e-01 3.366942e-01 5.366282e-01 5.697921e-01 6.975386e-01 4.122660e-01 8.712298e-01 6.289954e-01 4.367603e-01 5.910906e-01 8.022985e-02
<GCONST> 1.152880e+02
<STATE> 3
<MEAN> 39
 4.630995e+00 5.073438e+00 -6.389003e+00 -2.078423e+01 -7.919734e+00 1.735231e+01 6.342598e+00 -3.599578e+00 7.610578e+00 -7.246079e+00 -4.276815e-01 4.474919e+00 7.183199e+01 4.597400e-01 1.385461e-01 1.490153e-01 2.783634e-01 -6.189682e-02 -1.858353e-01 5.550197e-01 7.498940e-01 -1.155578e+00 -8.799545e-01 -3.978358e-01 -3.882154e-01 -8.833728e-01 -6.147237e-01 2.658777e-01 4.074825e-01 9.066935e-01 7.001126e-01 -7.833448e-01 -4.084241e-01 -3.780974e-02 -2.749708e-01 4.950452e-02 6.795317e-02 -2.122306e-01 -2.815653e-01
<VARIANCE> 39
 2.606337e+00 3.451597e+00 9.006064e+00 6.405330e+00 1.144854e+01 9.232013e+00 7.316759e+00 7.894387e+00 1.164085e+01 7.640879e+00 1.179677e+01 1.670726e+01 3.659220e+00 1.159598e+00 9.691597e-01 1.072422e+00 4.794202e+00 2.922600e+00 3.276798e+00 9.505470e-01 1.012118e+00 9.843799e-01 7.788548e-01 7.520078e-01 1.242892e+00 4.177746e-01 8.871334e-02 1.225882e-01 1.508625e-01 2.601656e-01 2.510470e-01 2.371307e-01 1.304240e-01 2.335961e-01 4.770681e-01 1.857364e-01 1.806201e-01 4.014027e-01 2.123395e-02
<GCONST> 7.751221e+01
<STATE> 4
<MEAN> 39
 1.558437e+00 9.991998e+00 1.365129e-01 -9.848920e+00 -2.548206e+00 9.137373e+00 4.450512e+00 -8.491308e-01 2.498899e+00 -1.064327e+01 -1.166307e+00 2.836538e+00 6.480612e+01 -9.209992e-01 8.613361e-01 1.397791e+00 2.050590e+00 9.309043e-01 -1.256016e+00 -4.670973e-01 1.861677e-01 -4.217137e-01 1.485796e-01 1.333896e-01 -3.581678e-01 -1.109873e+00 -7.260135e-03 -2.298788e-01 -2.685781e-01 -2.234414e-01 -6.297110e-02 3.576300e-01 2.735577e-01 -4.690551e-02 6.614952e-02 3.367802e-01 1.139151e-02 -1.251568e-01 1.503614e-01
<VARIANCE> 39
 2.087663e+00 3.153262e+00 9.958515e+00 9.372620e+00 5.723262e+00 9.158949e+00 6.098752e+00 5.586864e+00 5.155978e+00 5.266868e+00 6.036212e+00 5.608670e+00 2.815203e+00 1.458336e-01 3.142168e-01 7.198509e-01 7.603399e-01 6.168603e-01 1.010103e+00 8.472306e-01 5.632580e-01 5.939265e-01 8.337157e-01 5.356158e-01 1.093950e+00 1.346204e-01 2.381876e-02 3.805080e-02 1.081982e-01 1.277523e-01 1.306189e-01 9.543598e-02 1.439598e-01 1.689182e-01 1.320261e-01 1.067829e-01 9.837171e-02 1.769799e-01 1.465891e-02
<GCONST> 5.337915e+01
<TRANSP> 5
 0.000000e+00 1.000000e+00 0.000000e+00 0.000000e+00 0.000000e+00
 0.000000e+00 9.117555e-01 8.824449e-02 0.000000e+00 0.000000e+00
 0.000000e+00 0.000000e+00 8.260906e-01 1.739094e-01 0.000000e+00
 0.000000e+00 0.000000e+00 0.000000e+00 7.909675e-01 2.090326e-01
 0.000000e+00 0.000000e+00 0.000000e+00 0.000000e+00 0.000000e+00
<ENDHMM>
~h "uu"
<BEGINHMM>
<NUMSTATES> 5
<STATE> 2
<MEAN> 39
 -1.773119e+01 -5.600518e+00 1.064189e+00 -8.899480e+00 -1.559561e+00 2.635373e+00 -2.703935e+00 7.539003e-01 3.062130e-01 -7.328745e-01 6.160189e+00 -2.026777e+00 6.329457e+01 -2.083692e+00 -1.334098e-01 7.807366e-01 -9.323150e-01 -6.500307e-01 5.016098e-01 -1.257102e+00 -2.932653e-01 6.414652e-01 -8.476238e-01 5.767623e-01 -5.392069e-01 2.031377e+00 -5.827374e-02 8.191081e-01 3.402182e-01 6.085418e-01 -1.063312e-01 -9.402337e-02 2.380381e-01 -2.871439e-01 9.014534e-01 1.013974e-01 -2.938805e-01 7.935507e-02 -2.236780e-01
<VARIANCE> 39
 1.818153e+01 3.470741e+01 1.202055e+01 4.608949e+01 3.530043e+01 2.192453e+01 3.528278e+01 2.798412e+01 1.917953e+01 3.195815e+01 1.110164e+01 4.101736e+01 4.450515e+01 3.268860e+00 1.195269e+00 6.354010e-01 2.537583e+00 2.361052e+00 1.250796e+00 1.690055e+00 1.162117e+00 2.799531e+00 1.543597e+00 1.667798e+00 1.560964e+00 2.248367e+00 9.051844e-01 1.876856e-01 3.179246e-01 7.087817e-01 1.126347e+00 3.374746e-01 6.675865e-01 5.289898e-01 4.506239e-01 5.635038e-01 4.227140e-01 3.791723e-01 3.734195e-01
<GCONST> 1.116948e+02
<STATE> 3
<MEAN> 39
 -2.477204e+01 -6.056080e+00 3.526941e+00 -9.941479e+00 -2.258706e+00 4.916717e+00 -7.184415e+00 -2.874024e+00 7.011730e+00 -2.025172e+00 9.366992e+00 -3.997694e+00 7.042887e+01 1.347578e+00 1.116897e+00 6.130136e-01 6.963330e-01 5.808857e-01 3.819308e-01 -8.143618e-01 -1.379173e+00 5.615524e-01 -3.223127e-01 -3.481503e-01 1.964589e-01 7.075042e-01 1.223333e+00 4.404961e-01 1.707373e-01 1.847919e-01 -1.214904e-01 4.046176e-03 1.415363e-01 -2.352047e-01 -3.611527e-01 -1.428941e-01 -5.010173e-01 1.995721e-01 -7.812196e-02
<VARIANCE> 39
 1.869147e+01 1.158966e+01 9.940152e+00 3.058123e+01 4.858404e+01 2.362082e+01 3.270090e+01 2.948935e+01 1.464495e+01 1.657817e+01 1.473053e+01 3.839641e+01 4.404318e+01 6.852009e+00 1.800013e+00 1.436902e+00 2.158789e+00 4.545852e+00 2.378177e+00 1.559350e+00 1.326920e+00 2.597601e+00 1.418266e+00 1.807495e+00 1.628551e+00 8.116800e-01 1.156613e-01 2.460473e-01 3.695416e-01 3.972386e-01 1.327199e+00 4.614335e-01 2.694473e-01 4.211271e-01 4.525100e-01 3.270913e-01 2.681927e-01 2.471081e-01 3.267125e-01
<GCONST> 1.073438e+02
<STATE> 4
<MEAN> 39
 -7.345065e+00 3.232727e+00 6.566092e+00 -3.191956e+00 4.319988e-01 6.064757e+00 -6.473828e+00 -8.359580e+00 2.867081e+00 -6.805434e+00 3.918711e+00 -9.900188e-02 7.102460e+01 4.230300e+00 1.466149e+00 9.499340e-01 -7.652956e-02 -2.880656e+00 -6.507490e-01 7.713585e-01 -1.605364e+00 -1.346866e+00 -1.166899e+00 -2.327504e+00 2.480509e-01 1.125941e+00 -4.486678e-01 -5.363186e-01 -1.247010e-01 -6.287164e-01 -8.504514e-01 5.496240e-02 3.167409e-01 -9.136380e-02 -4.148850e-02 3.793407e-01 -1.631311e-01 -2.889845e-01 7.748583e-02
<VARIANCE> 39
 3.314838e+01 3.976130e+00 1.290827e+01 1.174001e+01 3.475700e+01 1.652813e+01 3.107851e+01 2.606218e+01 9.264448e+00 2.400591e+01 1.268816e+01 1.444352e+01 7.542618e+01 2.243974e+00 3.428312e+00 2.684961e+00 1.898669e+00 3.824036e+00 9.441996e-01 3.729772e+00 2.964847e+00 4.025862e+00 2.103251e+00 1.307802e+00 1.391127e+00 9.623929e-01 8.915126e-01 4.157442e-01 3.145664e-01 8.635014e-02 9.162030e-01 4.145297e-01 2.318515e-01 3.968324e-01 3.503277e-01 2.980819e-01 3.831660e-01 1.866291e-01 2.077262e-01
<GCONST> 1.051997e+02
<TRANSP> 5
 0.000000e+00 1.000000e+00 0.000000e+00 0.000000e+00 0.000000e+00
 0.000000e+00 4.177601e-01 5.822399e-01 0.000000e+00 0.000000e+00
 0.000000e+00 0.000000e+00 7.427276e-01 2.572724e-01 0.000000e+00
 0.000000e+00 0.000000e+00 0.000000e+00 5.729382e-01 4.270618e-01
 0.000000e+00 0.000000e+00 0.000000e+00 0.000000e+00 0.000000e+00
<ENDHMM>
~h "vv"
<BEGINHMM>
<NUMSTATES> 5
<STATE> 2
<MEAN> 39
 2.669052e+00 8.362651e+00 3.474862e+00 -2.841139e+00 -2.897628e+00 -1.116683e+00 1.842545e+00 -2.838140e+00 5.994859e-01 -1.036405e+01 -5.617932e-01 2.964979e+00 6.801228e+01 -6.788476e-01 3.189372e-01 3.047079e-01 3.026246e-01 9.438632e-01 -2.815350e-01 -7.520967e-01 -2.466908e-01 -1.689333e-01 -1.062405e-01 3.578921e-01 -1.059540e-01 -3.874883e-01 -2.224413e-01 -8.682252e-02 3.497178e-02 -3.310801e-01 7.656697e-02 1.653129e-01 6.169746e-02 -7.287098e-02 5.288570e-02 1.299420e-01 -9.407537e-02 -1.470291e-01 1.135354e-01
<VARIANCE> 39
 1.551172e+01 8.618213e+00 5.176630e+00 1.469701e+01 1.766546e+01 8.546589e+00 1.405940e+01 1.023313e+01 1.099138e+01 2.373162e+01 1.365612e+01 6.885597e+00 1.702101e+01 9.808956e-01 5.442557e-01 9.213449e-01 2.840242e+00 1.536321e+00 1.126783e+00 1.256423e+00 1.004907e+00 1.269541e+00 1.781453e+00 1.269461e+00 1.136284e+00 2.540682e-01 2.313816e-01 7.830696e-02 1.763776e-01 2.302990e-01 2.201456e-01 1.255520e-01 2.480827e-01 1.737832e-01 2.987121e-01 2.432650e-01 2.420677e-01 1.750221e-01 8.869930e-02
<GCONST> 8.260857e+01
<STATE> 3
<MEAN> 39
 -1.371134e+01 6.743494e+00 1.138331e+01 -9.559352e+00 7.906816e+00 3.582274e+00 -5.489406e+00 -6.201649e+00 4.647910e+00 -4.807424e+00 -2.536044e+00 -3.463916e+00 6.886211e+01 -8.415938e-01 -6.739227e-01 9.055084e-01 -3.943466e-02 -2.281653e-01 -1.551721e-01 -1.503500e+00 -7.435932e-01 5.726030e-01 2.960121e-01 -7.441372e-01 -3.555297e-01 6.550929e-01 7.176905e-01 1.870343e-02 -2.337421e-01 5.412230e-01 -4.152575e-01 -2.400942e-01 9.004246e-02 8.013403e-02 -1.270349e-01 -1.006995e-01 1.555579e-02 2.560376e-01 -6.550396e-02
<VARIANCE> 39
 3.449576e+01 1.184568e+01 4.101402e+01 3.296100e+01 3.147099e+01 2.004893e+01 3.378962e+01 2.478550e+01 2.990448e+01 1.572877e+01 1.923350e+01 3.781507e+01 3.755654e+01 9.477306e+00 7.822412e-01 1.975413e+00 4.243163e+00 3.631760e+00 3.150560e+00 1.667604e+00 1.540733e+00 2.255993e+00 1.515927e+00 1.072627e+00 3.186430e+00 6.187437e-01 6.512915e-01 1.525657e-01 2.505770e-01 4.484968e-01 4.337331e-01 4.233761e-01 4.370051e-01 3.026391e-01 2.785687e-01 2.903336e-01 2.496579e-01 4.507007e-01 6.055277e-02
<GCONST> 1.082182e+02
<STATE> 4
<MEAN> 39
 -3.833327e+00 4.038083e+00 1.221017e+01 7.000965e-02 -1.266115e+00 -8.027207e-01 -8.310326e+00 -9.893270e+00 6.638052e+00 -4.950421e+00 -5.820566e+00 -6.986721e-01 6.904347e+01 3.850220e-01 2.564990e-02 -2.362796e-01 9.246441e-01 -4.886531e-01 -1.528322e-01 4.532978e-01 -2.186437e-02 -2.538499e-01 -3.276680e-01 2.168358e-02 3.070925e-01 -8.401701e-01 -2.992681e-01 1.054294e-01 3.586598e-02 -2.258485e-02 3.073543e-01 2.051237e-01 1.779620e-01 2.317133e-01 -1.685001e-02 3.550168e-02 1.242954e-01 -2.537361e-02 -1.312226e-01
<VARIANCE> 39
 1.204835e+01 7.887156e+00 2.941936e+01 1.344831e+01 1.246315e+01 4.691238e+00 1.802940e+01 1.057180e+01 3.056959e+01 8.270736e+00 2.360004e+01 1.296337e+01 3.604718e+01 1.634228e+00 1.049819e+00 3.473612e-01 8.391162e-01 1.534456e+00 6.756504e-01 8.068288e-01 1.012588e+00 8.397211e-01 7.968223e-01 1.092253e+00 5.293446e-01 3.040790e-01 7.540387e-02 1.082556e-01 8.350630e-02 1.102431e-01 9.264579e-02 1.175859e-01 2.214691e-01 1.775968e-01 1.841740e-01 1.643119e-01 1.850625e-01 1.121319e-01 2.204896e-02
<GCONST> 7.493346e+01
<TRANSP> 5
 0.000000e+00 1.000000e+00 0.000000e+00 0.000000e+00 0.000000e+00
 0.000000e+00 8.215220e-01 1.784780e-01 0.000000e+00 0.000000e+00
 0.000000e+00 0.000000e+00 6.977924e-01 3.022076e-01 0.000000e+00
 0.000000e+00 0.000000e+00 0.000000e+00 7.583048e-01 2.416952e-01
 0.000000e+00 0.000000e+00 0.000000e+00 0.000000e+00 0.000000e+00
<ENDHMM>
~h "wa"
<BEGINHMM>
<NUMSTATES> 5
<STATE> 2
<MEAN> 39
 -1.643222e+01 -8.184379e+00 1.451160e+00 -1.751899e+01 -2.668293e+00 -3.794228e+00 -8.769053e+00 3.474649e+00 -1.312932e+00 -4.000097e+00 7.884426e+00 -7.252897e-01 6.901621e+01 -1.846175e+00 -4.234356e-01 1.823120e+00 -3.070086e+00 1.369891e-01 -1.344926e-01 -3.000289e+00 -7.485940e-01 -5.645043e-01 5.481579e-01 9.406375e-01 2.855604e-01 2.984586e+00 1.902390e-01 8.585135e-01 -4.151116e-01 1.162251e+00 7.629581e-01 7.897698e-01 8.637530e-01 -5.956061e-01 2.716579e-01 8.683086e-01 -1.860283e-01 4.670401e-01 -1.026190e+00
<VARIANCE> 39
 2.218570e+01 3.786714e+00 2.397810e+01 1.488777e+01 2.873256e+01 1.336604e+01 1.542299e+01 1.450114e+01 1.285157e+01 2.551690e+01 1.031236e+01 2.545615e+01 7.571095e+00 8.414163e-01 1.513154e+00 8.958413e-01 3.196956e+00 2.476857e+00 1.855612e+00 2.239115e+00 3.111714e+00 1.355438e+00 2.020228e+00 9.618501e-01 1.546132e+00 1.806101e+00 8.172306e-01 1.205664e-01 6.463536e-01 2.558901e-01 4.022259e-01 2.308753e-01 3.776395e-01 4.047844e-01 2.643706e-01 4.992959e-01 3.611991e-01 2.246184e-01 1.986391e-01
<GCONST> 9.896512e+01
<STATE> 3
<MEAN> 39
 -9.103418e+00 -2.252202e+00 -2.091698e+00 -1.935376e+01 -1.360453e+00 3.267922e+00 -6.753324e+00 -1.471681e-01 4.953756e-01 -7.362057e-01 5.405592e+00 2.593527e+00 7.078972e+01 3.522166e+00 1.097638e+00 -1.138944e+00 -1.472190e-01 -1.967260e+00 1.510814e+00 1.748668e+00 -9.914830e-02 1.311357e+00 -8.227006e-01 -1.723827e+00 3.450114e-01 6.629877e-01 4.055272e-01 -2.590656e-01 -6.971737e-02 2.129287e-01 -7.577105e-01 1.113293e-01 4.082188e-01 1.476089e-01 3.396758e-01 -3.977261e-01 -3.235652e-01 -7.812273e-02 9.474538e-02
<VARIANCE> 39
 9.043826e+01 2.731604e+01 2.613590e+01 8.319690e+00 4.433587e+01 2.038379e+01 4.075954e+01 1.611264e+01 3.477736e+01 1.969481e+01 3.894098e+01 2.446714e+01 6.662818e+00 3.608272e+00 2.801168e+00 2.005715e+00 8.973668e-01 6.917560e+00 1.117848e+00 3.260933e+00 2.438474e+00 5.289437e+00 3.465529e+00 3.884373e+00 1.492673e+00 1.607073e+00 1.396388e+00 9.002451e-01 6.121311e-01 2.759470e-01 5.018075e-01 1.996084e-01 9.946234e-01 5.697001e-01 1.005893e+00 4.890814e-01 8.152119e-01 3.414047e-01 4.686595e-01
<GCONST> 1.184460e+02
<STATE> 4
<MEAN> 39
 1.728546e+00 -2.849902e+00 -8.000971e-01 -1.032609e+01 -7.801985e+00 4.365502e+00 -7.176208e+00 -1.190484e+01 8.852079e+00 -3.596834e+00 -3.715020e+00 5.536391e+00 7.593039e+01 -7.705661e-02 3.580368e-02 1.548283e-01 1.762602e-01 1.142418e-01 -3.060073e-02 -9.332414e-02 -4.705949e-01 -2.382199e-01 3.721101e-02 3.021886e-01 1.876475e-01 -4.164694e-02 -1.474753e-02 1.625184e-02 -3.095235e-03 -2.542841e-02 6.155400e-02 9.813306e-03 -1.086937e-02 1.125136e-02 -3.282855e-02 5.315136e-03 6.849603e-02 3.741901e-02 -5.350842e-02
<VARIANCE> 39
 5.589179e+01 3.476153e+01 2.355881e+01 6.399558e+01 8.851395e+01 6.067790e+01 5.971796e+01 6.191076e+01 3.046947e+01 3.419103e+01 3.169945e+01 3.239933e+01 2.124507e+01 4.616091e+00 1.961736e+00 1.652867e+00 3.757947e+00 4.633507e+00 3.215853e+00 2.591904e+00 2.890255e+00 2.739146e+00 3.857987e+00 2.351685e+00 2.460188e+00 1.105272e+00 8.033335e-01 2.725801e-01 3.339221e-01 6.032832e-01 6.222392e-01 3.843961e-01 2.938980e-01 4.577887e-01 6.062841e-01 6.583989e-01 4.610060e-01 4.201514e-01 1.553913e-01
<GCONST> 1.222899e+02
<TRANSP> 5
 0.000000e+00 1.000000e+00 0.000000e+00 0.000000e+00 0.000000e+00
 0.000000e+00 6.020489e-01 3.979512e-01 0.000000e+00 0.000000e+00
 0.000000e+00 0.000000e+00 8.562912e-01 1.437088e-01 0.000000e+00
 0.000000e+00 0.000000e+00 0.000000e+00 9.700402e-01 2.995980e-02
 0.000000e+00 0.000000e+00 0.000000e+00 0.000000e+00 0.000000e+00
<ENDHMM>
~h "we"
<BEGINHMM>
<NUMSTATES> 5
<STATE> 2
<MEAN> 39
 -9.460745e-01 1.222382e+01 1.198032e+01 -6.351263e+00 -1.706090e+01 1.921093e-01 -2.513437e+00 -1.232955e+01 1.012372e+01 1.644331e+00 -8.963683e+00 -1.157266e+00 6.317584e+01 4.193250e+00 1.659982e+00 2.842130e+00 -2.669597e+00 -5.656367e+00 2.104630e+00 6.463290e-02 -4.091593e+00 1.499644e+00 2.144849e-01 -3.967331e+00 -1.816038e-01 3.104983e+00 -8.003896e-01 -9.255458e-01 -6.925160e-01 1.755193e-01 1.135343e+00 8.564414e-01 5.880845e-01 6.780130e-01 -3.552778e-01 -1.671020e-01 6.273762e-01 1.636963e-01 -2.849185e-01
<VARIANCE> 39
 1.679957e+01 4.274565e+00 7.712524e+00 1.400484e+01 3.526700e+01 1.910907e+01 8.380030e+00 2.223540e+01 1.212332e+01 7.288801e+00 2.502946e+01 6.348101e+00 9.080183e+00 1.891888e+00 2.266886e+00 1.969748e+00 4.894468e-01 3.883445e+00 2.720024e+00 2.411011e+00 1.704811e+00 1.502445e+00 1.049203e+00 1.669850e+00 9.691374e-01 4.818599e-01 4.415461e-01 1.081207e-01 1.738309e-01 2.853915e-01 1.010600e+00 3.894639e-01 2.836753e-01 5.443923e-01 3.386352e-01 1.981828e-01 6.380318e-01 1.571347e-01 2.072524e-01
<GCONST> 9.410535e+01
<STATE> 3
<MEAN> 39
 4.058812e+00 1.157323e+01 1.236444e+01 -1.125355e+01 -1.946654e+01 6.159374e+00 -9.018528e-01 -1.275819e+01 8.401224e+00 -2.053734e+00 -1.159827e+01 -4.669026e+00 6.899801e+01 2.792942e-01 -1.518287e-02 -7.379541e-01 -2.536214e-01 3.664950e-01 -2.857996e-01 4.881428e-01 4.985993e-01 -7.101225e-01 -8.120379e-01 -2.234347e-01 -3.211005e-01 3.697924e-01 -1.423259e-01 -1.217826e-01 -3.127970e-01 1.738528e-01 2.670236e-01 -1.611463e-01 1.460792e-02 -7.051316e-02 -6.401006e-02 -1.097591e-01 1.818580e-01 2.420879e-01 -6.150530e-02
<VARIANCE> 39
 2.007927e+00 2.955724e+00 1.466480e+01 4.600472e+00 2.311027e+01 1.413200e+01 2.109023e+01 2.284221e+01 2.148100e+01 1.884935e+01 1.436583e+01 1.715701e+01 1.047594e+00 2.199197e-01 3.560532e-01 1.075039e+00 5.134047e-01 9.357594e-01 1.607334e+00 2.216046e+00 1.930336e+00 1.568300e+00 1.496988e+00 2.170073e+00 1.439290e+00 2.845299e-01 1.822079e-01 1.235913e-01 1.176463e-01 1.692068e-01 5.389208e-01 3.471734e-01 4.248933e-01 9.742147e-01 3.377492e-01 2.511403e-01 7.486509e-01 4.069927e-01 1.356171e-01
<GCONST> 8.472693e+01
<STATE> 4
<MEAN> 39
 -2.090253e-01 3.503776e+00 1.184491e+00 -6.759776e+00 -4.007256e+00 2.502250e+00 -1.091080e+01 -2.255363e+01 7.931852e+00 -3.671734e+00 -3.183525e+00 2.901743e+00 7.350726e+01 -1.260101e-01 -3.106475e-01 -1.832262e-01 -1.306133e-01 4.586908e-01 2.859642e-01 -3.745342e-01 -4.404683e-01 -4.878495e-03 2.558476e-01 9.480353e-01 6.044062e-01 5.443860e-02 1.034645e-01 5.263392e-02 7.284734e-02 -5.373862e-02 -1.451448e-01 6.518291e-02 4.195112e-02 1.542902e-01 2.992171e-02 4.356615e-02 2.447044e-02 -5.655109e-02 -5.990690e-02
<VARIANCE> 39
 7.426144e+01 2.463921e+01 1.912892e+01 4.599646e+01 7.179292e+01 1.933656e+01 8.530331e+01 4.819620e+01 4.788187e+01 2.862539e+01 3.908412e+01 2.196553e+01 1.508290e+01 7.939971e+00 3.418105e+00 2.740365e+00 4.406051e+00 5.545510e+00 2.260998e+00 7.455256e+00 6.152783e+00 4.534415e+00 4.206726e+00 3.897538e+00 3.642612e+00 1.592822e+00 1.227857e+00 4.671358e-01 4.044449e-01 6.672683e-01 6.718851e-01 4.082503e-01 1.005229e+00 7.613613e-01 7.405526e-01 9.746042e-01 9.957729e-01 6.198497e-01 2.177340e-01
<GCONST> 1.306719e+02
<TRANSP> 5
 0.000000e+00 1.000000e+00 0.000000e+00 0.000000e+00 0.000000e+00
 0.000000e+00 6.355652e-01 3.644347e-01 0.000000e+00 0.000000e+00
 0.000000e+00 0.000000e+00 9.217103e-01 7.828969e-02 0.000000e+00
 0.000000e+00 0.000000e+00 0.000000e+00 9.542900e-01 4.571000e-02
 0.000000e+00 0.000000e+00 0.000000e+00 0.000000e+00 0.000000e+00
<ENDHMM>
~h "sil"
<BEGINHMM>
<NUMSTATES> 5
<STATE> 2
<MEAN> 39
 -1.560668e+01 1.547881e+00 -9.432077e-01 2.720794e-01 2.993740e+00 1.696670e+00 3.802770e+00 2.040052e-01 3.575531e+00 5.676477e-01 3.748208e+00 5.546170e-01 5.456388e+01 -6.513021e-02 -3.314545e-02 3.184579e-02 4.200386e-02 -2.535796e-02 7.325738e-03 2.062349e-02 4.272572e-02 7.223953e-04 3.384111e-02 7.227832e-03 6.761360e-02 -6.720176e-02 1.570962e-02 2.124879e-02 4.984546e-02 3.885397e-02 -1.189309e-02 -7.967823e-03 -2.873582e-03 3.776361e-02 1.864517e-02 8.926284e-03 -2.995926e-03 -1.748679e-02 -1.809932e-02
<VARIANCE> 39
 3.456575e+00 4.161171e+00 8.423263e+00 8.921660e+00 8.504841e+00 1.084079e+01 1.166394e+01 1.284974e+01 1.163702e+01 1.069866e+01 1.115026e+01 9.287602e+00 5.106119e+00 3.952192e-01 4.350956e-01 1.047512e+00 1.001026e+00 9.255388e-01 1.216028e+00 1.158250e+00 1.452950e+00 1.137768e+00 1.075482e+00 1.035457e+00 9.644762e-01 6.929263e-01 7.759257e-02 8.836254e-02 2.055851e-01 1.965302e-01 1.773810e-01 2.459404e-01 2.095412e-01 2.885930e-01 2.145941e-01 2.085318e-01 1.961577e-01 1.801780e-01 1.469996e-01
<GCONST> 7.555500e+01
<STATE> 3
<MEAN> 39
 -1.635998e+01 1.285961e+00 -7.260203e-02 1.219655e+00 3.040522e+00 1.925664e+00 4.406560e+00 1.580112e+00 4.353847e+00 1.255115e+00 4.149254e+00 1.163643e+00 5.352318e+01 -2.838665e-03 -4.289947e-03 1.254183e-03 8.216305e-03 1.295784e-03 9.488397e-03 4.206414e-03 1.549546e-02 8.116553e-03 6.040729e-03 9.701941e-03 1.069443e-02 -4.151318e-03 2.855650e-03 1.674799e-03 -3.950076e-03 -5.696051e-03 2.274956e-05 -3.123310e-03 -2.594862e-03 -7.214476e-03 -6.085621e-03 -4.602858e-03 -5.670318e-04 -3.698285e-03 3.683787e-03
<VARIANCE> 39
 8.345888e-01 1.499168e+00 2.649657e+00 4.138704e+00 5.403497e+00 6.604867e+00 7.836918e+00 8.585606e+00 9.046555e+00 9.242447e+00 9.305126e+00 8.418567e+00 6.052197e-01 7.239703e-02 1.597494e-01 2.809693e-01 4.270961e-01 5.766559e-01 7.054538e-01 8.647463e-01 9.275854e-01 9.916781e-01 9.664411e-01 9.547067e-01 9.194303e-01 2.076601e-02 1.509004e-02 3.339094e-02 5.814999e-02 8.783296e-02 1.186355e-01 1.462703e-01 1.808579e-01 1.892644e-01 2.056438e-01 2.003343e-01 1.988410e-01 1.918086e-01 4.400360e-03
<GCONST> 4.643692e+01
<STATE> 4
<MEAN> 39
 -1.596877e+01 1.224189e+00 -5.779126e-01 7.034908e-01 2.936793e+00 1.892290e+00 3.950706e+00 8.422880e-01 3.654076e+00 7.507625e-01 3.982644e+00 1.158452e+00 5.385413e+01 1.076501e-03 1.299569e-02 1.057072e-02 -6.601184e-03 -3.786225e-02 -3.729034e-02 3.098370e-02 2.555139e-02 1.018459e-02 3.823997e-03 -1.194569e-02 2.211934e-02 -9.012898e-04 5.345761e-03 -5.094660e-03 7.027300e-03 -1.592778e-02 -1.864914e-02 -1.286007e-03 8.867935e-03 1.945204e-02 1.007276e-02 2.388902e-03 -1.579767e-03 6.316116e-04 7.122898e-03
<VARIANCE> 39
 1.702470e+00 2.306229e+00 5.511003e+00 5.718594e+00 6.430325e+00 7.700552e+00 1.002684e+01 1.046810e+01 1.136885e+01 9.800961e+00 9.007012e+00 8.221129e+00 7.542230e-01 2.078119e-01 2.650836e-01 7.262891e-01 7.152168e-01 7.051743e-01 8.249628e-01 1.140873e+00 1.271529e+00 1.245531e+00 1.136944e+00 1.023022e+00 9.397777e-01 1.015041e-01 4.695979e-02 6.066286e-02 1.608292e-01 1.516766e-01 1.469966e-01 1.638823e-01 2.320978e-01 2.510867e-01 2.491458e-01 2.268064e-01 2.037461e-01 1.896650e-01 2.617620e-02
<GCONST> 6.217219e+01
<TRANSP> 5
 0.000000e+00 1.000000e+00 0.000000e+00 0.000000e+00 0.000000e+00
 0.000000e+00 8.019890e-01 1.980110e-01 0.000000e+00 0.000000e+00
 0.000000e+00 0.000000e+00 9.744515e-01 2.554852e-02 0.000000e+00
 0.000000e+00 0.000000e+00 0.000000e+00 8.441694e-01 1.558306e-01
 0.000000e+00 0.000000e+00 0.000000e+00 0.000000e+00 0.000000e+00
<ENDHMM>
