~o
<STREAMINFO> 1 39
<VECSIZE> 39<NULLD><MFCC_D_A_0><DIAGC>
~h "B"
<BEGINHMM>
<NUMSTATES> 5
<STATE> 2
<MEAN> 39
 -1.409209e+01 4.008916e+00 2.490286e+00 3.606246e+00 5.149604e+00 4.007045e+00 6.411667e+00 4.211885e+00 7.570509e+00 4.696406e+00 8.087129e+00 5.362947e+00 5.438187e+01 -4.505125e-02 -8.362372e-02 -8.077211e-02 -8.015270e-02 -9.130946e-02 -2.778516e-02 -7.446041e-03 -2.836250e-02 -6.785509e-02 -4.818172e-02 -5.431136e-02 -4.515602e-02 -1.017107e-02 -1.195766e-02 -1.501037e-02 -1.021009e-02 -2.266295e-03 -1.906101e-02 -2.931553e-02 6.622939e-04 -7.174371e-03 -1.849764e-02 -1.303932e-02 -2.945647e-02 -5.155211e-02 -3.392651e-03
<VARIANCE> 39
 1.838426e+00 3.070747e+00 3.420839e+00 5.206069e+00 3.951506e+00 4.335514e+00 5.982576e+00 6.149245e+00 1.159302e+01 7.339662e+00 9.564031e+00 7.155791e+00 6.052197e-01 3.510675e-02 1.008786e-01 2.634491e-01 3.115621e-01 2.754052e-01 5.269738e-01 5.876540e-01 6.733196e-01 1.064036e+00 8.673085e-01 1.223578e+00 5.600490e-01 1.773999e-02 6.372371e-03 2.110342e-02 5.852007e-02 5.441022e-02 5.352757e-02 1.222609e-01 1.259986e-01 1.333506e-01 2.250631e-01 1.897181e-01 3.015293e-01 1.212389e-01 3.927207e-03
<GCONST> 3.962922e+01
<STATE> 3
<MEAN> 39
 -1.539689e+01 9.509615e-01 -1.603913e+00 -4.009714e-01 2.668324e+00 1.857312e+00 3.581287e+00 -8.182240e-01 2.561401e+00 1.007246e+00 5.771541e+00 2.840266e+00 5.404688e+01 -1.085811e-02 -1.039342e-02 -2.607131e-02 -3.502220e-02 -2.062681e-02 1.836387e-02 -1.067292e-02 5.947191e-02 6.275907e-02 6.436735e-02 2.127974e-03 -1.032019e-02 -4.552266e-03 5.611528e-03 3.107491e-02 3.664949e-02 4.088528e-02 4.673124e-02 2.901470e-02 3.506939e-02 8.090238e-02 6.046055e-02 1.617222e-02 9.674406e-03 1.259569e-02 2.066419e-03
<VARIANCE> 39
 1.183617e+00 2.571803e+00 6.274804e+00 4.520014e+00 7.080007e+00 8.979887e+00 7.207478e+00 1.015100e+01 1.165329e+01 8.122544e+00 9.833066e+00 9.280039e+00 6.052197e-01 9.376689e-02 2.566770e-01 4.999436e-01 5.955719e-01 6.408592e-01 7.074978e-01 9.121147e-01 1.390818e+00 1.434302e+00 9.200985e-01 1.209382e+00 1.033201e+00 4.176899e-02 1.805192e-02 5.660289e-02 1.096258e-01 1.373160e-01 1.374744e-01 1.347938e-01 1.911557e-01 2.984862e-01 3.017804e-01 1.920033e-01 2.632860e-01 2.277507e-01 8.091860e-03
<GCONST> 5.656163e+01
<STATE> 4
<MEAN> 39
 -1.679179e+01 1.033074e+00 2.299052e-01 1.829546e+00 3.600410e+00 2.153303e+00 4.659929e+00 2.043848e+00 4.945215e+00 1.984227e+00 5.042270e+00 1.626464e+00 5.330566e+01 -1.167493e-03 -1.539391e-03 2.047971e-03 9.752801e-03 1.011686e-02 -4.675490e-03 -4.766425e-03 3.063458e-03 -2.149572e-03 1.939147e-03 -6.426285e-03 -1.650560e-02 -8.372109e-04 1.940796e-03 -5.266741e-03 -1.077328e-02 -1.140386e-02 -4.051729e-03 -8.379848e-05 -7.467228e-03 -1.646058e-02 -9.329684e-03 -7.548674e-03 -6.331441e-03 -4.772069e-03 1.795717e-03
<VARIANCE> 39
 6.354403e-01 1.318338e+00 2.328220e+00 3.648153e+00 4.884810e+00 6.557695e+00 6.695441e+00 7.762342e+00 9.069655e+00 9.647317e+00 9.252107e+00 8.110325e+00 6.052197e-01 6.108736e-02 1.384907e-01 2.817496e-01 4.370130e-01 5.954896e-01 7.384874e-01 7.121914e-01 8.770765e-01 1.094551e+00 1.218599e+00 1.131321e+00 9.075271e-01 2.192191e-02 1.257203e-02 2.807684e-02 5.798157e-02 8.679666e-02 1.240729e-01 1.534273e-01 1.457569e-01 1.823308e-01 2.283650e-01 2.614484e-01 2.509112e-01 1.924460e-01 5.120513e-03
<GCONST> 4.572599e+01
<TRANSP> 5
 0.000000e+00 1.000000e+00 0.000000e+00 0.000000e+00 0.000000e+00
 0.000000e+00 9.070833e-01 9.291659e-02 0.000000e+00 0.000000e+00
 0.000000e+00 0.000000e+00 9.305857e-01 6.941427e-02 0.000000e+00
 0.000000e+00 0.000000e+00 0.000000e+00 9.853329e-01 1.466713e-02
 0.000000e+00 0.000000e+00 0.000000e+00 0.000000e+00 0.000000e+00
<ENDHMM>
~h "p"
<BEGINHMM>
<NUMSTATES> 5
<STATE> 2
<MEAN> 39
 -1.649335e+01 1.232563e+00 -8.630551e-01 5.921278e-01 2.645570e+00 8.904517e-01 3.918786e+00 2.137280e+00 4.267879e+00 1.638336e+00 5.203452e+00 1.961899e+00 5.341422e+01 -6.617303e-02 -9.035718e-02 -2.781268e-01 -5.041446e-01 -4.034998e-01 -1.402183e-01 -4.154377e-01 -1.660630e-01 -3.568415e-01 -5.877495e-01 -3.707060e-01 -1.145923e-01 -1.933866e-02 4.986831e-01 -2.966041e-02 -2.704996e-01 -1.656048e-01 2.342273e-01 2.108617e-01 -7.404315e-01 -8.479555e-01 -3.375149e-01 -4.312495e-01 -4.245417e-01 -1.200612e-01 7.881417e-01
<VARIANCE> 39
 9.893339e-01 2.111943e+00 4.238901e+00 6.288033e+00 7.540472e+00 7.786902e+00 1.125813e+01 9.308382e+00 1.547227e+01 9.318784e+00 9.726839e+00 1.198976e+01 6.052197e-01 1.028962e-01 2.297820e-01 3.097947e-01 3.582259e-01 4.373180e-01 6.986828e-01 1.254036e+00 7.835466e-01 1.371282e+00 1.111834e+00 1.011383e+00 1.404802e+00 1.971850e-02 7.297993e-02 4.976387e-02 1.798234e-01 1.741772e-01 2.260086e-01 2.452230e-01 3.499065e-01 1.733477e-01 3.489119e-01 1.999180e-01 2.268352e-01 3.315727e-01 2.345099e-01
<GCONST> 6.187282e+01
<STATE> 3
<MEAN> 39
 -1.605729e+01 1.351326e+00 -7.940757e-01 -3.111567e-01 1.809549e+00 4.512878e-01 3.399713e+00 8.835167e-01 3.464291e+00 -9.340380e-02 2.828107e+00 -1.511633e-02 5.373042e+01 2.107746e+00 -1.614698e-01 -1.258068e+00 -8.360795e-01 9.257680e-01 5.783887e-01 -3.447914e+00 -3.322974e+00 -1.176192e+00 -1.471462e+00 -9.736541e-01 3.593528e-01 3.668609e+00 1.668514e-01 -3.192593e-01 3.660909e-01 4.778896e-01 2.215279e-01 -1.429028e-01 -5.673797e-01 -2.220574e-01 -2.336521e-03 -3.978514e-01 3.641342e-02 3.320819e-01 1.357799e+00
<VARIANCE> 39
 1.243836e+00 1.046988e+00 2.549427e+00 5.394605e+00 6.096063e+00 6.576628e+00 5.879331e+00 8.408637e+00 9.003789e+00 7.123442e+00 6.813995e+00 4.272146e+00 6.052197e-01 2.426564e-01 2.907145e-01 1.211235e+00 1.375515e+00 1.060792e+00 1.709265e+00 2.192328e+00 9.213851e-01 1.664378e+00 1.467949e+00 1.305556e+00 1.823332e+00 2.158030e+00 1.398689e-01 6.135128e-02 2.676991e-01 1.702160e-01 1.408158e-01 1.970637e-01 3.976143e-01 4.416614e-01 2.641091e-01 1.961567e-01 2.835880e-01 1.977216e-01 7.923731e-02
<GCONST> 6.932390e+01
<STATE> 4
<MEAN> 39
 -1.113970e+01 -7.839970e-02 2.364762e+00 1.609327e+00 3.691363e+00 2.434377e-01 -5.804647e+00 -5.594798e+00 2.685048e-01 -5.685065e+00 1.769363e+00 1.564547e+00 7.042502e+01 7.795361e-01 6.854732e-01 2.988824e+00 1.022577e+00 -1.111676e+00 -8.160010e-01 4.380824e-01 -2.141375e-01 2.605557e-01 -2.797080e-01 -1.157897e-02 -1.032840e+00 2.382559e+00 1.129407e-01 4.914718e-01 3.885254e-01 -9.596743e-02 -5.337822e-01 -2.073171e-01 7.267569e-01 -9.206731e-02 3.588837e-01 5.574141e-01 -4.212651e-02 -5.158774e-01 -7.003191e-01
<VARIANCE> 39
 1.478091e+01 1.493906e+01 6.670280e+01 2.306775e+01 1.567934e+01 1.888960e+01 3.378149e+01 4.002893e+01 1.590288e+01 1.250744e+01 1.272994e+01 2.411881e+01 1.130505e+01 2.368248e+00 3.636526e+00 3.339660e+00 1.723891e+00 2.147807e+00 1.692977e+00 6.689173e+00 4.881865e+00 1.566487e+00 2.898687e+00 1.509951e+00 2.672719e+00 4.385020e+00 5.660320e-01 4.137353e-01 1.485989e+00 5.719029e-01 2.820248e-01 4.046143e-01 1.426294e+00 1.864475e+00 2.599805e-01 3.451806e-01 4.504022e-01 2.835793e-01 4.087384e-01
<GCONST> 1.156555e+02
<TRANSP> 5
 0.000000e+00 1.000000e+00 0.000000e+00 0.000000e+00 0.000000e+00
 0.000000e+00 5.451438e-01 4.548562e-01 0.000000e+00 0.000000e+00
 0.000000e+00 0.000000e+00 5.000009e-01 4.999992e-01 0.000000e+00
 0.000000e+00 0.000000e+00 0.000000e+00 8.022364e-01 1.977635e-01
 0.000000e+00 0.000000e+00 0.000000e+00 0.000000e+00 0.000000e+00
<ENDHMM>
~h "aa"
<BEGINHMM>
<NUMSTATES> 5
<STATE> 2
<MEAN> 39
 -2.112106e+00 1.107252e+01 1.976785e+00 -3.836800e+00 1.069535e+00 7.036902e+00 6.680573e+00 8.431126e-01 8.222889e-01 -7.550442e+00 -9.695042e-01 -1.733349e-01 6.129508e+01 -7.892686e-01 -2.346998e-01 -2.226393e-01 7.516521e-01 5.049918e-01 -3.020596e-01 8.204774e-01 7.246230e-01 2.275373e-02 9.148571e-01 8.544036e-02 -5.817263e-01 -6.379101e-01 1.805258e-03 -1.828840e-01 -1.914022e-01 -3.035505e-01 -1.973214e-01 -1.217359e-02 -5.328651e-02 -7.605643e-03 1.262066e-01 -2.482910e-02 7.391869e-02 1.039593e-01 5.530308e-02
<VARIANCE> 39
 4.021930e+00 1.294809e+00 4.279453e+00 1.075608e+01 6.971326e+00 4.325543e+00 8.404786e+00 8.253578e+00 6.597554e+00 1.069573e+01 7.073532e+00 9.523108e+00 2.139653e+00 2.247088e-01 3.196706e-01 2.816526e-01 7.074870e-01 6.961208e-01 4.330379e-01 4.935167e-01 7.980623e-01 9.118455e-01 8.030962e-01 7.656929e-01 6.599203e-01 4.712099e-02 1.568840e-02 3.771588e-02 6.574930e-02 8.900741e-02 8.576699e-02 9.318259e-02 1.987344e-01 2.187625e-01 1.662686e-01 1.973454e-01 1.592063e-01 1.298607e-01 7.066071e-03
<GCONST> 5.081644e+01
<STATE> 3
<MEAN> 39
 -6.787935e+00 8.111191e+00 -4.465382e-01 -3.939019e+00 -5.423549e-01 2.364860e+00 6.218813e+00 7.505829e-01 -2.761334e-03 -5.219054e+00 -1.299792e+00 -2.931625e+00 5.822301e+01 -7.934383e-01 -5.468416e-01 -1.520840e-01 3.102529e-02 -2.007650e-01 -5.716748e-01 -4.316987e-01 -2.881313e-01 -1.314747e-01 1.017067e-01 -1.378023e-01 -3.784821e-01 -4.249938e-01 2.480536e-03 9.260808e-04 6.413241e-02 3.697416e-02 -1.420094e-02 2.570215e-02 -5.136621e-02 -1.650251e-02 2.597993e-02 -9.672990e-03 5.109964e-03 3.565372e-02 1.712213e-02
<VARIANCE> 39
 5.334300e+00 3.880100e+00 4.061881e+00 6.506071e+00 1.017647e+01 9.619039e+00 1.364626e+01 1.429380e+01 1.220121e+01 7.469542e+00 9.045428e+00 7.493402e+00 1.568612e+00 8.504923e-02 4.030432e-01 4.836426e-01 4.275059e-01 7.792546e-01 6.030878e-01 8.526756e-01 1.417882e+00 1.445427e+00 1.125998e+00 1.179307e+00 8.172106e-01 3.517745e-02 1.519200e-02 6.561052e-02 7.966856e-02 8.654134e-02 1.588766e-01 1.217312e-01 2.077983e-01 3.165203e-01 2.856114e-01 2.695809e-01 2.873919e-01 1.403690e-01 5.469607e-03
<GCONST> 5.906750e+01
<STATE> 4
<MEAN> 39
 -1.261888e+01 4.357281e+00 2.201690e-01 -1.018008e+00 2.684402e-02 -6.100751e-01 2.990339e+00 1.735913e-02 1.894859e+00 -1.592389e+00 1.288634e+00 -1.290674e+00 5.531060e+01 -2.970081e-01 -2.262921e-01 5.982846e-02 2.708040e-01 1.790221e-01 -5.732947e-02 -1.405136e-01 -9.881371e-02 6.088518e-02 2.201137e-01 2.166431e-01 1.984800e-01 -1.525070e-01 3.395988e-02 3.095958e-02 -3.050977e-03 -9.962503e-03 2.631163e-02 2.957497e-02 -1.591639e-02 -4.366985e-02 -6.056074e-02 -7.600239e-02 -3.254567e-02 -5.885771e-03 1.586801e-02
<VARIANCE> 39
 2.831096e+00 2.409843e+00 2.662667e+00 4.531917e+00 6.444998e+00 8.600471e+00 8.476290e+00 8.652535e+00 8.287827e+00 1.082117e+01 1.072894e+01 9.468520e+00 7.305241e-01 9.503036e-02 1.743778e-01 2.997597e-01 3.554589e-01 5.676793e-01 7.100250e-01 7.882409e-01 1.044180e+00 1.114339e+00 1.065779e+00 1.089078e+00 7.899270e-01 2.801411e-02 1.124192e-02 2.374922e-02 5.752303e-02 7.681094e-02 1.256548e-01 1.347413e-01 1.459062e-01 2.203947e-01 2.287358e-01 2.342065e-01 2.231798e-01 1.623709e-01 4.648083e-03
<GCONST> 4.942350e+01
<TRANSP> 5
 0.000000e+00 1.000000e+00 0.000000e+00 0.000000e+00 0.000000e+00
 0.000000e+00 8.098783e-01 1.901217e-01 0.000000e+00 0.000000e+00
 0.000000e+00 0.000000e+00 8.567953e-01 1.432047e-01 0.000000e+00
 0.000000e+00 0.000000e+00 0.000000e+00 9.032057e-01 9.679431e-02
 0.000000e+00 0.000000e+00 0.000000e+00 0.000000e+00 0.000000e+00
<ENDHMM>
~h "c0"
<BEGINHMM>
<NUMSTATES> 5
<STATE> 2
<MEAN> 39
 -1.211042e+01 4.640377e+00 1.862045e+00 2.028168e+00 3.542992e+00 2.566452e+00 3.486310e+00 1.919540e-01 3.106404e+00 9.966729e-02 3.772835e+00 9.739017e-01 5.571485e+01 -3.268056e-01 -3.690828e-01 -4.691909e-01 -1.574232e-01 2.059626e-02 -6.424024e-02 3.831922e-01 4.173672e-01 3.432449e-01 5.740578e-01 1.529316e-01 4.511014e-03 -2.168072e-01 1.047491e-01 -3.576388e-01 -7.833405e-02 -6.910142e-01 -3.361241e-01 -1.241135e-01 -4.742013e-01 -3.561560e-01 -2.670295e-01 -2.292171e-01 -5.330807e-02 -1.100549e-01 4.116497e-01
<VARIANCE> 39
 3.015429e+01 1.803999e+01 8.753234e+00 6.531748e+00 7.466642e+00 5.942503e+00 1.187903e+01 1.769391e+01 1.402778e+01 1.211282e+01 8.897554e+00 1.064727e+01 8.524411e+00 2.311007e-01 3.001650e-01 4.663561e-01 5.495102e-01 7.975484e-01 7.030656e-01 1.002444e+00 9.180744e-01 1.151811e+00 1.135573e+00 1.240473e+00 9.788731e-01 9.061623e-02 4.754440e-02 1.615539e-01 1.225521e-01 3.232525e-01 1.725424e-01 1.538374e-01 2.934062e-01 3.073123e-01 2.882181e-01 3.134100e-01 2.400029e-01 2.019472e-01 1.767437e-01
<GCONST> 7.506541e+01
<STATE> 3
<MEAN> 39
 -1.381549e+01 3.017072e+00 7.899024e-01 9.888827e-01 3.390774e+00 2.405639e+00 4.085148e+00 5.377910e-01 3.775739e+00 5.614077e-01 3.759119e+00 1.242952e+00 5.498188e+01 1.771072e-01 -1.614148e+00 -3.242740e-01 -2.613410e+00 -9.739345e-01 -2.136253e-01 -1.298203e+00 -6.861402e-01 -5.672384e-01 -8.196171e-02 4.052860e-02 -3.544902e-01 1.648485e+00 -1.965060e-01 -3.410243e-01 1.887077e-01 -9.318586e-01 -4.510301e-01 -1.483791e-01 -7.568442e-01 -4.535776e-01 -3.653221e-01 -2.064060e-01 2.677323e-02 -2.239046e-01 8.583720e-01
<VARIANCE> 39
 2.183888e+01 1.398961e+01 5.441803e+00 5.440669e+00 6.790308e+00 6.896882e+00 1.180024e+01 1.793742e+01 1.361133e+01 9.672711e+00 1.024224e+01 9.575166e+00 5.798035e+00 7.803270e-01 1.524347e+00 1.376328e+00 4.658573e+00 1.530108e+00 1.602384e+00 2.353747e+00 2.932105e+00 1.841099e+00 2.229629e+00 1.657454e+00 1.476171e+00 3.316506e+00 1.046070e-01 1.515123e-01 1.158646e-01 5.473301e-01 2.452740e-01 1.971678e-01 2.205024e-01 3.747133e-01 2.730907e-01 3.433937e-01 3.934059e-01 2.303554e-01 3.822272e-01
<GCONST> 9.142346e+01
<STATE> 4
<MEAN> 39
 -7.233468e+00 -1.283322e-01 -7.505474e-01 -1.345265e+01 -4.800806e+00 4.044848e+00 2.624089e+00 -4.819242e+00 1.992431e+00 5.444403e-01 7.801040e-01 2.239940e-01 6.913203e+01 1.044859e+00 -7.740538e-02 -2.292638e-02 -8.886570e-01 -9.945886e-01 -2.585083e-01 -5.865844e-02 1.037124e-02 -5.540559e-01 -6.857039e-01 -3.550341e-01 -2.826918e-01 1.133528e+00 -1.121500e-01 1.974185e-01 1.430472e-01 4.756351e-01 2.157376e-01 -1.009598e-01 -8.120406e-02 1.061977e-01 3.523400e-02 -1.851501e-01 8.502516e-02 9.546172e-02 -2.709141e-01
<VARIANCE> 39
 1.167364e+02 3.144097e+01 1.976124e+01 6.361404e+01 5.075478e+01 2.169139e+01 5.964128e+01 3.850993e+01 1.408501e+01 2.798266e+01 3.572497e+01 2.242681e+01 5.338985e+01 7.997298e+00 2.213448e+00 1.817001e+00 7.793417e+00 4.066305e+00 2.903823e+00 7.396119e+00 3.569346e+00 1.820678e+00 3.375041e+00 3.914204e+00 1.895214e+00 5.065114e+00 1.429205e+00 2.894653e-01 3.425944e-01 9.481514e-01 8.946116e-01 5.229653e-01 1.007677e+00 6.152873e-01 3.904064e-01 5.912008e-01 8.646320e-01 3.771358e-01 3.460971e-01
<GCONST> 1.282211e+02
<TRANSP> 5
 0.000000e+00 1.000000e+00 0.000000e+00 0.000000e+00 0.000000e+00
 0.000000e+00 1.714525e-01 8.285475e-01 0.000000e+00 0.000000e+00
 0.000000e+00 0.000000e+00 3.739664e-01 6.260337e-01 0.000000e+00
 0.000000e+00 0.000000e+00 0.000000e+00 6.708784e-01 3.291216e-01
 0.000000e+00 0.000000e+00 0.000000e+00 0.000000e+00 0.000000e+00
<ENDHMM>
~h "ee"
<BEGINHMM>
<NUMSTATES> 5
<STATE> 2
<MEAN> 39
 3.452878e+00 3.365444e+00 8.935397e-01 -1.407163e+01 -9.517921e+00 1.029229e+01 -6.966757e-01 -1.494836e+01 4.202839e+00 -4.596726e+00 4.301968e+00 9.343765e+00 7.098344e+01 -1.194690e-01 5.852003e-01 3.171649e-01 4.188447e-01 2.200285e-01 7.326388e-01 6.004936e-01 9.308537e-01 5.203553e-01 -2.046933e-01 -5.512484e-01 5.507625e-02 -9.806955e-01 -6.634763e-01 4.439608e-01 3.920803e-01 7.359651e-01 9.148275e-01 -7.078503e-01 -3.246437e-01 3.224957e-01 -3.078900e-01 -4.981750e-03 -2.497508e-01 -5.403832e-01 -3.363839e-01
<VARIANCE> 39
 4.158288e+00 1.481192e+01 9.506322e+00 3.720845e+01 2.438781e+01 3.315833e+01 9.376559e+00 4.554028e+01 1.251701e+01 1.320243e+01 1.002763e+01 1.599607e+01 1.454646e+01 7.487729e-01 1.327544e+00 8.585789e-01 2.768292e+00 3.040785e+00 2.452343e+00 7.694132e-01 1.424136e+00 2.122132e+00 9.623125e-01 8.742308e-01 1.307955e+00 4.390738e-01 3.035454e-01 1.549538e-01 1.458218e-01 3.414244e-01 3.018559e-01 3.973573e-01 1.605868e-01 2.297403e-01 5.617596e-01 3.832586e-01 3.913163e-01 2.589487e-01 4.447424e-02
<GCONST> 9.185104e+01
<STATE> 3
<MEAN> 39
 4.312207e-01 9.217995e+00 4.299962e+00 -4.615170e+00 -1.939226e+00 5.275643e+00 -1.250769e+00 -8.049379e+00 1.332404e+00 -6.692818e+00 2.617151e+00 6.112182e+00 6.481555e+01 -9.615825e-01 1.333594e+00 1.181752e+00 2.966879e+00 2.230602e+00 -2.085040e+00 -6.881672e-01 1.501917e+00 -1.438327e+00 -7.008502e-01 2.596009e-01 -1.638067e+00 -1.429964e+00 6.838218e-03 -3.128846e-01 -1.105220e-01 -2.428554e-01 -1.875412e-01 1.527459e-01 -3.218992e-02 -3.202545e-01 1.011474e-01 1.443719e-01 7.414380e-02 -5.938964e-02 2.036088e-01
<VARIANCE> 39
 5.824904e+00 7.309351e+00 5.888269e+00 3.187236e+01 1.860031e+01 3.426154e+01 1.736773e+01 2.550529e+01 1.181247e+01 9.055744e+00 9.431424e+00 1.908982e+01 7.294415e+00 1.623611e-01 5.939633e-01 6.961749e-01 2.434848e+00 1.415034e+00 1.885857e+00 8.744740e-01 1.381669e+00 1.214051e+00 1.030179e+00 7.187265e-01 2.023978e+00 2.218195e-01 3.061703e-02 8.842006e-02 1.325054e-01 4.277280e-01 3.028481e-01 4.390949e-01 2.430693e-01 2.156236e-01 3.203861e-01 2.290526e-01 1.919404e-01 2.802044e-01 2.826891e-02
<GCONST> 8.066965e+01
<STATE> 4
<MEAN> 39
 -1.765477e+00 1.102947e+01 5.728717e+00 5.409384e-01 2.135296e+00 2.508871e+00 -2.278849e+00 -6.630382e+00 -6.655481e-01 -5.968911e+00 3.607467e+00 3.162672e+00 6.194383e+01 -7.135164e-01 2.453159e-02 -1.380944e-01 6.822632e-01 5.927728e-01 -2.058802e-01 3.512668e-01 3.222660e-01 -1.152277e-01 7.760022e-01 4.290650e-02 -4.711272e-01 -6.788135e-01 -1.054725e-02 -2.209122e-01 -2.139290e-01 -3.032777e-01 -2.638190e-01 1.509026e-01 1.559841e-01 -4.470412e-02 1.904024e-01 1.575829e-01 -2.400604e-02 1.683646e-01 7.719571e-02
<VARIANCE> 39
 4.485120e+00 3.198781e+00 4.887904e+00 8.503896e+00 6.698671e+00 1.264214e+01 1.185092e+01 1.521514e+01 1.012481e+01 9.773339e+00 1.038476e+01 1.409495e+01 3.802837e+00 1.513007e-01 2.737701e-01 4.882267e-01 7.387440e-01 9.407687e-01 8.087822e-01 9.110798e-01 7.777608e-01 1.015396e+00 9.639253e-01 8.193882e-01 1.060156e+00 4.582250e-02 2.354832e-02 5.032862e-02 9.108531e-02 1.656775e-01 1.380539e-01 2.401955e-01 1.758398e-01 1.977900e-01 2.072812e-01 1.966986e-01 1.427358e-01 2.084626e-01 1.387308e-02
<GCONST> 6.186250e+01
<TRANSP> 5
 0.000000e+00 1.000000e+00 0.000000e+00 0.000000e+00 0.000000e+00
 0.000000e+00 7.135421e-01 2.864579e-01 0.000000e+00 0.000000e+00
 0.000000e+00 0.000000e+00 5.664125e-01 4.335875e-01 0.000000e+00
 0.000000e+00 0.000000e+00 0.000000e+00 7.656655e-01 2.343345e-01
 0.000000e+00 0.000000e+00 0.000000e+00 0.000000e+00 0.000000e+00
<ENDHMM>
~h "hh"
<BEGINHMM>
<NUMSTATES> 5
<STATE> 2
<MEAN> 39
 1.364611e+00 1.653617e+00 4.489414e+00 -3.046032e+00 -3.088552e+00 6.375966e+00 -5.625675e+00 -9.621184e+00 5.877903e+00 -5.430851e+00 -3.249241e+00 8.455159e-01 7.351891e+01 2.214602e-01 -1.646290e-01 -3.215640e-01 2.461912e-01 -2.834001e-01 -4.495553e-01 -2.620267e-01 2.144024e-01 1.151884e+00 1.091072e-01 -5.986671e-01 1.312542e-01 -6.004691e-02 -1.207435e-01 1.745485e-02 3.940139e-03 3.973304e-02 1.017622e-01 -4.686594e-02 -1.035288e-01 4.286857e-03 1.051410e-01 -5.301489e-02 8.349814e-02 3.639478e-02 -2.834801e-02
<VARIANCE> 39
 5.651178e+00 9.677816e+00 7.981422e+00 2.396268e+01 3.310764e+01 1.427365e+01 2.090795e+01 5.018664e+01 1.468766e+02 2.747232e+01 2.109231e+01 1.610611e+01 7.193135e+00 8.662710e-01 9.554892e-01 5.430591e-01 1.755105e+00 3.549239e+00 1.307102e+00 1.700098e+00 4.777922e+00 5.644535e+00 2.889139e+00 1.608462e+00 9.275532e-01 5.460119e-01 1.821400e-01 2.217423e-01 1.177296e-01 3.246630e-01 5.901552e-01 1.896641e-01 3.210111e-01 9.411105e-01 6.903477e-01 5.023720e-01 3.300233e-01 2.176806e-01 8.971222e-02
<GCONST> 1.001655e+02
<STATE> 3
<MEAN> 39
 2.371419e+00 2.910085e+00 2.200349e+00 8.157921e-01 -6.428166e+00 -2.687768e+00 -9.291922e+00 -6.556646e+00 1.646002e+01 -1.146292e+01 -6.500263e+00 5.301634e+00 7.166000e+01 -1.733412e-01 1.251701e+00 3.099079e-01 3.123656e-01 1.253389e+00 -3.670501e-01 3.230145e-01 6.317565e-01 -1.564119e+00 -3.599514e-01 1.034219e+00 5.749029e-01 -1.330289e+00 -6.166376e-02 1.376003e-01 8.817464e-02 3.304027e-02 2.427682e-01 6.180225e-02 7.877795e-02 2.021612e-01 -2.200796e-01 3.987477e-01 1.258170e-01 -2.471104e-01 -1.610264e-01
<VARIANCE> 39
 1.532050e+00 1.308033e+01 4.671965e+00 3.244601e+00 2.067097e+01 9.590189e+00 6.606632e+00 1.699865e+01 2.442060e+01 1.036344e+01 1.288735e+01 1.321358e+01 1.069919e+01 1.440375e-01 8.163233e-01 3.084455e-01 5.578205e-01 1.591722e+00 4.102364e-01 7.631274e-01 1.099094e+00 1.903569e+00 1.887828e+00 1.074329e+00 1.211451e+00 3.005007e-01 4.971105e-02 2.513569e-01 9.562870e-02 1.154805e-01 3.262638e-01 1.088839e-01 1.494903e-01 1.829087e-01 3.852186e-01 2.004863e-01 2.897252e-01 2.331121e-01 8.659635e-02
<GCONST> 7.275564e+01
<STATE> 4
<MEAN> 39
 1.155151e-01 8.899047e+00 4.998809e+00 4.762673e+00 1.386522e+00 -6.817583e+00 -8.624057e+00 -1.693933e+00 7.812043e+00 -8.022525e+00 -3.135664e+00 3.419722e+00 6.376551e+01 -6.185006e-01 3.591195e-01 2.114393e-01 3.063853e-01 3.810837e-01 -2.477296e-01 4.340188e-01 3.305646e-01 -8.380040e-01 9.451445e-01 2.905449e-01 -5.288824e-01 -7.978149e-01 -7.500048e-02 -1.153344e-01 -6.596160e-02 -1.416066e-01 -1.935306e-01 1.049595e-01 3.975467e-02 -1.281665e-01 1.494380e-01 -2.864799e-02 -4.649442e-02 1.235152e-02 8.476786e-02
<VARIANCE> 39
 2.659703e+00 2.459022e+00 4.199117e+00 5.866060e+00 7.654809e+00 7.129890e+00 1.095363e+01 6.702317e+00 1.167730e+01 1.305539e+01 8.659367e+00 1.082259e+01 3.080957e+00 6.618416e-02 3.137140e-01 4.363142e-01 7.085314e-01 8.048936e-01 5.939474e-01 9.624197e-01 7.216999e-01 1.891254e+00 1.487410e+00 1.264440e+00 1.300945e+00 7.699678e-02 1.902822e-02 2.972750e-02 7.135805e-02 1.127058e-01 1.227522e-01 1.251272e-01 1.754309e-01 1.379179e-01 3.523144e-01 3.349396e-01 2.888484e-01 2.588771e-01 1.135042e-02
<GCONST> 5.915741e+01
<TRANSP> 5
 0.000000e+00 1.000000e+00 0.000000e+00 0.000000e+00 0.000000e+00
 0.000000e+00 9.450164e-01 5.498359e-02 0.000000e+00 0.000000e+00
 0.000000e+00 0.000000e+00 8.436778e-01 1.563222e-01 0.000000e+00
 0.000000e+00 0.000000e+00 0.000000e+00 8.165395e-01 1.834605e-01
 0.000000e+00 0.000000e+00 0.000000e+00 0.000000e+00 0.000000e+00
<ENDHMM>
~h "ii"
<BEGINHMM>
<NUMSTATES> 5
<STATE> 2
<MEAN> 39
 -7.461252e+00 5.219285e+00 9.804627e+00 2.007001e+00 -3.363603e+00 -3.327247e+00 -6.055127e-01 -1.018100e+01 3.872757e+00 -1.489336e+00 7.842794e-02 -5.333261e+00 6.981812e+01 7.120121e-01 2.269676e-01 3.455042e-01 -2.263899e-01 -9.284467e-01 -7.860620e-01 6.292012e-02 -2.414146e+00 6.700504e-01 5.608397e-01 -1.076409e+00 -8.820897e-01 4.618154e-01 -3.705128e-01 -4.388233e-01 -3.553059e-01 5.662947e-02 4.754594e-01 1.905999e-01 -5.826198e-03 3.550486e-01 -3.819082e-02 -1.919422e-01 -4.068583e-02 4.810856e-01 -1.369749e-01
<VARIANCE> 39
 1.686278e+01 4.308198e+00 3.562270e+01 6.486157e+00 1.479609e+01 7.758665e+00 7.520913e+00 3.819942e+01 1.080023e+01 5.956471e+00 9.198960e+00 2.151541e+01 7.326946e+01 1.027427e+00 7.718514e-01 6.767941e-01 5.042342e-01 9.833852e-01 8.933197e-01 9.518530e-01 2.385740e+00 1.630013e+00 1.004074e+00 1.105542e+00 1.153200e+00 2.911025e-01 9.717698e-02 1.801458e-01 3.019273e-01 1.113917e-01 8.839634e-02 1.906522e-01 2.045567e-01 4.568015e-01 2.263545e-01 1.350401e-01 1.722232e-01 1.350798e-01 2.796458e-02
<GCONST> 7.972363e+01
<STATE> 3
<MEAN> 39
 -5.811518e+00 4.777669e+00 1.177979e+01 1.824062e+00 -3.965153e+00 -5.287321e+00 6.439123e-02 -1.429567e+01 5.756291e+00 -1.413939e+00 -3.251658e+00 -6.134587e+00 7.215816e+01 5.309353e-02 -9.136058e-02 -1.209973e-01 -2.174821e-01 4.646288e-01 -4.755704e-01 -3.229466e-01 3.780383e-01 1.125283e-01 -3.588139e-01 -3.411590e-01 4.919405e-01 8.280326e-02 -8.676516e-02 1.025177e-01 -1.487605e-01 7.203200e-03 3.479416e-01 4.700774e-02 -3.056797e-01 5.025833e-01 1.315613e-02 -2.193013e-01 1.175807e-01 1.663651e-01 -8.380114e-03
<VARIANCE> 39
 1.515440e+01 4.364687e+00 3.235379e+01 4.722348e+00 1.686228e+01 1.038048e+01 4.959784e+00 3.912808e+01 1.378779e+01 5.416265e+00 1.100722e+01 1.474671e+01 5.645038e+01 1.522814e-01 2.691346e-01 4.256361e-01 3.330989e-01 5.240723e-01 6.609496e-01 1.045210e+00 1.112631e+00 6.350938e-01 9.785404e-01 6.090734e-01 5.964855e-01 1.172318e-01 3.356885e-02 5.576498e-02 1.144507e-01 5.998261e-02 9.247892e-02 1.328751e-01 2.428020e-01 2.053936e-01 1.929093e-01 1.391870e-01 1.109298e-01 1.116719e-01 2.185570e-02
<GCONST> 6.458695e+01
<STATE> 4
<MEAN> 39
 -7.361785e+00 5.340643e+00 7.909442e+00 1.012507e+00 1.712797e+00 -6.639940e+00 -4.552967e+00 -7.994858e+00 5.721526e+00 -4.904774e+00 -4.028138e+00 -2.482876e+00 7.092329e+01 -7.929878e-01 8.718343e-01 -9.271389e-01 -5.246081e-01 2.266375e+00 5.546327e-01 -1.878178e+00 1.168283e+00 1.931096e-01 -5.333285e-01 2.053063e-01 -1.729980e-01 -9.481247e-02 -3.677204e-01 2.592637e-01 -1.130676e-01 -2.349405e-01 2.645872e-01 6.047820e-01 2.551228e-01 -6.683339e-02 -1.234664e-01 3.901828e-01 4.481944e-01 -4.413319e-01 -1.417239e-01
<VARIANCE> 39
 2.243755e+01 7.709408e+00 3.061521e+01 4.360839e+00 1.688770e+01 2.522818e+01 3.681822e+01 3.046741e+01 1.415689e+01 1.172112e+01 1.984082e+01 8.838500e+00 9.023053e+01 4.893265e-01 7.816901e-01 1.208690e+00 6.150205e-01 1.620310e+00 1.457085e+00 2.710640e+00 1.398046e+00 1.059971e+00 1.253743e+00 1.040819e+00 1.381873e+00 1.656133e-01 9.441279e-02 1.048507e-01 1.783002e-01 1.258586e-01 2.134169e-01 2.424737e-01 5.256819e-01 2.654336e-01 2.963296e-01 2.600193e-01 2.238858e-01 2.232525e-01 3.516100e-02
<GCONST> 8.711584e+01
<TRANSP> 5
 0.000000e+00 1.000000e+00 0.000000e+00 0.000000e+00 0.000000e+00
 0.000000e+00 5.305623e-01 4.694377e-01 0.000000e+00 0.000000e+00
 0.000000e+00 0.000000e+00 6.967266e-01 3.032734e-01 0.000000e+00
 0.000000e+00 0.000000e+00 0.000000e+00 5.193025e-01 4.806975e-01
 0.000000e+00 0.000000e+00 0.000000e+00 0.000000e+00 0.000000e+00
<ENDHMM>
~h "ng"
<BEGINHMM>
<NUMSTATES> 5
<STATE> 2
<MEAN> 39
 -6.910777e+00 8.024762e+00 8.959919e+00 5.582287e+00 3.130663e+00 5.408594e-01 -1.668491e+00 -2.901356e+00 3.140916e+00 -5.322848e+00 -2.776389e+00 -1.223719e+00 5.973539e+01 -8.889197e-01 -1.267722e-01 -7.329255e-01 1.414836e-01 4.003152e-01 -8.891588e-02 5.342644e-01 4.576246e-01 -5.907226e-01 8.461566e-02 2.394204e-01 -3.164433e-01 -8.927514e-01 1.728762e-02 -1.768052e-01 -1.617633e-01 -2.948156e-01 -2.962845e-01 -1.466958e-01 -1.253905e-01 -1.492345e-01 7.977199e-02 5.226139e-02 -3.094946e-02 3.527582e-02 1.035092e-01
<VARIANCE> 39
 9.192511e+00 7.399605e+00 2.354798e+01 7.302998e+00 8.262148e+00 1.555127e+01 3.103988e+01 1.593297e+01 1.047033e+01 1.062953e+01 1.316111e+01 1.304334e+01 8.058760e+00 2.146499e-01 6.266929e-01 5.260456e-01 9.468446e-01 1.387553e+00 1.058139e+00 1.302380e+00 1.731565e+00 1.172223e+00 1.003911e+00 8.502581e-01 7.827193e-01 2.103443e-01 2.022102e-02 6.306907e-02 8.842984e-02 1.210286e-01 1.617219e-01 1.695497e-01 1.705116e-01 2.077474e-01 2.002063e-01 1.933474e-01 1.843753e-01 2.114591e-01 1.411441e-02
<GCONST> 7.184371e+01
<STATE> 3
<MEAN> 39
 -9.656466e+00 7.106781e+00 4.649331e+00 3.642680e+00 1.323640e+00 -4.390806e+00 -4.408300e+00 -5.533658e+00 -1.158642e+00 -6.278336e+00 -3.220298e+00 -3.359706e+00 5.695613e+01 -5.127269e-01 -2.744696e-01 -3.303684e-01 -1.410359e-01 -2.492345e-02 9.163815e-02 2.069293e-01 -2.094713e-01 -3.752796e-01 1.220907e-02 1.834929e-01 -6.855279e-02 -3.470106e-01 3.478071e-02 -5.919171e-03 3.669009e-02 2.051963e-02 4.326921e-02 1.036512e-01 7.666264e-02 1.206274e-01 1.522285e-01 1.148688e-01 1.058834e-01 1.186037e-01 4.300693e-02
<VARIANCE> 39
 3.790495e+00 3.787644e+00 7.682979e+00 5.912408e+00 5.486323e+00 1.941008e+01 1.781822e+01 1.475905e+01 1.336868e+01 1.272859e+01 1.241975e+01 1.189027e+01 1.713373e+00 1.440092e-01 3.326842e-01 6.270984e-01 5.175245e-01 4.834521e-01 8.551084e-01 7.894233e-01 9.660534e-01 8.981782e-01 9.584566e-01 1.037530e+00 1.192520e+00 7.053028e-02 1.920764e-02 4.537090e-02 9.876145e-02 1.079070e-01 1.044461e-01 1.530653e-01 1.329424e-01 1.681243e-01 1.768010e-01 1.772085e-01 1.907811e-01 2.119246e-01 9.895029e-03
<GCONST> 6.035037e+01
<STATE> 4
<MEAN> 39
 -1.348896e+01 4.512578e+00 2.470610e+00 2.519951e+00 2.044316e+00 -1.087199e+00 2.041350e-01 -3.105078e+00 -4.880634e-01 -3.673260e+00 -2.495975e-01 -2.325312e+00 5.481393e+01 -2.523388e-01 -2.549077e-01 -2.261954e-01 -1.651902e-01 4.835930e-02 2.698826e-01 3.346967e-01 3.394342e-01 3.072383e-01 3.476126e-01 2.980248e-01 1.719093e-01 -1.174529e-01 1.790750e-02 4.418536e-03 -4.975574e-04 -1.616152e-03 8.348829e-03 -6.224750e-03 -1.823033e-02 -8.674709e-03 2.698895e-02 1.247503e-02 -5.384764e-03 2.532154e-03 1.189971e-02
<VARIANCE> 39
 2.279251e+00 2.802168e+00 4.179841e+00 4.810011e+00 5.186704e+00 1.009211e+01 1.301160e+01 1.148657e+01 1.035368e+01 1.162944e+01 1.108920e+01 1.003229e+01 6.739145e-01 9.445844e-02 1.646784e-01 3.234192e-01 4.124711e-01 4.762221e-01 6.640546e-01 9.164812e-01 9.464760e-01 9.481130e-01 1.237974e+00 9.990754e-01 1.046396e+00 2.753829e-02 1.422138e-02 2.634972e-02 6.084263e-02 8.143874e-02 1.069207e-01 1.303158e-01 1.862076e-01 2.075769e-01 1.931841e-01 2.499515e-01 2.012819e-01 2.077339e-01 4.248686e-03
<GCONST> 5.135692e+01
<TRANSP> 5
 0.000000e+00 1.000000e+00 0.000000e+00 0.000000e+00 0.000000e+00
 0.000000e+00 6.497272e-01 3.502728e-01 0.000000e+00 0.000000e+00
 0.000000e+00 0.000000e+00 7.851653e-01 2.148347e-01 0.000000e+00
 0.000000e+00 0.000000e+00 0.000000e+00 8.862876e-01 1.137123e-01
 0.000000e+00 0.000000e+00 0.000000e+00 0.000000e+00 0.000000e+00
<ENDHMM>
~h "nn"
<BEGINHMM>
<NUMSTATES> 5
<STATE> 2
<MEAN> 39
 -1.084794e+01 6.118361e+00 1.887468e+00 2.369667e-01 -1.727034e-01 -3.224401e+00 -2.785652e+00 -6.465616e+00 -2.598633e+00 -3.062768e+00 2.451151e+00 6.120940e-01 5.613930e+01 -4.603753e-01 -3.014687e-01 -1.321313e-02 1.334572e-01 1.141157e-01 1.429509e-01 3.175509e-01 5.430998e-01 4.369050e-01 2.276563e-01 -1.636633e-02 -1.875873e-02 -2.313714e-01 2.886756e-02 1.117688e-03 -1.449599e-02 -1.459206e-02 2.176734e-02 5.943465e-02 4.982479e-02 3.884098e-02 6.170396e-02 5.471838e-02 6.482472e-02 5.289190e-02 1.811236e-02
<VARIANCE> 39
 3.693218e+00 2.723252e+00 3.352941e+00 4.513554e+00 5.200314e+00 7.558313e+00 1.172001e+01 1.507584e+01 1.253653e+01 1.185785e+01 1.113282e+01 8.835703e+00 1.079656e+00 1.236673e-01 1.736091e-01 3.520478e-01 4.180646e-01 5.574728e-01 7.622952e-01 8.279855e-01 7.220639e-01 8.587784e-01 1.260585e+00 1.441662e+00 9.532666e-01 4.419773e-02 2.216978e-02 3.314997e-02 7.420408e-02 9.067886e-02 1.180943e-01 1.632040e-01 1.694846e-01 1.659336e-01 1.973330e-01 2.648825e-01 3.045276e-01 1.769718e-01 7.955241e-03
<GCONST> 5.492270e+01
<STATE> 3
<MEAN> 39
 -1.460750e+01 2.875355e+00 4.980475e-01 6.012601e-01 1.157554e+00 -4.430344e-01 1.242488e+00 -2.091730e+00 1.220749e+00 -1.043612e+00 2.918676e+00 7.679499e-01 5.440810e+01 -2.562180e-01 -2.446363e-01 -1.425001e-01 1.919417e-02 1.845765e-01 2.058338e-01 3.690320e-01 3.545290e-01 2.305519e-01 8.617681e-02 -1.542283e-02 4.002319e-02 -1.211542e-01 4.416924e-02 5.241674e-02 4.214137e-02 1.646044e-02 2.297501e-02 1.910182e-02 8.429471e-03 3.897459e-02 2.421020e-02 3.707994e-03 -3.151325e-02 -4.807775e-02 1.821956e-02
<VARIANCE> 39
 9.465198e-01 1.409455e+00 2.868319e+00 5.438621e+00 7.067602e+00 8.124014e+00 9.290929e+00 9.170785e+00 8.680673e+00 7.001489e+00 9.742504e+00 7.826118e+00 6.052197e-01 1.226279e-01 2.259672e-01 3.688866e-01 6.141558e-01 7.257192e-01 6.365109e-01 8.026538e-01 1.168371e+00 9.910160e-01 8.141176e-01 1.091218e+00 8.802932e-01 3.807069e-02 2.178102e-02 4.705436e-02 7.675757e-02 1.330180e-01 1.636217e-01 1.383398e-01 1.662151e-01 2.390083e-01 1.822391e-01 1.618911e-01 2.345945e-01 1.612883e-01 7.306980e-03
<GCONST> 5.151847e+01
<STATE> 4
<MEAN> 39
 -1.591182e+01 1.674252e+00 8.601594e-02 1.089373e+00 2.654534e+00 1.408252e+00 3.698114e+00 7.791093e-01 3.424285e+00 3.999326e-01 3.434340e+00 6.170229e-01 5.371867e+01 -4.102805e-02 -4.515867e-02 -3.302507e-02 -4.290864e-02 -1.644641e-02 1.384289e-02 2.610996e-02 4.388123e-02 5.901147e-02 4.789607e-02 3.846170e-02 5.652117e-03 -2.083315e-02 6.362139e-03 -2.593895e-04 -1.148007e-02 -8.044614e-03 -8.757883e-03 -8.149880e-03 -1.280376e-02 -2.471069e-02 -1.631526e-02 -6.248564e-04 4.138221e-03 -5.273310e-04 3.665179e-03
<VARIANCE> 39
 6.896737e-01 1.288626e+00 2.359941e+00 3.529800e+00 4.839335e+00 6.141998e+00 7.867277e+00 7.635539e+00 8.179997e+00 9.552368e+00 8.763182e+00 8.699371e+00 6.052197e-01 6.109808e-02 1.318338e-01 2.669400e-01 4.292647e-01 5.520207e-01 7.702042e-01 8.068333e-01 8.327599e-01 9.913427e-01 1.121093e+00 9.490393e-01 8.311154e-01 2.001834e-02 1.283930e-02 2.732671e-02 5.763310e-02 8.964843e-02 1.100170e-01 1.556466e-01 1.698486e-01 1.810989e-01 2.172327e-01 2.340747e-01 1.914318e-01 1.634954e-01 4.611355e-03
<GCONST> 4.448125e+01
<TRANSP> 5
 0.000000e+00 1.000000e+00 0.000000e+00 0.000000e+00 0.000000e+00
 0.000000e+00 8.955369e-01 1.044631e-01 0.000000e+00 0.000000e+00
 0.000000e+00 0.000000e+00 8.493796e-01 1.506204e-01 0.000000e+00
 0.000000e+00 0.000000e+00 0.000000e+00 9.512704e-01 4.872961e-02
 0.000000e+00 0.000000e+00 0.000000e+00 0.000000e+00 0.000000e+00
<ENDHMM>
~h "s0"
<BEGINHMM>
<NUMSTATES> 5
<STATE> 2
<MEAN> 39
 -1.180342e+01 8.973205e+00 -8.563034e-03 -6.709990e+00 6.952470e+00 2.976451e+00 -5.541616e+00 -7.291305e+00 3.393002e+00 -5.045527e+00 9.932459e-01 -4.563745e+00 7.289421e+01 7.179993e-01 -2.614710e-01 -1.261390e+00 -1.445061e+00 -9.749194e-01 1.904402e+00 1.309745e+00 2.796980e-01 2.920656e-01 1.266423e-01 5.123693e-01 9.797330e-01 -2.360902e-01 4.412263e-01 -1.546446e-01 7.439826e-02 -1.295463e-01 -5.326603e-01 6.979525e-02 2.668629e-01 -1.473515e-02 1.621689e-01 -1.246871e-01 -1.902783e-01 2.130166e-01 5.233036e-02
<VARIANCE> 39
 3.984330e+01 1.285768e+01 4.092152e+01 2.765448e+01 3.116268e+01 4.161325e+01 3.079789e+01 2.032540e+01 2.609258e+01 1.984995e+01 1.568791e+01 4.322076e+01 4.235334e+00 8.732471e+00 1.717553e+00 2.005047e+00 2.089458e+00 4.887333e+00 2.462343e+00 2.271341e+00 2.057401e+00 5.024553e+00 2.843790e+00 2.607797e+00 3.705230e+00 4.960416e-01 7.424879e-01 3.532863e-01 3.514561e-01 3.479629e-01 5.263686e-01 5.606387e-01 6.693299e-01 4.291466e-01 8.448626e-01 6.442508e-01 4.254532e-01 5.708576e-01 7.858547e-02
<GCONST> 1.146893e+02
<STATE> 3
<MEAN> 39
 4.494568e+00 5.071965e+00 -6.375550e+00 -2.075982e+01 -7.975065e+00 1.734205e+01 6.264103e+00 -3.710139e+00 7.866573e+00 -7.136204e+00 -3.626456e-01 4.634802e+00 7.202776e+01 5.835235e-01 8.102759e-02 7.728991e-02 5.118032e-02 -2.760033e-01 3.510088e-03 6.340262e-01 7.597591e-01 -1.070320e+00 -9.206873e-01 -4.363997e-01 -3.069540e-01 -8.210362e-01 -6.379460e-01 2.452475e-01 3.844379e-01 9.008548e-01 7.257640e-01 -7.970208e-01 -4.239269e-01 -3.451806e-02 -3.314608e-01 3.980322e-02 6.373464e-02 -2.494708e-01 -2.904523e-01
<VARIANCE> 39
 3.154333e+00 3.578777e+00 8.886780e+00 6.388365e+00 1.116493e+01 9.262973e+00 7.249433e+00 7.910203e+00 1.192406e+01 8.002288e+00 1.161678e+01 1.762367e+01 3.350952e+00 1.312433e+00 9.177744e-01 1.092812e+00 5.113483e+00 3.262919e+00 3.524219e+00 1.048187e+00 1.014297e+00 1.165795e+00 8.186651e-01 7.812970e-01 1.261432e+00 4.456834e-01 9.081173e-02 1.365937e-01 1.619287e-01 2.566963e-01 2.197446e-01 2.311773e-01 1.319109e-01 2.335200e-01 5.218871e-01 1.898118e-01 1.944925e-01 4.346985e-01 1.928937e-02
<GCONST> 7.869720e+01
<STATE> 4
<MEAN> 39
 1.744216e+00 9.799981e+00 -1.825030e-01 -1.020825e+01 -2.649885e+00 9.363045e+00 4.585923e+00 -9.013186e-01 2.579512e+00 -1.069979e+01 -1.228916e+00 2.893108e+00 6.499975e+01 -9.026629e-01 9.250870e-01 1.428850e+00 2.082442e+00 9.648213e-01 -1.345399e+00 -5.343050e-01 1.733215e-01 -4.541602e-01 8.358396e-02 1.516977e-01 -3.427182e-01 -1.131033e+00 -9.660628e-03 -2.103583e-01 -2.389189e-01 -2.173943e-01 -7.895200e-02 3.486035e-01 2.468410e-01 -6.448708e-02 7.141346e-02 3.402596e-01 1.761445e-02 -1.239806e-01 1.505585e-01
<VARIANCE> 39
 1.966666e+00 3.371578e+00 1.106059e+01 9.120229e+00 5.533301e+00 9.958920e+00 6.455371e+00 5.747476e+00 5.161637e+00 4.690544e+00 6.288602e+00 5.539980e+00 2.628013e+00 1.279255e-01 2.877485e-01 6.894788e-01 7.933438e-01 6.832519e-01 1.018198e+00 7.761591e-01 5.546100e-01 5.979774e-01 8.202493e-01 5.384315e-01 1.214835e+00 1.464503e-01 2.448965e-02 4.214822e-02 1.257830e-01 1.320029e-01 1.355070e-01 1.016204e-01 1.510252e-01 1.652294e-01 1.284364e-01 1.055602e-01 9.893464e-02 1.729217e-01 1.489594e-02
<GCONST> 5.381470e+01
<TRANSP> 5
 0.000000e+00 1.000000e+00 0.000000e+00 0.000000e+00 0.000000e+00
 0.000000e+00 9.069776e-01 9.302241e-02 0.000000e+00 0.000000e+00
 0.000000e+00 0.000000e+00 8.289586e-01 1.710414e-01 0.000000e+00
 0.000000e+00 0.000000e+00 0.000000e+00 7.878183e-01 2.121818e-01
 0.000000e+00 0.000000e+00 0.000000e+00 0.000000e+00 0.000000e+00
<ENDHMM>
~h "uu"
<BEGINHMM>
<NUMSTATES> 5
<STATE> 2
<MEAN> 39
 -1.771899e+01 -5.423377e+00 9.842898e-01 -8.809296e+00 -1.518865e+00 2.629775e+00 -2.666947e+00 7.656103e-01 3.657743e-01 -8.308318e-01 6.161967e+00 -1.900221e+00 6.317523e+01 -2.087701e+00 -8.219106e-02 8.043346e-01 -8.892911e-01 -6.396701e-01 4.787886e-01 -1.234725e+00 -3.145049e-01 6.345332e-01 -8.818293e-01 5.514557e-01 -5.103092e-01 1.992040e+00 -4.037563e-02 8.167630e-01 3.561746e-01 6.080318e-01 -1.230348e-01 -1.014879e-01 2.401520e-01 -3.003440e-01 9.063970e-01 1.150333e-01 -3.132613e-01 6.673874e-02 -2.177280e-01
<VARIANCE> 39
 1.794191e+01 3.458464e+01 1.200231e+01 4.709138e+01 3.562260e+01 2.196493e+01 3.597247e+01 2.804008e+01 1.896909e+01 3.153123e+01 1.120325e+01 4.088533e+01 4.546586e+01 3.322479e+00 1.113576e+00 6.410130e-01 2.375477e+00 2.362694e+00 1.209172e+00 1.716395e+00 1.176005e+00 2.798086e+00 1.489714e+00 1.680310e+00 1.539331e+00 2.221388e+00 9.024255e-01 1.834528e-01 3.206721e-01 7.162300e-01 1.152015e+00 3.364426e-01 6.775622e-01 5.299324e-01 4.529520e-01 5.596741e-01 4.353755e-01 3.870094e-01 3.856322e-01
<GCONST> 1.116706e+02
<STATE> 3
<MEAN> 39
 -2.477648e+01 -6.057662e+00 3.528566e+00 -9.943404e+00 -2.253436e+00 4.895969e+00 -7.181495e+00 -2.845081e+00 7.004634e+00 -2.005638e+00 9.371635e+00 -3.975314e+00 7.042590e+01 1.344772e+00 1.117887e+00 6.191658e-01 6.971562e-01 5.689306e-01 3.790596e-01 -8.241280e-01 -1.382606e+00 5.786334e-01 -3.188816e-01 -3.530895e-01 1.878972e-01 7.140273e-01 1.223749e+00 4.388565e-01 1.683064e-01 1.830676e-01 -1.196158e-01 5.996274e-03 1.409065e-01 -2.368121e-01 -3.587932e-01 -1.419871e-01 -4.992527e-01 1.991415e-01 -7.848853e-02
<VARIANCE> 39
 1.865709e+01 1.164633e+01 9.842241e+00 3.053506e+01 4.851123e+01 2.371293e+01 3.267485e+01 2.966827e+01 1.460933e+01 1.678106e+01 1.467802e+01 3.852266e+01 4.397405e+01 6.869771e+00 1.804438e+00 1.465077e+00 2.154634e+00 4.619046e+00 2.381004e+00 1.556837e+00 1.348066e+00 2.584534e+00 1.417608e+00 1.843583e+00 1.637772e+00 8.164008e-01 1.158069e-01 2.454234e-01 3.671816e-01 3.986865e-01 1.321472e+00 4.606889e-01 2.688718e-01 4.216194e-01 4.556728e-01 3.265648e-01 2.706450e-01 2.462329e-01 3.268995e-01
<GCONST> 1.074311e+02
<STATE> 4
<MEAN> 39
 -7.870704e+00 3.362468e+00 6.549136e+00 -3.037025e+00 8.900467e-01 5.876199e+00 -6.694491e+00 -8.237070e+00 3.228883e+00 -6.473894e+00 4.103432e+00 -1.769154e-01 7.051685e+01 4.474227e+00 1.646331e+00 1.058322e+00 -1.037178e-01 -3.005948e+00 -7.225175e-01 6.316539e-01 -1.737688e+00 -1.220539e+00 -1.224180e+00 -2.422258e+00 2.627662e-01 1.251226e+00 -4.058177e-01 -5.707127e-01 -1.408091e-01 -6.615443e-01 -9.823793e-01 3.717415e-02 3.869147e-01 -1.069183e-01 -6.068709e-02 3.552084e-01 -2.196780e-01 -2.718694e-01 1.020297e-01
<VARIANCE> 39
 3.066630e+01 4.099959e+00 1.358415e+01 1.179134e+01 3.265739e+01 1.889143e+01 3.186150e+01 2.456898e+01 7.799988e+00 2.300597e+01 1.257393e+01 1.448842e+01 7.890125e+01 1.717570e+00 3.301002e+00 2.893732e+00 2.097532e+00 4.236174e+00 9.233715e-01 3.878356e+00 3.191756e+00 4.396331e+00 2.123549e+00 1.381913e+00 1.492229e+00 9.828427e-01 9.225157e-01 4.173518e-01 3.295627e-01 7.929021e-02 7.298216e-01 4.449284e-01 1.977743e-01 3.971058e-01 3.614199e-01 3.092695e-01 3.450286e-01 1.955288e-01 2.106211e-01
<GCONST> 1.050838e+02
<TRANSP> 5
 0.000000e+00 1.000000e+00 0.000000e+00 0.000000e+00 0.000000e+00
 0.000000e+00 4.095580e-01 5.904420e-01 0.000000e+00 0.000000e+00
 0.000000e+00 0.000000e+00 7.432724e-01 2.567276e-01 0.000000e+00
 0.000000e+00 0.000000e+00 0.000000e+00 5.429525e-01 4.570475e-01
 0.000000e+00 0.000000e+00 0.000000e+00 0.000000e+00 0.000000e+00
<ENDHMM>
~h "vv"
<BEGINHMM>
<NUMSTATES> 5
<STATE> 2
<MEAN> 39
 2.713527e+00 8.350532e+00 3.441141e+00 -2.757286e+00 -2.962556e+00 -1.143308e+00 1.802131e+00 -2.861453e+00 5.924246e-01 -1.041989e+01 -5.270132e-01 3.006486e+00 6.801821e+01 -6.279722e-01 3.278818e-01 2.652855e-01 3.461586e-01 9.010872e-01 -2.957797e-01 -7.449403e-01 -2.329232e-01 -1.954832e-01 -1.196389e-01 3.672034e-01 -9.135687e-02 -4.030886e-01 -2.134318e-01 -8.417132e-02 3.136684e-02 -3.347553e-01 7.872010e-02 1.627430e-01 7.518751e-02 -7.187130e-02 4.170938e-02 1.375916e-01 -8.979583e-02 -1.457668e-01 1.073186e-01
<VARIANCE> 39
 1.549552e+01 8.564515e+00 4.957118e+00 1.433810e+01 1.680621e+01 8.389929e+00 1.368953e+01 1.033984e+01 1.103886e+01 2.378984e+01 1.351054e+01 6.739503e+00 1.721690e+01 7.907177e-01 5.409095e-01 8.256719e-01 2.672462e+00 1.439249e+00 1.116707e+00 1.255092e+00 9.738530e-01 1.215551e+00 1.767225e+00 1.279503e+00 1.096217e+00 2.295963e-01 2.275898e-01 7.863421e-02 1.769493e-01 2.307459e-01 2.222719e-01 1.221969e-01 2.364832e-01 1.742640e-01 2.926285e-01 2.428835e-01 2.412393e-01 1.701315e-01 8.671413e-02
<GCONST> 8.160858e+01
<STATE> 3
<MEAN> 39
 -1.342876e+01 6.816384e+00 1.132988e+01 -9.480359e+00 7.807845e+00 3.470997e+00 -5.398365e+00 -6.132335e+00 4.591622e+00 -4.900014e+00 -2.548824e+00 -3.356178e+00 6.885074e+01 -8.923127e-01 -6.732235e-01 9.314436e-01 -9.558177e-02 -1.534307e-01 -1.370529e-01 -1.472718e+00 -7.582414e-01 5.913041e-01 3.130169e-01 -7.354434e-01 -3.705102e-01 6.591900e-01 6.750799e-01 9.271306e-03 -2.211866e-01 5.237861e-01 -4.043446e-01 -2.190634e-01 7.877761e-02 7.692450e-02 -1.038608e-01 -9.978542e-02 4.251537e-03 2.342320e-01 -5.292149e-02
<VARIANCE> 39
 3.658492e+01 1.193153e+01 4.049249e+01 3.221462e+01 3.099474e+01 2.032655e+01 3.511818e+01 2.434670e+01 2.974718e+01 1.556665e+01 1.906184e+01 3.731656e+01 3.704642e+01 9.618481e+00 7.754621e-01 2.058819e+00 4.422040e+00 3.908870e+00 3.105662e+00 1.694639e+00 1.553764e+00 2.258348e+00 1.504509e+00 1.049557e+00 3.172614e+00 6.071559e-01 6.982842e-01 1.520396e-01 2.524745e-01 4.512971e-01 4.267415e-01 4.337631e-01 4.566098e-01 2.976883e-01 2.960400e-01 2.839107e-01 2.512047e-01 4.588569e-01 6.919981e-02
<GCONST> 1.086485e+02
<STATE> 4
<MEAN> 39
 -3.803482e+00 4.025249e+00 1.218585e+01 1.176044e-01 -1.318529e+00 -8.147599e-01 -8.281960e+00 -9.907534e+00 6.634542e+00 -4.935520e+00 -5.815683e+00 -6.948364e-01 6.900155e+01 3.687748e-01 3.321322e-02 -2.304084e-01 9.203561e-01 -4.746614e-01 -1.440598e-01 4.528930e-01 -1.665442e-02 -2.544875e-01 -3.262262e-01 2.538398e-02 3.010531e-01 -8.464290e-01 -2.990903e-01 1.079591e-01 3.604512e-02 -2.452240e-02 3.104384e-01 2.033523e-01 1.739126e-01 2.350995e-01 -1.841555e-02 3.505684e-02 1.251134e-01 -2.271003e-02 -1.297298e-01
<VARIANCE> 39
 1.196437e+01 7.914901e+00 2.961596e+01 1.318709e+01 1.223717e+01 4.678163e+00 1.767514e+01 1.062670e+01 3.057031e+01 8.269131e+00 2.375364e+01 1.288638e+01 3.603423e+01 1.598985e+00 1.037844e+00 3.379928e-01 8.222989e-01 1.530279e+00 6.691117e-01 7.923257e-01 1.008266e+00 8.463035e-01 7.971656e-01 1.093577e+00 5.263317e-01 2.987754e-01 7.561757e-02 1.076002e-01 8.399883e-02 1.099625e-01 9.183884e-02 1.169217e-01 2.175009e-01 1.759218e-01 1.834004e-01 1.645565e-01 1.852574e-01 1.109167e-01 2.196242e-02
<GCONST> 7.469333e+01
<TRANSP> 5
 0.000000e+00 1.000000e+00 0.000000e+00 0.000000e+00 0.000000e+00
 0.000000e+00 8.184392e-01 1.815608e-01 0.000000e+00 0.000000e+00
 0.000000e+00 0.000000e+00 7.064974e-01 2.935025e-01 0.000000e+00
 0.000000e+00 0.000000e+00 0.000000e+00 7.568854e-01 2.431146e-01
 0.000000e+00 0.000000e+00 0.000000e+00 0.000000e+00 0.000000e+00
<ENDHMM>
~h "wa"
<BEGINHMM>
<NUMSTATES> 5
<STATE> 2
<MEAN> 39
 -1.766832e+01 -7.944616e+00 2.512476e+00 -1.800192e+01 -2.375105e+00 -3.276592e+00 -9.517135e+00 3.092733e+00 -5.519338e-01 -3.461890e+00 8.472394e+00 -6.629556e-01 6.961194e+01 -1.765741e+00 -1.482230e-01 1.576887e+00 -2.712564e+00 3.977221e-01 1.779155e-01 -2.639004e+00 -1.088205e+00 -5.115861e-01 9.529389e-01 8.183055e-01 4.881016e-01 2.580656e+00 4.536049e-01 8.248747e-01 -6.396906e-01 1.215620e+00 7.046709e-01 7.690122e-01 9.809778e-01 -5.507503e-01 1.578435e-01 7.950406e-01 -2.220342e-01 4.205225e-01 -1.114755e+00
<VARIANCE> 39
 2.242120e+01 3.708935e+00 2.183139e+01 9.374199e+00 3.040451e+01 1.425730e+01 1.526227e+01 1.394180e+01 1.599966e+01 2.675702e+01 1.025024e+01 2.668138e+01 4.427584e+00 9.716426e-01 1.339640e+00 1.117481e+00 3.115977e+00 2.638757e+00 1.712310e+00 2.736180e+00 2.489852e+00 1.351636e+00 2.151130e+00 1.065429e+00 1.596070e+00 2.099249e+00 8.766258e-01 1.246753e-01 6.228554e-01 1.684019e-01 4.428316e-01 2.233187e-01 3.540738e-01 4.039274e-01 3.345697e-01 5.333562e-01 3.466315e-01 2.921898e-01 1.033620e-01
<GCONST> 9.827801e+01
<STATE> 3
<MEAN> 39
 -8.315790e+00 -1.995255e+00 -2.554948e+00 -1.946881e+01 -1.523974e+00 3.465623e+00 -6.443561e+00 -2.194732e-01 3.607301e-01 -8.350698e-01 5.090465e+00 2.720712e+00 7.081044e+01 3.766165e+00 1.110241e+00 -1.200817e+00 -8.915062e-02 -2.175013e+00 1.526234e+00 1.879925e+00 -1.085524e-02 1.409724e+00 -1.003074e+00 -1.835748e+00 2.906075e-01 6.657508e-01 3.373775e-01 -3.066430e-01 8.081280e-03 1.690925e-01 -8.026583e-01 9.243555e-02 3.573511e-01 1.642404e-01 3.786153e-01 -4.227610e-01 -3.142308e-01 -8.173806e-02 1.625207e-01
<VARIANCE> 39
 8.492620e+01 2.755152e+01 2.343828e+01 8.178492e+00 4.493481e+01 2.050015e+01 4.074045e+01 1.641852e+01 3.573092e+01 2.051927e+01 3.928120e+01 2.380983e+01 6.986454e+00 2.541943e+00 2.939750e+00 2.013975e+00 8.616750e-01 6.466091e+00 1.134152e+00 3.004255e+00 2.319677e+00 5.311093e+00 2.936613e+00 3.761680e+00 1.438044e+00 1.688895e+00 1.393346e+00 9.050013e-01 5.242758e-01 2.463155e-01 4.653387e-01 1.936384e-01 9.841038e-01 5.890804e-01 1.014843e+00 4.996792e-01 8.562709e-01 3.353195e-01 4.009360e-01
<GCONST> 1.172523e+02
<STATE> 4
<MEAN> 39
 1.714057e+00 -2.864584e+00 -8.026996e-01 -1.030857e+01 -7.784098e+00 4.349811e+00 -7.200213e+00 -1.188879e+01 8.896600e+00 -3.580925e+00 -3.766289e+00 5.511854e+00 7.594299e+01 -8.759426e-02 4.437041e-02 1.581331e-01 1.859720e-01 1.306142e-01 -4.225803e-02 -1.004478e-01 -4.712658e-01 -2.453271e-01 4.529234e-02 3.010617e-01 1.793020e-01 -4.457368e-02 -6.749159e-03 1.481648e-02 -6.598217e-03 -2.421213e-02 5.714859e-02 1.009387e-02 -1.008221e-02 1.099312e-02 -3.680090e-02 1.609634e-03 7.130741e-02 4.149071e-02 -5.186250e-02
<VARIANCE> 39
 5.615850e+01 3.489402e+01 2.358128e+01 6.423560e+01 8.886869e+01 6.092619e+01 5.992150e+01 6.194907e+01 3.021416e+01 3.430620e+01 3.132627e+01 3.231741e+01 2.131271e+01 4.620152e+00 1.957877e+00 1.655187e+00 3.757963e+00 4.601122e+00 3.207323e+00 2.594894e+00 2.901821e+00 2.740516e+00 3.863688e+00 2.358666e+00 2.456786e+00 1.107024e+00 7.959263e-01 2.725569e-01 3.322647e-01 6.058402e-01 6.212127e-01 3.858865e-01 2.930581e-01 4.588655e-01 6.044481e-01 6.572048e-01 4.603148e-01 4.179923e-01 1.555979e-01
<GCONST> 1.222813e+02
<TRANSP> 5
 0.000000e+00 1.000000e+00 0.000000e+00 0.000000e+00 0.000000e+00
 0.000000e+00 6.266081e-01 3.733918e-01 0.000000e+00 0.000000e+00
 0.000000e+00 0.000000e+00 8.488564e-01 1.511436e-01 0.000000e+00
 0.000000e+00 0.000000e+00 0.000000e+00 9.698712e-01 3.012881e-02
 0.000000e+00 0.000000e+00 0.000000e+00 0.000000e+00 0.000000e+00
<ENDHMM>
~h "we"
<BEGINHMM>
<NUMSTATES> 5
<STATE> 2
<MEAN> 39
 -4.241877e-01 1.224815e+01 1.242178e+01 -6.834153e+00 -1.809748e+01 9.626367e-01 -2.041874e+00 -1.325803e+01 1.044389e+01 1.965889e+00 -9.764454e+00 -1.048670e+00 6.365078e+01 3.945274e+00 1.418902e+00 2.649648e+00 -2.525635e+00 -5.306698e+00 2.233019e+00 2.057908e-01 -3.913061e+00 1.320254e+00 2.163840e-01 -3.754736e+00 -1.894682e-01 2.980009e+00 -8.828061e-01 -9.187037e-01 -7.514677e-01 2.578824e-01 1.270211e+00 7.292309e-01 5.074542e-01 8.016595e-01 -4.205706e-01 -2.074977e-01 7.535381e-01 1.123394e-01 -3.571948e-01
<VARIANCE> 39
 1.575520e+01 3.545717e+00 7.577921e+00 1.281278e+01 3.218196e+01 2.230881e+01 1.030371e+01 2.818640e+01 9.544418e+00 7.057840e+00 2.504788e+01 6.521866e+00 9.384821e+00 2.301626e+00 2.525394e+00 2.098713e+00 7.807419e-01 4.630103e+00 2.559930e+00 2.232184e+00 1.845212e+00 1.680561e+00 1.050135e+00 2.005177e+00 8.841596e-01 5.908697e-01 4.165699e-01 9.689937e-02 1.748900e-01 2.677392e-01 9.444022e-01 5.302937e-01 3.333331e-01 6.269545e-01 2.909776e-01 2.014706e-01 6.597549e-01 1.872222e-01 2.181692e-01
<GCONST> 9.584653e+01
<STATE> 3
<MEAN> 39
 4.086059e+00 1.158849e+01 1.225304e+01 -1.128299e+01 -1.933989e+01 6.099444e+00 -9.234527e-01 -1.255300e+01 8.317471e+00 -2.214350e+00 -1.152439e+01 -4.783099e+00 6.903674e+01 2.524861e-01 -6.037631e-03 -7.815639e-01 -2.358967e-01 4.099766e-01 -3.454005e-01 4.785998e-01 5.423846e-01 -7.138592e-01 -8.513557e-01 -1.908926e-01 -2.979622e-01 3.440938e-01 -1.146714e-01 -1.148570e-01 -2.935781e-01 1.615722e-01 2.304860e-01 -1.494459e-01 1.168357e-02 -1.164348e-01 -5.062492e-02 -9.609705e-02 1.547395e-01 2.601104e-01 -4.185556e-02
<VARIANCE> 39
 2.033266e+00 2.954242e+00 1.516557e+01 4.629625e+00 2.283156e+01 1.438192e+01 2.134689e+01 2.141707e+01 2.171230e+01 1.856874e+01 1.422475e+01 1.686551e+01 1.016802e+00 1.834119e-01 3.574360e-01 1.029294e+00 5.001532e-01 8.310788e-01 1.406469e+00 2.243540e+00 1.829467e+00 1.572802e+00 1.496069e+00 2.141748e+00 1.521879e+00 2.498696e-01 1.486263e-01 1.223674e-01 1.025945e-01 1.632373e-01 4.714883e-01 3.504750e-01 4.447480e-01 9.083909e-01 3.319284e-01 2.554651e-01 7.143450e-01 4.062898e-01 1.215783e-01
<GCONST> 8.335184e+01
<STATE> 4
<MEAN> 39
 -2.468869e-01 3.468373e+00 1.198031e+00 -6.691155e+00 -3.959191e+00 2.468385e+00 -1.101083e+01 -2.259723e+01 7.984146e+00 -3.653812e+00 -3.208669e+00 2.884942e+00 7.352105e+01 -1.426202e-01 -3.064289e-01 -1.724241e-01 -1.256668e-01 4.793049e-01 2.755978e-01 -3.881631e-01 -4.371786e-01 -1.003581e-02 2.738837e-01 9.508538e-01 5.898585e-01 5.180687e-02 1.146878e-01 5.673592e-02 6.981281e-02 -5.514828e-02 -1.529861e-01 6.459021e-02 4.956412e-02 1.566841e-01 2.691990e-02 4.006398e-02 2.724703e-02 -5.655099e-02 -5.943439e-02
<VARIANCE> 39
 7.466865e+01 2.460270e+01 1.921379e+01 4.569552e+01 7.187826e+01 1.919372e+01 8.452472e+01 4.794329e+01 4.784900e+01 2.871743e+01 3.856092e+01 2.146734e+01 1.516172e+01 7.958184e+00 3.442583e+00 2.742475e+00 4.427006e+00 5.530293e+00 2.261086e+00 7.489436e+00 6.184268e+00 4.558071e+00 4.187953e+00 3.924989e+00 3.636871e+00 1.602742e+00 1.214921e+00 4.674108e-01 4.058000e-01 6.718935e-01 6.679477e-01 4.096015e-01 9.998457e-01 7.629041e-01 7.425615e-01 9.786386e-01 9.925122e-01 6.172899e-01 2.186560e-01
<GCONST> 1.306566e+02
<TRANSP> 5
 0.000000e+00 1.000000e+00 0.000000e+00 0.000000e+00 0.000000e+00
 0.000000e+00 6.589461e-01 3.410539e-01 0.000000e+00 0.000000e+00
 0.000000e+00 0.000000e+00 9.204523e-01 7.954767e-02 0.000000e+00
 0.000000e+00 0.000000e+00 0.000000e+00 9.539216e-01 4.607840e-02
 0.000000e+00 0.000000e+00 0.000000e+00 0.000000e+00 0.000000e+00
<ENDHMM>
~h "sil"
<BEGINHMM>
<NUMSTATES> 5
<STATE> 2
<MEAN> 39
 -1.559625e+01 1.533968e+00 -9.988091e-01 2.541052e-01 2.999589e+00 1.674110e+00 3.792474e+00 2.182688e-01 3.608892e+00 5.695621e-01 3.779318e+00 5.934777e-01 5.456869e+01 -6.733297e-02 -3.213151e-02 3.833637e-02 4.889742e-02 -2.578836e-02 3.895739e-03 2.345939e-02 4.860289e-02 -3.170514e-03 3.437716e-02 7.285749e-03 6.290056e-02 -6.867091e-02 1.595083e-02 2.212537e-02 5.135241e-02 3.973664e-02 -1.176699e-02 -6.083890e-03 -1.657870e-03 3.743003e-02 1.970431e-02 1.136496e-02 -5.205266e-03 -1.824349e-02 -1.858661e-02
<VARIANCE> 39
 3.475556e+00 4.229965e+00 8.440156e+00 8.995154e+00 8.448093e+00 1.077470e+01 1.172769e+01 1.284557e+01 1.165329e+01 1.066543e+01 1.116572e+01 9.293213e+00 5.187452e+00 3.973365e-01 4.451077e-01 1.069787e+00 1.005240e+00 9.248076e-01 1.199540e+00 1.172311e+00 1.462026e+00 1.133489e+00 1.068606e+00 1.040021e+00 9.618436e-01 7.053586e-01 7.816093e-02 9.116764e-02 2.106888e-01 1.974953e-01 1.769678e-01 2.434413e-01 2.115892e-01 2.895603e-01 2.132269e-01 2.074066e-01 1.941274e-01 1.791129e-01 1.497634e-01
<GCONST> 7.572089e+01
<STATE> 3
<MEAN> 39
 -1.637926e+01 1.274903e+00 -5.633823e-02 1.250006e+00 3.065851e+00 1.944230e+00 4.430748e+00 1.613847e+00 4.379886e+00 1.271035e+00 4.157200e+00 1.162444e+00 5.351042e+01 -2.652355e-03 -3.921001e-03 6.591828e-04 7.954924e-03 7.332297e-04 8.089565e-03 2.944342e-03 1.470398e-02 7.737651e-03 6.322499e-03 9.471112e-03 9.544444e-03 -4.444561e-03 2.816835e-03 1.670216e-03 -4.204261e-03 -5.906564e-03 -1.826083e-04 -3.793668e-03 -3.335993e-03 -7.863800e-03 -7.032016e-03 -5.553017e-03 -8.380921e-04 -3.762553e-03 3.652553e-03
<VARIANCE> 39
 8.180287e-01 1.492157e+00 2.625410e+00 4.108429e+00 5.358251e+00 6.557993e+00 7.768200e+00 8.530093e+00 9.007633e+00 9.202737e+00 9.296214e+00 8.383076e+00 6.052197e-01 7.175681e-02 1.582341e-01 2.784021e-01 4.276404e-01 5.775136e-01 7.043291e-01 8.595588e-01 9.237871e-01 9.878079e-01 9.656757e-01 9.551210e-01 9.155553e-01 2.055905e-02 1.497047e-02 3.297617e-02 5.740293e-02 8.819409e-02 1.189034e-01 1.456370e-01 1.798517e-01 1.887712e-01 2.048859e-01 2.000747e-01 1.989240e-01 1.912992e-01 4.363557e-03
<GCONST> 4.624075e+01
<STATE> 4
<MEAN> 39
 -1.595238e+01 1.270908e+00 -5.821529e-01 6.351345e-01 2.835921e+00 1.821138e+00 3.904191e+00 7.854479e-01 3.623734e+00 7.568543e-01 3.973431e+00 1.150290e+00 5.387314e+01 1.759919e-03 1.084440e-02 1.128364e-02 -8.113239e-03 -3.565860e-02 -3.025699e-02 2.880359e-02 2.266485e-02 1.169822e-02 6.348576e-03 -9.728700e-03 2.971140e-02 1.001821e-03 4.342805e-03 -4.029444e-03 7.440552e-03 -1.276043e-02 -1.552718e-02 1.645245e-03 1.357825e-02 2.118825e-02 1.351399e-02 6.169055e-03 9.588990e-05 1.081933e-03 5.558474e-03
<VARIANCE> 39
 1.665092e+00 2.245374e+00 5.311926e+00 5.646528e+00 6.575788e+00 7.787467e+00 9.945894e+00 1.036693e+01 1.130233e+01 9.809600e+00 9.038257e+00 8.338759e+00 7.211455e-01 1.993416e-01 2.560819e-01 6.850843e-01 6.886821e-01 6.993289e-01 8.410867e-01 1.132946e+00 1.251820e+00 1.241372e+00 1.116420e+00 1.011229e+00 9.385767e-01 9.343287e-02 4.455630e-02 5.780000e-02 1.515202e-01 1.440558e-01 1.448838e-01 1.702573e-01 2.319737e-01 2.463154e-01 2.468620e-01 2.220103e-01 2.035052e-01 1.891484e-01 2.350486e-02
<GCONST> 6.140595e+01
<TRANSP> 5
 0.000000e+00 1.000000e+00 0.000000e+00 0.000000e+00 0.000000e+00
 0.000000e+00 7.985132e-01 2.014868e-01 0.000000e+00 0.000000e+00
 0.000000e+00 0.000000e+00 9.742290e-01 2.577096e-02 0.000000e+00
 0.000000e+00 0.000000e+00 0.000000e+00 8.598989e-01 1.401011e-01
 0.000000e+00 0.000000e+00 0.000000e+00 0.000000e+00 0.000000e+00
<ENDHMM>
