~o
<STREAMINFO> 1 39
<VECSIZE> 39<NULLD><MFCC_D_A_0><DIAGC>
~h "aa"
<BEGINHMM>
<NUMSTATES> 5
<STATE> 2
<MEAN> 39
 -1.238183e+01 2.376559e+00 1.040906e+00 -8.364820e-01 1.212676e+00 1.904186e+00 1.784149e+00 -1.644164e+00 4.002038e+00 -7.534810e-01 2.404808e+00 9.652172e-01 5.807533e+01 -3.376544e-04 -6.137493e-04 2.135697e-03 2.967777e-03 -5.754571e-03 -2.394226e-03 -1.645701e-03 2.596329e-03 -4.137663e-03 -2.360419e-03 -3.045151e-03 2.491291e-03 -3.662518e-03 4.135441e-04 6.670943e-05 -9.607423e-05 -9.743288e-04 -6.608778e-04 -7.298387e-04 4.831289e-04 9.372712e-04 5.934813e-04 2.364275e-04 6.813302e-04 -1.726791e-03 -2.815625e-04
<VARIANCE> 39
 5.369328e+01 1.455297e+01 1.656892e+01 3.228448e+01 3.013851e+01 1.803451e+01 3.400043e+01 4.360264e+01 2.082343e+01 2.173481e+01 2.380557e+01 1.643193e+01 6.052197e+01 1.281009e+00 6.404867e-01 8.052753e-01 1.346645e+00 1.556633e+00 1.192262e+00 1.553622e+00 1.588371e+00 1.550959e+00 1.428319e+00 1.391155e+00 1.220703e+00 6.135530e-01 1.812593e-01 1.088574e-01 1.392495e-01 2.214202e-01 2.578802e-01 2.141607e-01 2.728381e-01 2.899192e-01 2.872912e-01 2.790129e-01 2.744539e-01 2.348796e-01 7.598913e-02
<GCONST> 9.596781e+01
<STATE> 3
<MEAN> 39
 -1.238183e+01 2.376559e+00 1.040906e+00 -8.364820e-01 1.212676e+00 1.904186e+00 1.784149e+00 -1.644164e+00 4.002038e+00 -7.534810e-01 2.404808e+00 9.652172e-01 5.807533e+01 -3.376544e-04 -6.137493e-04 2.135697e-03 2.967777e-03 -5.754571e-03 -2.394226e-03 -1.645701e-03 2.596329e-03 -4.137663e-03 -2.360419e-03 -3.045151e-03 2.491291e-03 -3.662518e-03 4.135441e-04 6.670943e-05 -9.607423e-05 -9.743288e-04 -6.608778e-04 -7.298387e-04 4.831289e-04 9.372712e-04 5.934813e-04 2.364275e-04 6.813302e-04 -1.726791e-03 -2.815625e-04
<VARIANCE> 39
 5.369328e+01 1.455297e+01 1.656892e+01 3.228448e+01 3.013851e+01 1.803451e+01 3.400043e+01 4.360264e+01 2.082343e+01 2.173481e+01 2.380557e+01 1.643193e+01 6.052197e+01 1.281009e+00 6.404867e-01 8.052753e-01 1.346645e+00 1.556633e+00 1.192262e+00 1.553622e+00 1.588371e+00 1.550959e+00 1.428319e+00 1.391155e+00 1.220703e+00 6.135530e-01 1.812593e-01 1.088574e-01 1.392495e-01 2.214202e-01 2.578802e-01 2.141607e-01 2.728381e-01 2.899192e-01 2.872912e-01 2.790129e-01 2.744539e-01 2.348796e-01 7.598913e-02
<GCONST> 9.596781e+01
<STATE> 4
<MEAN> 39
 -1.238183e+01 2.376559e+00 1.040906e+00 -8.364820e-01 1.212676e+00 1.904186e+00 1.784149e+00 -1.644164e+00 4.002038e+00 -7.534810e-01 2.404808e+00 9.652172e-01 5.807533e+01 -3.376544e-04 -6.137493e-04 2.135697e-03 2.967777e-03 -5.754571e-03 -2.394226e-03 -1.645701e-03 2.596329e-03 -4.137663e-03 -2.360419e-03 -3.045151e-03 2.491291e-03 -3.662518e-03 4.135441e-04 6.670943e-05 -9.607423e-05 -9.743288e-04 -6.608778e-04 -7.298387e-04 4.831289e-04 9.372712e-04 5.934813e-04 2.364275e-04 6.813302e-04 -1.726791e-03 -2.815625e-04
<VARIANCE> 39
 5.369328e+01 1.455297e+01 1.656892e+01 3.228448e+01 3.013851e+01 1.803451e+01 3.400043e+01 4.360264e+01 2.082343e+01 2.173481e+01 2.380557e+01 1.643193e+01 6.052197e+01 1.281009e+00 6.404867e-01 8.052753e-01 1.346645e+00 1.556633e+00 1.192262e+00 1.553622e+00 1.588371e+00 1.550959e+00 1.428319e+00 1.391155e+00 1.220703e+00 6.135530e-01 1.812593e-01 1.088574e-01 1.392495e-01 2.214202e-01 2.578802e-01 2.141607e-01 2.728381e-01 2.899192e-01 2.872912e-01 2.790129e-01 2.744539e-01 2.348796e-01 7.598913e-02
<GCONST> 9.596781e+01
<TRANSP> 5
 0.000000e+00 1.000000e+00 0.000000e+00 0.000000e+00 0.000000e+00
 0.000000e+00 6.000000e-01 4.000000e-01 0.000000e+00 0.000000e+00
 0.000000e+00 0.000000e+00 6.000000e-01 4.000000e-01 0.000000e+00
 0.000000e+00 0.000000e+00 0.000000e+00 7.000000e-01 3.000000e-01
 0.000000e+00 0.000000e+00 0.000000e+00 0.000000e+00 0.000000e+00
<ENDHMM>
~h "we"
<BEGINHMM>
<NUMSTATES> 5
<STATE> 2
<MEAN> 39
 -1.238183e+01 2.376559e+00 1.040906e+00 -8.364820e-01 1.212676e+00 1.904186e+00 1.784149e+00 -1.644164e+00 4.002038e+00 -7.534810e-01 2.404808e+00 9.652172e-01 5.807533e+01 -3.376544e-04 -6.137493e-04 2.135697e-03 2.967777e-03 -5.754571e-03 -2.394226e-03 -1.645701e-03 2.596329e-03 -4.137663e-03 -2.360419e-03 -3.045151e-03 2.491291e-03 -3.662518e-03 4.135441e-04 6.670943e-05 -9.607423e-05 -9.743288e-04 -6.608778e-04 -7.298387e-04 4.831289e-04 9.372712e-04 5.934813e-04 2.364275e-04 6.813302e-04 -1.726791e-03 -2.815625e-04
<VARIANCE> 39
 5.369328e+01 1.455297e+01 1.656892e+01 3.228448e+01 3.013851e+01 1.803451e+01 3.400043e+01 4.360264e+01 2.082343e+01 2.173481e+01 2.380557e+01 1.643193e+01 6.052197e+01 1.281009e+00 6.404867e-01 8.052753e-01 1.346645e+00 1.556633e+00 1.192262e+00 1.553622e+00 1.588371e+00 1.550959e+00 1.428319e+00 1.391155e+00 1.220703e+00 6.135530e-01 1.812593e-01 1.088574e-01 1.392495e-01 2.214202e-01 2.578802e-01 2.141607e-01 2.728381e-01 2.899192e-01 2.872912e-01 2.790129e-01 2.744539e-01 2.348796e-01 7.598913e-02
<GCONST> 9.596781e+01
<STATE> 3
<MEAN> 39
 -1.238183e+01 2.376559e+00 1.040906e+00 -8.364820e-01 1.212676e+00 1.904186e+00 1.784149e+00 -1.644164e+00 4.002038e+00 -7.534810e-01 2.404808e+00 9.652172e-01 5.807533e+01 -3.376544e-04 -6.137493e-04 2.135697e-03 2.967777e-03 -5.754571e-03 -2.394226e-03 -1.645701e-03 2.596329e-03 -4.137663e-03 -2.360419e-03 -3.045151e-03 2.491291e-03 -3.662518e-03 4.135441e-04 6.670943e-05 -9.607423e-05 -9.743288e-04 -6.608778e-04 -7.298387e-04 4.831289e-04 9.372712e-04 5.934813e-04 2.364275e-04 6.813302e-04 -1.726791e-03 -2.815625e-04
<VARIANCE> 39
 5.369328e+01 1.455297e+01 1.656892e+01 3.228448e+01 3.013851e+01 1.803451e+01 3.400043e+01 4.360264e+01 2.082343e+01 2.173481e+01 2.380557e+01 1.643193e+01 6.052197e+01 1.281009e+00 6.404867e-01 8.052753e-01 1.346645e+00 1.556633e+00 1.192262e+00 1.553622e+00 1.588371e+00 1.550959e+00 1.428319e+00 1.391155e+00 1.220703e+00 6.135530e-01 1.812593e-01 1.088574e-01 1.392495e-01 2.214202e-01 2.578802e-01 2.141607e-01 2.728381e-01 2.899192e-01 2.872912e-01 2.790129e-01 2.744539e-01 2.348796e-01 7.598913e-02
<GCONST> 9.596781e+01
<STATE> 4
<MEAN> 39
 -1.238183e+01 2.376559e+00 1.040906e+00 -8.364820e-01 1.212676e+00 1.904186e+00 1.784149e+00 -1.644164e+00 4.002038e+00 -7.534810e-01 2.404808e+00 9.652172e-01 5.807533e+01 -3.376544e-04 -6.137493e-04 2.135697e-03 2.967777e-03 -5.754571e-03 -2.394226e-03 -1.645701e-03 2.596329e-03 -4.137663e-03 -2.360419e-03 -3.045151e-03 2.491291e-03 -3.662518e-03 4.135441e-04 6.670943e-05 -9.607423e-05 -9.743288e-04 -6.608778e-04 -7.298387e-04 4.831289e-04 9.372712e-04 5.934813e-04 2.364275e-04 6.813302e-04 -1.726791e-03 -2.815625e-04
<VARIANCE> 39
 5.369328e+01 1.455297e+01 1.656892e+01 3.228448e+01 3.013851e+01 1.803451e+01 3.400043e+01 4.360264e+01 2.082343e+01 2.173481e+01 2.380557e+01 1.643193e+01 6.052197e+01 1.281009e+00 6.404867e-01 8.052753e-01 1.346645e+00 1.556633e+00 1.192262e+00 1.553622e+00 1.588371e+00 1.550959e+00 1.428319e+00 1.391155e+00 1.220703e+00 6.135530e-01 1.812593e-01 1.088574e-01 1.392495e-01 2.214202e-01 2.578802e-01 2.141607e-01 2.728381e-01 2.899192e-01 2.872912e-01 2.790129e-01 2.744539e-01 2.348796e-01 7.598913e-02
<GCONST> 9.596781e+01
<TRANSP> 5
 0.000000e+00 1.000000e+00 0.000000e+00 0.000000e+00 0.000000e+00
 0.000000e+00 6.000000e-01 4.000000e-01 0.000000e+00 0.000000e+00
 0.000000e+00 0.000000e+00 6.000000e-01 4.000000e-01 0.000000e+00
 0.000000e+00 0.000000e+00 0.000000e+00 7.000000e-01 3.000000e-01
 0.000000e+00 0.000000e+00 0.000000e+00 0.000000e+00 0.000000e+00
<ENDHMM>
~h "B"
<BEGINHMM>
<NUMSTATES> 5
<STATE> 2
<MEAN> 39
 -1.238183e+01 2.376559e+00 1.040906e+00 -8.364820e-01 1.212676e+00 1.904186e+00 1.784149e+00 -1.644164e+00 4.002038e+00 -7.534810e-01 2.404808e+00 9.652172e-01 5.807533e+01 -3.376544e-04 -6.137493e-04 2.135697e-03 2.967777e-03 -5.754571e-03 -2.394226e-03 -1.645701e-03 2.596329e-03 -4.137663e-03 -2.360419e-03 -3.045151e-03 2.491291e-03 -3.662518e-03 4.135441e-04 6.670943e-05 -9.607423e-05 -9.743288e-04 -6.608778e-04 -7.298387e-04 4.831289e-04 9.372712e-04 5.934813e-04 2.364275e-04 6.813302e-04 -1.726791e-03 -2.815625e-04
<VARIANCE> 39
 5.369328e+01 1.455297e+01 1.656892e+01 3.228448e+01 3.013851e+01 1.803451e+01 3.400043e+01 4.360264e+01 2.082343e+01 2.173481e+01 2.380557e+01 1.643193e+01 6.052197e+01 1.281009e+00 6.404867e-01 8.052753e-01 1.346645e+00 1.556633e+00 1.192262e+00 1.553622e+00 1.588371e+00 1.550959e+00 1.428319e+00 1.391155e+00 1.220703e+00 6.135530e-01 1.812593e-01 1.088574e-01 1.392495e-01 2.214202e-01 2.578802e-01 2.141607e-01 2.728381e-01 2.899192e-01 2.872912e-01 2.790129e-01 2.744539e-01 2.348796e-01 7.598913e-02
<GCONST> 9.596781e+01
<STATE> 3
<MEAN> 39
 -1.238183e+01 2.376559e+00 1.040906e+00 -8.364820e-01 1.212676e+00 1.904186e+00 1.784149e+00 -1.644164e+00 4.002038e+00 -7.534810e-01 2.404808e+00 9.652172e-01 5.807533e+01 -3.376544e-04 -6.137493e-04 2.135697e-03 2.967777e-03 -5.754571e-03 -2.394226e-03 -1.645701e-03 2.596329e-03 -4.137663e-03 -2.360419e-03 -3.045151e-03 2.491291e-03 -3.662518e-03 4.135441e-04 6.670943e-05 -9.607423e-05 -9.743288e-04 -6.608778e-04 -7.298387e-04 4.831289e-04 9.372712e-04 5.934813e-04 2.364275e-04 6.813302e-04 -1.726791e-03 -2.815625e-04
<VARIANCE> 39
 5.369328e+01 1.455297e+01 1.656892e+01 3.228448e+01 3.013851e+01 1.803451e+01 3.400043e+01 4.360264e+01 2.082343e+01 2.173481e+01 2.380557e+01 1.643193e+01 6.052197e+01 1.281009e+00 6.404867e-01 8.052753e-01 1.346645e+00 1.556633e+00 1.192262e+00 1.553622e+00 1.588371e+00 1.550959e+00 1.428319e+00 1.391155e+00 1.220703e+00 6.135530e-01 1.812593e-01 1.088574e-01 1.392495e-01 2.214202e-01 2.578802e-01 2.141607e-01 2.728381e-01 2.899192e-01 2.872912e-01 2.790129e-01 2.744539e-01 2.348796e-01 7.598913e-02
<GCONST> 9.596781e+01
<STATE> 4
<MEAN> 39
 -1.238183e+01 2.376559e+00 1.040906e+00 -8.364820e-01 1.212676e+00 1.904186e+00 1.784149e+00 -1.644164e+00 4.002038e+00 -7.534810e-01 2.404808e+00 9.652172e-01 5.807533e+01 -3.376544e-04 -6.137493e-04 2.135697e-03 2.967777e-03 -5.754571e-03 -2.394226e-03 -1.645701e-03 2.596329e-03 -4.137663e-03 -2.360419e-03 -3.045151e-03 2.491291e-03 -3.662518e-03 4.135441e-04 6.670943e-05 -9.607423e-05 -9.743288e-04 -6.608778e-04 -7.298387e-04 4.831289e-04 9.372712e-04 5.934813e-04 2.364275e-04 6.813302e-04 -1.726791e-03 -2.815625e-04
<VARIANCE> 39
 5.369328e+01 1.455297e+01 1.656892e+01 3.228448e+01 3.013851e+01 1.803451e+01 3.400043e+01 4.360264e+01 2.082343e+01 2.173481e+01 2.380557e+01 1.643193e+01 6.052197e+01 1.281009e+00 6.404867e-01 8.052753e-01 1.346645e+00 1.556633e+00 1.192262e+00 1.553622e+00 1.588371e+00 1.550959e+00 1.428319e+00 1.391155e+00 1.220703e+00 6.135530e-01 1.812593e-01 1.088574e-01 1.392495e-01 2.214202e-01 2.578802e-01 2.141607e-01 2.728381e-01 2.899192e-01 2.872912e-01 2.790129e-01 2.744539e-01 2.348796e-01 7.598913e-02
<GCONST> 9.596781e+01
<TRANSP> 5
 0.000000e+00 1.000000e+00 0.000000e+00 0.000000e+00 0.000000e+00
 0.000000e+00 6.000000e-01 4.000000e-01 0.000000e+00 0.000000e+00
 0.000000e+00 0.000000e+00 6.000000e-01 4.000000e-01 0.000000e+00
 0.000000e+00 0.000000e+00 0.000000e+00 7.000000e-01 3.000000e-01
 0.000000e+00 0.000000e+00 0.000000e+00 0.000000e+00 0.000000e+00
<ENDHMM>
~h "nn"
<BEGINHMM>
<NUMSTATES> 5
<STATE> 2
<MEAN> 39
 -1.238183e+01 2.376559e+00 1.040906e+00 -8.364820e-01 1.212676e+00 1.904186e+00 1.784149e+00 -1.644164e+00 4.002038e+00 -7.534810e-01 2.404808e+00 9.652172e-01 5.807533e+01 -3.376544e-04 -6.137493e-04 2.135697e-03 2.967777e-03 -5.754571e-03 -2.394226e-03 -1.645701e-03 2.596329e-03 -4.137663e-03 -2.360419e-03 -3.045151e-03 2.491291e-03 -3.662518e-03 4.135441e-04 6.670943e-05 -9.607423e-05 -9.743288e-04 -6.608778e-04 -7.298387e-04 4.831289e-04 9.372712e-04 5.934813e-04 2.364275e-04 6.813302e-04 -1.726791e-03 -2.815625e-04
<VARIANCE> 39
 5.369328e+01 1.455297e+01 1.656892e+01 3.228448e+01 3.013851e+01 1.803451e+01 3.400043e+01 4.360264e+01 2.082343e+01 2.173481e+01 2.380557e+01 1.643193e+01 6.052197e+01 1.281009e+00 6.404867e-01 8.052753e-01 1.346645e+00 1.556633e+00 1.192262e+00 1.553622e+00 1.588371e+00 1.550959e+00 1.428319e+00 1.391155e+00 1.220703e+00 6.135530e-01 1.812593e-01 1.088574e-01 1.392495e-01 2.214202e-01 2.578802e-01 2.141607e-01 2.728381e-01 2.899192e-01 2.872912e-01 2.790129e-01 2.744539e-01 2.348796e-01 7.598913e-02
<GCONST> 9.596781e+01
<STATE> 3
<MEAN> 39
 -1.238183e+01 2.376559e+00 1.040906e+00 -8.364820e-01 1.212676e+00 1.904186e+00 1.784149e+00 -1.644164e+00 4.002038e+00 -7.534810e-01 2.404808e+00 9.652172e-01 5.807533e+01 -3.376544e-04 -6.137493e-04 2.135697e-03 2.967777e-03 -5.754571e-03 -2.394226e-03 -1.645701e-03 2.596329e-03 -4.137663e-03 -2.360419e-03 -3.045151e-03 2.491291e-03 -3.662518e-03 4.135441e-04 6.670943e-05 -9.607423e-05 -9.743288e-04 -6.608778e-04 -7.298387e-04 4.831289e-04 9.372712e-04 5.934813e-04 2.364275e-04 6.813302e-04 -1.726791e-03 -2.815625e-04
<VARIANCE> 39
 5.369328e+01 1.455297e+01 1.656892e+01 3.228448e+01 3.013851e+01 1.803451e+01 3.400043e+01 4.360264e+01 2.082343e+01 2.173481e+01 2.380557e+01 1.643193e+01 6.052197e+01 1.281009e+00 6.404867e-01 8.052753e-01 1.346645e+00 1.556633e+00 1.192262e+00 1.553622e+00 1.588371e+00 1.550959e+00 1.428319e+00 1.391155e+00 1.220703e+00 6.135530e-01 1.812593e-01 1.088574e-01 1.392495e-01 2.214202e-01 2.578802e-01 2.141607e-01 2.728381e-01 2.899192e-01 2.872912e-01 2.790129e-01 2.744539e-01 2.348796e-01 7.598913e-02
<GCONST> 9.596781e+01
<STATE> 4
<MEAN> 39
 -1.238183e+01 2.376559e+00 1.040906e+00 -8.364820e-01 1.212676e+00 1.904186e+00 1.784149e+00 -1.644164e+00 4.002038e+00 -7.534810e-01 2.404808e+00 9.652172e-01 5.807533e+01 -3.376544e-04 -6.137493e-04 2.135697e-03 2.967777e-03 -5.754571e-03 -2.394226e-03 -1.645701e-03 2.596329e-03 -4.137663e-03 -2.360419e-03 -3.045151e-03 2.491291e-03 -3.662518e-03 4.135441e-04 6.670943e-05 -9.607423e-05 -9.743288e-04 -6.608778e-04 -7.298387e-04 4.831289e-04 9.372712e-04 5.934813e-04 2.364275e-04 6.813302e-04 -1.726791e-03 -2.815625e-04
<VARIANCE> 39
 5.369328e+01 1.455297e+01 1.656892e+01 3.228448e+01 3.013851e+01 1.803451e+01 3.400043e+01 4.360264e+01 2.082343e+01 2.173481e+01 2.380557e+01 1.643193e+01 6.052197e+01 1.281009e+00 6.404867e-01 8.052753e-01 1.346645e+00 1.556633e+00 1.192262e+00 1.553622e+00 1.588371e+00 1.550959e+00 1.428319e+00 1.391155e+00 1.220703e+00 6.135530e-01 1.812593e-01 1.088574e-01 1.392495e-01 2.214202e-01 2.578802e-01 2.141607e-01 2.728381e-01 2.899192e-01 2.872912e-01 2.790129e-01 2.744539e-01 2.348796e-01 7.598913e-02
<GCONST> 9.596781e+01
<TRANSP> 5
 0.000000e+00 1.000000e+00 0.000000e+00 0.000000e+00 0.000000e+00
 0.000000e+00 6.000000e-01 4.000000e-01 0.000000e+00 0.000000e+00
 0.000000e+00 0.000000e+00 6.000000e-01 4.000000e-01 0.000000e+00
 0.000000e+00 0.000000e+00 0.000000e+00 7.000000e-01 3.000000e-01
 0.000000e+00 0.000000e+00 0.000000e+00 0.000000e+00 0.000000e+00
<ENDHMM>
~h "wa"
<BEGINHMM>
<NUMSTATES> 5
<STATE> 2
<MEAN> 39
 -1.238183e+01 2.376559e+00 1.040906e+00 -8.364820e-01 1.212676e+00 1.904186e+00 1.784149e+00 -1.644164e+00 4.002038e+00 -7.534810e-01 2.404808e+00 9.652172e-01 5.807533e+01 -3.376544e-04 -6.137493e-04 2.135697e-03 2.967777e-03 -5.754571e-03 -2.394226e-03 -1.645701e-03 2.596329e-03 -4.137663e-03 -2.360419e-03 -3.045151e-03 2.491291e-03 -3.662518e-03 4.135441e-04 6.670943e-05 -9.607423e-05 -9.743288e-04 -6.608778e-04 -7.298387e-04 4.831289e-04 9.372712e-04 5.934813e-04 2.364275e-04 6.813302e-04 -1.726791e-03 -2.815625e-04
<VARIANCE> 39
 5.369328e+01 1.455297e+01 1.656892e+01 3.228448e+01 3.013851e+01 1.803451e+01 3.400043e+01 4.360264e+01 2.082343e+01 2.173481e+01 2.380557e+01 1.643193e+01 6.052197e+01 1.281009e+00 6.404867e-01 8.052753e-01 1.346645e+00 1.556633e+00 1.192262e+00 1.553622e+00 1.588371e+00 1.550959e+00 1.428319e+00 1.391155e+00 1.220703e+00 6.135530e-01 1.812593e-01 1.088574e-01 1.392495e-01 2.214202e-01 2.578802e-01 2.141607e-01 2.728381e-01 2.899192e-01 2.872912e-01 2.790129e-01 2.744539e-01 2.348796e-01 7.598913e-02
<GCONST> 9.596781e+01
<STATE> 3
<MEAN> 39
 -1.238183e+01 2.376559e+00 1.040906e+00 -8.364820e-01 1.212676e+00 1.904186e+00 1.784149e+00 -1.644164e+00 4.002038e+00 -7.534810e-01 2.404808e+00 9.652172e-01 5.807533e+01 -3.376544e-04 -6.137493e-04 2.135697e-03 2.967777e-03 -5.754571e-03 -2.394226e-03 -1.645701e-03 2.596329e-03 -4.137663e-03 -2.360419e-03 -3.045151e-03 2.491291e-03 -3.662518e-03 4.135441e-04 6.670943e-05 -9.607423e-05 -9.743288e-04 -6.608778e-04 -7.298387e-04 4.831289e-04 9.372712e-04 5.934813e-04 2.364275e-04 6.813302e-04 -1.726791e-03 -2.815625e-04
<VARIANCE> 39
 5.369328e+01 1.455297e+01 1.656892e+01 3.228448e+01 3.013851e+01 1.803451e+01 3.400043e+01 4.360264e+01 2.082343e+01 2.173481e+01 2.380557e+01 1.643193e+01 6.052197e+01 1.281009e+00 6.404867e-01 8.052753e-01 1.346645e+00 1.556633e+00 1.192262e+00 1.553622e+00 1.588371e+00 1.550959e+00 1.428319e+00 1.391155e+00 1.220703e+00 6.135530e-01 1.812593e-01 1.088574e-01 1.392495e-01 2.214202e-01 2.578802e-01 2.141607e-01 2.728381e-01 2.899192e-01 2.872912e-01 2.790129e-01 2.744539e-01 2.348796e-01 7.598913e-02
<GCONST> 9.596781e+01
<STATE> 4
<MEAN> 39
 -1.238183e+01 2.376559e+00 1.040906e+00 -8.364820e-01 1.212676e+00 1.904186e+00 1.784149e+00 -1.644164e+00 4.002038e+00 -7.534810e-01 2.404808e+00 9.652172e-01 5.807533e+01 -3.376544e-04 -6.137493e-04 2.135697e-03 2.967777e-03 -5.754571e-03 -2.394226e-03 -1.645701e-03 2.596329e-03 -4.137663e-03 -2.360419e-03 -3.045151e-03 2.491291e-03 -3.662518e-03 4.135441e-04 6.670943e-05 -9.607423e-05 -9.743288e-04 -6.608778e-04 -7.298387e-04 4.831289e-04 9.372712e-04 5.934813e-04 2.364275e-04 6.813302e-04 -1.726791e-03 -2.815625e-04
<VARIANCE> 39
 5.369328e+01 1.455297e+01 1.656892e+01 3.228448e+01 3.013851e+01 1.803451e+01 3.400043e+01 4.360264e+01 2.082343e+01 2.173481e+01 2.380557e+01 1.643193e+01 6.052197e+01 1.281009e+00 6.404867e-01 8.052753e-01 1.346645e+00 1.556633e+00 1.192262e+00 1.553622e+00 1.588371e+00 1.550959e+00 1.428319e+00 1.391155e+00 1.220703e+00 6.135530e-01 1.812593e-01 1.088574e-01 1.392495e-01 2.214202e-01 2.578802e-01 2.141607e-01 2.728381e-01 2.899192e-01 2.872912e-01 2.790129e-01 2.744539e-01 2.348796e-01 7.598913e-02
<GCONST> 9.596781e+01
<TRANSP> 5
 0.000000e+00 1.000000e+00 0.000000e+00 0.000000e+00 0.000000e+00
 0.000000e+00 6.000000e-01 4.000000e-01 0.000000e+00 0.000000e+00
 0.000000e+00 0.000000e+00 6.000000e-01 4.000000e-01 0.000000e+00
 0.000000e+00 0.000000e+00 0.000000e+00 7.000000e-01 3.000000e-01
 0.000000e+00 0.000000e+00 0.000000e+00 0.000000e+00 0.000000e+00
<ENDHMM>
~h "p"
<BEGINHMM>
<NUMSTATES> 5
<STATE> 2
<MEAN> 39
 -1.238183e+01 2.376559e+00 1.040906e+00 -8.364820e-01 1.212676e+00 1.904186e+00 1.784149e+00 -1.644164e+00 4.002038e+00 -7.534810e-01 2.404808e+00 9.652172e-01 5.807533e+01 -3.376544e-04 -6.137493e-04 2.135697e-03 2.967777e-03 -5.754571e-03 -2.394226e-03 -1.645701e-03 2.596329e-03 -4.137663e-03 -2.360419e-03 -3.045151e-03 2.491291e-03 -3.662518e-03 4.135441e-04 6.670943e-05 -9.607423e-05 -9.743288e-04 -6.608778e-04 -7.298387e-04 4.831289e-04 9.372712e-04 5.934813e-04 2.364275e-04 6.813302e-04 -1.726791e-03 -2.815625e-04
<VARIANCE> 39
 5.369328e+01 1.455297e+01 1.656892e+01 3.228448e+01 3.013851e+01 1.803451e+01 3.400043e+01 4.360264e+01 2.082343e+01 2.173481e+01 2.380557e+01 1.643193e+01 6.052197e+01 1.281009e+00 6.404867e-01 8.052753e-01 1.346645e+00 1.556633e+00 1.192262e+00 1.553622e+00 1.588371e+00 1.550959e+00 1.428319e+00 1.391155e+00 1.220703e+00 6.135530e-01 1.812593e-01 1.088574e-01 1.392495e-01 2.214202e-01 2.578802e-01 2.141607e-01 2.728381e-01 2.899192e-01 2.872912e-01 2.790129e-01 2.744539e-01 2.348796e-01 7.598913e-02
<GCONST> 9.596781e+01
<STATE> 3
<MEAN> 39
 -1.238183e+01 2.376559e+00 1.040906e+00 -8.364820e-01 1.212676e+00 1.904186e+00 1.784149e+00 -1.644164e+00 4.002038e+00 -7.534810e-01 2.404808e+00 9.652172e-01 5.807533e+01 -3.376544e-04 -6.137493e-04 2.135697e-03 2.967777e-03 -5.754571e-03 -2.394226e-03 -1.645701e-03 2.596329e-03 -4.137663e-03 -2.360419e-03 -3.045151e-03 2.491291e-03 -3.662518e-03 4.135441e-04 6.670943e-05 -9.607423e-05 -9.743288e-04 -6.608778e-04 -7.298387e-04 4.831289e-04 9.372712e-04 5.934813e-04 2.364275e-04 6.813302e-04 -1.726791e-03 -2.815625e-04
<VARIANCE> 39
 5.369328e+01 1.455297e+01 1.656892e+01 3.228448e+01 3.013851e+01 1.803451e+01 3.400043e+01 4.360264e+01 2.082343e+01 2.173481e+01 2.380557e+01 1.643193e+01 6.052197e+01 1.281009e+00 6.404867e-01 8.052753e-01 1.346645e+00 1.556633e+00 1.192262e+00 1.553622e+00 1.588371e+00 1.550959e+00 1.428319e+00 1.391155e+00 1.220703e+00 6.135530e-01 1.812593e-01 1.088574e-01 1.392495e-01 2.214202e-01 2.578802e-01 2.141607e-01 2.728381e-01 2.899192e-01 2.872912e-01 2.790129e-01 2.744539e-01 2.348796e-01 7.598913e-02
<GCONST> 9.596781e+01
<STATE> 4
<MEAN> 39
 -1.238183e+01 2.376559e+00 1.040906e+00 -8.364820e-01 1.212676e+00 1.904186e+00 1.784149e+00 -1.644164e+00 4.002038e+00 -7.534810e-01 2.404808e+00 9.652172e-01 5.807533e+01 -3.376544e-04 -6.137493e-04 2.135697e-03 2.967777e-03 -5.754571e-03 -2.394226e-03 -1.645701e-03 2.596329e-03 -4.137663e-03 -2.360419e-03 -3.045151e-03 2.491291e-03 -3.662518e-03 4.135441e-04 6.670943e-05 -9.607423e-05 -9.743288e-04 -6.608778e-04 -7.298387e-04 4.831289e-04 9.372712e-04 5.934813e-04 2.364275e-04 6.813302e-04 -1.726791e-03 -2.815625e-04
<VARIANCE> 39
 5.369328e+01 1.455297e+01 1.656892e+01 3.228448e+01 3.013851e+01 1.803451e+01 3.400043e+01 4.360264e+01 2.082343e+01 2.173481e+01 2.380557e+01 1.643193e+01 6.052197e+01 1.281009e+00 6.404867e-01 8.052753e-01 1.346645e+00 1.556633e+00 1.192262e+00 1.553622e+00 1.588371e+00 1.550959e+00 1.428319e+00 1.391155e+00 1.220703e+00 6.135530e-01 1.812593e-01 1.088574e-01 1.392495e-01 2.214202e-01 2.578802e-01 2.141607e-01 2.728381e-01 2.899192e-01 2.872912e-01 2.790129e-01 2.744539e-01 2.348796e-01 7.598913e-02
<GCONST> 9.596781e+01
<TRANSP> 5
 0.000000e+00 1.000000e+00 0.000000e+00 0.000000e+00 0.000000e+00
 0.000000e+00 6.000000e-01 4.000000e-01 0.000000e+00 0.000000e+00
 0.000000e+00 0.000000e+00 6.000000e-01 4.000000e-01 0.000000e+00
 0.000000e+00 0.000000e+00 0.000000e+00 7.000000e-01 3.000000e-01
 0.000000e+00 0.000000e+00 0.000000e+00 0.000000e+00 0.000000e+00
<ENDHMM>
~h "ee"
<BEGINHMM>
<NUMSTATES> 5
<STATE> 2
<MEAN> 39
 -1.238183e+01 2.376559e+00 1.040906e+00 -8.364820e-01 1.212676e+00 1.904186e+00 1.784149e+00 -1.644164e+00 4.002038e+00 -7.534810e-01 2.404808e+00 9.652172e-01 5.807533e+01 -3.376544e-04 -6.137493e-04 2.135697e-03 2.967777e-03 -5.754571e-03 -2.394226e-03 -1.645701e-03 2.596329e-03 -4.137663e-03 -2.360419e-03 -3.045151e-03 2.491291e-03 -3.662518e-03 4.135441e-04 6.670943e-05 -9.607423e-05 -9.743288e-04 -6.608778e-04 -7.298387e-04 4.831289e-04 9.372712e-04 5.934813e-04 2.364275e-04 6.813302e-04 -1.726791e-03 -2.815625e-04
<VARIANCE> 39
 5.369328e+01 1.455297e+01 1.656892e+01 3.228448e+01 3.013851e+01 1.803451e+01 3.400043e+01 4.360264e+01 2.082343e+01 2.173481e+01 2.380557e+01 1.643193e+01 6.052197e+01 1.281009e+00 6.404867e-01 8.052753e-01 1.346645e+00 1.556633e+00 1.192262e+00 1.553622e+00 1.588371e+00 1.550959e+00 1.428319e+00 1.391155e+00 1.220703e+00 6.135530e-01 1.812593e-01 1.088574e-01 1.392495e-01 2.214202e-01 2.578802e-01 2.141607e-01 2.728381e-01 2.899192e-01 2.872912e-01 2.790129e-01 2.744539e-01 2.348796e-01 7.598913e-02
<GCONST> 9.596781e+01
<STATE> 3
<MEAN> 39
 -1.238183e+01 2.376559e+00 1.040906e+00 -8.364820e-01 1.212676e+00 1.904186e+00 1.784149e+00 -1.644164e+00 4.002038e+00 -7.534810e-01 2.404808e+00 9.652172e-01 5.807533e+01 -3.376544e-04 -6.137493e-04 2.135697e-03 2.967777e-03 -5.754571e-03 -2.394226e-03 -1.645701e-03 2.596329e-03 -4.137663e-03 -2.360419e-03 -3.045151e-03 2.491291e-03 -3.662518e-03 4.135441e-04 6.670943e-05 -9.607423e-05 -9.743288e-04 -6.608778e-04 -7.298387e-04 4.831289e-04 9.372712e-04 5.934813e-04 2.364275e-04 6.813302e-04 -1.726791e-03 -2.815625e-04
<VARIANCE> 39
 5.369328e+01 1.455297e+01 1.656892e+01 3.228448e+01 3.013851e+01 1.803451e+01 3.400043e+01 4.360264e+01 2.082343e+01 2.173481e+01 2.380557e+01 1.643193e+01 6.052197e+01 1.281009e+00 6.404867e-01 8.052753e-01 1.346645e+00 1.556633e+00 1.192262e+00 1.553622e+00 1.588371e+00 1.550959e+00 1.428319e+00 1.391155e+00 1.220703e+00 6.135530e-01 1.812593e-01 1.088574e-01 1.392495e-01 2.214202e-01 2.578802e-01 2.141607e-01 2.728381e-01 2.899192e-01 2.872912e-01 2.790129e-01 2.744539e-01 2.348796e-01 7.598913e-02
<GCONST> 9.596781e+01
<STATE> 4
<MEAN> 39
 -1.238183e+01 2.376559e+00 1.040906e+00 -8.364820e-01 1.212676e+00 1.904186e+00 1.784149e+00 -1.644164e+00 4.002038e+00 -7.534810e-01 2.404808e+00 9.652172e-01 5.807533e+01 -3.376544e-04 -6.137493e-04 2.135697e-03 2.967777e-03 -5.754571e-03 -2.394226e-03 -1.645701e-03 2.596329e-03 -4.137663e-03 -2.360419e-03 -3.045151e-03 2.491291e-03 -3.662518e-03 4.135441e-04 6.670943e-05 -9.607423e-05 -9.743288e-04 -6.608778e-04 -7.298387e-04 4.831289e-04 9.372712e-04 5.934813e-04 2.364275e-04 6.813302e-04 -1.726791e-03 -2.815625e-04
<VARIANCE> 39
 5.369328e+01 1.455297e+01 1.656892e+01 3.228448e+01 3.013851e+01 1.803451e+01 3.400043e+01 4.360264e+01 2.082343e+01 2.173481e+01 2.380557e+01 1.643193e+01 6.052197e+01 1.281009e+00 6.404867e-01 8.052753e-01 1.346645e+00 1.556633e+00 1.192262e+00 1.553622e+00 1.588371e+00 1.550959e+00 1.428319e+00 1.391155e+00 1.220703e+00 6.135530e-01 1.812593e-01 1.088574e-01 1.392495e-01 2.214202e-01 2.578802e-01 2.141607e-01 2.728381e-01 2.899192e-01 2.872912e-01 2.790129e-01 2.744539e-01 2.348796e-01 7.598913e-02
<GCONST> 9.596781e+01
<TRANSP> 5
 0.000000e+00 1.000000e+00 0.000000e+00 0.000000e+00 0.000000e+00
 0.000000e+00 6.000000e-01 4.000000e-01 0.000000e+00 0.000000e+00
 0.000000e+00 0.000000e+00 6.000000e-01 4.000000e-01 0.000000e+00
 0.000000e+00 0.000000e+00 0.000000e+00 7.000000e-01 3.000000e-01
 0.000000e+00 0.000000e+00 0.000000e+00 0.000000e+00 0.000000e+00
<ENDHMM>
~h "s0"
<BEGINHMM>
<NUMSTATES> 5
<STATE> 2
<MEAN> 39
 -1.238183e+01 2.376559e+00 1.040906e+00 -8.364820e-01 1.212676e+00 1.904186e+00 1.784149e+00 -1.644164e+00 4.002038e+00 -7.534810e-01 2.404808e+00 9.652172e-01 5.807533e+01 -3.376544e-04 -6.137493e-04 2.135697e-03 2.967777e-03 -5.754571e-03 -2.394226e-03 -1.645701e-03 2.596329e-03 -4.137663e-03 -2.360419e-03 -3.045151e-03 2.491291e-03 -3.662518e-03 4.135441e-04 6.670943e-05 -9.607423e-05 -9.743288e-04 -6.608778e-04 -7.298387e-04 4.831289e-04 9.372712e-04 5.934813e-04 2.364275e-04 6.813302e-04 -1.726791e-03 -2.815625e-04
<VARIANCE> 39
 5.369328e+01 1.455297e+01 1.656892e+01 3.228448e+01 3.013851e+01 1.803451e+01 3.400043e+01 4.360264e+01 2.082343e+01 2.173481e+01 2.380557e+01 1.643193e+01 6.052197e+01 1.281009e+00 6.404867e-01 8.052753e-01 1.346645e+00 1.556633e+00 1.192262e+00 1.553622e+00 1.588371e+00 1.550959e+00 1.428319e+00 1.391155e+00 1.220703e+00 6.135530e-01 1.812593e-01 1.088574e-01 1.392495e-01 2.214202e-01 2.578802e-01 2.141607e-01 2.728381e-01 2.899192e-01 2.872912e-01 2.790129e-01 2.744539e-01 2.348796e-01 7.598913e-02
<GCONST> 9.596781e+01
<STATE> 3
<MEAN> 39
 -1.238183e+01 2.376559e+00 1.040906e+00 -8.364820e-01 1.212676e+00 1.904186e+00 1.784149e+00 -1.644164e+00 4.002038e+00 -7.534810e-01 2.404808e+00 9.652172e-01 5.807533e+01 -3.376544e-04 -6.137493e-04 2.135697e-03 2.967777e-03 -5.754571e-03 -2.394226e-03 -1.645701e-03 2.596329e-03 -4.137663e-03 -2.360419e-03 -3.045151e-03 2.491291e-03 -3.662518e-03 4.135441e-04 6.670943e-05 -9.607423e-05 -9.743288e-04 -6.608778e-04 -7.298387e-04 4.831289e-04 9.372712e-04 5.934813e-04 2.364275e-04 6.813302e-04 -1.726791e-03 -2.815625e-04
<VARIANCE> 39
 5.369328e+01 1.455297e+01 1.656892e+01 3.228448e+01 3.013851e+01 1.803451e+01 3.400043e+01 4.360264e+01 2.082343e+01 2.173481e+01 2.380557e+01 1.643193e+01 6.052197e+01 1.281009e+00 6.404867e-01 8.052753e-01 1.346645e+00 1.556633e+00 1.192262e+00 1.553622e+00 1.588371e+00 1.550959e+00 1.428319e+00 1.391155e+00 1.220703e+00 6.135530e-01 1.812593e-01 1.088574e-01 1.392495e-01 2.214202e-01 2.578802e-01 2.141607e-01 2.728381e-01 2.899192e-01 2.872912e-01 2.790129e-01 2.744539e-01 2.348796e-01 7.598913e-02
<GCONST> 9.596781e+01
<STATE> 4
<MEAN> 39
 -1.238183e+01 2.376559e+00 1.040906e+00 -8.364820e-01 1.212676e+00 1.904186e+00 1.784149e+00 -1.644164e+00 4.002038e+00 -7.534810e-01 2.404808e+00 9.652172e-01 5.807533e+01 -3.376544e-04 -6.137493e-04 2.135697e-03 2.967777e-03 -5.754571e-03 -2.394226e-03 -1.645701e-03 2.596329e-03 -4.137663e-03 -2.360419e-03 -3.045151e-03 2.491291e-03 -3.662518e-03 4.135441e-04 6.670943e-05 -9.607423e-05 -9.743288e-04 -6.608778e-04 -7.298387e-04 4.831289e-04 9.372712e-04 5.934813e-04 2.364275e-04 6.813302e-04 -1.726791e-03 -2.815625e-04
<VARIANCE> 39
 5.369328e+01 1.455297e+01 1.656892e+01 3.228448e+01 3.013851e+01 1.803451e+01 3.400043e+01 4.360264e+01 2.082343e+01 2.173481e+01 2.380557e+01 1.643193e+01 6.052197e+01 1.281009e+00 6.404867e-01 8.052753e-01 1.346645e+00 1.556633e+00 1.192262e+00 1.553622e+00 1.588371e+00 1.550959e+00 1.428319e+00 1.391155e+00 1.220703e+00 6.135530e-01 1.812593e-01 1.088574e-01 1.392495e-01 2.214202e-01 2.578802e-01 2.141607e-01 2.728381e-01 2.899192e-01 2.872912e-01 2.790129e-01 2.744539e-01 2.348796e-01 7.598913e-02
<GCONST> 9.596781e+01
<TRANSP> 5
 0.000000e+00 1.000000e+00 0.000000e+00 0.000000e+00 0.000000e+00
 0.000000e+00 6.000000e-01 4.000000e-01 0.000000e+00 0.000000e+00
 0.000000e+00 0.000000e+00 6.000000e-01 4.000000e-01 0.000000e+00
 0.000000e+00 0.000000e+00 0.000000e+00 7.000000e-01 3.000000e-01
 0.000000e+00 0.000000e+00 0.000000e+00 0.000000e+00 0.000000e+00
<ENDHMM>
~h "ng"
<BEGINHMM>
<NUMSTATES> 5
<STATE> 2
<MEAN> 39
 -1.238183e+01 2.376559e+00 1.040906e+00 -8.364820e-01 1.212676e+00 1.904186e+00 1.784149e+00 -1.644164e+00 4.002038e+00 -7.534810e-01 2.404808e+00 9.652172e-01 5.807533e+01 -3.376544e-04 -6.137493e-04 2.135697e-03 2.967777e-03 -5.754571e-03 -2.394226e-03 -1.645701e-03 2.596329e-03 -4.137663e-03 -2.360419e-03 -3.045151e-03 2.491291e-03 -3.662518e-03 4.135441e-04 6.670943e-05 -9.607423e-05 -9.743288e-04 -6.608778e-04 -7.298387e-04 4.831289e-04 9.372712e-04 5.934813e-04 2.364275e-04 6.813302e-04 -1.726791e-03 -2.815625e-04
<VARIANCE> 39
 5.369328e+01 1.455297e+01 1.656892e+01 3.228448e+01 3.013851e+01 1.803451e+01 3.400043e+01 4.360264e+01 2.082343e+01 2.173481e+01 2.380557e+01 1.643193e+01 6.052197e+01 1.281009e+00 6.404867e-01 8.052753e-01 1.346645e+00 1.556633e+00 1.192262e+00 1.553622e+00 1.588371e+00 1.550959e+00 1.428319e+00 1.391155e+00 1.220703e+00 6.135530e-01 1.812593e-01 1.088574e-01 1.392495e-01 2.214202e-01 2.578802e-01 2.141607e-01 2.728381e-01 2.899192e-01 2.872912e-01 2.790129e-01 2.744539e-01 2.348796e-01 7.598913e-02
<GCONST> 9.596781e+01
<STATE> 3
<MEAN> 39
 -1.238183e+01 2.376559e+00 1.040906e+00 -8.364820e-01 1.212676e+00 1.904186e+00 1.784149e+00 -1.644164e+00 4.002038e+00 -7.534810e-01 2.404808e+00 9.652172e-01 5.807533e+01 -3.376544e-04 -6.137493e-04 2.135697e-03 2.967777e-03 -5.754571e-03 -2.394226e-03 -1.645701e-03 2.596329e-03 -4.137663e-03 -2.360419e-03 -3.045151e-03 2.491291e-03 -3.662518e-03 4.135441e-04 6.670943e-05 -9.607423e-05 -9.743288e-04 -6.608778e-04 -7.298387e-04 4.831289e-04 9.372712e-04 5.934813e-04 2.364275e-04 6.813302e-04 -1.726791e-03 -2.815625e-04
<VARIANCE> 39
 5.369328e+01 1.455297e+01 1.656892e+01 3.228448e+01 3.013851e+01 1.803451e+01 3.400043e+01 4.360264e+01 2.082343e+01 2.173481e+01 2.380557e+01 1.643193e+01 6.052197e+01 1.281009e+00 6.404867e-01 8.052753e-01 1.346645e+00 1.556633e+00 1.192262e+00 1.553622e+00 1.588371e+00 1.550959e+00 1.428319e+00 1.391155e+00 1.220703e+00 6.135530e-01 1.812593e-01 1.088574e-01 1.392495e-01 2.214202e-01 2.578802e-01 2.141607e-01 2.728381e-01 2.899192e-01 2.872912e-01 2.790129e-01 2.744539e-01 2.348796e-01 7.598913e-02
<GCONST> 9.596781e+01
<STATE> 4
<MEAN> 39
 -1.238183e+01 2.376559e+00 1.040906e+00 -8.364820e-01 1.212676e+00 1.904186e+00 1.784149e+00 -1.644164e+00 4.002038e+00 -7.534810e-01 2.404808e+00 9.652172e-01 5.807533e+01 -3.376544e-04 -6.137493e-04 2.135697e-03 2.967777e-03 -5.754571e-03 -2.394226e-03 -1.645701e-03 2.596329e-03 -4.137663e-03 -2.360419e-03 -3.045151e-03 2.491291e-03 -3.662518e-03 4.135441e-04 6.670943e-05 -9.607423e-05 -9.743288e-04 -6.608778e-04 -7.298387e-04 4.831289e-04 9.372712e-04 5.934813e-04 2.364275e-04 6.813302e-04 -1.726791e-03 -2.815625e-04
<VARIANCE> 39
 5.369328e+01 1.455297e+01 1.656892e+01 3.228448e+01 3.013851e+01 1.803451e+01 3.400043e+01 4.360264e+01 2.082343e+01 2.173481e+01 2.380557e+01 1.643193e+01 6.052197e+01 1.281009e+00 6.404867e-01 8.052753e-01 1.346645e+00 1.556633e+00 1.192262e+00 1.553622e+00 1.588371e+00 1.550959e+00 1.428319e+00 1.391155e+00 1.220703e+00 6.135530e-01 1.812593e-01 1.088574e-01 1.392495e-01 2.214202e-01 2.578802e-01 2.141607e-01 2.728381e-01 2.899192e-01 2.872912e-01 2.790129e-01 2.744539e-01 2.348796e-01 7.598913e-02
<GCONST> 9.596781e+01
<TRANSP> 5
 0.000000e+00 1.000000e+00 0.000000e+00 0.000000e+00 0.000000e+00
 0.000000e+00 6.000000e-01 4.000000e-01 0.000000e+00 0.000000e+00
 0.000000e+00 0.000000e+00 6.000000e-01 4.000000e-01 0.000000e+00
 0.000000e+00 0.000000e+00 0.000000e+00 7.000000e-01 3.000000e-01
 0.000000e+00 0.000000e+00 0.000000e+00 0.000000e+00 0.000000e+00
<ENDHMM>
~h "ii"
<BEGINHMM>
<NUMSTATES> 5
<STATE> 2
<MEAN> 39
 -1.238183e+01 2.376559e+00 1.040906e+00 -8.364820e-01 1.212676e+00 1.904186e+00 1.784149e+00 -1.644164e+00 4.002038e+00 -7.534810e-01 2.404808e+00 9.652172e-01 5.807533e+01 -3.376544e-04 -6.137493e-04 2.135697e-03 2.967777e-03 -5.754571e-03 -2.394226e-03 -1.645701e-03 2.596329e-03 -4.137663e-03 -2.360419e-03 -3.045151e-03 2.491291e-03 -3.662518e-03 4.135441e-04 6.670943e-05 -9.607423e-05 -9.743288e-04 -6.608778e-04 -7.298387e-04 4.831289e-04 9.372712e-04 5.934813e-04 2.364275e-04 6.813302e-04 -1.726791e-03 -2.815625e-04
<VARIANCE> 39
 5.369328e+01 1.455297e+01 1.656892e+01 3.228448e+01 3.013851e+01 1.803451e+01 3.400043e+01 4.360264e+01 2.082343e+01 2.173481e+01 2.380557e+01 1.643193e+01 6.052197e+01 1.281009e+00 6.404867e-01 8.052753e-01 1.346645e+00 1.556633e+00 1.192262e+00 1.553622e+00 1.588371e+00 1.550959e+00 1.428319e+00 1.391155e+00 1.220703e+00 6.135530e-01 1.812593e-01 1.088574e-01 1.392495e-01 2.214202e-01 2.578802e-01 2.141607e-01 2.728381e-01 2.899192e-01 2.872912e-01 2.790129e-01 2.744539e-01 2.348796e-01 7.598913e-02
<GCONST> 9.596781e+01
<STATE> 3
<MEAN> 39
 -1.238183e+01 2.376559e+00 1.040906e+00 -8.364820e-01 1.212676e+00 1.904186e+00 1.784149e+00 -1.644164e+00 4.002038e+00 -7.534810e-01 2.404808e+00 9.652172e-01 5.807533e+01 -3.376544e-04 -6.137493e-04 2.135697e-03 2.967777e-03 -5.754571e-03 -2.394226e-03 -1.645701e-03 2.596329e-03 -4.137663e-03 -2.360419e-03 -3.045151e-03 2.491291e-03 -3.662518e-03 4.135441e-04 6.670943e-05 -9.607423e-05 -9.743288e-04 -6.608778e-04 -7.298387e-04 4.831289e-04 9.372712e-04 5.934813e-04 2.364275e-04 6.813302e-04 -1.726791e-03 -2.815625e-04
<VARIANCE> 39
 5.369328e+01 1.455297e+01 1.656892e+01 3.228448e+01 3.013851e+01 1.803451e+01 3.400043e+01 4.360264e+01 2.082343e+01 2.173481e+01 2.380557e+01 1.643193e+01 6.052197e+01 1.281009e+00 6.404867e-01 8.052753e-01 1.346645e+00 1.556633e+00 1.192262e+00 1.553622e+00 1.588371e+00 1.550959e+00 1.428319e+00 1.391155e+00 1.220703e+00 6.135530e-01 1.812593e-01 1.088574e-01 1.392495e-01 2.214202e-01 2.578802e-01 2.141607e-01 2.728381e-01 2.899192e-01 2.872912e-01 2.790129e-01 2.744539e-01 2.348796e-01 7.598913e-02
<GCONST> 9.596781e+01
<STATE> 4
<MEAN> 39
 -1.238183e+01 2.376559e+00 1.040906e+00 -8.364820e-01 1.212676e+00 1.904186e+00 1.784149e+00 -1.644164e+00 4.002038e+00 -7.534810e-01 2.404808e+00 9.652172e-01 5.807533e+01 -3.376544e-04 -6.137493e-04 2.135697e-03 2.967777e-03 -5.754571e-03 -2.394226e-03 -1.645701e-03 2.596329e-03 -4.137663e-03 -2.360419e-03 -3.045151e-03 2.491291e-03 -3.662518e-03 4.135441e-04 6.670943e-05 -9.607423e-05 -9.743288e-04 -6.608778e-04 -7.298387e-04 4.831289e-04 9.372712e-04 5.934813e-04 2.364275e-04 6.813302e-04 -1.726791e-03 -2.815625e-04
<VARIANCE> 39
 5.369328e+01 1.455297e+01 1.656892e+01 3.228448e+01 3.013851e+01 1.803451e+01 3.400043e+01 4.360264e+01 2.082343e+01 2.173481e+01 2.380557e+01 1.643193e+01 6.052197e+01 1.281009e+00 6.404867e-01 8.052753e-01 1.346645e+00 1.556633e+00 1.192262e+00 1.553622e+00 1.588371e+00 1.550959e+00 1.428319e+00 1.391155e+00 1.220703e+00 6.135530e-01 1.812593e-01 1.088574e-01 1.392495e-01 2.214202e-01 2.578802e-01 2.141607e-01 2.728381e-01 2.899192e-01 2.872912e-01 2.790129e-01 2.744539e-01 2.348796e-01 7.598913e-02
<GCONST> 9.596781e+01
<TRANSP> 5
 0.000000e+00 1.000000e+00 0.000000e+00 0.000000e+00 0.000000e+00
 0.000000e+00 6.000000e-01 4.000000e-01 0.000000e+00 0.000000e+00
 0.000000e+00 0.000000e+00 6.000000e-01 4.000000e-01 0.000000e+00
 0.000000e+00 0.000000e+00 0.000000e+00 7.000000e-01 3.000000e-01
 0.000000e+00 0.000000e+00 0.000000e+00 0.000000e+00 0.000000e+00
<ENDHMM>
~h "uu"
<BEGINHMM>
<NUMSTATES> 5
<STATE> 2
<MEAN> 39
 -1.238183e+01 2.376559e+00 1.040906e+00 -8.364820e-01 1.212676e+00 1.904186e+00 1.784149e+00 -1.644164e+00 4.002038e+00 -7.534810e-01 2.404808e+00 9.652172e-01 5.807533e+01 -3.376544e-04 -6.137493e-04 2.135697e-03 2.967777e-03 -5.754571e-03 -2.394226e-03 -1.645701e-03 2.596329e-03 -4.137663e-03 -2.360419e-03 -3.045151e-03 2.491291e-03 -3.662518e-03 4.135441e-04 6.670943e-05 -9.607423e-05 -9.743288e-04 -6.608778e-04 -7.298387e-04 4.831289e-04 9.372712e-04 5.934813e-04 2.364275e-04 6.813302e-04 -1.726791e-03 -2.815625e-04
<VARIANCE> 39
 5.369328e+01 1.455297e+01 1.656892e+01 3.228448e+01 3.013851e+01 1.803451e+01 3.400043e+01 4.360264e+01 2.082343e+01 2.173481e+01 2.380557e+01 1.643193e+01 6.052197e+01 1.281009e+00 6.404867e-01 8.052753e-01 1.346645e+00 1.556633e+00 1.192262e+00 1.553622e+00 1.588371e+00 1.550959e+00 1.428319e+00 1.391155e+00 1.220703e+00 6.135530e-01 1.812593e-01 1.088574e-01 1.392495e-01 2.214202e-01 2.578802e-01 2.141607e-01 2.728381e-01 2.899192e-01 2.872912e-01 2.790129e-01 2.744539e-01 2.348796e-01 7.598913e-02
<GCONST> 9.596781e+01
<STATE> 3
<MEAN> 39
 -1.238183e+01 2.376559e+00 1.040906e+00 -8.364820e-01 1.212676e+00 1.904186e+00 1.784149e+00 -1.644164e+00 4.002038e+00 -7.534810e-01 2.404808e+00 9.652172e-01 5.807533e+01 -3.376544e-04 -6.137493e-04 2.135697e-03 2.967777e-03 -5.754571e-03 -2.394226e-03 -1.645701e-03 2.596329e-03 -4.137663e-03 -2.360419e-03 -3.045151e-03 2.491291e-03 -3.662518e-03 4.135441e-04 6.670943e-05 -9.607423e-05 -9.743288e-04 -6.608778e-04 -7.298387e-04 4.831289e-04 9.372712e-04 5.934813e-04 2.364275e-04 6.813302e-04 -1.726791e-03 -2.815625e-04
<VARIANCE> 39
 5.369328e+01 1.455297e+01 1.656892e+01 3.228448e+01 3.013851e+01 1.803451e+01 3.400043e+01 4.360264e+01 2.082343e+01 2.173481e+01 2.380557e+01 1.643193e+01 6.052197e+01 1.281009e+00 6.404867e-01 8.052753e-01 1.346645e+00 1.556633e+00 1.192262e+00 1.553622e+00 1.588371e+00 1.550959e+00 1.428319e+00 1.391155e+00 1.220703e+00 6.135530e-01 1.812593e-01 1.088574e-01 1.392495e-01 2.214202e-01 2.578802e-01 2.141607e-01 2.728381e-01 2.899192e-01 2.872912e-01 2.790129e-01 2.744539e-01 2.348796e-01 7.598913e-02
<GCONST> 9.596781e+01
<STATE> 4
<MEAN> 39
 -1.238183e+01 2.376559e+00 1.040906e+00 -8.364820e-01 1.212676e+00 1.904186e+00 1.784149e+00 -1.644164e+00 4.002038e+00 -7.534810e-01 2.404808e+00 9.652172e-01 5.807533e+01 -3.376544e-04 -6.137493e-04 2.135697e-03 2.967777e-03 -5.754571e-03 -2.394226e-03 -1.645701e-03 2.596329e-03 -4.137663e-03 -2.360419e-03 -3.045151e-03 2.491291e-03 -3.662518e-03 4.135441e-04 6.670943e-05 -9.607423e-05 -9.743288e-04 -6.608778e-04 -7.298387e-04 4.831289e-04 9.372712e-04 5.934813e-04 2.364275e-04 6.813302e-04 -1.726791e-03 -2.815625e-04
<VARIANCE> 39
 5.369328e+01 1.455297e+01 1.656892e+01 3.228448e+01 3.013851e+01 1.803451e+01 3.400043e+01 4.360264e+01 2.082343e+01 2.173481e+01 2.380557e+01 1.643193e+01 6.052197e+01 1.281009e+00 6.404867e-01 8.052753e-01 1.346645e+00 1.556633e+00 1.192262e+00 1.553622e+00 1.588371e+00 1.550959e+00 1.428319e+00 1.391155e+00 1.220703e+00 6.135530e-01 1.812593e-01 1.088574e-01 1.392495e-01 2.214202e-01 2.578802e-01 2.141607e-01 2.728381e-01 2.899192e-01 2.872912e-01 2.790129e-01 2.744539e-01 2.348796e-01 7.598913e-02
<GCONST> 9.596781e+01
<TRANSP> 5
 0.000000e+00 1.000000e+00 0.000000e+00 0.000000e+00 0.000000e+00
 0.000000e+00 6.000000e-01 4.000000e-01 0.000000e+00 0.000000e+00
 0.000000e+00 0.000000e+00 6.000000e-01 4.000000e-01 0.000000e+00
 0.000000e+00 0.000000e+00 0.000000e+00 7.000000e-01 3.000000e-01
 0.000000e+00 0.000000e+00 0.000000e+00 0.000000e+00 0.000000e+00
<ENDHMM>
~h "hh"
<BEGINHMM>
<NUMSTATES> 5
<STATE> 2
<MEAN> 39
 -1.238183e+01 2.376559e+00 1.040906e+00 -8.364820e-01 1.212676e+00 1.904186e+00 1.784149e+00 -1.644164e+00 4.002038e+00 -7.534810e-01 2.404808e+00 9.652172e-01 5.807533e+01 -3.376544e-04 -6.137493e-04 2.135697e-03 2.967777e-03 -5.754571e-03 -2.394226e-03 -1.645701e-03 2.596329e-03 -4.137663e-03 -2.360419e-03 -3.045151e-03 2.491291e-03 -3.662518e-03 4.135441e-04 6.670943e-05 -9.607423e-05 -9.743288e-04 -6.608778e-04 -7.298387e-04 4.831289e-04 9.372712e-04 5.934813e-04 2.364275e-04 6.813302e-04 -1.726791e-03 -2.815625e-04
<VARIANCE> 39
 5.369328e+01 1.455297e+01 1.656892e+01 3.228448e+01 3.013851e+01 1.803451e+01 3.400043e+01 4.360264e+01 2.082343e+01 2.173481e+01 2.380557e+01 1.643193e+01 6.052197e+01 1.281009e+00 6.404867e-01 8.052753e-01 1.346645e+00 1.556633e+00 1.192262e+00 1.553622e+00 1.588371e+00 1.550959e+00 1.428319e+00 1.391155e+00 1.220703e+00 6.135530e-01 1.812593e-01 1.088574e-01 1.392495e-01 2.214202e-01 2.578802e-01 2.141607e-01 2.728381e-01 2.899192e-01 2.872912e-01 2.790129e-01 2.744539e-01 2.348796e-01 7.598913e-02
<GCONST> 9.596781e+01
<STATE> 3
<MEAN> 39
 -1.238183e+01 2.376559e+00 1.040906e+00 -8.364820e-01 1.212676e+00 1.904186e+00 1.784149e+00 -1.644164e+00 4.002038e+00 -7.534810e-01 2.404808e+00 9.652172e-01 5.807533e+01 -3.376544e-04 -6.137493e-04 2.135697e-03 2.967777e-03 -5.754571e-03 -2.394226e-03 -1.645701e-03 2.596329e-03 -4.137663e-03 -2.360419e-03 -3.045151e-03 2.491291e-03 -3.662518e-03 4.135441e-04 6.670943e-05 -9.607423e-05 -9.743288e-04 -6.608778e-04 -7.298387e-04 4.831289e-04 9.372712e-04 5.934813e-04 2.364275e-04 6.813302e-04 -1.726791e-03 -2.815625e-04
<VARIANCE> 39
 5.369328e+01 1.455297e+01 1.656892e+01 3.228448e+01 3.013851e+01 1.803451e+01 3.400043e+01 4.360264e+01 2.082343e+01 2.173481e+01 2.380557e+01 1.643193e+01 6.052197e+01 1.281009e+00 6.404867e-01 8.052753e-01 1.346645e+00 1.556633e+00 1.192262e+00 1.553622e+00 1.588371e+00 1.550959e+00 1.428319e+00 1.391155e+00 1.220703e+00 6.135530e-01 1.812593e-01 1.088574e-01 1.392495e-01 2.214202e-01 2.578802e-01 2.141607e-01 2.728381e-01 2.899192e-01 2.872912e-01 2.790129e-01 2.744539e-01 2.348796e-01 7.598913e-02
<GCONST> 9.596781e+01
<STATE> 4
<MEAN> 39
 -1.238183e+01 2.376559e+00 1.040906e+00 -8.364820e-01 1.212676e+00 1.904186e+00 1.784149e+00 -1.644164e+00 4.002038e+00 -7.534810e-01 2.404808e+00 9.652172e-01 5.807533e+01 -3.376544e-04 -6.137493e-04 2.135697e-03 2.967777e-03 -5.754571e-03 -2.394226e-03 -1.645701e-03 2.596329e-03 -4.137663e-03 -2.360419e-03 -3.045151e-03 2.491291e-03 -3.662518e-03 4.135441e-04 6.670943e-05 -9.607423e-05 -9.743288e-04 -6.608778e-04 -7.298387e-04 4.831289e-04 9.372712e-04 5.934813e-04 2.364275e-04 6.813302e-04 -1.726791e-03 -2.815625e-04
<VARIANCE> 39
 5.369328e+01 1.455297e+01 1.656892e+01 3.228448e+01 3.013851e+01 1.803451e+01 3.400043e+01 4.360264e+01 2.082343e+01 2.173481e+01 2.380557e+01 1.643193e+01 6.052197e+01 1.281009e+00 6.404867e-01 8.052753e-01 1.346645e+00 1.556633e+00 1.192262e+00 1.553622e+00 1.588371e+00 1.550959e+00 1.428319e+00 1.391155e+00 1.220703e+00 6.135530e-01 1.812593e-01 1.088574e-01 1.392495e-01 2.214202e-01 2.578802e-01 2.141607e-01 2.728381e-01 2.899192e-01 2.872912e-01 2.790129e-01 2.744539e-01 2.348796e-01 7.598913e-02
<GCONST> 9.596781e+01
<TRANSP> 5
 0.000000e+00 1.000000e+00 0.000000e+00 0.000000e+00 0.000000e+00
 0.000000e+00 6.000000e-01 4.000000e-01 0.000000e+00 0.000000e+00
 0.000000e+00 0.000000e+00 6.000000e-01 4.000000e-01 0.000000e+00
 0.000000e+00 0.000000e+00 0.000000e+00 7.000000e-01 3.000000e-01
 0.000000e+00 0.000000e+00 0.000000e+00 0.000000e+00 0.000000e+00
<ENDHMM>
~h "vv"
<BEGINHMM>
<NUMSTATES> 5
<STATE> 2
<MEAN> 39
 -1.238183e+01 2.376559e+00 1.040906e+00 -8.364820e-01 1.212676e+00 1.904186e+00 1.784149e+00 -1.644164e+00 4.002038e+00 -7.534810e-01 2.404808e+00 9.652172e-01 5.807533e+01 -3.376544e-04 -6.137493e-04 2.135697e-03 2.967777e-03 -5.754571e-03 -2.394226e-03 -1.645701e-03 2.596329e-03 -4.137663e-03 -2.360419e-03 -3.045151e-03 2.491291e-03 -3.662518e-03 4.135441e-04 6.670943e-05 -9.607423e-05 -9.743288e-04 -6.608778e-04 -7.298387e-04 4.831289e-04 9.372712e-04 5.934813e-04 2.364275e-04 6.813302e-04 -1.726791e-03 -2.815625e-04
<VARIANCE> 39
 5.369328e+01 1.455297e+01 1.656892e+01 3.228448e+01 3.013851e+01 1.803451e+01 3.400043e+01 4.360264e+01 2.082343e+01 2.173481e+01 2.380557e+01 1.643193e+01 6.052197e+01 1.281009e+00 6.404867e-01 8.052753e-01 1.346645e+00 1.556633e+00 1.192262e+00 1.553622e+00 1.588371e+00 1.550959e+00 1.428319e+00 1.391155e+00 1.220703e+00 6.135530e-01 1.812593e-01 1.088574e-01 1.392495e-01 2.214202e-01 2.578802e-01 2.141607e-01 2.728381e-01 2.899192e-01 2.872912e-01 2.790129e-01 2.744539e-01 2.348796e-01 7.598913e-02
<GCONST> 9.596781e+01
<STATE> 3
<MEAN> 39
 -1.238183e+01 2.376559e+00 1.040906e+00 -8.364820e-01 1.212676e+00 1.904186e+00 1.784149e+00 -1.644164e+00 4.002038e+00 -7.534810e-01 2.404808e+00 9.652172e-01 5.807533e+01 -3.376544e-04 -6.137493e-04 2.135697e-03 2.967777e-03 -5.754571e-03 -2.394226e-03 -1.645701e-03 2.596329e-03 -4.137663e-03 -2.360419e-03 -3.045151e-03 2.491291e-03 -3.662518e-03 4.135441e-04 6.670943e-05 -9.607423e-05 -9.743288e-04 -6.608778e-04 -7.298387e-04 4.831289e-04 9.372712e-04 5.934813e-04 2.364275e-04 6.813302e-04 -1.726791e-03 -2.815625e-04
<VARIANCE> 39
 5.369328e+01 1.455297e+01 1.656892e+01 3.228448e+01 3.013851e+01 1.803451e+01 3.400043e+01 4.360264e+01 2.082343e+01 2.173481e+01 2.380557e+01 1.643193e+01 6.052197e+01 1.281009e+00 6.404867e-01 8.052753e-01 1.346645e+00 1.556633e+00 1.192262e+00 1.553622e+00 1.588371e+00 1.550959e+00 1.428319e+00 1.391155e+00 1.220703e+00 6.135530e-01 1.812593e-01 1.088574e-01 1.392495e-01 2.214202e-01 2.578802e-01 2.141607e-01 2.728381e-01 2.899192e-01 2.872912e-01 2.790129e-01 2.744539e-01 2.348796e-01 7.598913e-02
<GCONST> 9.596781e+01
<STATE> 4
<MEAN> 39
 -1.238183e+01 2.376559e+00 1.040906e+00 -8.364820e-01 1.212676e+00 1.904186e+00 1.784149e+00 -1.644164e+00 4.002038e+00 -7.534810e-01 2.404808e+00 9.652172e-01 5.807533e+01 -3.376544e-04 -6.137493e-04 2.135697e-03 2.967777e-03 -5.754571e-03 -2.394226e-03 -1.645701e-03 2.596329e-03 -4.137663e-03 -2.360419e-03 -3.045151e-03 2.491291e-03 -3.662518e-03 4.135441e-04 6.670943e-05 -9.607423e-05 -9.743288e-04 -6.608778e-04 -7.298387e-04 4.831289e-04 9.372712e-04 5.934813e-04 2.364275e-04 6.813302e-04 -1.726791e-03 -2.815625e-04
<VARIANCE> 39
 5.369328e+01 1.455297e+01 1.656892e+01 3.228448e+01 3.013851e+01 1.803451e+01 3.400043e+01 4.360264e+01 2.082343e+01 2.173481e+01 2.380557e+01 1.643193e+01 6.052197e+01 1.281009e+00 6.404867e-01 8.052753e-01 1.346645e+00 1.556633e+00 1.192262e+00 1.553622e+00 1.588371e+00 1.550959e+00 1.428319e+00 1.391155e+00 1.220703e+00 6.135530e-01 1.812593e-01 1.088574e-01 1.392495e-01 2.214202e-01 2.578802e-01 2.141607e-01 2.728381e-01 2.899192e-01 2.872912e-01 2.790129e-01 2.744539e-01 2.348796e-01 7.598913e-02
<GCONST> 9.596781e+01
<TRANSP> 5
 0.000000e+00 1.000000e+00 0.000000e+00 0.000000e+00 0.000000e+00
 0.000000e+00 6.000000e-01 4.000000e-01 0.000000e+00 0.000000e+00
 0.000000e+00 0.000000e+00 6.000000e-01 4.000000e-01 0.000000e+00
 0.000000e+00 0.000000e+00 0.000000e+00 7.000000e-01 3.000000e-01
 0.000000e+00 0.000000e+00 0.000000e+00 0.000000e+00 0.000000e+00
<ENDHMM>
~h "c0"
<BEGINHMM>
<NUMSTATES> 5
<STATE> 2
<MEAN> 39
 -1.238183e+01 2.376559e+00 1.040906e+00 -8.364820e-01 1.212676e+00 1.904186e+00 1.784149e+00 -1.644164e+00 4.002038e+00 -7.534810e-01 2.404808e+00 9.652172e-01 5.807533e+01 -3.376544e-04 -6.137493e-04 2.135697e-03 2.967777e-03 -5.754571e-03 -2.394226e-03 -1.645701e-03 2.596329e-03 -4.137663e-03 -2.360419e-03 -3.045151e-03 2.491291e-03 -3.662518e-03 4.135441e-04 6.670943e-05 -9.607423e-05 -9.743288e-04 -6.608778e-04 -7.298387e-04 4.831289e-04 9.372712e-04 5.934813e-04 2.364275e-04 6.813302e-04 -1.726791e-03 -2.815625e-04
<VARIANCE> 39
 5.369328e+01 1.455297e+01 1.656892e+01 3.228448e+01 3.013851e+01 1.803451e+01 3.400043e+01 4.360264e+01 2.082343e+01 2.173481e+01 2.380557e+01 1.643193e+01 6.052197e+01 1.281009e+00 6.404867e-01 8.052753e-01 1.346645e+00 1.556633e+00 1.192262e+00 1.553622e+00 1.588371e+00 1.550959e+00 1.428319e+00 1.391155e+00 1.220703e+00 6.135530e-01 1.812593e-01 1.088574e-01 1.392495e-01 2.214202e-01 2.578802e-01 2.141607e-01 2.728381e-01 2.899192e-01 2.872912e-01 2.790129e-01 2.744539e-01 2.348796e-01 7.598913e-02
<GCONST> 9.596781e+01
<STATE> 3
<MEAN> 39
 -1.238183e+01 2.376559e+00 1.040906e+00 -8.364820e-01 1.212676e+00 1.904186e+00 1.784149e+00 -1.644164e+00 4.002038e+00 -7.534810e-01 2.404808e+00 9.652172e-01 5.807533e+01 -3.376544e-04 -6.137493e-04 2.135697e-03 2.967777e-03 -5.754571e-03 -2.394226e-03 -1.645701e-03 2.596329e-03 -4.137663e-03 -2.360419e-03 -3.045151e-03 2.491291e-03 -3.662518e-03 4.135441e-04 6.670943e-05 -9.607423e-05 -9.743288e-04 -6.608778e-04 -7.298387e-04 4.831289e-04 9.372712e-04 5.934813e-04 2.364275e-04 6.813302e-04 -1.726791e-03 -2.815625e-04
<VARIANCE> 39
 5.369328e+01 1.455297e+01 1.656892e+01 3.228448e+01 3.013851e+01 1.803451e+01 3.400043e+01 4.360264e+01 2.082343e+01 2.173481e+01 2.380557e+01 1.643193e+01 6.052197e+01 1.281009e+00 6.404867e-01 8.052753e-01 1.346645e+00 1.556633e+00 1.192262e+00 1.553622e+00 1.588371e+00 1.550959e+00 1.428319e+00 1.391155e+00 1.220703e+00 6.135530e-01 1.812593e-01 1.088574e-01 1.392495e-01 2.214202e-01 2.578802e-01 2.141607e-01 2.728381e-01 2.899192e-01 2.872912e-01 2.790129e-01 2.744539e-01 2.348796e-01 7.598913e-02
<GCONST> 9.596781e+01
<STATE> 4
<MEAN> 39
 -1.238183e+01 2.376559e+00 1.040906e+00 -8.364820e-01 1.212676e+00 1.904186e+00 1.784149e+00 -1.644164e+00 4.002038e+00 -7.534810e-01 2.404808e+00 9.652172e-01 5.807533e+01 -3.376544e-04 -6.137493e-04 2.135697e-03 2.967777e-03 -5.754571e-03 -2.394226e-03 -1.645701e-03 2.596329e-03 -4.137663e-03 -2.360419e-03 -3.045151e-03 2.491291e-03 -3.662518e-03 4.135441e-04 6.670943e-05 -9.607423e-05 -9.743288e-04 -6.608778e-04 -7.298387e-04 4.831289e-04 9.372712e-04 5.934813e-04 2.364275e-04 6.813302e-04 -1.726791e-03 -2.815625e-04
<VARIANCE> 39
 5.369328e+01 1.455297e+01 1.656892e+01 3.228448e+01 3.013851e+01 1.803451e+01 3.400043e+01 4.360264e+01 2.082343e+01 2.173481e+01 2.380557e+01 1.643193e+01 6.052197e+01 1.281009e+00 6.404867e-01 8.052753e-01 1.346645e+00 1.556633e+00 1.192262e+00 1.553622e+00 1.588371e+00 1.550959e+00 1.428319e+00 1.391155e+00 1.220703e+00 6.135530e-01 1.812593e-01 1.088574e-01 1.392495e-01 2.214202e-01 2.578802e-01 2.141607e-01 2.728381e-01 2.899192e-01 2.872912e-01 2.790129e-01 2.744539e-01 2.348796e-01 7.598913e-02
<GCONST> 9.596781e+01
<TRANSP> 5
 0.000000e+00 1.000000e+00 0.000000e+00 0.000000e+00 0.000000e+00
 0.000000e+00 6.000000e-01 4.000000e-01 0.000000e+00 0.000000e+00
 0.000000e+00 0.000000e+00 6.000000e-01 4.000000e-01 0.000000e+00
 0.000000e+00 0.000000e+00 0.000000e+00 7.000000e-01 3.000000e-01
 0.000000e+00 0.000000e+00 0.000000e+00 0.000000e+00 0.000000e+00
<ENDHMM>
~h "sil"
<BEGINHMM>
<NUMSTATES> 5
<STATE> 2
<MEAN> 39
 -1.238183e+01 2.376559e+00 1.040906e+00 -8.364820e-01 1.212676e+00 1.904186e+00 1.784149e+00 -1.644164e+00 4.002038e+00 -7.534810e-01 2.404808e+00 9.652172e-01 5.807533e+01 -3.376544e-04 -6.137493e-04 2.135697e-03 2.967777e-03 -5.754571e-03 -2.394226e-03 -1.645701e-03 2.596329e-03 -4.137663e-03 -2.360419e-03 -3.045151e-03 2.491291e-03 -3.662518e-03 4.135441e-04 6.670943e-05 -9.607423e-05 -9.743288e-04 -6.608778e-04 -7.298387e-04 4.831289e-04 9.372712e-04 5.934813e-04 2.364275e-04 6.813302e-04 -1.726791e-03 -2.815625e-04
<VARIANCE> 39
 5.369328e+01 1.455297e+01 1.656892e+01 3.228448e+01 3.013851e+01 1.803451e+01 3.400043e+01 4.360264e+01 2.082343e+01 2.173481e+01 2.380557e+01 1.643193e+01 6.052197e+01 1.281009e+00 6.404867e-01 8.052753e-01 1.346645e+00 1.556633e+00 1.192262e+00 1.553622e+00 1.588371e+00 1.550959e+00 1.428319e+00 1.391155e+00 1.220703e+00 6.135530e-01 1.812593e-01 1.088574e-01 1.392495e-01 2.214202e-01 2.578802e-01 2.141607e-01 2.728381e-01 2.899192e-01 2.872912e-01 2.790129e-01 2.744539e-01 2.348796e-01 7.598913e-02
<GCONST> 9.596781e+01
<STATE> 3
<MEAN> 39
 -1.238183e+01 2.376559e+00 1.040906e+00 -8.364820e-01 1.212676e+00 1.904186e+00 1.784149e+00 -1.644164e+00 4.002038e+00 -7.534810e-01 2.404808e+00 9.652172e-01 5.807533e+01 -3.376544e-04 -6.137493e-04 2.135697e-03 2.967777e-03 -5.754571e-03 -2.394226e-03 -1.645701e-03 2.596329e-03 -4.137663e-03 -2.360419e-03 -3.045151e-03 2.491291e-03 -3.662518e-03 4.135441e-04 6.670943e-05 -9.607423e-05 -9.743288e-04 -6.608778e-04 -7.298387e-04 4.831289e-04 9.372712e-04 5.934813e-04 2.364275e-04 6.813302e-04 -1.726791e-03 -2.815625e-04
<VARIANCE> 39
 5.369328e+01 1.455297e+01 1.656892e+01 3.228448e+01 3.013851e+01 1.803451e+01 3.400043e+01 4.360264e+01 2.082343e+01 2.173481e+01 2.380557e+01 1.643193e+01 6.052197e+01 1.281009e+00 6.404867e-01 8.052753e-01 1.346645e+00 1.556633e+00 1.192262e+00 1.553622e+00 1.588371e+00 1.550959e+00 1.428319e+00 1.391155e+00 1.220703e+00 6.135530e-01 1.812593e-01 1.088574e-01 1.392495e-01 2.214202e-01 2.578802e-01 2.141607e-01 2.728381e-01 2.899192e-01 2.872912e-01 2.790129e-01 2.744539e-01 2.348796e-01 7.598913e-02
<GCONST> 9.596781e+01
<STATE> 4
<MEAN> 39
 -1.238183e+01 2.376559e+00 1.040906e+00 -8.364820e-01 1.212676e+00 1.904186e+00 1.784149e+00 -1.644164e+00 4.002038e+00 -7.534810e-01 2.404808e+00 9.652172e-01 5.807533e+01 -3.376544e-04 -6.137493e-04 2.135697e-03 2.967777e-03 -5.754571e-03 -2.394226e-03 -1.645701e-03 2.596329e-03 -4.137663e-03 -2.360419e-03 -3.045151e-03 2.491291e-03 -3.662518e-03 4.135441e-04 6.670943e-05 -9.607423e-05 -9.743288e-04 -6.608778e-04 -7.298387e-04 4.831289e-04 9.372712e-04 5.934813e-04 2.364275e-04 6.813302e-04 -1.726791e-03 -2.815625e-04
<VARIANCE> 39
 5.369328e+01 1.455297e+01 1.656892e+01 3.228448e+01 3.013851e+01 1.803451e+01 3.400043e+01 4.360264e+01 2.082343e+01 2.173481e+01 2.380557e+01 1.643193e+01 6.052197e+01 1.281009e+00 6.404867e-01 8.052753e-01 1.346645e+00 1.556633e+00 1.192262e+00 1.553622e+00 1.588371e+00 1.550959e+00 1.428319e+00 1.391155e+00 1.220703e+00 6.135530e-01 1.812593e-01 1.088574e-01 1.392495e-01 2.214202e-01 2.578802e-01 2.141607e-01 2.728381e-01 2.899192e-01 2.872912e-01 2.790129e-01 2.744539e-01 2.348796e-01 7.598913e-02
<GCONST> 9.596781e+01
<TRANSP> 5
 0.000000e+00 1.000000e+00 0.000000e+00 0.000000e+00 0.000000e+00
 0.000000e+00 6.000000e-01 4.000000e-01 0.000000e+00 0.000000e+00
 0.000000e+00 0.000000e+00 6.000000e-01 4.000000e-01 0.000000e+00
 0.000000e+00 0.000000e+00 0.000000e+00 7.000000e-01 3.000000e-01
 0.000000e+00 0.000000e+00 0.000000e+00 0.000000e+00 0.000000e+00
<ENDHMM>
