~o
<STREAMINFO> 1 39
<VECSIZE> 39<NULLD><MFCC_D_A_0><DIAGC>
~h "B"
<BEGINHMM>
<NUMSTATES> 5
<STATE> 2
<MEAN> 39
 -1.588243e+01 1.462013e+00 -1.685921e-01 1.499900e+00 3.672995e+00 2.356651e+00 4.529788e+00 1.406121e+00 4.408768e+00 1.702203e+00 4.892765e+00 1.847911e+00 5.388868e+01 -5.167195e-03 -2.707266e-03 -1.666874e-03 -4.421582e-03 -5.229588e-03 -3.617239e-03 -1.445585e-03 1.097374e-03 -2.690507e-03 -7.356971e-03 -9.560050e-03 -8.978914e-03 -5.055307e-04 -1.561110e-04 -2.201387e-05 2.351301e-04 1.152172e-04 -2.203521e-05 3.548642e-05 -1.238914e-04 -1.389838e-04 3.078684e-04 5.713362e-04 -1.246376e-04 -1.902595e-04 -5.673323e-05
<VARIANCE> 39
 2.255845e+00 3.058555e+00 5.361126e+00 5.599332e+00 5.973798e+00 7.345289e+00 8.397195e+00 1.094828e+01 1.141273e+01 9.994953e+00 1.249526e+01 1.098413e+01 1.525078e+00 9.587023e-02 1.888193e-01 4.322778e-01 5.085541e-01 6.058247e-01 7.762104e-01 8.471019e-01 9.701902e-01 1.048176e+00 9.403210e-01 1.100779e+00 9.174560e-01 8.937085e-02 1.876354e-02 3.980551e-02 9.273441e-02 1.086412e-01 1.251928e-01 1.675586e-01 1.789107e-01 2.023055e-01 2.180872e-01 1.931660e-01 2.341886e-01 1.917342e-01 1.772772e-02
<GCONST> 5.721337e+01
<STATE> 3
<MEAN> 39
 -1.591980e+01 1.442499e+00 -1.705912e-01 1.479602e+00 3.638701e+00 2.332142e+00 4.508695e+00 1.412468e+00 4.400687e+00 1.665120e+00 4.828687e+00 1.784783e+00 5.388193e+01 -5.773238e-03 -3.037961e-03 -2.267533e-04 -3.067927e-03 -5.405036e-03 -4.095170e-03 -3.591326e-03 7.837850e-04 -1.290303e-03 -5.724260e-03 -9.878341e-03 -9.771909e-03 -1.199737e-03 -7.431104e-05 -4.557686e-05 2.027102e-04 1.982535e-04 -2.722931e-05 -7.159275e-05 -3.244425e-04 -4.596560e-05 1.997696e-04 2.180010e-04 -3.772194e-05 -1.203216e-04 -9.894971e-05
<VARIANCE> 39
 2.148104e+00 2.880723e+00 5.171533e+00 5.460251e+00 5.907729e+00 7.302058e+00 8.326791e+00 1.096169e+01 1.137122e+01 9.915017e+00 1.231440e+01 1.081265e+01 1.522778e+00 9.402638e-02 1.881742e-01 4.280774e-01 5.078835e-01 6.111887e-01 7.727138e-01 8.399711e-01 9.794665e-01 1.068071e+00 9.567745e-01 1.121911e+00 9.270295e-01 8.751170e-02 1.839567e-02 3.969160e-02 9.185231e-02 1.083446e-01 1.267506e-01 1.665570e-01 1.770751e-01 2.050961e-01 2.224762e-01 1.978159e-01 2.402682e-01 1.939033e-01 1.732982e-02
<GCONST> 5.702432e+01
<STATE> 4
<MEAN> 39
 -1.620951e+01 1.306329e+00 -8.067250e-02 1.475215e+00 3.438391e+00 2.119410e+00 4.414097e+00 1.634947e+00 4.486496e+00 1.555313e+00 4.738200e+00 1.614229e+00 5.370500e+01 -6.258155e-03 -2.444349e-03 2.090434e-03 -1.390077e-03 -7.221985e-03 -9.110915e-03 -4.375513e-03 4.417730e-03 1.733619e-03 -4.683698e-03 -4.957971e-03 -6.056034e-03 -4.038629e-03 7.312445e-05 2.307399e-05 -2.352112e-05 2.563099e-05 4.226831e-05 -1.250248e-05 5.337090e-06 -6.049784e-05 4.196534e-05 1.007271e-04 7.191906e-05 1.527136e-05 -1.415535e-05
<VARIANCE> 39
 1.656581e+00 2.243565e+00 3.952450e+00 4.779491e+00 5.595362e+00 7.161299e+00 7.835671e+00 9.774037e+00 1.064972e+01 9.408724e+00 1.053036e+01 9.504841e+00 1.003769e+00 8.773583e-02 1.838938e-01 3.805232e-01 4.885662e-01 5.953525e-01 7.358921e-01 7.832158e-01 9.590526e-01 1.111283e+00 1.034511e+00 1.136955e+00 9.282817e-01 5.383255e-02 1.762205e-02 3.835603e-02 8.033673e-02 1.027699e-01 1.238803e-01 1.557156e-01 1.631694e-01 1.997553e-01 2.297006e-01 2.170575e-01 2.472140e-01 1.953595e-01 1.098747e-02
<GCONST> 5.351748e+01
<TRANSP> 5
 0.000000e+00 1.000000e+00 0.000000e+00 0.000000e+00 0.000000e+00
 0.000000e+00 8.455331e-01 1.544670e-01 0.000000e+00 0.000000e+00
 0.000000e+00 0.000000e+00 8.455330e-01 1.544671e-01 0.000000e+00
 0.000000e+00 0.000000e+00 0.000000e+00 9.810018e-01 1.899823e-02
 0.000000e+00 0.000000e+00 0.000000e+00 0.000000e+00 0.000000e+00
<ENDHMM>
~h "p"
<BEGINHMM>
<NUMSTATES> 5
<STATE> 2
<MEAN> 39
 -1.481255e+01 1.918117e+00 4.901109e-01 2.891700e-01 2.240700e+00 1.002566e+00 2.814994e+00 -8.454549e-02 3.712222e+00 7.347244e-02 3.350733e+00 7.386502e-01 5.627724e+01 8.647747e-02 3.212931e-02 4.435354e-02 -2.710270e-02 -2.110020e-02 -3.477932e-02 -8.726285e-02 -1.129536e-01 -2.312250e-03 -4.595634e-02 -4.122383e-02 -2.653344e-02 1.779337e-01 4.748542e-03 2.650909e-03 3.123550e-03 3.057782e-04 1.226496e-03 2.612965e-05 -1.688953e-03 -6.891709e-03 1.914513e-03 -2.173019e-03 -5.353553e-03 -3.303607e-03 1.153486e-02
<VARIANCE> 39
 1.334046e+01 5.559960e+00 1.640663e+01 1.093364e+01 1.079228e+01 1.344082e+01 1.852600e+01 2.483683e+01 1.179481e+01 1.288317e+01 1.353564e+01 1.164435e+01 4.290907e+01 6.197241e-01 4.386703e-01 1.121838e+00 8.040102e-01 1.071702e+00 1.011572e+00 1.747935e+00 1.741470e+00 1.216626e+00 1.226891e+00 1.094961e+00 1.076869e+00 8.410410e-01 9.974240e-02 8.928040e-02 1.956737e-01 1.546681e-01 2.047097e-01 1.914464e-01 3.531035e-01 3.493603e-01 2.309942e-01 2.475538e-01 2.201605e-01 2.158825e-01 1.162952e-01
<GCONST> 8.469466e+01
<STATE> 3
<MEAN> 39
 -1.423709e+01 2.155905e+00 8.039863e-01 1.373171e-01 2.126659e+00 8.141779e-01 2.316342e+00 -8.044948e-01 3.727351e+00 -2.468084e-01 3.007484e+00 5.284736e-01 5.748354e+01 1.174411e-01 4.937240e-02 6.516173e-02 -3.055678e-02 -2.444749e-02 -3.476003e-02 -9.744997e-02 -1.453876e-01 4.349530e-03 -6.560146e-02 -6.946752e-02 -4.521605e-02 2.437105e-01 6.081916e-03 3.414606e-03 4.048563e-03 -9.081366e-04 -8.864633e-04 2.128946e-04 -1.839564e-03 -6.111370e-03 1.014055e-03 -4.021797e-03 -5.257152e-03 -3.621605e-03 1.252463e-02
<VARIANCE> 39
 1.878242e+01 7.335497e+00 2.236770e+01 1.381264e+01 1.323451e+01 1.637074e+01 2.158472e+01 3.128922e+01 1.253871e+01 1.451213e+01 1.516872e+01 1.398445e+01 5.886314e+01 8.464862e-01 5.541828e-01 1.418191e+00 9.049752e-01 1.260311e+00 1.168094e+00 2.028206e+00 2.024848e+00 1.311589e+00 1.353534e+00 1.159270e+00 1.185391e+00 1.131087e+00 1.313628e-01 1.129076e-01 2.393953e-01 1.696251e-01 2.310401e-01 2.161568e-01 4.088137e-01 4.026074e-01 2.475514e-01 2.746597e-01 2.325417e-01 2.315621e-01 1.553515e-01
<GCONST> 9.148485e+01
<STATE> 4
<MEAN> 39
 -1.190337e+01 3.330303e+00 1.791558e+00 -8.687357e-01 1.743676e+00 7.230356e-01 1.077504e+00 -2.984128e+00 3.838326e+00 -1.614279e+00 1.612861e+00 -2.436804e-01 6.183615e+01 1.773074e-01 9.118410e-02 7.595474e-02 -7.797764e-02 -4.040794e-02 6.808638e-03 -8.237635e-02 -1.601631e-01 9.486063e-03 -1.029085e-01 -9.634347e-02 -7.032996e-02 3.066034e-01 3.282451e-03 2.502591e-03 -4.257732e-05 -3.341477e-03 -1.052460e-03 3.652389e-03 1.945257e-03 4.082946e-04 1.420439e-04 -2.061559e-03 -8.007495e-04 -1.354206e-03 1.684150e-03
<VARIANCE> 39
 3.884697e+01 1.384009e+01 4.106996e+01 3.029461e+01 2.302046e+01 3.158521e+01 3.048136e+01 4.612260e+01 1.508355e+01 1.927833e+01 1.955619e+01 2.222993e+01 9.156040e+01 1.755294e+00 9.313468e-01 2.210806e+00 1.374901e+00 1.967247e+00 1.793913e+00 2.691239e+00 2.627074e+00 1.646374e+00 1.662756e+00 1.379285e+00 1.552018e+00 1.689808e+00 2.438773e-01 1.854096e-01 3.371657e-01 2.228726e-01 3.150681e-01 3.017448e-01 5.281617e-01 4.976340e-01 3.109362e-01 3.380715e-01 2.645366e-01 2.786886e-01 2.229503e-01
<GCONST> 1.065705e+02
<TRANSP> 5
 0.000000e+00 1.000000e+00 0.000000e+00 0.000000e+00 0.000000e+00
 0.000000e+00 8.077500e-01 1.922500e-01 0.000000e+00 0.000000e+00
 0.000000e+00 0.000000e+00 8.077492e-01 1.922508e-01 0.000000e+00
 0.000000e+00 0.000000e+00 0.000000e+00 9.379715e-01 6.202859e-02
 0.000000e+00 0.000000e+00 0.000000e+00 0.000000e+00 0.000000e+00
<ENDHMM>
~h "aa"
<BEGINHMM>
<NUMSTATES> 5
<STATE> 2
<MEAN> 39
 -1.067908e+01 4.652803e+00 2.739030e-01 -2.509183e+00 9.321479e-01 3.004573e+00 3.780081e+00 -4.757926e-01 3.004260e+00 -2.512962e+00 1.567123e+00 -4.931422e-01 5.850915e+01 -1.646713e-01 -7.901759e-02 -2.896996e-02 1.084931e-01 3.628495e-02 -6.707509e-02 3.994628e-02 9.219975e-02 -9.421770e-03 9.241750e-02 5.435705e-02 3.695810e-02 -2.262801e-01 -2.174165e-03 -1.896224e-03 2.350672e-03 2.182667e-03 1.333038e-03 -1.604381e-03 -3.407798e-03 -3.651638e-03 2.012610e-03 1.589440e-03 7.555459e-04 -2.937444e-04 3.951123e-03
<VARIANCE> 39
 4.673574e+01 1.437366e+01 1.258835e+01 3.599992e+01 1.849057e+01 2.903016e+01 1.903240e+01 2.090572e+01 1.417169e+01 2.381541e+01 1.417013e+01 1.662887e+01 4.863831e+01 8.727849e-01 4.347942e-01 7.129229e-01 1.259471e+00 1.311159e+00 1.290109e+00 1.224423e+00 1.115970e+00 1.407980e+00 1.283903e+00 1.103546e+00 1.247609e+00 2.525029e-01 9.634227e-02 7.385393e-02 1.104563e-01 1.804234e-01 2.065452e-01 2.000922e-01 2.195265e-01 2.176844e-01 2.786086e-01 2.637216e-01 2.298839e-01 2.254984e-01 2.507824e-02
<GCONST> 8.669563e+01
<STATE> 3
<MEAN> 39
 -1.156062e+01 4.219942e+00 1.612124e-01 -1.917703e+00 1.133865e+00 2.627317e+00 3.935672e+00 -5.422628e-02 2.982829e+00 -2.013691e+00 1.856724e+00 -3.111560e-01 5.739925e+01 -1.696192e-01 -8.578075e-02 -1.769645e-02 1.141679e-01 4.213779e-02 -7.029334e-02 2.261707e-02 7.225231e-02 1.489808e-03 9.708448e-02 5.706712e-02 3.540025e-02 -1.998018e-01 1.542351e-04 -7.380627e-04 1.878790e-03 1.830072e-04 7.591781e-04 1.613214e-04 -2.902724e-03 -3.628839e-03 1.990420e-03 2.981916e-04 3.317179e-04 -2.586227e-04 5.535080e-03
<VARIANCE> 39
 4.118529e+01 1.323674e+01 9.282089e+00 3.032141e+01 1.570995e+01 2.421384e+01 1.599992e+01 1.718607e+01 1.332955e+01 2.254413e+01 1.377848e+01 1.456780e+01 3.845367e+01 6.545960e-01 3.652976e-01 5.994942e-01 1.057895e+00 1.099968e+00 1.133226e+00 1.099670e+00 1.048181e+00 1.300696e+00 1.218319e+00 1.070793e+00 1.130817e+00 1.901781e-01 7.285486e-02 6.330175e-02 9.890884e-02 1.591834e-01 1.814703e-01 1.859877e-01 2.006333e-01 2.067199e-01 2.588219e-01 2.512796e-01 2.239041e-01 2.078465e-01 1.839527e-02
<GCONST> 8.140338e+01
<STATE> 4
<MEAN> 39
 -1.329339e+01 3.283510e+00 6.344914e-02 -7.656304e-01 1.642703e+00 2.014607e+00 4.073208e+00 5.474216e-01 3.167567e+00 -9.661762e-01 2.495430e+00 7.696849e-02 5.566846e+01 -1.456279e-01 -8.043303e-02 -4.347494e-03 9.783788e-02 4.314663e-02 -5.459153e-02 1.439050e-03 3.999128e-02 1.852927e-02 8.707581e-02 5.398452e-02 3.257352e-02 -1.347545e-01 3.359046e-03 1.081213e-03 7.680707e-04 -2.375302e-03 -3.594945e-04 2.229835e-03 -1.254945e-03 -2.501651e-03 1.289663e-03 -1.517381e-03 -4.966703e-04 -1.820377e-04 6.036076e-03
<VARIANCE> 39
 2.848066e+01 1.040186e+01 5.459066e+00 1.989920e+01 1.152965e+01 1.631652e+01 1.209458e+01 1.252617e+01 1.203859e+01 1.923891e+01 1.291623e+01 1.169304e+01 2.115897e+01 3.604344e-01 2.741870e-01 4.572290e-01 7.702555e-01 8.186989e-01 9.260263e-01 9.417316e-01 9.634957e-01 1.138334e+00 1.133393e+00 1.024818e+00 9.702173e-01 1.132176e-01 4.263655e-02 5.049239e-02 8.473613e-02 1.310324e-01 1.487556e-01 1.700418e-01 1.786653e-01 1.927173e-01 2.289257e-01 2.360827e-01 2.144367e-01 1.855453e-01 1.102402e-02
<GCONST> 7.182991e+01
<TRANSP> 5
 0.000000e+00 1.000000e+00 0.000000e+00 0.000000e+00 0.000000e+00
 0.000000e+00 8.077485e-01 1.922515e-01 0.000000e+00 0.000000e+00
 0.000000e+00 0.000000e+00 8.077487e-01 1.922514e-01 0.000000e+00
 0.000000e+00 0.000000e+00 0.000000e+00 9.379567e-01 6.204333e-02
 0.000000e+00 0.000000e+00 0.000000e+00 0.000000e+00 0.000000e+00
<ENDHMM>
~h "c0"
<BEGINHMM>
<NUMSTATES> 5
<STATE> 2
<MEAN> 39
 -1.128403e+01 2.503777e+00 1.464714e+00 -1.609927e+00 8.680692e-01 2.044370e+00 5.159806e-01 -3.276899e+00 3.414793e+00 -1.340319e+00 2.314248e+00 1.306317e+00 5.930629e+01 -5.296721e-02 -1.294911e-02 -1.181241e-02 -2.329413e-03 1.188387e-02 -1.355329e-02 1.614283e-02 4.632241e-02 -5.714080e-02 -7.399805e-03 3.674100e-02 -8.876365e-03 -3.484908e-02 2.881407e-03 -2.336878e-03 -8.036222e-04 -6.438482e-03 -4.201941e-03 4.728103e-04 -1.190084e-03 -4.945540e-04 1.779599e-03 -2.158705e-04 -1.544466e-03 -4.105353e-04 7.372879e-03
<VARIANCE> 39
 6.288760e+01 1.890424e+01 1.855676e+01 4.201052e+01 3.113945e+01 1.829681e+01 4.197834e+01 5.689626e+01 2.348001e+01 2.295053e+01 2.449387e+01 1.892995e+01 6.801019e+01 1.796468e+00 8.080881e-01 8.620975e-01 1.983764e+00 1.816531e+00 1.366509e+00 1.755397e+00 1.690405e+00 1.692649e+00 1.583912e+00 1.489932e+00 1.348483e+00 8.327609e-01 2.764023e-01 1.333608e-01 1.591099e-01 3.237008e-01 2.983499e-01 2.421839e-01 2.974635e-01 3.074165e-01 3.309889e-01 3.101155e-01 3.036957e-01 2.566790e-01 1.001908e-01
<GCONST> 1.021806e+02
<STATE> 3
<MEAN> 39
 -1.144654e+01 2.395732e+00 1.401026e+00 -1.765147e+00 8.285595e-01 1.998476e+00 5.468149e-01 -3.083964e+00 3.163086e+00 -1.395339e+00 2.459562e+00 1.261336e+00 5.932404e+01 -2.838943e-02 -2.519603e-02 -1.255567e-02 -3.633246e-02 -1.268555e-02 -7.140385e-03 6.076961e-03 4.008691e-02 -4.311161e-02 -9.901155e-03 2.476957e-02 -9.833894e-03 1.193527e-02 5.347697e-03 -2.405108e-03 1.027866e-04 -6.513239e-03 -4.814461e-03 1.497848e-03 -2.316008e-03 -1.696421e-03 3.268860e-03 -5.853673e-04 -2.659357e-03 -1.379286e-04 9.644744e-03
<VARIANCE> 39
 6.234386e+01 1.940650e+01 1.726437e+01 4.424288e+01 3.011766e+01 1.869170e+01 3.980337e+01 5.160651e+01 2.358678e+01 2.311638e+01 2.369117e+01 1.900528e+01 6.734464e+01 1.880174e+00 8.457392e-01 8.504806e-01 2.085512e+00 1.837970e+00 1.367063e+00 1.821482e+00 1.697240e+00 1.722672e+00 1.605323e+00 1.505807e+00 1.327112e+00 9.569790e-01 2.831533e-01 1.410150e-01 1.592066e-01 3.403117e-01 3.062212e-01 2.424347e-01 3.086292e-01 3.106626e-01 3.346151e-01 3.130400e-01 3.046141e-01 2.535736e-01 1.156187e-01
<GCONST> 1.026922e+02
<STATE> 4
<MEAN> 39
 -1.082814e+01 2.120254e+00 1.481003e+00 -2.522390e+00 3.869544e-01 2.105880e+00 2.650247e-01 -2.956457e+00 3.131781e+00 -1.800729e+00 2.209941e+00 1.269707e+00 6.059509e+01 4.407106e-02 -2.197061e-02 1.782061e-03 -4.661077e-02 -4.032508e-02 2.016386e-03 -2.044276e-02 1.091723e-02 3.981263e-03 -2.438832e-02 -1.863154e-02 -5.258239e-03 8.137694e-02 4.809565e-03 2.071948e-04 1.188916e-03 2.097076e-04 -1.418106e-03 6.992827e-04 -1.793825e-03 -2.085486e-03 4.330873e-03 -7.142627e-04 -3.411303e-03 3.452895e-04 4.185799e-03
<VARIANCE> 39
 7.315784e+01 2.190224e+01 1.788433e+01 5.284819e+01 3.430997e+01 2.072543e+01 3.999035e+01 4.431415e+01 2.687707e+01 2.642405e+01 2.614417e+01 2.070417e+01 7.742454e+01 2.341441e+00 9.907365e-01 8.849474e-01 2.298084e+00 2.075174e+00 1.415712e+00 2.032809e+00 1.785815e+00 1.911258e+00 1.742778e+00 1.611531e+00 1.322122e+00 1.153753e+00 3.290148e-01 1.663561e-01 1.642004e-01 3.692409e-01 3.474182e-01 2.475036e-01 3.360384e-01 3.250132e-01 3.498288e-01 3.286601e-01 3.135929e-01 2.524716e-01 1.406300e-01
<GCONST> 1.061473e+02
<TRANSP> 5
 0.000000e+00 1.000000e+00 0.000000e+00 0.000000e+00 0.000000e+00
 0.000000e+00 8.022696e-01 1.977305e-01 0.000000e+00 0.000000e+00
 0.000000e+00 0.000000e+00 8.022706e-01 1.977294e-01 0.000000e+00
 0.000000e+00 0.000000e+00 0.000000e+00 9.322070e-01 6.779300e-02
 0.000000e+00 0.000000e+00 0.000000e+00 0.000000e+00 0.000000e+00
<ENDHMM>
~h "ee"
<BEGINHMM>
<NUMSTATES> 5
<STATE> 2
<MEAN> 39
 -5.027869e+00 3.096290e+00 1.960236e+00 -4.154072e+00 -2.966784e+00 2.187431e+00 -3.344936e+00 -8.103358e+00 5.235528e+00 -2.771711e+00 -5.319862e-01 2.016542e+00 6.514697e+01 -6.490166e-02 3.131886e-02 -1.151133e-02 6.058104e-02 1.063495e-01 -1.017218e-02 2.243892e-02 -2.775280e-02 -7.137572e-02 7.355185e-03 8.370437e-02 2.504879e-02 -9.110834e-02 -1.180833e-02 5.719076e-04 9.715084e-06 6.133963e-03 6.930511e-03 -4.244790e-04 8.091916e-03 1.089661e-02 -3.553639e-03 2.767773e-03 6.234725e-03 -1.151184e-03 -1.298177e-02
<VARIANCE> 39
 8.537466e+01 3.574875e+01 2.152028e+01 6.558324e+01 7.309772e+01 3.782368e+01 6.165034e+01 9.264459e+01 4.011436e+01 2.569166e+01 4.048241e+01 2.769752e+01 9.054836e+01 2.897770e+00 1.461098e+00 1.350754e+00 2.447420e+00 3.213417e+00 1.939691e+00 2.611728e+00 2.675452e+00 2.486187e+00 2.324643e+00 2.264519e+00 1.843819e+00 1.019303e+00 4.455004e-01 2.297997e-01 2.256290e-01 3.696433e-01 4.683851e-01 3.040869e-01 3.765824e-01 4.307021e-01 4.342420e-01 4.457123e-01 4.455900e-01 3.432909e-01 1.217295e-01
<GCONST> 1.174528e+02
<STATE> 3
<MEAN> 39
 -5.553610e+00 3.258271e+00 1.906390e+00 -3.765591e+00 -2.341417e+00 2.135954e+00 -3.087779e+00 -8.054620e+00 4.821300e+00 -2.681493e+00 -1.748371e-02 2.105228e+00 6.447491e+01 -1.169150e-01 3.333611e-02 -1.053912e-02 8.525478e-02 1.303894e-01 -1.191764e-02 6.173842e-02 2.838356e-02 -8.609512e-02 2.049968e-02 1.087553e-01 1.709068e-02 -1.496667e-01 -9.697175e-03 3.799094e-04 1.368310e-04 4.537266e-03 3.839272e-03 -7.240747e-04 7.499526e-03 1.126152e-02 -2.632116e-03 2.480097e-03 4.095122e-03 -1.763809e-03 -1.117341e-02
<VARIANCE> 39
 8.345026e+01 3.327969e+01 1.883320e+01 6.204780e+01 6.640479e+01 3.609047e+01 6.089198e+01 9.114433e+01 3.845380e+01 2.467655e+01 3.761985e+01 2.649614e+01 9.050186e+01 2.772782e+00 1.354219e+00 1.278915e+00 2.418536e+00 2.982889e+00 1.919494e+00 2.416119e+00 2.498544e+00 2.347021e+00 2.235431e+00 2.114274e+00 1.821081e+00 8.892164e-01 4.383454e-01 2.122979e-01 2.189154e-01 3.699724e-01 4.367495e-01 3.038452e-01 3.508371e-01 4.054657e-01 4.223192e-01 4.325749e-01 4.220441e-01 3.386918e-01 1.072340e-01
<GCONST> 1.154861e+02
<STATE> 4
<MEAN> 39
 -7.630127e+00 3.518566e+00 1.756039e+00 -2.499202e+00 -7.041218e-01 2.007810e+00 -1.705691e+00 -6.597564e+00 3.928950e+00 -2.186598e+00 1.292605e+00 2.067807e+00 6.200253e+01 -1.774632e-01 1.966386e-02 -1.506241e-02 1.039575e-01 1.261706e-01 -1.482241e-02 1.176028e-01 1.214970e-01 -8.631305e-02 4.456587e-02 1.183686e-01 -6.287850e-03 -2.157384e-01 -4.073366e-03 -1.292750e-03 -6.091966e-04 1.321645e-03 -1.155977e-03 -9.957815e-04 3.687905e-03 7.585743e-03 6.311880e-04 1.570973e-03 -5.585047e-04 -1.759865e-03 -4.528599e-03
<VARIANCE> 39
 7.754910e+01 2.615726e+01 1.392856e+01 5.162949e+01 4.905904e+01 3.010998e+01 5.509484e+01 8.277043e+01 3.253045e+01 2.294912e+01 3.014153e+01 2.326862e+01 8.352033e+01 2.281213e+00 1.073987e+00 1.072323e+00 2.170087e+00 2.382314e+00 1.726177e+00 1.908650e+00 2.028728e+00 2.002091e+00 1.937757e+00 1.744551e+00 1.674301e+00 6.345865e-01 3.731959e-01 1.690975e-01 1.913238e-01 3.406880e-01 3.560334e-01 2.842073e-01 2.925127e-01 3.438774e-01 3.801940e-01 3.832294e-01 3.553658e-01 3.104436e-01 7.789373e-02
<GCONST> 1.089042e+02
<TRANSP> 5
 0.000000e+00 1.000000e+00 0.000000e+00 0.000000e+00 0.000000e+00
 0.000000e+00 8.003739e-01 1.996261e-01 0.000000e+00 0.000000e+00
 0.000000e+00 0.000000e+00 8.003727e-01 1.996273e-01 0.000000e+00
 0.000000e+00 0.000000e+00 0.000000e+00 9.300395e-01 6.996058e-02
 0.000000e+00 0.000000e+00 0.000000e+00 0.000000e+00 0.000000e+00
<ENDHMM>
~h "hh"
<BEGINHMM>
<NUMSTATES> 5
<STATE> 2
<MEAN> 39
 -6.157632e+00 3.241982e+00 3.426269e+00 1.834280e-01 -7.445469e-01 8.124262e-01 -4.105823e+00 -4.478603e+00 6.394326e+00 -4.410133e+00 -5.655088e-01 4.720361e-01 6.472974e+01 -2.092522e-02 9.767616e-02 -2.296846e-02 1.376521e-01 6.875390e-02 -1.417659e-01 5.280839e-02 7.824466e-02 -1.646559e-02 1.390623e-02 -4.558454e-02 1.970438e-02 -2.188891e-01 -1.573021e-02 -2.809271e-03 -3.145565e-03 -1.692611e-03 4.127433e-03 8.502190e-04 8.309743e-03 5.934862e-03 -7.204719e-03 5.595940e-03 7.152969e-03 -1.740438e-03 -1.252774e-02
<VARIANCE> 39
 7.745802e+01 2.351097e+01 8.992989e+00 2.521057e+01 3.074996e+01 3.836196e+01 3.907061e+01 4.108526e+01 7.007114e+01 3.028501e+01 3.331305e+01 2.030149e+01 7.534424e+01 1.856632e+00 1.131826e+00 6.279050e-01 1.264080e+00 2.339543e+00 1.100377e+00 1.350368e+00 2.273715e+00 3.585769e+00 1.977059e+00 1.507756e+00 1.285604e+00 8.230218e-01 1.938113e-01 1.866881e-01 1.184579e-01 2.252930e-01 3.883014e-01 1.832532e-01 2.236661e-01 4.148460e-01 4.322887e-01 3.532282e-01 2.534210e-01 2.358042e-01 7.630888e-02
<GCONST> 1.033328e+02
<STATE> 3
<MEAN> 39
 -6.548647e+00 3.690873e+00 3.259292e+00 8.640819e-01 -3.252807e-01 9.488177e-02 -3.694374e+00 -3.974659e+00 6.189567e+00 -4.233373e+00 -6.652400e-01 5.348021e-01 6.338751e+01 -1.013969e-01 7.672363e-02 -3.621474e-02 1.196281e-01 8.533484e-02 -1.260824e-01 9.226869e-02 1.013738e-01 -5.497681e-02 4.187379e-02 -5.209586e-03 7.308045e-03 -2.680315e-01 -1.420932e-02 -4.507677e-03 -2.313784e-03 -3.975085e-03 2.552940e-03 4.251983e-03 7.169646e-03 3.617412e-03 -6.528266e-03 5.150656e-03 7.538063e-03 -2.350386e-03 -7.473845e-03
<VARIANCE> 39
 7.065518e+01 2.093752e+01 8.477124e+00 2.055401e+01 2.849823e+01 3.737924e+01 4.019892e+01 3.771191e+01 6.543906e+01 2.948560e+01 3.074269e+01 1.866959e+01 7.410435e+01 1.405139e+00 9.589893e-01 5.829610e-01 1.079594e+00 2.052936e+00 1.044498e+00 1.212124e+00 2.042926e+00 3.178041e+00 1.823465e+00 1.428814e+00 1.238446e+00 6.513913e-01 1.446645e-01 1.548515e-01 1.105745e-01 1.960248e-01 3.371663e-01 1.724270e-01 2.046693e-01 3.763361e-01 3.887421e-01 3.299609e-01 2.479837e-01 2.299328e-01 6.061933e-02
<GCONST> 9.929871e+01
<STATE> 4
<MEAN> 39
 -8.734831e+00 4.030102e+00 2.677056e+00 1.786788e+00 8.154455e-01 -6.110339e-01 -1.973657e+00 -2.527764e+00 5.277813e+00 -3.244147e+00 1.474190e-02 5.377929e-01 6.006496e+01 -2.048494e-01 1.404683e-02 -5.003096e-02 6.108566e-02 8.898436e-02 -4.912267e-02 1.427301e-01 1.062946e-01 -9.665324e-02 8.456074e-02 6.378520e-02 -1.540183e-02 -2.751494e-01 -5.640348e-03 -5.364742e-03 -1.038332e-03 -5.179729e-03 -4.128834e-04 7.620136e-03 3.443040e-03 -3.052088e-04 -1.418814e-03 2.760617e-03 4.629837e-03 -1.169137e-03 2.252052e-03
<VARIANCE> 39
 6.040572e+01 1.601069e+01 7.680006e+00 1.227656e+01 2.209319e+01 3.153727e+01 4.217545e+01 3.004582e+01 4.957562e+01 2.811687e+01 2.723562e+01 1.579476e+01 6.126066e+01 7.022550e-01 6.449942e-01 4.931222e-01 7.903481e-01 1.439035e+00 9.365440e-01 1.009759e+00 1.537639e+00 2.251637e+00 1.484539e+00 1.250904e+00 1.137197e+00 3.850564e-01 7.188970e-02 9.895487e-02 9.468457e-02 1.486339e-01 2.370208e-01 1.568320e-01 1.776690e-01 2.893875e-01 3.019408e-01 2.785235e-01 2.324973e-01 2.163101e-01 3.451774e-02
<GCONST> 8.951585e+01
<TRANSP> 5
 0.000000e+00 1.000000e+00 0.000000e+00 0.000000e+00 0.000000e+00
 0.000000e+00 8.077512e-01 1.922487e-01 0.000000e+00 0.000000e+00
 0.000000e+00 0.000000e+00 8.077511e-01 1.922489e-01 0.000000e+00
 0.000000e+00 0.000000e+00 0.000000e+00 9.379677e-01 6.203228e-02
 0.000000e+00 0.000000e+00 0.000000e+00 0.000000e+00 0.000000e+00
<ENDHMM>
~h "ii"
<BEGINHMM>
<NUMSTATES> 5
<STATE> 2
<MEAN> 39
 -1.272905e+01 3.268487e+00 1.859112e+00 1.131649e-01 2.062277e+00 1.004007e+00 1.535914e+00 -2.225882e+00 3.359347e+00 -1.557795e+00 1.598436e+00 -5.643864e-01 5.921436e+01 4.946542e-02 2.072732e-02 -1.804981e-02 -6.141103e-02 -1.737938e-02 3.785893e-02 2.511962e-02 -1.353501e-02 2.757835e-02 -6.395493e-03 6.586380e-03 -1.075074e-02 9.480862e-02 1.970490e-03 1.455831e-03 2.848635e-04 -2.003504e-03 -4.401137e-04 2.129864e-03 5.238598e-04 1.192983e-03 1.859060e-04 -1.220744e-03 -5.157973e-04 4.192938e-04 -7.625037e-04
<VARIANCE> 39
 3.260030e+01 1.158291e+01 3.123753e+01 2.613159e+01 1.808353e+01 2.519420e+01 2.727229e+01 3.860202e+01 1.667404e+01 2.010744e+01 1.955528e+01 1.998670e+01 7.270663e+01 1.173950e+00 6.479768e-01 1.438507e+00 1.083913e+00 1.493450e+00 1.432202e+00 1.899266e+00 1.928901e+00 1.444335e+00 1.386139e+00 1.223624e+00 1.408401e+00 9.707963e-01 1.552169e-01 1.241156e-01 2.196553e-01 1.748052e-01 2.406707e-01 2.464726e-01 3.675883e-01 3.638397e-01 2.801172e-01 2.801645e-01 2.403787e-01 2.663910e-01 1.192245e-01
<GCONST> 9.743858e+01
<STATE> 3
<MEAN> 39
 -1.246065e+01 3.391057e+00 1.743598e+00 -2.415918e-01 1.971451e+00 1.252626e+00 1.700780e+00 -2.242528e+00 3.504791e+00 -1.597499e+00 1.640694e+00 -6.061700e-01 5.964340e+01 5.415124e-02 2.584207e-02 -2.145464e-02 -6.954426e-02 -1.819669e-02 4.962813e-02 3.098791e-02 -1.070910e-03 2.658295e-02 -1.029888e-02 6.739791e-03 -5.776592e-03 7.741944e-02 3.922223e-04 7.459729e-04 -9.752217e-04 -1.149665e-03 -1.145150e-04 1.874553e-03 1.194195e-03 2.622913e-03 -6.915457e-04 -6.637265e-04 -2.101873e-05 9.858147e-04 -4.298137e-03
<VARIANCE> 39
 3.631551e+01 1.239995e+01 3.165190e+01 2.977615e+01 1.972767e+01 2.842546e+01 2.769993e+01 4.001138e+01 1.633017e+01 2.055074e+01 1.889139e+01 2.091884e+01 7.655031e+01 1.267173e+00 6.734567e-01 1.451002e+00 1.172416e+00 1.590543e+00 1.519492e+00 1.909201e+00 1.913507e+00 1.487495e+00 1.403203e+00 1.232872e+00 1.454324e+00 9.370139e-01 1.644524e-01 1.281244e-01 2.169574e-01 1.834629e-01 2.498735e-01 2.547514e-01 3.661414e-01 3.586019e-01 2.902396e-01 2.838121e-01 2.416747e-01 2.724971e-01 1.139461e-01
<GCONST> 9.865724e+01
<STATE> 4
<MEAN> 39
 -1.205798e+01 3.623402e+00 1.268471e+00 -9.481485e-01 1.912786e+00 2.031437e+00 2.331973e+00 -1.750953e+00 3.702991e+00 -1.638291e+00 1.819493e+00 -4.477947e-01 5.968292e+01 2.288217e-02 1.274144e-02 -4.242800e-02 -5.417848e-02 -1.189109e-02 5.740452e-02 5.518787e-02 4.897047e-02 1.411334e-02 1.752762e-03 2.051301e-02 1.347740e-02 -2.080011e-02 -2.616727e-03 -1.127477e-03 -1.158207e-03 1.994288e-03 3.020099e-04 -8.466808e-04 1.166359e-03 3.237347e-03 -1.487231e-03 9.173176e-04 4.160613e-04 1.259880e-03 -7.397019e-03
<VARIANCE> 39
 4.333467e+01 1.372306e+01 2.847962e+01 3.634297e+01 2.114682e+01 3.235979e+01 2.708365e+01 3.765038e+01 1.549856e+01 2.222117e+01 1.788989e+01 2.137298e+01 7.502586e+01 1.332864e+00 6.552045e-01 1.288132e+00 1.314261e+00 1.641281e+00 1.602016e+00 1.743103e+00 1.683919e+00 1.526343e+00 1.388520e+00 1.204445e+00 1.476547e+00 7.005815e-01 1.640398e-01 1.206241e-01 1.880320e-01 1.929582e-01 2.511649e-01 2.590099e-01 3.274998e-01 3.163117e-01 3.022921e-01 2.822761e-01 2.373724e-01 2.738406e-01 8.113139e-02
<GCONST> 9.802940e+01
<TRANSP> 5
 0.000000e+00 1.000000e+00 0.000000e+00 0.000000e+00 0.000000e+00
 0.000000e+00 8.077444e-01 1.922555e-01 0.000000e+00 0.000000e+00
 0.000000e+00 0.000000e+00 8.077446e-01 1.922554e-01 0.000000e+00
 0.000000e+00 0.000000e+00 0.000000e+00 9.379497e-01 6.205019e-02
 0.000000e+00 0.000000e+00 0.000000e+00 0.000000e+00 0.000000e+00
<ENDHMM>
~h "ng"
<BEGINHMM>
<NUMSTATES> 5
<STATE> 2
<MEAN> 39
 -1.218249e+01 3.328134e+00 2.516695e+00 -2.574278e-01 1.833107e+00 1.151351e+00 1.782725e+00 -1.167268e+00 3.483944e+00 -1.841820e+00 1.225150e+00 -8.598685e-03 5.804585e+01 -1.004378e-01 -3.399501e-02 5.187649e-03 7.594065e-02 4.898460e-02 1.644337e-03 6.476530e-03 2.556733e-02 1.442942e-02 4.652983e-02 2.990917e-02 1.420238e-03 -9.860824e-02 -7.045965e-05 -2.352515e-04 -2.639758e-03 -2.445402e-04 -9.659263e-04 8.591084e-05 8.210347e-04 5.843042e-04 -1.793171e-04 5.854813e-04 6.698100e-04 5.452379e-04 -1.333982e-03
<VARIANCE> 39
 4.768462e+01 1.087368e+01 2.639344e+01 2.867906e+01 1.873476e+01 1.345690e+01 3.104450e+01 2.251257e+01 1.595569e+01 2.658297e+01 2.300732e+01 1.411356e+01 5.246925e+01 1.336769e+00 4.126692e-01 6.795441e-01 1.282718e+00 1.218667e+00 1.023867e+00 1.402103e+00 1.177400e+00 1.198568e+00 1.253736e+00 1.189902e+00 1.115893e+00 4.099843e-01 1.767121e-01 6.773701e-02 1.118174e-01 2.147788e-01 2.103063e-01 1.930440e-01 2.499116e-01 2.259590e-01 2.326854e-01 2.390675e-01 2.375441e-01 2.180189e-01 4.498253e-02
<GCONST> 8.903607e+01
<STATE> 3
<MEAN> 39
 -1.271967e+01 3.139823e+00 2.497975e+00 1.370156e-01 2.074144e+00 1.164210e+00 1.837354e+00 -1.022588e+00 3.556376e+00 -1.578687e+00 1.399570e+00 6.147623e-03 5.750090e+01 -9.832375e-02 -3.483614e-02 -1.046432e-02 7.103392e-02 4.175576e-02 2.007289e-03 1.317669e-02 2.912052e-02 1.158861e-02 4.870998e-02 3.355934e-02 4.677300e-03 -1.036779e-01 4.786582e-04 -1.079497e-04 -2.998495e-03 -1.195661e-03 -1.290935e-03 1.964004e-04 1.639346e-03 8.504109e-04 -7.077261e-04 3.763187e-04 7.712881e-04 6.307645e-04 -8.214678e-04
<VARIANCE> 39
 4.154385e+01 1.000003e+01 2.673534e+01 2.423664e+01 1.627632e+01 1.187305e+01 2.987332e+01 2.245115e+01 1.572635e+01 2.523908e+01 2.305640e+01 1.388736e+01 4.776384e+01 1.141981e+00 3.804975e-01 6.508955e-01 1.131830e+00 1.117814e+00 9.747641e-01 1.303783e+00 1.136937e+00 1.178965e+00 1.209569e+00 1.127769e+00 1.096564e+00 3.367410e-01 1.501989e-01 6.332835e-02 1.077052e-01 1.912311e-01 1.938331e-01 1.869922e-01 2.370269e-01 2.194068e-01 2.293605e-01 2.348247e-01 2.247647e-01 2.155218e-01 3.526685e-02
<GCONST> 8.628555e+01
<STATE> 4
<MEAN> 39
 -1.378517e+01 2.724616e+00 2.149363e+00 8.366784e-01 2.476383e+00 1.242776e+00 2.192650e+00 -5.623192e-01 3.681374e+00 -9.345478e-01 1.916184e+00 1.656914e-01 5.629658e+01 -8.741872e-02 -3.557749e-02 -4.146663e-02 4.910490e-02 2.601994e-02 5.106530e-03 3.501894e-02 3.906091e-02 2.930830e-03 5.003650e-02 4.335767e-02 1.195062e-02 -1.027260e-01 1.567547e-03 2.334747e-04 -2.270645e-03 -2.234927e-03 -9.113703e-04 6.739986e-04 1.956747e-03 9.012686e-04 -7.462002e-04 -1.916193e-04 6.360242e-04 7.406999e-04 9.756409e-04
<VARIANCE> 39
 2.874049e+01 8.209462e+00 2.400524e+01 1.631952e+01 1.186831e+01 9.851835e+00 2.629422e+01 2.151285e+01 1.528955e+01 2.210492e+01 2.226314e+01 1.318054e+01 3.522379e+01 7.481939e-01 3.179996e-01 5.699484e-01 8.656553e-01 9.165748e-01 8.745080e-01 1.123291e+00 1.079451e+00 1.153281e+00 1.138692e+00 1.032770e+00 1.045038e+00 2.245783e-01 9.765228e-02 5.500381e-02 9.715756e-02 1.509225e-01 1.624748e-01 1.728318e-01 2.135927e-01 2.106880e-01 2.271903e-01 2.291174e-01 2.058162e-01 2.096031e-01 2.100045e-02
<GCONST> 7.987698e+01
<TRANSP> 5
 0.000000e+00 1.000000e+00 0.000000e+00 0.000000e+00 0.000000e+00
 0.000000e+00 8.077421e-01 1.922579e-01 0.000000e+00 0.000000e+00
 0.000000e+00 0.000000e+00 8.077428e-01 1.922571e-01 0.000000e+00
 0.000000e+00 0.000000e+00 0.000000e+00 9.379405e-01 6.205946e-02
 0.000000e+00 0.000000e+00 0.000000e+00 0.000000e+00 0.000000e+00
<ENDHMM>
~h "nn"
<BEGINHMM>
<NUMSTATES> 5
<STATE> 2
<MEAN> 39
 -1.515889e+01 2.082727e+00 2.569471e-01 9.077252e-01 2.318560e+00 1.091415e+00 2.985186e+00 -9.710634e-02 3.050833e+00 1.825922e-01 3.624236e+00 9.992939e-01 5.421397e+01 -9.043308e-02 -6.413043e-02 -3.665548e-02 1.204954e-02 3.115653e-02 3.235904e-02 7.802375e-02 9.576996e-02 6.060053e-02 4.489669e-02 2.309178e-03 -1.442863e-02 -5.668915e-02 5.358291e-03 2.526805e-03 1.279757e-03 -2.035252e-03 -2.068376e-03 -4.314286e-04 -3.467802e-03 -4.934698e-03 -1.730072e-03 -1.675923e-03 4.343228e-04 1.733478e-03 4.123198e-03
<VARIANCE> 39
 1.009505e+01 5.520694e+00 4.340705e+00 6.246852e+00 7.268471e+00 9.515268e+00 1.370466e+01 1.737926e+01 1.330229e+01 1.188454e+01 1.001789e+01 9.350818e+00 4.892122e+00 1.683193e-01 2.123923e-01 4.018022e-01 5.571637e-01 6.577260e-01 8.278489e-01 8.974481e-01 9.674184e-01 9.845955e-01 1.029652e+00 9.936568e-01 9.024248e-01 6.892091e-02 2.887328e-02 3.992299e-02 8.496238e-02 1.134650e-01 1.330902e-01 1.691564e-01 1.837432e-01 1.982078e-01 2.005009e-01 2.120119e-01 2.013996e-01 1.796758e-01 1.076987e-02
<GCONST> 6.202884e+01
<STATE> 3
<MEAN> 39
 -1.554792e+01 1.792917e+00 9.164715e-02 9.475833e-01 2.451867e+00 1.248496e+00 3.333792e+00 3.238063e-01 3.331967e+00 3.836654e-01 3.636875e+00 9.450599e-01 5.397837e+01 -6.585729e-02 -5.114380e-02 -3.018995e-02 3.518838e-03 2.161914e-02 2.890812e-02 6.136316e-02 7.284947e-02 5.117708e-02 3.701612e-02 4.891407e-03 -5.993047e-03 -3.864690e-02 4.430189e-03 2.697838e-03 1.431571e-03 -1.131354e-03 -1.623376e-03 -9.620528e-04 -3.270761e-03 -4.139782e-03 -1.786732e-03 -1.306456e-03 7.555733e-04 1.833195e-03 3.122660e-03
<VARIANCE> 39
 6.710192e+00 4.351008e+00 4.077356e+00 5.559179e+00 6.579837e+00 8.748668e+00 1.219228e+01 1.465444e+01 1.211961e+01 1.132053e+01 9.774227e+00 9.148344e+00 2.942492e+00 1.392134e-01 2.009485e-01 3.868181e-01 5.241745e-01 6.358533e-01 8.129242e-01 8.896055e-01 9.706455e-01 9.680715e-01 1.026704e+00 9.630396e-01 8.886412e-01 5.852434e-02 2.485286e-02 3.875605e-02 8.179636e-02 1.083455e-01 1.316692e-01 1.686607e-01 1.834984e-01 2.003328e-01 1.976447e-01 2.118137e-01 1.944220e-01 1.777520e-01 1.016672e-02
<GCONST> 5.901672e+01
<STATE> 4
<MEAN> 39
 -1.597939e+01 1.458547e+00 -6.595123e-02 1.011591e+00 2.633407e+00 1.486090e+00 3.767735e+00 8.369156e-01 3.727170e+00 6.887258e-01 3.763427e+00 9.889551e-01 5.373482e+01 -3.668137e-02 -3.152547e-02 -1.964703e-02 -2.176930e-03 1.167682e-02 2.132064e-02 3.886662e-02 4.553772e-02 3.721648e-02 2.679539e-02 9.213216e-03 6.289382e-03 -1.932196e-02 3.044051e-03 2.192125e-03 1.038072e-03 9.576150e-06 -4.977915e-04 -8.325618e-04 -2.553036e-03 -2.568136e-03 -1.216500e-03 -1.043472e-03 6.951742e-04 1.425704e-03 1.931715e-03
<VARIANCE> 39
 3.458238e+00 3.050270e+00 3.723660e+00 5.039702e+00 5.972994e+00 7.944152e+00 1.045262e+01 1.190684e+01 1.085172e+01 1.078332e+01 9.495933e+00 9.026949e+00 1.320566e+00 1.136171e-01 1.934183e-01 3.685610e-01 4.912253e-01 6.166701e-01 7.962362e-01 8.823075e-01 9.805791e-01 9.652243e-01 1.039093e+00 9.318497e-01 8.897635e-01 4.809770e-02 2.150316e-02 3.833425e-02 7.759362e-02 1.021923e-01 1.296597e-01 1.667154e-01 1.833229e-01 2.033284e-01 1.975202e-01 2.148327e-01 1.878365e-01 1.791998e-01 9.400666e-03
<GCONST> 5.525837e+01
<TRANSP> 5
 0.000000e+00 1.000000e+00 0.000000e+00 0.000000e+00 0.000000e+00
 0.000000e+00 7.964505e-01 2.035495e-01 0.000000e+00 0.000000e+00
 0.000000e+00 0.000000e+00 7.964510e-01 2.035491e-01 0.000000e+00
 0.000000e+00 0.000000e+00 0.000000e+00 9.252101e-01 7.478991e-02
 0.000000e+00 0.000000e+00 0.000000e+00 0.000000e+00 0.000000e+00
<ENDHMM>
~h "s0"
<BEGINHMM>
<NUMSTATES> 5
<STATE> 2
<MEAN> 39
 -7.989481e+00 5.738639e+00 1.722733e+00 -3.878489e+00 5.592992e-01 3.338974e+00 1.713258e+00 -3.689038e+00 3.664076e+00 -3.948459e+00 4.077922e-01 -1.452229e+00 6.458368e+01 9.375916e-03 2.052166e-02 -6.910264e-02 -4.390334e-02 -9.565629e-03 6.907307e-02 8.997119e-02 1.074869e-01 -2.741718e-02 -1.170536e-02 1.477676e-02 2.221159e-02 -1.402085e-01 -9.096717e-03 -4.746482e-03 -2.308939e-03 6.329123e-03 1.887648e-03 -4.049138e-03 2.785405e-03 6.127488e-03 -1.082773e-03 5.155091e-03 3.075510e-03 2.967153e-03 -1.368894e-02
<VARIANCE> 39
 5.563672e+01 1.672413e+01 4.089038e+01 5.571327e+01 3.294843e+01 5.370541e+01 3.693589e+01 4.334494e+01 1.764327e+01 2.346341e+01 1.620155e+01 2.863733e+01 7.764466e+01 2.242560e+00 9.406973e-01 1.714652e+00 2.175093e+00 2.544189e+00 2.246348e+00 2.209785e+00 1.877075e+00 1.926379e+00 1.711442e+00 1.365749e+00 1.899527e+00 9.795278e-01 2.609465e-01 1.649800e-01 2.264199e-01 2.895049e-01 3.572566e-01 3.148449e-01 3.921964e-01 3.412901e-01 3.708127e-01 3.482957e-01 2.682501e-01 3.265569e-01 1.071983e-01
<GCONST> 1.081916e+02
<STATE> 3
<MEAN> 39
 -8.100126e+00 5.758448e+00 1.336082e+00 -3.986346e+00 5.394425e-01 3.625580e+00 2.224952e+00 -3.033650e+00 3.506417e+00 -3.916757e+00 5.425715e-01 -1.291777e+00 6.362314e+01 -3.897064e-02 -5.266923e-03 -7.409070e-02 -5.968297e-03 3.102757e-04 4.055099e-02 9.770780e-02 1.303882e-01 -3.157027e-02 1.611189e-02 2.891049e-02 3.435134e-02 -2.011603e-01 -9.143644e-03 -4.946303e-03 -2.871417e-04 7.412557e-03 1.958325e-03 -5.730202e-03 6.762763e-04 3.293400e-03 -4.567544e-04 5.313092e-03 2.546437e-03 1.911747e-03 -1.020065e-02
<VARIANCE> 39
 5.586597e+01 1.638143e+01 3.493502e+01 5.401379e+01 3.092249e+01 5.015499e+01 3.449475e+01 3.951628e+01 1.729408e+01 2.397393e+01 1.562604e+01 2.677874e+01 7.567561e+01 2.026573e+00 8.435024e-01 1.480682e+00 2.094420e+00 2.358404e+00 2.106991e+00 1.986844e+00 1.659219e+00 1.861100e+00 1.637527e+00 1.307046e+00 1.806801e+00 7.659902e-01 2.312798e-01 1.450399e-01 1.969299e-01 2.765703e-01 3.334595e-01 2.937631e-01 3.495455e-01 3.059380e-01 3.601913e-01 3.333199e-01 2.603276e-01 3.124056e-01 8.236910e-02
<GCONST> 1.051753e+02
<STATE> 4
<MEAN> 39
 -9.396717e+00 5.194621e+00 5.965511e-01 -3.327240e+00 8.172501e-01 3.616190e+00 3.279461e+00 -1.428245e+00 3.245404e+00 -3.186991e+00 1.126284e+00 -7.597337e-01 6.071085e+01 -1.239486e-01 -5.301038e-02 -5.163240e-02 7.096756e-02 1.895263e-02 -3.008041e-02 7.521538e-02 1.236534e-01 -2.462044e-02 6.735615e-02 4.888732e-02 3.871651e-02 -2.466833e-01 -6.119596e-03 -3.589866e-03 2.210624e-03 5.584939e-03 1.748087e-03 -5.227296e-03 -2.810265e-03 -1.865881e-03 1.077145e-03 3.716013e-03 1.241279e-03 1.041407e-04 -1.233716e-03
<VARIANCE> 39
 5.430165e+01 1.598176e+01 2.146892e+01 4.599649e+01 2.427702e+01 3.821781e+01 2.593922e+01 2.918774e+01 1.552866e+01 2.508826e+01 1.500379e+01 2.120336e+01 6.557968e+01 1.399515e+00 6.161338e-01 1.027594e+00 1.680701e+00 1.782988e+00 1.672148e+00 1.527162e+00 1.295291e+00 1.616525e+00 1.446145e+00 1.178423e+00 1.498522e+00 4.258108e-01 1.549074e-01 1.031815e-01 1.455778e-01 2.266465e-01 2.649842e-01 2.431329e-01 2.692638e-01 2.466385e-01 3.178887e-01 2.964069e-01 2.406662e-01 2.639076e-01 4.427522e-02
<GCONST> 9.621078e+01
<TRANSP> 5
 0.000000e+00 1.000000e+00 0.000000e+00 0.000000e+00 0.000000e+00
 0.000000e+00 8.077512e-01 1.922487e-01 0.000000e+00 0.000000e+00
 0.000000e+00 0.000000e+00 8.077511e-01 1.922489e-01 0.000000e+00
 0.000000e+00 0.000000e+00 0.000000e+00 9.379677e-01 6.203228e-02
 0.000000e+00 0.000000e+00 0.000000e+00 0.000000e+00 0.000000e+00
<ENDHMM>
~h "uu"
<BEGINHMM>
<NUMSTATES> 5
<STATE> 2
<MEAN> 39
 -1.188378e+01 1.387266e+00 1.982609e+00 -1.882869e+00 -3.793285e-01 2.912595e+00 1.309849e-01 -2.501488e+00 4.783614e+00 -1.334237e+00 2.230446e+00 2.255777e-01 6.075061e+01 2.453781e-01 6.745987e-02 1.018816e-01 -4.728081e-02 -1.533436e-01 1.620249e-02 -1.308992e-01 -1.544333e-01 7.736457e-02 -7.799111e-02 -1.473279e-01 -1.716378e-02 2.171099e-01 9.908408e-03 7.248115e-03 1.248356e-03 2.608640e-05 -5.605482e-03 -2.640307e-03 -1.527053e-03 -8.149240e-03 2.885099e-03 -1.428796e-03 -7.264781e-03 1.834975e-03 1.593861e-03
<VARIANCE> 39
 8.046656e+01 2.098355e+01 1.785835e+01 2.850932e+01 4.542208e+01 1.803582e+01 4.085151e+01 5.066531e+01 3.745047e+01 2.669274e+01 3.566710e+01 1.873777e+01 8.278284e+01 2.338384e+00 1.223771e+00 8.896130e-01 1.539825e+00 2.622043e+00 1.193687e+00 1.697502e+00 2.371467e+00 2.722700e+00 1.712823e+00 1.824198e+00 1.307776e+00 1.046963e+00 2.876471e-01 2.071084e-01 1.493364e-01 2.529961e-01 4.530492e-01 2.260857e-01 2.883131e-01 4.128659e-01 4.182391e-01 3.193990e-01 3.192050e-01 2.444815e-01 1.128094e-01
<GCONST> 1.066193e+02
<STATE> 3
<MEAN> 39
 -1.044633e+01 1.873116e+00 2.525066e+00 -2.093019e+00 -1.253853e+00 2.942761e+00 -5.472330e-01 -3.425718e+00 5.235303e+00 -1.742570e+00 1.350580e+00 1.754410e-01 6.185529e+01 2.908217e-01 1.047074e-01 1.088856e-01 -4.138582e-02 -1.796268e-01 -4.261441e-04 -1.343422e-01 -1.904118e-01 9.081465e-02 -7.906947e-02 -1.821903e-01 -8.915334e-03 2.129611e-01 8.250160e-03 6.981445e-03 1.296257e-03 7.682756e-04 -4.926175e-03 -3.224568e-03 -7.722088e-04 -7.106890e-03 2.156648e-03 -9.095430e-05 -6.332462e-03 1.413888e-03 -8.317967e-04
<VARIANCE> 39
 9.136189e+01 2.423377e+01 2.101919e+01 3.053601e+01 5.671053e+01 2.045583e+01 4.376519e+01 5.940129e+01 4.286920e+01 2.826052e+01 4.218165e+01 1.972128e+01 8.569473e+01 2.519028e+00 1.316663e+00 1.041397e+00 1.594660e+00 3.064455e+00 1.268381e+00 1.815965e+00 2.672843e+00 2.943929e+00 1.818580e+00 2.075007e+00 1.353356e+00 1.114858e+00 3.098533e-01 2.206742e-01 1.665062e-01 2.589473e-01 5.146277e-01 2.373496e-01 3.071921e-01 4.552832e-01 4.337116e-01 3.369159e-01 3.637050e-01 2.522490e-01 1.194041e-01
<GCONST> 1.101667e+02
<STATE> 4
<MEAN> 39
 -7.133488e+00 3.288093e+00 3.425624e+00 -2.235946e+00 -2.767620e+00 2.632635e+00 -1.988979e+00 -5.516746e+00 6.145131e+00 -2.656113e+00 -6.400037e-01 3.645167e-01 6.378963e+01 2.511654e-01 1.236737e-01 6.713602e-02 -8.696803e-03 -1.296941e-01 -4.519268e-02 -1.097075e-01 -1.824674e-01 6.665327e-02 -5.676601e-02 -1.614063e-01 6.610641e-03 1.204315e-01 -5.443146e-03 1.600306e-04 -3.867225e-03 1.375795e-03 5.224196e-03 -2.815449e-03 1.831111e-03 7.089960e-04 -3.562899e-03 1.854090e-03 3.633769e-03 1.091409e-03 -7.034493e-03
<VARIANCE> 39
 9.638498e+01 2.823378e+01 2.403401e+01 3.519575e+01 7.246378e+01 2.602102e+01 4.915528e+01 7.523860e+01 5.074268e+01 2.988985e+01 4.870560e+01 2.148254e+01 8.201389e+01 2.544478e+00 1.432803e+00 1.261591e+00 1.633795e+00 3.502143e+00 1.380348e+00 2.125937e+00 3.184169e+00 3.201600e+00 1.996989e+00 2.440428e+00 1.484848e+00 1.150933e+00 3.152425e-01 2.299856e-01 1.866703e-01 2.618731e-01 5.617418e-01 2.528320e-01 3.486972e-01 5.276994e-01 4.435299e-01 3.701358e-01 4.367573e-01 2.764566e-01 1.180801e-01
<GCONST> 1.142123e+02
<TRANSP> 5
 0.000000e+00 1.000000e+00 0.000000e+00 0.000000e+00 0.000000e+00
 0.000000e+00 8.022712e-01 1.977288e-01 0.000000e+00 0.000000e+00
 0.000000e+00 0.000000e+00 8.022711e-01 1.977290e-01 0.000000e+00
 0.000000e+00 0.000000e+00 0.000000e+00 9.322130e-01 6.778700e-02
 0.000000e+00 0.000000e+00 0.000000e+00 0.000000e+00 0.000000e+00
<ENDHMM>
~h "vv"
<BEGINHMM>
<NUMSTATES> 5
<STATE> 2
<MEAN> 39
 -1.012972e+01 3.606739e+00 1.862428e+00 -2.158772e+00 3.937241e-01 1.277966e+00 9.165501e-01 -3.400090e+00 2.361763e+00 -1.960505e+00 2.162561e+00 1.392865e+00 5.989327e+01 -6.953546e-02 -9.144586e-03 2.343659e-02 4.230311e-02 3.696649e-02 -2.565802e-02 4.632243e-02 9.702922e-02 1.049851e-02 -6.446021e-03 -3.009451e-02 -4.478141e-02 -4.833788e-02 8.430689e-04 -1.226739e-03 1.065014e-03 1.188219e-03 1.004969e-03 2.022579e-03 -2.270970e-03 -2.022897e-03 4.000510e-03 -4.959552e-05 -1.493417e-03 6.207265e-07 1.665084e-03
<VARIANCE> 39
 6.738247e+01 1.605043e+01 1.733235e+01 4.492114e+01 2.869529e+01 1.802715e+01 3.370774e+01 3.854329e+01 1.985800e+01 2.682690e+01 2.121215e+01 1.512489e+01 6.398668e+01 2.189051e+00 6.501948e-01 8.448696e-01 2.289493e+00 1.811580e+00 1.395292e+00 1.886611e+00 1.577630e+00 1.357273e+00 1.569561e+00 1.591961e+00 1.248448e+00 9.325693e-01 3.215868e-01 1.035843e-01 1.528570e-01 3.858803e-01 3.106867e-01 2.555755e-01 3.260785e-01 2.882392e-01 2.736240e-01 2.960644e-01 3.293034e-01 2.427469e-01 1.161213e-01
<GCONST> 1.010277e+02
<STATE> 3
<MEAN> 39
 -1.046638e+01 3.561692e+00 2.017429e+00 -1.899307e+00 6.079230e-01 1.163295e+00 1.088019e+00 -2.957434e+00 2.463706e+00 -2.003136e+00 1.992523e+00 1.168614e+00 5.966104e+01 -7.147561e-02 -1.487597e-02 2.827730e-02 5.295063e-02 4.566699e-02 -1.568510e-02 3.483978e-02 8.757709e-02 2.862312e-02 -3.905938e-03 -3.360987e-02 -4.406147e-02 -4.835570e-02 -1.905343e-04 -8.731001e-04 7.649942e-04 1.942472e-03 1.501643e-03 1.792761e-03 -2.276442e-03 -2.080308e-03 2.905098e-03 5.066599e-04 -3.259724e-04 3.237259e-04 -1.905829e-04
<VARIANCE> 39
 6.574289e+01 1.490288e+01 1.962930e+01 4.274958e+01 2.729887e+01 1.653398e+01 3.233287e+01 3.360631e+01 1.881050e+01 2.744228e+01 2.168154e+01 1.478630e+01 6.306749e+01 2.104343e+00 6.000733e-01 8.230520e-01 2.116483e+00 1.706847e+00 1.324930e+00 1.840916e+00 1.488363e+00 1.299723e+00 1.510633e+00 1.534700e+00 1.214432e+00 8.412432e-01 3.018640e-01 9.558813e-02 1.459604e-01 3.564048e-01 2.949450e-01 2.451938e-01 3.190483e-01 2.746639e-01 2.611889e-01 2.820825e-01 3.147907e-01 2.363017e-01 1.043474e-01
<GCONST> 9.926804e+01
<STATE> 4
<MEAN> 39
 -1.106521e+01 3.470895e+00 2.557874e+00 -1.186932e+00 1.216088e+00 1.085401e+00 1.145967e+00 -2.304640e+00 2.920491e+00 -2.065107e+00 1.595943e+00 8.031495e-01 5.931258e+01 -9.625033e-02 -2.461327e-02 2.500926e-02 8.170973e-02 6.035218e-02 -3.070740e-03 1.886757e-02 7.022123e-02 4.189154e-02 1.604818e-02 -2.019294e-02 -3.864115e-02 -8.250035e-02 -1.272302e-03 -9.423660e-04 -1.477213e-03 1.070685e-03 3.015926e-04 1.215458e-03 -5.993490e-04 -1.543505e-03 3.712894e-04 1.764968e-03 1.509531e-03 9.066309e-04 -2.353493e-03
<VARIANCE> 39
 6.113719e+01 1.326330e+01 2.590141e+01 3.700705e+01 2.443483e+01 1.385125e+01 3.214254e+01 2.828125e+01 1.784999e+01 2.785815e+01 2.385873e+01 1.465096e+01 6.158125e+01 1.895040e+00 5.283583e-01 8.020484e-01 1.758828e+00 1.529160e+00 1.200706e+00 1.674293e+00 1.324526e+00 1.240275e+00 1.379690e+00 1.391254e+00 1.160898e+00 6.264904e-01 2.593157e-01 8.372340e-02 1.350731e-01 2.916590e-01 2.603814e-01 2.257841e-01 2.919500e-01 2.470183e-01 2.462536e-01 2.563719e-01 2.794452e-01 2.245356e-01 7.455686e-02
<GCONST> 9.570731e+01
<TRANSP> 5
 0.000000e+00 1.000000e+00 0.000000e+00 0.000000e+00 0.000000e+00
 0.000000e+00 8.003710e-01 1.996291e-01 0.000000e+00 0.000000e+00
 0.000000e+00 0.000000e+00 8.003711e-01 1.996290e-01 0.000000e+00
 0.000000e+00 0.000000e+00 0.000000e+00 9.300324e-01 6.996763e-02
 0.000000e+00 0.000000e+00 0.000000e+00 0.000000e+00 0.000000e+00
<ENDHMM>
~h "wa"
<BEGINHMM>
<NUMSTATES> 5
<STATE> 2
<MEAN> 39
 -7.773155e+00 -1.821237e+00 -1.255217e+00 -8.241900e+00 -2.930316e+00 3.871921e+00 -1.280934e+00 -2.674581e+00 4.803816e+00 -1.389978e+00 1.527759e+00 3.315378e+00 6.562889e+01 3.814054e-01 -8.495641e-02 -1.524644e-03 -2.713630e-01 -2.544166e-01 6.586740e-02 -2.277677e-01 -2.429890e-01 7.014622e-02 -9.292699e-02 -1.265888e-01 7.446697e-02 4.658158e-01 4.721902e-03 4.366604e-03 2.543051e-03 8.258593e-03 -2.000307e-04 -5.142528e-04 -1.183327e-03 -8.241259e-03 4.224847e-03 -7.164594e-04 -3.399822e-03 2.874606e-04 -2.212347e-04
<VARIANCE> 39
 1.108655e+02 2.634923e+01 1.664845e+01 9.155313e+01 8.008089e+01 3.628072e+01 5.939538e+01 5.679334e+01 3.033307e+01 2.648167e+01 3.981126e+01 3.097516e+01 1.154494e+02 3.482980e+00 1.926041e+00 1.399496e+00 3.407310e+00 3.764511e+00 2.166561e+00 3.492341e+00 2.117222e+00 2.476810e+00 2.551828e+00 2.239159e+00 1.577139e+00 1.902251e+00 5.100653e-01 3.414036e-01 2.732956e-01 4.738179e-01 5.426402e-01 2.783211e-01 5.074440e-01 3.882751e-01 4.670153e-01 4.605979e-01 4.030625e-01 2.950931e-01 2.937700e-01
<GCONST> 1.207549e+02
<STATE> 3
<MEAN> 39
 -5.881332e+00 -2.122254e+00 -1.206609e+00 -9.339957e+00 -4.115362e+00 4.169461e+00 -2.376764e+00 -3.994753e+00 5.215714e+00 -1.847112e+00 8.573570e-01 3.680918e+00 6.781422e+01 3.780849e-01 -5.009152e-02 1.699026e-02 -1.988306e-01 -2.299470e-01 5.540189e-02 -2.189096e-01 -2.768389e-01 8.595880e-02 -9.257675e-02 -1.343336e-01 7.149056e-02 4.275831e-01 -2.684103e-03 7.825023e-03 3.935197e-03 1.609379e-02 6.802678e-03 -2.738548e-03 2.715873e-03 -5.907476e-03 2.422462e-03 3.140919e-04 -7.277927e-04 -6.604893e-04 -1.024217e-02
<VARIANCE> 39
 1.147008e+02 2.980987e+01 1.846849e+01 8.840324e+01 8.647771e+01 4.096943e+01 6.205189e+01 6.622203e+01 3.402428e+01 2.858088e+01 4.324660e+01 3.291686e+01 1.088610e+02 3.956093e+00 2.103423e+00 1.505137e+00 3.617360e+00 4.224397e+00 2.418087e+00 3.591675e+00 2.288368e+00 2.669735e+00 2.794838e+00 2.380867e+00 1.719923e+00 1.964878e+00 5.788833e-01 3.691028e-01 2.906622e-01 4.968907e-01 5.941024e-01 3.039111e-01 5.073299e-01 4.055911e-01 5.012099e-01 4.954443e-01 4.229561e-01 3.182023e-01 2.942628e-01
<GCONST> 1.234826e+02
<STATE> 4
<MEAN> 39
 -3.065721e+00 -1.653377e+00 -6.738067e-01 -9.702991e+00 -5.098491e+00 4.313777e+00 -4.005226e+00 -6.749770e+00 5.951561e+00 -2.665360e+00 -2.375085e-01 4.407455e+00 7.041416e+01 2.142693e-01 6.358333e-02 6.847914e-02 2.037038e-02 -6.957978e-02 -8.915619e-04 -1.289556e-01 -2.477352e-01 5.155953e-02 -6.950320e-02 -6.876867e-02 3.218934e-02 1.768867e-01 -1.637534e-02 9.923542e-03 4.057562e-03 1.849199e-02 1.508714e-02 -5.260867e-03 8.942848e-03 5.008960e-03 -4.788900e-03 2.308816e-03 7.050509e-03 -3.317389e-03 -2.399434e-02
<VARIANCE> 39
 1.010287e+02 3.886243e+01 2.144340e+01 8.115257e+01 8.636256e+01 4.609460e+01 6.254881e+01 7.448934e+01 3.821551e+01 3.083295e+01 4.437398e+01 3.467656e+01 8.604982e+01 4.506704e+00 2.184371e+00 1.618251e+00 3.864100e+00 4.528821e+00 2.771967e+00 3.260437e+00 2.517850e+00 2.887489e+00 3.134055e+00 2.459182e+00 2.060883e+00 1.828029e+00 6.661732e-01 3.760135e-01 3.079816e-01 5.471224e-01 6.206656e-01 3.570946e-01 4.367742e-01 4.187464e-01 5.522831e-01 5.503417e-01 4.337836e-01 3.689646e-01 2.480064e-01
<GCONST> 1.254117e+02
<TRANSP> 5
 0.000000e+00 1.000000e+00 0.000000e+00 0.000000e+00 0.000000e+00
 0.000000e+00 7.964709e-01 2.035290e-01 0.000000e+00 0.000000e+00
 0.000000e+00 0.000000e+00 7.964712e-01 2.035289e-01 0.000000e+00
 0.000000e+00 0.000000e+00 0.000000e+00 9.252752e-01 7.472476e-02
 0.000000e+00 0.000000e+00 0.000000e+00 0.000000e+00 0.000000e+00
<ENDHMM>
~h "we"
<BEGINHMM>
<NUMSTATES> 5
<STATE> 2
<MEAN> 39
 -5.172063e+00 5.295598e+00 4.118120e+00 -4.760303e+00 -6.737693e+00 3.357191e+00 -1.085246e+00 -9.459525e+00 6.578461e+00 -1.143829e+00 -2.893871e+00 1.597804e-01 6.342865e+01 3.817023e-01 1.097386e-01 8.687162e-02 -1.711447e-01 -2.176416e-01 3.827049e-02 -2.507247e-01 -4.298323e-01 5.524156e-02 -9.926004e-02 -1.670436e-01 6.345410e-03 3.751152e-01 -7.147918e-03 -4.858288e-03 -8.966091e-03 4.300791e-03 1.691483e-02 -1.695716e-03 -2.204382e-03 2.283057e-03 -5.439056e-03 -1.106705e-03 1.170408e-02 4.597907e-03 -3.021392e-03
<VARIANCE> 39
 1.023438e+02 2.988020e+01 4.409415e+01 3.987240e+01 1.163917e+02 1.761855e+01 6.399590e+01 1.223795e+02 2.838337e+01 2.189004e+01 6.286271e+01 2.382755e+01 7.952570e+01 2.921195e+00 1.738525e+00 2.235064e+00 1.993157e+00 4.923811e+00 1.830138e+00 3.393006e+00 4.425305e+00 2.548144e+00 2.154920e+00 3.827432e+00 1.941260e+00 1.239566e+00 4.372079e-01 2.578014e-01 2.885345e-01 2.971235e-01 7.493783e-01 3.542864e-01 5.452127e-01 6.926651e-01 4.355258e-01 4.341883e-01 7.385687e-01 3.713396e-01 1.541535e-01
<GCONST> 1.220679e+02
<STATE> 3
<MEAN> 39
 -3.485375e+00 5.726695e+00 4.359386e+00 -5.504888e+00 -7.451881e+00 3.515547e+00 -2.322315e+00 -1.146112e+01 6.738671e+00 -1.642505e+00 -3.477120e+00 2.874854e-01 6.516640e+01 3.170995e-01 7.846326e-02 3.413662e-02 -1.372714e-01 -1.091570e-01 2.722549e-02 -2.464425e-01 -3.887020e-01 2.002996e-02 -9.896783e-02 -9.085673e-02 3.482537e-02 3.323305e-01 -1.506258e-02 -6.425580e-03 -1.068059e-02 7.734609e-03 2.290677e-02 -2.455266e-03 2.343765e-03 1.075006e-02 -7.770261e-03 5.778081e-04 1.634764e-02 5.898840e-03 -1.101475e-02
<VARIANCE> 39
 9.551570e+01 3.045542e+01 4.355453e+01 4.125724e+01 1.128330e+02 1.911696e+01 7.150018e+01 1.209464e+02 3.163698e+01 2.319770e+01 6.130565e+01 2.666762e+01 7.574846e+01 3.270501e+00 1.912545e+00 2.328726e+00 2.274302e+00 5.015171e+00 1.953403e+00 3.823426e+00 4.696791e+00 2.782556e+00 2.386872e+00 3.954911e+00 2.129392e+00 1.324759e+00 4.944760e-01 2.798621e-01 3.001962e-01 3.369239e-01 7.561871e-01 3.740939e-01 5.960125e-01 7.282911e-01 4.671950e-01 4.838873e-01 7.739885e-01 4.055611e-01 1.611399e-01
<GCONST> 1.243518e+02
<STATE> 4
<MEAN> 39
 -1.826665e+00 6.066605e+00 3.991778e+00 -6.249023e+00 -6.697447e+00 3.747050e+00 -4.121705e+00 -1.386723e+01 6.233644e+00 -2.513095e+00 -3.107786e+00 1.179700e+00 6.722007e+01 1.019111e-01 2.535164e-02 -4.237017e-02 -3.560198e-02 1.104694e-01 2.009490e-03 -1.459901e-01 -1.806892e-01 -6.832037e-02 -6.569409e-02 7.874673e-02 8.016883e-02 1.313909e-01 -2.066748e-02 -4.133342e-03 -5.602800e-03 1.023182e-02 1.806912e-02 -2.951145e-03 1.102700e-02 2.139362e-02 -8.282340e-03 3.743122e-03 1.463611e-02 2.985755e-03 -2.090233e-02
<VARIANCE> 39
 7.877913e+01 2.920097e+01 3.714297e+01 4.495256e+01 1.006004e+02 2.189045e+01 7.704550e+01 1.066581e+02 3.772594e+01 2.341467e+01 5.626153e+01 3.052019e+01 6.291515e+01 3.953365e+00 2.082401e+00 2.237772e+00 2.856252e+00 4.703638e+00 2.078353e+00 4.247814e+00 4.622208e+00 2.998138e+00 2.658990e+00 3.682124e+00 2.375104e+00 1.383365e+00 6.162865e-01 3.065425e-01 3.001597e-01 4.227364e-01 7.059435e-01 3.882726e-01 6.291977e-01 7.027798e-01 5.020797e-01 5.502144e-01 7.521174e-01 4.488897e-01 1.603128e-01
<GCONST> 1.256688e+02
<TRANSP> 5
 0.000000e+00 1.000000e+00 0.000000e+00 0.000000e+00 0.000000e+00
 0.000000e+00 7.964709e-01 2.035290e-01 0.000000e+00 0.000000e+00
 0.000000e+00 0.000000e+00 7.964712e-01 2.035289e-01 0.000000e+00
 0.000000e+00 0.000000e+00 0.000000e+00 9.252752e-01 7.472476e-02
 0.000000e+00 0.000000e+00 0.000000e+00 0.000000e+00 0.000000e+00
<ENDHMM>
~h "sil"
<BEGINHMM>
<NUMSTATES> 5
<STATE> 2
<MEAN> 39
 -1.617401e+01 1.451470e+00 -3.491849e-01 8.619241e-01 3.077568e+00 1.766264e+00 4.333100e+00 1.119437e+00 4.233393e+00 1.100173e+00 4.035966e+00 1.042889e+00 5.388881e+01 -1.250483e-02 -5.310327e-03 7.544406e-03 1.480175e-02 -4.594663e-02 -5.064834e-04 1.952199e-04 1.810437e-02 -2.747701e-02 3.024102e-03 -1.480733e-02 6.503288e-02 -2.250294e-02 8.391438e-03 -3.751009e-03 3.969503e-03 -1.402717e-03 -3.157359e-03 4.509516e-03 -1.082438e-02 1.548970e-02 2.166397e-02 2.122684e-02 1.857902e-02 -1.898873e-02 -8.740981e-03
<VARIANCE> 39
 1.832490e+00 2.253676e+00 4.184712e+00 5.461681e+00 6.311559e+00 7.888381e+00 8.926256e+00 1.054924e+01 1.010432e+01 1.018484e+01 9.611878e+00 8.662737e+00 2.944870e+00 1.533760e-01 2.167074e-01 4.407713e-01 5.598955e-01 6.974840e-01 8.453525e-01 9.293858e-01 1.094396e+00 9.992207e-01 1.054793e+00 9.631390e-01 9.270081e-01 3.703717e-01 2.612448e-02 4.140208e-02 8.131445e-02 1.000168e-01 1.229426e-01 1.648833e-01 1.737499e-01 2.070749e-01 1.931460e-01 2.020889e-01 1.863137e-01 1.744715e-01 7.486814e-02
<GCONST> 6.031856e+01
<STATE> 3
<MEAN> 39
 -1.616766e+01 1.388464e+00 -2.961887e-01 9.197752e-01 2.937266e+00 1.818463e+00 4.306922e+00 1.285972e+00 4.227426e+00 1.182413e+00 4.081582e+00 1.149353e+00 5.376494e+01 5.253229e-03 -1.068821e-02 1.128738e-02 1.256425e-02 -2.215808e-02 1.152278e-02 -8.207419e-03 3.034946e-02 1.406515e-03 1.422390e-02 9.470207e-03 1.085694e-02 -2.137686e-02 2.221250e-03 7.409648e-05 7.740975e-04 -8.459219e-04 3.563821e-03 -4.237395e-05 -2.417162e-04 -1.175613e-03 8.941215e-04 -2.079614e-03 1.107856e-03 -8.701832e-03 1.102141e-03
<VARIANCE> 39
 1.535535e+00 2.148850e+00 3.854040e+00 5.236203e+00 5.800213e+00 7.442823e+00 8.628535e+00 1.001179e+01 1.005903e+01 9.744668e+00 9.583389e+00 8.655723e+00 1.444246e+00 1.323084e-01 2.015084e-01 4.158847e-01 5.325794e-01 6.178740e-01 7.760236e-01 9.104077e-01 1.056683e+00 1.013895e+00 9.798577e-01 9.340549e-01 9.137571e-01 1.586152e-01 2.732266e-02 4.195950e-02 8.576810e-02 1.082941e-01 1.288583e-01 1.629060e-01 1.891859e-01 2.184757e-01 2.101524e-01 2.046357e-01 1.954843e-01 1.881941e-01 3.780529e-02
<GCONST> 5.733470e+01
<STATE> 4
<MEAN> 39
 -1.589753e+01 1.293421e+00 -1.391251e-01 7.608714e-01 2.835898e+00 1.953083e+00 4.098701e+00 1.188614e+00 4.222369e+00 1.091086e+00 4.099282e+00 1.253801e+00 5.421390e+01 2.675313e-02 9.498216e-05 9.268334e-03 -2.717256e-02 -2.819981e-02 -3.403787e-03 -2.013644e-02 -2.021841e-02 -1.191081e-02 -2.284402e-02 -1.840891e-02 -6.670367e-03 4.259468e-02 1.648055e-03 1.666474e-03 -4.096528e-04 -6.117040e-03 -5.485790e-03 -4.905830e-03 3.282667e-03 -1.581090e-03 -4.000480e-03 -5.898554e-03 -3.741400e-03 -1.643868e-03 4.310573e-03
<VARIANCE> 39
 7.512112e+00 3.538999e+00 5.507054e+00 1.036325e+01 9.756028e+00 8.128808e+00 1.142261e+01 1.284738e+01 1.092817e+01 1.103442e+01 1.183692e+01 9.813699e+00 1.046246e+01 3.260398e-01 2.803075e-01 4.820794e-01 7.200672e-01 7.819574e-01 8.248603e-01 1.086698e+00 1.145015e+00 1.127229e+00 1.069955e+00 1.088084e+00 9.690247e-01 2.424940e-01 5.324738e-02 5.402901e-02 9.494190e-02 1.368975e-01 1.527876e-01 1.660299e-01 2.163393e-01 2.239090e-01 2.250990e-01 2.137489e-01 2.200744e-01 1.963155e-01 3.569118e-02
<GCONST> 6.900740e+01
<TRANSP> 5
 0.000000e+00 1.000000e+00 0.000000e+00 0.000000e+00 0.000000e+00
 0.000000e+00 8.084151e-01 1.915849e-01 0.000000e+00 0.000000e+00
 0.000000e+00 0.000000e+00 8.084161e-01 1.915839e-01 0.000000e+00
 0.000000e+00 0.000000e+00 0.000000e+00 9.463456e-01 5.365442e-02
 0.000000e+00 0.000000e+00 0.000000e+00 0.000000e+00 0.000000e+00
<ENDHMM>
